network "C:\Users\sorcar\github\Cardiac\db\memory\recognition\RecogniserBN.bif" {
// written by aGrUM 0.14.1
}

variable I {
   type discrete[4] {0, 1026295355, 1031137228, 1020814482};
}

variable F {
   type discrete[4] {0, 1026295355, 1031137228, 1020814482};
}

variable G {
   type discrete[2] {Female, Male};
}

variable A {
   type discrete[76] {0, 1, 2, 3, 4, 5, 6, 7, 8, 9, 10, 11, 12, 13, 14, 15, 16, 17, 18, 19, 20, 21, 22, 23, 24, 25, 26, 27, 28, 29, 30, 31, 32, 33, 34, 35, 36, 37, 38, 39, 40, 41, 42, 43, 44, 45, 46, 47, 48, 49, 50, 51, 52, 53, 54, 55, 56, 57, 58, 59, 60, 61, 62, 63, 64, 65, 66, 67, 68, 69, 70, 71, 72, 73, 74, 75};
}

variable H {
   type discrete[191] {50, 51, 52, 53, 54, 55, 56, 57, 58, 59, 60, 61, 62, 63, 64, 65, 66, 67, 68, 69, 70, 71, 72, 73, 74, 75, 76, 77, 78, 79, 80, 81, 82, 83, 84, 85, 86, 87, 88, 89, 90, 91, 92, 93, 94, 95, 96, 97, 98, 99, 100, 101, 102, 103, 104, 105, 106, 107, 108, 109, 110, 111, 112, 113, 114, 115, 116, 117, 118, 119, 120, 121, 122, 123, 124, 125, 126, 127, 128, 129, 130, 131, 132, 133, 134, 135, 136, 137, 138, 139, 140, 141, 142, 143, 144, 145, 146, 147, 148, 149, 150, 151, 152, 153, 154, 155, 156, 157, 158, 159, 160, 161, 162, 163, 164, 165, 166, 167, 168, 169, 170, 171, 172, 173, 174, 175, 176, 177, 178, 179, 180, 181, 182, 183, 184, 185, 186, 187, 188, 189, 190, 191, 192, 193, 194, 195, 196, 197, 198, 199, 200, 201, 202, 203, 204, 205, 206, 207, 208, 209, 210, 211, 212, 213, 214, 215, 216, 217, 218, 219, 220, 221, 222, 223, 224, 225, 226, 227, 228, 229, 230, 231, 232, 233, 234, 235, 236, 237, 238, 239, 240};
}

variable T {
   type discrete[336] {0, 1, 2, 3, 4, 5, 6, 7, 8, 9, 10, 11, 12, 13, 14, 15, 16, 17, 18, 19, 20, 21, 22, 23, 24, 25, 26, 27, 28, 29, 30, 31, 32, 33, 34, 35, 36, 37, 38, 39, 40, 41, 42, 43, 44, 45, 46, 47, 48, 49, 50, 51, 52, 53, 54, 55, 56, 57, 58, 59, 60, 61, 62, 63, 64, 65, 66, 67, 68, 69, 70, 71, 72, 73, 74, 75, 76, 77, 78, 79, 80, 81, 82, 83, 84, 85, 86, 87, 88, 89, 90, 91, 92, 93, 94, 95, 96, 97, 98, 99, 100, 101, 102, 103, 104, 105, 106, 107, 108, 109, 110, 111, 112, 113, 114, 115, 116, 117, 118, 119, 120, 121, 122, 123, 124, 125, 126, 127, 128, 129, 130, 131, 132, 133, 134, 135, 136, 137, 138, 139, 140, 141, 142, 143, 144, 145, 146, 147, 148, 149, 150, 151, 152, 153, 154, 155, 156, 157, 158, 159, 160, 161, 162, 163, 164, 165, 166, 167, 168, 169, 170, 171, 172, 173, 174, 175, 176, 177, 178, 179, 180, 181, 182, 183, 184, 185, 186, 187, 188, 189, 190, 191, 192, 193, 194, 195, 196, 197, 198, 199, 200, 201, 202, 203, 204, 205, 206, 207, 208, 209, 210, 211, 212, 213, 214, 215, 216, 217, 218, 219, 220, 221, 222, 223, 224, 225, 226, 227, 228, 229, 230, 231, 232, 233, 234, 235, 236, 237, 238, 239, 240, 241, 242, 243, 244, 245, 246, 247, 248, 249, 250, 251, 252, 253, 254, 255, 256, 257, 258, 259, 260, 261, 262, 263, 264, 265, 266, 267, 268, 269, 270, 271, 272, 273, 274, 275, 276, 277, 278, 279, 280, 281, 282, 283, 284, 285, 286, 287, 288, 289, 290, 291, 292, 293, 294, 295, 296, 297, 298, 299, 300, 301, 302, 303, 304, 305, 306, 307, 308, 309, 310, 311, 312, 313, 314, 315, 316, 317, 318, 319, 320, 321, 322, 323, 324, 325, 326, 327, 328, 329, 330, 331, 332, 333, 334, 335};
}

probability (I) {
   default 0.25 0.25 0.25 0.25;
}
probability (F | I) {
   (0) 0.914421 0.0550826 0.0195072 0.010989;
   (1026295355) 0.0249014 0.97183 0.00198815 0.00128041;
   (1031137228) 0.0486218 0.0232478 0.919866 0.00826446;
   (1020814482) 0.0238898 0.0208199 0.0177321 0.937558;
}
probability (G | I) {
   (0) 0.5 0.5;
   (1026295355) 0.272023 0.727977;
   (1031137228) 0.0344548 0.965545;
   (1020814482) 0.0321224 0.967878;
}
probability (A | I) {
   (0) 0.0131579 0.0131579 0.0131579 0.0131579 0.0131579 0.0131579 0.0131579 0.0131579 0.0131579 0.0131579 0.0131579 0.0131579 0.0131579 0.0131579 0.0131579 0.0131579 0.0131579 0.0131579 0.0131579 0.0131579 0.0131579 0.0131579 0.0131579 0.0131579 0.0131579 0.0131579 0.0131579 0.0131579 0.0131579 0.0131579 0.0131579 0.0131579 0.0131579 0.0131579 0.0131579 0.0131579 0.0131579 0.0131579 0.0131579 0.0131579 0.0131579 0.0131579 0.0131579 0.0131579 0.0131579 0.0131579 0.0131579 0.0131579 0.0131579 0.0131579 0.0131579 0.0131579 0.0131579 0.0131579 0.0131579 0.0131579 0.0131579 0.0131579 0.0131579 0.0131579 0.0131579 0.0131579 0.0131579 0.0131579 0.0131579 0.0131579 0.0131579 0.0131579 0.0131579 0.0131579 0.0131579 0.0131579 0.0131579 0.0131579 0.0131579 0.0131579;
   (1026295355) 5.99055e-41 5.99055e-41 5.99055e-41 5.99055e-41 5.99055e-41 5.99055e-41 5.99055e-41 5.99055e-41 5.99055e-41 5.99055e-41 5.99055e-41 5.99055e-41 5.99055e-41 5.99055e-41 5.99055e-41 5.99055e-41 5.99055e-41 5.99055e-41 5.99055e-41 5.99055e-41 1.98419e-28 4.84223e-13 0.000829322 0.998329 0.000841358 4.99348e-13 2.06536e-28 6.2128e-41 6.50104e-41 6.25708e-41 6.20425e-41 6.09257e-41 6.0424e-41 6.05291e-41 6.08458e-41 6.09186e-41 6.06608e-41 6.03217e-41 6.01045e-41 5.9998e-41 5.99447e-41 5.99195e-41 5.99097e-41 5.99069e-41 5.99055e-41 5.99055e-41 5.99055e-41 5.99055e-41 5.99055e-41 5.99055e-41 5.99055e-41 5.99055e-41 5.99055e-41 5.99055e-41 5.99055e-41 5.99055e-41 5.99055e-41 5.99055e-41 5.99055e-41 5.99055e-41 5.99055e-41 5.99055e-41 5.99055e-41 5.99055e-41 5.99055e-41 5.99055e-41 5.99055e-41 5.99055e-41 5.99055e-41 5.99055e-41 5.99055e-41 5.99055e-41 5.99055e-41 5.99055e-41 5.99055e-41 5.99055e-41;
   (1031137228) 6.05599e-41 6.05599e-41 6.05599e-41 6.05599e-41 6.05599e-41 6.05599e-41 6.05599e-41 6.05599e-41 6.05599e-41 6.05599e-41 6.05599e-41 6.05599e-41 6.05599e-41 6.05599e-41 6.05599e-41 6.05599e-41 6.05599e-41 6.05599e-41 6.05599e-41 6.05599e-41 6.05599e-41 6.05599e-41 6.05599e-41 6.05599e-41 2.0058e-28 4.89208e-13 0.00083526 0.998329 0.000835326 4.89303e-13 2.00658e-28 6.06034e-41 6.0637e-41 6.0686e-41 6.07575e-41 6.08528e-41 6.09733e-41 6.11134e-41 6.1262e-41 6.14035e-41 6.15226e-41 6.16025e-41 6.16305e-41 6.16025e-41 6.15226e-41 6.14035e-41 6.1262e-41 6.11134e-41 6.09733e-41 6.08528e-41 6.07575e-41 6.0686e-41 6.0637e-41 6.06034e-41 6.05837e-41 6.05725e-41 6.05669e-41 6.05627e-41 6.05613e-41 6.05613e-41 6.05599e-41 6.05599e-41 6.05599e-41 6.05599e-41 6.05599e-41 6.05599e-41 6.05599e-41 6.05599e-41 6.05599e-41 6.05599e-41 6.05599e-41 6.05599e-41 6.05599e-41 6.05599e-41 6.05599e-41 6.05599e-41;
   (1020814482) 6.05631e-41 6.05631e-41 6.05631e-41 6.05631e-41 6.05631e-41 6.05631e-41 6.05631e-41 6.05631e-41 6.05631e-41 6.05631e-41 6.05631e-41 6.05631e-41 6.05631e-41 6.05631e-41 6.05631e-41 6.05634e-41 6.06073e-41 6.14424e-41 6.29417e-41 6.14424e-41 2.00735e-28 4.89229e-13 0.000835282 0.998329 0.000835282 4.89227e-13 2.00588e-28 6.05631e-41 6.05631e-41 6.05631e-41 6.05631e-41 6.05631e-41 6.05631e-41 6.05631e-41 6.05631e-41 6.05631e-41 6.05631e-41 6.05631e-41 6.05631e-41 6.05631e-41 6.05631e-41 6.05631e-41 6.05631e-41 6.05631e-41 6.05631e-41 6.05631e-41 6.05631e-41 6.05631e-41 6.05631e-41 6.05631e-41 6.05631e-41 6.05631e-41 6.05631e-41 6.05631e-41 6.05631e-41 6.05631e-41 6.05631e-41 6.05631e-41 6.05631e-41 6.05631e-41 6.05631e-41 6.05631e-41 6.05631e-41 6.05631e-41 6.05631e-41 6.05631e-41 6.05631e-41 6.05631e-41 6.05631e-41 6.05631e-41 6.05631e-41 6.05631e-41 6.05631e-41 6.05631e-41 6.05631e-41 6.05631e-41;
}
probability (H | I) {
   (0) 0.0052356 0.0052356 0.0052356 0.0052356 0.0052356 0.0052356 0.0052356 0.0052356 0.0052356 0.0052356 0.0052356 0.0052356 0.0052356 0.0052356 0.0052356 0.0052356 0.0052356 0.0052356 0.0052356 0.0052356 0.0052356 0.0052356 0.0052356 0.0052356 0.0052356 0.0052356 0.0052356 0.0052356 0.0052356 0.0052356 0.0052356 0.0052356 0.0052356 0.0052356 0.0052356 0.0052356 0.0052356 0.0052356 0.0052356 0.0052356 0.0052356 0.0052356 0.0052356 0.0052356 0.0052356 0.0052356 0.0052356 0.0052356 0.0052356 0.0052356 0.0052356 0.0052356 0.0052356 0.0052356 0.0052356 0.0052356 0.0052356 0.0052356 0.0052356 0.0052356 0.0052356 0.0052356 0.0052356 0.0052356 0.0052356 0.0052356 0.0052356 0.0052356 0.0052356 0.0052356 0.0052356 0.0052356 0.0052356 0.0052356 0.0052356 0.0052356 0.0052356 0.0052356 0.0052356 0.0052356 0.0052356 0.0052356 0.0052356 0.0052356 0.0052356 0.0052356 0.0052356 0.0052356 0.0052356 0.0052356 0.0052356 0.0052356 0.0052356 0.0052356 0.0052356 0.0052356 0.0052356 0.0052356 0.0052356 0.0052356 0.0052356 0.0052356 0.0052356 0.0052356 0.0052356 0.0052356 0.0052356 0.0052356 0.0052356 0.0052356 0.0052356 0.0052356 0.0052356 0.0052356 0.0052356 0.0052356 0.0052356 0.0052356 0.0052356 0.0052356 0.0052356 0.0052356 0.0052356 0.0052356 0.0052356 0.0052356 0.0052356 0.0052356 0.0052356 0.0052356 0.0052356 0.0052356 0.0052356 0.0052356 0.0052356 0.0052356 0.0052356 0.0052356 0.0052356 0.0052356 0.0052356 0.0052356 0.0052356 0.0052356 0.0052356 0.0052356 0.0052356 0.0052356 0.0052356 0.0052356 0.0052356 0.0052356 0.0052356 0.0052356 0.0052356 0.0052356 0.0052356 0.0052356 0.0052356 0.0052356 0.0052356 0.0052356 0.0052356 0.0052356 0.0052356 0.0052356 0.0052356 0.0052356 0.0052356 0.0052356 0.0052356 0.0052356 0.0052356 0.0052356 0.0052356 0.0052356 0.0052356 0.0052356 0.0052356 0.0052356 0.0052356 0.0052356 0.0052356 0.0052356 0.0052356 0.0052356 0.0052356 0.0052356 0.0052356 0.0052356 0.0052356;
   (1026295355) 3.85538e-16 3.85538e-16 4.13945e-16 6.76901e-16 1.10221e-15 1.78711e-15 2.88532e-15 4.63856e-15 7.4255e-15 1.18362e-14 1.87869e-14 2.96927e-14 4.67308e-14 7.32333e-14 1.14275e-13 1.77569e-13 2.74741e-13 4.23291e-13 6.49409e-13 9.92086e-13 1.50918e-12 2.28618e-12 3.44858e-12 5.18025e-12 7.74876e-12 1.15427e-11 1.71234e-11 2.52971e-11 3.72201e-11 5.45422e-11 7.96072e-11 1.15734e-10 1.67603e-10 2.41801e-10 3.47564e-10 4.97799e-10 7.10502e-10 1.01075e-09 1.43338e-09 2.02671e-09 2.85782e-09 4.01957e-09 5.64083e-09 7.89996e-09 1.10454e-08 1.5421e-08 2.15059e-08 2.99675e-08 4.17363e-08 5.8112e-08 8.09119e-08 1.12681e-07 1.56978e-07 2.18791e-07 3.0511e-07 4.25698e-07 5.94191e-07 8.29606e-07 1.15836e-06 1.6171e-06 2.25638e-06 3.14563e-06 4.37993e-06 6.08867e-06 8.44711e-06 1.16908e-05 1.61351e-05 2.21986e-05 3.04349e-05 4.1569e-05 5.6547e-05 7.65906e-05 0.000103271 0.000138594 0.000185091 0.000245954 0.000325153 0.000427598 0.000559305 0.000727577 0.000941152 0.0012104 0.00154752 0.00196642 0.00248297 0.00311464 0.00388038 0.00479995 0.00589298 0.00717837 0.00867177 0.0103854 0.0123241 0.0144851 0.0168549 0.0194065 0.0221007 0.0248837 0.0276893 0.0304392 0.0330489 0.035431 0.0375 0.0391799 0.0404086 0.041142 0.0413591 0.0410603 0.0402705 0.0390325 0.0374065 0.0354636 0.0332796 0.0309327 0.0284962 0.0260366 0.0236114 0.0212666 0.0190377 0.0169492 0.0150174 0.0132492 0.0116457 0.0102032 0.00891448 0.00776968 0.00675758 0.00586646 0.00508473 0.00440095 0.00380429 0.00328486 0.0028334 0.00244172 0.00210233 0.00180862 0.00155473 0.00133545 0.00114623 0.000983087 0.00084249 0.000721442 0.000617249 0.000527633 0.00045059 0.000384395 0.000327552 0.00027877 0.000236931 0.000201078 0.000170381 0.000144124 0.000121691 0.000102548 8.62338e-05 7.23555e-05 6.05664e-05 5.0574e-05 4.21191e-05 3.49823e-05 2.89723e-05 2.3924e-05 1.96944e-05 1.61613e-05 1.32189e-05 1.07756e-05 8.75369e-06 7.08617e-06 5.71548e-06 4.59291e-06 3.67708e-06 2.93266e-06 2.32991e-06 1.84382e-06 1.45335e-06 1.14102e-06 8.92191e-07 6.94792e-07 5.38858e-07 4.16207e-07 3.20138e-07 2.45227e-07 1.87057e-07 1.42093e-07 1.07481e-07 8.09608e-08 6.07281e-08 4.53588e-08 3.37362e-08 2.49855e-08 1.84263e-08;
   (1031137228) 2.19275e-15 2.19275e-15 2.19275e-15 2.19275e-15 2.35432e-15 3.84993e-15 6.26886e-15 1.01643e-14 1.64104e-14 2.63821e-14 4.22332e-14 6.73208e-14 1.06855e-13 1.68889e-13 2.65801e-13 4.16552e-13 6.50034e-13 1.0101e-12 1.56298e-12 2.40828e-12 3.69511e-12 5.64574e-12 8.59001e-12 1.30153e-11 1.96385e-11 2.95103e-11 4.4163e-11 6.58236e-11 9.77156e-11 1.44489e-10 2.12822e-10 3.12284e-10 4.56537e-10 6.65031e-10 9.65392e-10 1.39678e-09 2.01458e-09 2.89708e-09 4.15473e-09 5.94338e-09 8.48282e-09 1.2083e-08 1.71815e-08 2.43961e-08 3.45996e-08 4.90267e-08 6.94244e-08 9.82675e-08 1.39061e-07 1.96771e-07 2.78429e-07 3.9398e-07 5.57478e-07 7.88731e-07 1.1156e-06 1.57714e-06 2.22788e-06 3.14364e-06 4.4293e-06 6.22909e-06 8.74014e-06 1.223e-05 1.70586e-05 2.37071e-05 3.28117e-05 4.52062e-05 6.19713e-05 8.44922e-05 0.000114524 0.000154258 0.000206399 0.000274231 0.000361682 0.000473369 0.000614616 0.000791453 0.00101054 0.00127909 0.00160467 0.00199492 0.00245737 0.00299895 0.00362563 0.00434201 0.00515082 0.00605257 0.00704516 0.00812361 0.00928002 0.0105035 0.0117802 0.0130942 0.014427 0.0157593 0.0170708 0.0183409 0.0195502 0.0206804 0.0217153 0.0226409 0.0234466 0.0241242 0.0246691 0.0250796 0.0253571 0.0255056 0.0255314 0.025443 0.0252502 0.0249641 0.0245963 0.0241587 0.0236631 0.0231205 0.0225413 0.0219346 0.0213082 0.0206684 0.0200203 0.0193672 0.0187111 0.0180531 0.0173931 0.0167302 0.0160631 0.0153907 0.0147115 0.0140247 0.01333 0.0126276 0.011919 0.0112059 0.0104914 0.00977891 0.00907234 0.00837628 0.0076951 0.00703344 0.00639553 0.00578527 0.00520604 0.00466053 0.00415079 0.00367814 0.00324315 0.00284579 0.00248537 0.00216072 0.00187023 0.00161195 0.0013837 0.00118316 0.0010079 0.000855532 0.000723717 0.000610193 0.000512841 0.00042969 0.000358938 0.00029895 0.000248262 0.000205569 0.000169723 0.000139717 0.000114674 9.38357e-05 7.65481e-05 6.22478e-05 5.04562e-05 4.07631e-05 3.28206e-05 2.63341e-05 2.10546e-05 1.67726e-05 1.33122e-05 1.0526e-05 8.2911e-06 6.50546e-06 5.08428e-06 3.95783e-06 3.06857e-06 2.36947e-06 1.82218e-06 1.39554e-06 1.06438e-06 8.08433e-07 6.11467e-07 4.6056e-07 3.4544e-07 2.58005e-07 1.91888e-07;
   (1020814482) 4.38554e-15 4.38554e-15 4.38554e-15 4.38554e-15 4.38554e-15 4.38554e-15 4.38554e-15 4.38554e-15 4.38554e-15 4.38554e-15 4.70867e-15 7.69987e-15 1.25378e-14 2.03286e-14 3.28205e-14 5.27635e-14 8.44643e-14 1.34637e-13 2.137e-13 3.3775e-13 5.31543e-13 8.32975e-13 1.2998e-12 2.01963e-12 3.12476e-12 4.81407e-12 7.38516e-12 1.12813e-11 1.71596e-11 2.599e-11 3.91973e-11 5.88651e-11 8.80257e-11 1.31073e-10 1.94342e-10 2.86926e-10 4.21818e-10 6.17492e-10 9.00094e-10 1.30646e-09 1.88823e-09 2.71747e-09 3.89427e-09 5.55697e-09 7.8959e-09 1.11716e-08 1.57393e-08 2.20803e-08 3.08444e-08 4.29045e-08 5.94269e-08 8.19632e-08 1.12567e-07 1.53943e-07 2.09638e-07 2.84278e-07 3.83867e-07 5.16163e-07 6.91142e-07 9.21565e-07 1.22369e-06 1.61811e-06 2.13082e-06 2.79448e-06 3.64989e-06 4.74788e-06 6.15147e-06 7.93845e-06 1.02046e-05 1.30671e-05 1.66694e-05 2.1186e-05 2.68287e-05 3.38541e-05 4.25721e-05 5.33561e-05 6.6655e-05 8.30075e-05 0.000103059 0.000127579 0.000157486 0.000193873 0.000238031 0.000291489 0.000356041 0.000433789 0.000527178 0.000639032 0.000772594 0.000931553 0.00112006 0.00134276 0.00160473 0.00191153 0.00226904 0.00268347 0.00316118 0.00370849 0.00433153 0.00503596 0.00582668 0.00670753 0.00768096 0.00874765 0.00990626 0.0111531 0.0124817 0.013883 0.0153451 0.0168529 0.0183889 0.0199331 0.0214633 0.0229559 0.0243863 0.0257298 0.0269622 0.0280606 0.0290044 0.0297757 0.0303602 0.0307475 0.0309315 0.0309106 0.0306878 0.0302704 0.0296696 0.0289002 0.0279799 0.0269287 0.0257679 0.0245198 0.0232067 0.0218502 0.020471 0.019088 0.0177181 0.0163761 0.0150744 0.0138232 0.01263 0.0115006 0.0104386 0.00944584 0.00852287 0.00766885 0.00688205 0.00615999 0.00549966 0.00489771 0.00435058 0.00385465 0.00340631 0.00300202 0.00263838 0.00231214 0.00202023 0.00175975 0.00152799 0.00132239 0.00114058 0.000980342 0.000839605 0.000716442 0.000609061 0.000515804 0.000435136 0.000365642 0.000306026 0.000255101 0.000211787 0.000175109 0.000144187 0.000118234 9.65488e-05 7.85119e-05 6.3577e-05 5.12668e-05 4.11662e-05 3.29161e-05 2.62082e-05 2.07791e-05 1.64048e-05 1.28966e-05 1.00956e-05 7.86938e-06 6.10807e-06 4.72085e-06 3.63319e-06 2.78425e-06 2.12462e-06;
}
probability (T | I) {
   (0) 0.00297619 0.00297619 0.00297619 0.00297619 0.00297619 0.00297619 0.00297619 0.00297619 0.00297619 0.00297619 0.00297619 0.00297619 0.00297619 0.00297619 0.00297619 0.00297619 0.00297619 0.00297619 0.00297619 0.00297619 0.00297619 0.00297619 0.00297619 0.00297619 0.00297619 0.00297619 0.00297619 0.00297619 0.00297619 0.00297619 0.00297619 0.00297619 0.00297619 0.00297619 0.00297619 0.00297619 0.00297619 0.00297619 0.00297619 0.00297619 0.00297619 0.00297619 0.00297619 0.00297619 0.00297619 0.00297619 0.00297619 0.00297619 0.00297619 0.00297619 0.00297619 0.00297619 0.00297619 0.00297619 0.00297619 0.00297619 0.00297619 0.00297619 0.00297619 0.00297619 0.00297619 0.00297619 0.00297619 0.00297619 0.00297619 0.00297619 0.00297619 0.00297619 0.00297619 0.00297619 0.00297619 0.00297619 0.00297619 0.00297619 0.00297619 0.00297619 0.00297619 0.00297619 0.00297619 0.00297619 0.00297619 0.00297619 0.00297619 0.00297619 0.00297619 0.00297619 0.00297619 0.00297619 0.00297619 0.00297619 0.00297619 0.00297619 0.00297619 0.00297619 0.00297619 0.00297619 0.00297619 0.00297619 0.00297619 0.00297619 0.00297619 0.00297619 0.00297619 0.00297619 0.00297619 0.00297619 0.00297619 0.00297619 0.00297619 0.00297619 0.00297619 0.00297619 0.00297619 0.00297619 0.00297619 0.00297619 0.00297619 0.00297619 0.00297619 0.00297619 0.00297619 0.00297619 0.00297619 0.00297619 0.00297619 0.00297619 0.00297619 0.00297619 0.00297619 0.00297619 0.00297619 0.00297619 0.00297619 0.00297619 0.00297619 0.00297619 0.00297619 0.00297619 0.00297619 0.00297619 0.00297619 0.00297619 0.00297619 0.00297619 0.00297619 0.00297619 0.00297619 0.00297619 0.00297619 0.00297619 0.00297619 0.00297619 0.00297619 0.00297619 0.00297619 0.00297619 0.00297619 0.00297619 0.00297619 0.00297619 0.00297619 0.00297619 0.00297619 0.00297619 0.00297619 0.00297619 0.00297619 0.00297619 0.00297619 0.00297619 0.00297619 0.00297619 0.00297619 0.00297619 0.00297619 0.00297619 0.00297619 0.00297619 0.00297619 0.00297619 0.00297619 0.00297619 0.00297619 0.00297619 0.00297619 0.00297619 0.00297619 0.00297619 0.00297619 0.00297619 0.00297619 0.00297619 0.00297619 0.00297619 0.00297619 0.00297619 0.00297619 0.00297619 0.00297619 0.00297619 0.00297619 0.00297619 0.00297619 0.00297619 0.00297619 0.00297619 0.00297619 0.00297619 0.00297619 0.00297619 0.00297619 0.00297619 0.00297619 0.00297619 0.00297619 0.00297619 0.00297619 0.00297619 0.00297619 0.00297619 0.00297619 0.00297619 0.00297619 0.00297619 0.00297619 0.00297619 0.00297619 0.00297619 0.00297619 0.00297619 0.00297619 0.00297619 0.00297619 0.00297619 0.00297619 0.00297619 0.00297619 0.00297619 0.00297619 0.00297619 0.00297619 0.00297619 0.00297619 0.00297619 0.00297619 0.00297619 0.00297619 0.00297619 0.00297619 0.00297619 0.00297619 0.00297619 0.00297619 0.00297619 0.00297619 0.00297619 0.00297619 0.00297619 0.00297619 0.00297619 0.00297619 0.00297619 0.00297619 0.00297619 0.00297619 0.00297619 0.00297619 0.00297619 0.00297619 0.00297619 0.00297619 0.00297619 0.00297619 0.00297619 0.00297619 0.00297619 0.00297619 0.00297619 0.00297619 0.00297619 0.00297619 0.00297619 0.00297619 0.00297619 0.00297619 0.00297619 0.00297619 0.00297619 0.00297619 0.00297619 0.00297619 0.00297619 0.00297619 0.00297619 0.00297619 0.00297619 0.00297619 0.00297619 0.00297619 0.00297619 0.00297619 0.00297619 0.00297619 0.00297619 0.00297619 0.00297619 0.00297619 0.00297619 0.00297619 0.00297619 0.00297619 0.00297619 0.00297619 0.00297619 0.00297619 0.00297619 0.00297619 0.00297619 0.00297619 0.00297619 0.00297619 0.00297619 0.00297619 0.00297619 0.00297619 0.00297619 0.00297619 0.00297619 0.00297619 0.00297619 0.00297619 0.00297619 0.00297619 0.00297619 0.00297619 0.00297619;
   (1026295355) 1.04407e-19 1.46051e-18 1.87377e-17 2.20476e-16 2.37924e-15 2.35478e-14 2.13745e-13 1.7794e-12 1.35858e-11 9.51331e-11 6.10957e-10 3.59852e-09 1.94388e-08 9.63052e-08 4.37585e-07 1.82352e-06 6.96931e-06 2.44289e-05 7.85328e-05 0.000231543 0.000626104 0.00155272 0.00353164 0.00736701 0.0140942 0.0247299 0.0397958 0.0587336 0.0795003 0.0986927 0.112366 0.117332 0.112366 0.0986927 0.0795003 0.0587336 0.0397958 0.0247299 0.0140942 0.00736701 0.00353164 0.00155272 0.000626104 0.000231543 7.85328e-05 2.44289e-05 6.96931e-06 1.82352e-06 4.37585e-07 9.63052e-08 1.94388e-08 3.59852e-09 6.10957e-10 9.51331e-11 1.35858e-11 1.7794e-12 2.13745e-13 2.35478e-14 2.37924e-15 2.20476e-16 1.87377e-17 1.46051e-18 1.04407e-19 6.84517e-21 4.11598e-22 2.26985e-23 1.14803e-24 5.3253e-26 2.29964e-27 2.29964e-27 2.29964e-27 2.29964e-27 2.29964e-27 2.29964e-27 2.29964e-27 2.29964e-27 2.29964e-27 2.29964e-27 2.29964e-27 2.29964e-27 2.29964e-27 2.29964e-27 2.29964e-27 2.29964e-27 2.29964e-27 2.29964e-27 2.29964e-27 2.29964e-27 2.29964e-27 2.29964e-27 2.29964e-27 2.29964e-27 2.29964e-27 2.29964e-27 2.29964e-27 2.29964e-27 2.29964e-27 2.29964e-27 2.29964e-27 2.29964e-27 2.29964e-27 2.29964e-27 2.29964e-27 2.29964e-27 2.29964e-27 2.29964e-27 2.29964e-27 2.29964e-27 2.29964e-27 2.29964e-27 2.29964e-27 2.29964e-27 2.29964e-27 2.29964e-27 2.29964e-27 2.29964e-27 2.29964e-27 2.29964e-27 2.29965e-27 2.29974e-27 2.30005e-27 2.30086e-27 2.30325e-27 2.30952e-27 2.32464e-27 2.3582e-27 2.42718e-27 2.55989e-27 2.80191e-27 3.22556e-27 3.9411e-27 5.09668e-27 6.8187e-27 9.02589e-27 1.11921e-26 1.24618e-26 1.23107e-26 1.09817e-26 9.12817e-27 7.28833e-27 5.73427e-27 4.54758e-27 3.70689e-27 3.14529e-27 2.78744e-27 2.56876e-27 2.44082e-27 2.36954e-27 2.3321e-27 2.31368e-27 2.3053e-27 2.30172e-27 2.30034e-27 2.29986e-27 2.29969e-27 2.29965e-27 2.29964e-27 2.29964e-27 2.29964e-27 2.29964e-27 2.29964e-27 2.29964e-27 2.29964e-27 2.29964e-27 2.29964e-27 2.29964e-27 2.29964e-27 2.29964e-27 2.29964e-27 2.29964e-27 2.29964e-27 2.29964e-27 2.29964e-27 2.29964e-27 2.29964e-27 2.29964e-27 2.29964e-27 2.29964e-27 2.29964e-27 2.29964e-27 2.29964e-27 2.29964e-27 2.29964e-27 2.29964e-27 2.29964e-27 2.29964e-27 2.29964e-27 2.29964e-27 2.29964e-27 2.29964e-27 2.29964e-27 2.29964e-27 2.29964e-27 2.29964e-27 2.29964e-27 2.29964e-27 2.29964e-27 2.29964e-27 2.29964e-27 2.29964e-27 2.29964e-27 2.29964e-27 2.29964e-27 2.29964e-27 2.29964e-27 2.29964e-27 2.29964e-27 2.29964e-27 2.29964e-27 2.29964e-27 2.29964e-27 2.29964e-27 2.29964e-27 2.29964e-27 2.29964e-27 2.29964e-27 2.29964e-27 2.29964e-27 2.29964e-27 2.29964e-27 2.29964e-27 2.29964e-27 2.29964e-27 2.29964e-27 2.29964e-27 2.29964e-27 2.29964e-27 2.29964e-27 2.29964e-27 2.29964e-27 2.29964e-27 2.29964e-27 2.29964e-27 2.29964e-27 2.29964e-27 2.29964e-27 2.29964e-27 2.29964e-27 2.29964e-27 2.29964e-27 2.29964e-27 2.29964e-27 2.29964e-27 2.29964e-27 2.29964e-27 2.29964e-27 2.29964e-27 2.29964e-27 2.29964e-27 2.29964e-27 2.29964e-27 2.29964e-27 2.29964e-27 2.29964e-27 2.29964e-27 2.29964e-27 2.29964e-27 2.29964e-27 2.29964e-27 2.29964e-27 2.29964e-27 2.29964e-27 2.29964e-27 2.29964e-27 2.29964e-27 2.29964e-27 2.29964e-27 2.29964e-27 2.29964e-27 2.29964e-27 2.29964e-27 2.29964e-27 2.29964e-27 2.29964e-27 2.29964e-27 2.29964e-27 2.29964e-27 2.29964e-27 2.29964e-27 2.29964e-27 2.29964e-27 2.29964e-27 2.29964e-27 2.29964e-27 2.29964e-27 2.29964e-27 2.29964e-27 2.29964e-27 2.29964e-27 2.29964e-27 2.29964e-27 2.29964e-27 2.29964e-27 2.29964e-27 2.29964e-27 2.29964e-27 2.29964e-27 2.29964e-27 2.29964e-27 2.29964e-27 2.29964e-27 2.29964e-27 2.29964e-27 2.29964e-27 2.29964e-27 2.29964e-27 2.29964e-27 2.29964e-27 2.29964e-27 2.29964e-27 2.29964e-27 2.29964e-27 2.29964e-27 2.29964e-27 2.29964e-27 2.29964e-27 2.29964e-27 2.29964e-27 2.29964e-27 2.29964e-27 2.29964e-27 2.29964e-27 2.29964e-27 2.29964e-27 2.29964e-27 2.29964e-27 2.29964e-27 2.29964e-27 2.29964e-27 2.29964e-27 2.29964e-27 2.29964e-27 2.29964e-27 2.29964e-27 2.29964e-27 2.29964e-27;
   (1031137228) 2.29964e-27 2.29964e-27 2.29964e-27 2.29964e-27 2.29964e-27 2.29964e-27 2.29964e-27 2.29964e-27 2.29964e-27 2.29964e-27 2.29964e-27 2.29964e-27 2.29964e-27 2.29964e-27 2.29964e-27 2.29964e-27 2.29964e-27 2.29964e-27 2.29964e-27 2.29964e-27 2.29964e-27 2.29964e-27 2.29964e-27 2.29964e-27 2.29964e-27 2.29964e-27 2.29964e-27 2.29964e-27 2.29964e-27 2.29964e-27 2.29964e-27 2.29964e-27 2.29964e-27 2.29964e-27 5.3253e-26 1.14803e-24 2.26985e-23 4.11598e-22 6.84517e-21 1.04407e-19 1.46051e-18 1.87377e-17 2.20476e-16 2.37924e-15 2.35478e-14 2.13745e-13 1.7794e-12 1.35858e-11 9.51331e-11 6.10957e-10 3.59852e-09 1.94388e-08 9.63052e-08 4.37585e-07 1.82352e-06 6.96931e-06 2.44289e-05 7.85328e-05 0.000231543 0.000626104 0.00155272 0.00353164 0.00736701 0.0140942 0.0247299 0.0397958 0.0587336 0.0795003 0.0986927 0.112366 0.117332 0.112366 0.0986927 0.0795003 0.0587336 0.0397958 0.0247299 0.0140942 0.00736701 0.00353164 0.00155272 0.000626104 0.000231543 7.85328e-05 2.44289e-05 6.96931e-06 1.82352e-06 4.37585e-07 9.63052e-08 1.94388e-08 3.59852e-09 6.10957e-10 9.51331e-11 1.35858e-11 1.7794e-12 2.13745e-13 2.35478e-14 2.37924e-15 2.20476e-16 1.87377e-17 1.46051e-18 1.04407e-19 6.84517e-21 4.11598e-22 2.26985e-23 1.14803e-24 5.3253e-26 2.29964e-27 2.29964e-27 2.29964e-27 2.29964e-27 2.29964e-27 2.29964e-27 2.29964e-27 2.29964e-27 2.29964e-27 2.29964e-27 2.29964e-27 2.29964e-27 2.29964e-27 2.29967e-27 2.29973e-27 2.29994e-27 2.30059e-27 2.30246e-27 2.30727e-27 2.31863e-27 2.3432e-27 2.39198e-27 2.48139e-27 2.63351e-27 2.87407e-27 3.22482e-27 3.68402e-27 4.19324e-27 4.61593e-27 4.78356e-27 4.61593e-27 4.19324e-27 3.68402e-27 3.22482e-27 2.87407e-27 2.63351e-27 2.48139e-27 2.39198e-27 2.3432e-27 2.31863e-27 2.30727e-27 2.30246e-27 2.30059e-27 2.29994e-27 2.29973e-27 2.29967e-27 2.29964e-27 2.29964e-27 2.29964e-27 2.29964e-27 2.29964e-27 2.29964e-27 2.29964e-27 2.29964e-27 2.29964e-27 2.29964e-27 2.29964e-27 2.29964e-27 2.29964e-27 2.29964e-27 2.29964e-27 2.29964e-27 2.29964e-27 2.29964e-27 2.29964e-27 2.29964e-27 2.29964e-27 2.29964e-27 2.29964e-27 2.29964e-27 2.29964e-27 2.29964e-27 2.29964e-27 2.29964e-27 2.29964e-27 2.29964e-27 2.29964e-27 2.29964e-27 2.29964e-27 2.29964e-27 2.29964e-27 2.29964e-27 2.29964e-27 2.29964e-27 2.29964e-27 2.29964e-27 2.29964e-27 2.29964e-27 2.29964e-27 2.29964e-27 2.29964e-27 2.29964e-27 2.29964e-27 2.29964e-27 2.29964e-27 2.29964e-27 2.29964e-27 2.29964e-27 2.29964e-27 2.29964e-27 2.29964e-27 2.29964e-27 2.29964e-27 2.29964e-27 2.29964e-27 2.29964e-27 2.29964e-27 2.29964e-27 2.29964e-27 2.29964e-27 2.29964e-27 2.29964e-27 2.29964e-27 2.29964e-27 2.29964e-27 2.29964e-27 2.29964e-27 2.29964e-27 2.29964e-27 2.29964e-27 2.29964e-27 2.29964e-27 2.29964e-27 2.29964e-27 2.29964e-27 2.29964e-27 2.29964e-27 2.29964e-27 2.29964e-27 2.29964e-27 2.29964e-27 2.29964e-27 2.29964e-27 2.29964e-27 2.29964e-27 2.29964e-27 2.29964e-27 2.29964e-27 2.29964e-27 2.29964e-27 2.29964e-27 2.29964e-27 2.29964e-27 2.29964e-27 2.29964e-27 2.29964e-27 2.29964e-27 2.29964e-27 2.29964e-27 2.29964e-27 2.29964e-27 2.29964e-27 2.29964e-27 2.29964e-27 2.29964e-27 2.29964e-27 2.29964e-27 2.29964e-27 2.29964e-27 2.29964e-27 2.29964e-27 2.29964e-27 2.29964e-27 2.29964e-27 2.29964e-27 2.29964e-27 2.29964e-27 2.29964e-27 2.29964e-27 2.29964e-27 2.29964e-27 2.29964e-27 2.29964e-27 2.29964e-27 2.29964e-27 2.29964e-27 2.29964e-27 2.29964e-27 2.29964e-27 2.29964e-27 2.29964e-27 2.29964e-27 2.29964e-27 2.29964e-27 2.29964e-27 2.29964e-27 2.29964e-27 2.29964e-27 2.29964e-27 2.29964e-27 2.29964e-27 2.29964e-27 2.29964e-27 2.29964e-27 2.29964e-27 2.29964e-27 2.29964e-27 2.29964e-27 2.29964e-27 2.29964e-27 2.29964e-27 2.29964e-27 2.29964e-27 2.29964e-27 2.29964e-27 2.29964e-27 2.29964e-27 2.29964e-27 2.29964e-27 2.29964e-27 2.29964e-27 2.29964e-27 2.29964e-27 2.29964e-27 2.29964e-27 2.29964e-27 2.29964e-27 2.29964e-27 2.29964e-27 2.29964e-27 2.29964e-27 2.29964e-27 2.29964e-27 2.29964e-27 2.29964e-27 2.29964e-27 2.29964e-27 2.29964e-27 2.29964e-27;
   (1020814482) 2.29945e-27 2.29945e-27 2.29945e-27 2.29945e-27 2.29945e-27 2.29945e-27 2.29945e-27 2.29945e-27 2.29945e-27 2.29945e-27 2.29945e-27 2.29945e-27 2.29945e-27 2.29945e-27 2.29945e-27 2.29945e-27 2.29945e-27 2.29945e-27 2.29945e-27 2.29945e-27 2.29945e-27 2.29945e-27 2.29945e-27 2.29945e-27 2.29945e-27 2.29945e-27 2.29945e-27 2.29945e-27 2.29945e-27 2.29945e-27 2.29945e-27 2.29945e-27 2.29945e-27 2.29945e-27 2.29945e-27 2.29945e-27 2.29945e-27 2.29945e-27 2.29945e-27 2.29945e-27 2.29945e-27 2.29945e-27 2.29945e-27 2.29945e-27 2.29945e-27 2.29945e-27 2.29945e-27 2.29945e-27 2.29945e-27 2.29945e-27 2.29945e-27 2.29945e-27 2.29945e-27 2.29945e-27 2.29945e-27 2.29945e-27 2.29945e-27 2.29945e-27 2.29945e-27 2.29945e-27 2.29945e-27 2.29945e-27 2.29945e-27 2.29945e-27 2.29945e-27 2.29945e-27 2.29945e-27 2.29945e-27 2.29945e-27 2.29945e-27 2.29945e-27 2.29945e-27 2.29945e-27 2.29945e-27 2.29945e-27 2.29945e-27 2.29945e-27 2.29945e-27 2.29945e-27 2.29945e-27 5.32485e-26 1.14793e-24 2.26966e-23 4.11564e-22 6.84459e-21 1.04398e-19 1.46039e-18 1.87361e-17 2.20457e-16 2.37904e-15 2.35458e-14 2.13727e-13 1.77925e-12 1.35847e-11 9.51251e-11 6.10906e-10 3.59822e-09 1.94372e-08 9.62971e-08 4.37549e-07 1.82336e-06 6.96873e-06 2.44268e-05 7.85262e-05 0.000231524 0.000626052 0.00155259 0.00353134 0.00736639 0.014093 0.0247278 0.0397925 0.0587286 0.0794937 0.0986845 0.112357 0.117323 0.112357 0.0986846 0.079494 0.0587296 0.0397948 0.0247325 0.014101 0.00737766 0.00354477 0.00156609 0.000637507 0.000239764 8.35609e-05 2.7044e-05 8.12491e-06 2.25534e-06 5.72861e-07 1.31453e-07 2.69457e-08 4.91184e-09 7.99829e-10 1.17662e-10 1.58385e-11 1.96988e-12 2.2743e-13 2.43838e-14 2.42257e-15 2.22373e-16 1.88074e-17 1.46262e-18 1.04457e-19 6.84591e-21 4.11588e-22 2.2697e-23 1.14794e-24 5.32486e-26 2.29945e-27 2.29945e-27 2.29945e-27 2.29945e-27 2.29945e-27 2.29945e-27 2.29945e-27 2.29945e-27 2.29945e-27 2.29945e-27 2.29945e-27 2.29945e-27 2.29945e-27 2.29945e-27 2.29945e-27 2.29945e-27 2.29945e-27 2.29945e-27 2.29945e-27 2.29945e-27 2.29945e-27 2.29945e-27 2.29945e-27 2.29945e-27 2.29945e-27 2.29945e-27 2.29945e-27 2.29945e-27 2.29945e-27 2.29945e-27 2.29945e-27 2.29945e-27 2.29945e-27 2.29945e-27 2.29945e-27 2.29945e-27 2.29945e-27 2.29945e-27 2.29945e-27 2.29945e-27 2.29945e-27 2.29945e-27 2.29945e-27 2.29945e-27 2.29945e-27 2.29945e-27 2.29945e-27 2.29945e-27 2.29945e-27 2.29945e-27 2.29945e-27 2.29945e-27 2.29945e-27 2.29945e-27 2.29945e-27 2.29945e-27 2.29945e-27 2.29945e-27 2.29945e-27 2.29945e-27 2.29945e-27 2.29945e-27 2.29945e-27 2.29945e-27 2.29945e-27 2.29945e-27 2.29945e-27 2.29945e-27 2.29945e-27 2.29945e-27 2.29945e-27 2.29945e-27 2.29945e-27 2.29945e-27 2.29945e-27 2.29945e-27 2.29945e-27 2.29945e-27 2.29945e-27 2.29945e-27 2.29945e-27 2.29945e-27 2.29945e-27 2.29945e-27 2.29945e-27 2.29945e-27 2.29945e-27 2.29945e-27 2.29945e-27 2.29945e-27 2.29945e-27 2.29945e-27 2.29945e-27 2.29945e-27 2.29945e-27 2.29945e-27 2.29945e-27 2.29945e-27 2.29945e-27 2.29945e-27 2.29945e-27 2.29945e-27 2.29945e-27 2.29945e-27 2.29945e-27 2.29945e-27 2.29945e-27 2.29945e-27 2.29945e-27 2.29945e-27 2.29945e-27 2.29945e-27 2.29945e-27 2.29945e-27 2.29945e-27 2.29945e-27 2.29945e-27 2.29945e-27 2.29945e-27 2.29945e-27 2.29945e-27 2.29945e-27 2.29945e-27 2.29945e-27 2.29945e-27 2.29945e-27 2.29945e-27 2.29945e-27 2.29945e-27 2.29945e-27 2.29945e-27 2.29945e-27 2.29945e-27 2.29945e-27 2.29945e-27 2.29945e-27 2.29945e-27 2.29945e-27 2.29945e-27 2.29945e-27 2.29945e-27 2.29945e-27 2.29945e-27 2.29945e-27 2.29945e-27 2.29945e-27 2.29945e-27 2.29945e-27 2.29945e-27 2.29945e-27 2.29945e-27 2.29945e-27 2.29945e-27 2.29945e-27 2.29945e-27 2.29945e-27 2.29945e-27 2.29945e-27 2.29945e-27 2.29945e-27 2.29945e-27 2.29945e-27 2.29945e-27 2.29945e-27 2.29945e-27 2.29945e-27 2.29945e-27 2.29945e-27 2.29945e-27 2.29945e-27 2.29945e-27 2.29945e-27 2.29945e-27 2.29945e-27 2.29945e-27 2.29945e-27 2.29945e-27 2.29945e-27 2.29945e-27 2.29945e-27 2.29945e-27 2.29945e-27 2.29945e-27;
}

