network "C:\Users\sorcar\github\Cardiac\db\memory\recognition\RecogniserBN.bif" {
// written by aGrUM 0.14.1
}

variable I {
   type discrete[2] {0, 1026295355};
}

variable F {
   type discrete[2] {0, 1026295355};
}

variable G {
   type discrete[2] {Female, Male};
}

variable A {
   type discrete[76] {0, 1, 2, 3, 4, 5, 6, 7, 8, 9, 10, 11, 12, 13, 14, 15, 16, 17, 18, 19, 20, 21, 22, 23, 24, 25, 26, 27, 28, 29, 30, 31, 32, 33, 34, 35, 36, 37, 38, 39, 40, 41, 42, 43, 44, 45, 46, 47, 48, 49, 50, 51, 52, 53, 54, 55, 56, 57, 58, 59, 60, 61, 62, 63, 64, 65, 66, 67, 68, 69, 70, 71, 72, 73, 74, 75};
}

variable H {
   type discrete[191] {50, 51, 52, 53, 54, 55, 56, 57, 58, 59, 60, 61, 62, 63, 64, 65, 66, 67, 68, 69, 70, 71, 72, 73, 74, 75, 76, 77, 78, 79, 80, 81, 82, 83, 84, 85, 86, 87, 88, 89, 90, 91, 92, 93, 94, 95, 96, 97, 98, 99, 100, 101, 102, 103, 104, 105, 106, 107, 108, 109, 110, 111, 112, 113, 114, 115, 116, 117, 118, 119, 120, 121, 122, 123, 124, 125, 126, 127, 128, 129, 130, 131, 132, 133, 134, 135, 136, 137, 138, 139, 140, 141, 142, 143, 144, 145, 146, 147, 148, 149, 150, 151, 152, 153, 154, 155, 156, 157, 158, 159, 160, 161, 162, 163, 164, 165, 166, 167, 168, 169, 170, 171, 172, 173, 174, 175, 176, 177, 178, 179, 180, 181, 182, 183, 184, 185, 186, 187, 188, 189, 190, 191, 192, 193, 194, 195, 196, 197, 198, 199, 200, 201, 202, 203, 204, 205, 206, 207, 208, 209, 210, 211, 212, 213, 214, 215, 216, 217, 218, 219, 220, 221, 222, 223, 224, 225, 226, 227, 228, 229, 230, 231, 232, 233, 234, 235, 236, 237, 238, 239, 240};
}

variable T {
   type discrete[336] {0, 1, 2, 3, 4, 5, 6, 7, 8, 9, 10, 11, 12, 13, 14, 15, 16, 17, 18, 19, 20, 21, 22, 23, 24, 25, 26, 27, 28, 29, 30, 31, 32, 33, 34, 35, 36, 37, 38, 39, 40, 41, 42, 43, 44, 45, 46, 47, 48, 49, 50, 51, 52, 53, 54, 55, 56, 57, 58, 59, 60, 61, 62, 63, 64, 65, 66, 67, 68, 69, 70, 71, 72, 73, 74, 75, 76, 77, 78, 79, 80, 81, 82, 83, 84, 85, 86, 87, 88, 89, 90, 91, 92, 93, 94, 95, 96, 97, 98, 99, 100, 101, 102, 103, 104, 105, 106, 107, 108, 109, 110, 111, 112, 113, 114, 115, 116, 117, 118, 119, 120, 121, 122, 123, 124, 125, 126, 127, 128, 129, 130, 131, 132, 133, 134, 135, 136, 137, 138, 139, 140, 141, 142, 143, 144, 145, 146, 147, 148, 149, 150, 151, 152, 153, 154, 155, 156, 157, 158, 159, 160, 161, 162, 163, 164, 165, 166, 167, 168, 169, 170, 171, 172, 173, 174, 175, 176, 177, 178, 179, 180, 181, 182, 183, 184, 185, 186, 187, 188, 189, 190, 191, 192, 193, 194, 195, 196, 197, 198, 199, 200, 201, 202, 203, 204, 205, 206, 207, 208, 209, 210, 211, 212, 213, 214, 215, 216, 217, 218, 219, 220, 221, 222, 223, 224, 225, 226, 227, 228, 229, 230, 231, 232, 233, 234, 235, 236, 237, 238, 239, 240, 241, 242, 243, 244, 245, 246, 247, 248, 249, 250, 251, 252, 253, 254, 255, 256, 257, 258, 259, 260, 261, 262, 263, 264, 265, 266, 267, 268, 269, 270, 271, 272, 273, 274, 275, 276, 277, 278, 279, 280, 281, 282, 283, 284, 285, 286, 287, 288, 289, 290, 291, 292, 293, 294, 295, 296, 297, 298, 299, 300, 301, 302, 303, 304, 305, 306, 307, 308, 309, 310, 311, 312, 313, 314, 315, 316, 317, 318, 319, 320, 321, 322, 323, 324, 325, 326, 327, 328, 329, 330, 331, 332, 333, 334, 335};
}

probability (I) {
   default 0.5 0.5;
}
probability (F | I) {
   (0) 0.9 0.1;
   (1026295355) 0.065768 0.934232;
}
probability (G | I) {
   (0) 0.5 0.5;
   (1026295355) 0.265549 0.734451;
}
probability (A | I) {
   (0) 0.0131579 0.0131579 0.0131579 0.0131579 0.0131579 0.0131579 0.0131579 0.0131579 0.0131579 0.0131579 0.0131579 0.0131579 0.0131579 0.0131579 0.0131579 0.0131579 0.0131579 0.0131579 0.0131579 0.0131579 0.0131579 0.0131579 0.0131579 0.0131579 0.0131579 0.0131579 0.0131579 0.0131579 0.0131579 0.0131579 0.0131579 0.0131579 0.0131579 0.0131579 0.0131579 0.0131579 0.0131579 0.0131579 0.0131579 0.0131579 0.0131579 0.0131579 0.0131579 0.0131579 0.0131579 0.0131579 0.0131579 0.0131579 0.0131579 0.0131579 0.0131579 0.0131579 0.0131579 0.0131579 0.0131579 0.0131579 0.0131579 0.0131579 0.0131579 0.0131579 0.0131579 0.0131579 0.0131579 0.0131579 0.0131579 0.0131579 0.0131579 0.0131579 0.0131579 0.0131579 0.0131579 0.0131579 0.0131579 0.0131579 0.0131579 0.0131579;
   (1026295355) 5.96631e-41 5.96631e-41 5.96631e-41 5.96631e-41 5.96631e-41 5.96631e-41 5.96631e-41 5.96631e-41 5.96631e-41 5.96631e-41 5.96631e-41 5.96631e-41 5.96631e-41 5.96631e-41 5.96631e-41 5.96645e-41 5.96701e-41 5.96911e-41 1.97914e-28 4.83937e-13 0.000830089 0.99833 0.000840049 4.9317e-13 2.01733e-28 6.05627e-41 6.01874e-41 5.99375e-41 6.0334e-41 6.1254e-41 6.02476e-41 5.96935e-41 5.96633e-41 5.96631e-41 5.96631e-41 5.96631e-41 5.96631e-41 5.96631e-41 5.96631e-41 5.96631e-41 5.96631e-41 5.96631e-41 5.96631e-41 5.96631e-41 5.96631e-41 5.96631e-41 5.96631e-41 5.96631e-41 5.96631e-41 5.96631e-41 5.96631e-41 5.96631e-41 5.96631e-41 5.96631e-41 5.96631e-41 5.96631e-41 5.96631e-41 5.96631e-41 5.96631e-41 5.96631e-41 5.96631e-41 5.96631e-41 5.96631e-41 5.96631e-41 5.96631e-41 5.96631e-41 5.96631e-41 5.96631e-41 5.96631e-41 5.96631e-41 5.96631e-41 5.96631e-41 5.96631e-41 5.96631e-41 5.96631e-41 5.96631e-41;
}
probability (H | I) {
   (0) 0.0052356 0.0052356 0.0052356 0.0052356 0.0052356 0.0052356 0.0052356 0.0052356 0.0052356 0.0052356 0.0052356 0.0052356 0.0052356 0.0052356 0.0052356 0.0052356 0.0052356 0.0052356 0.0052356 0.0052356 0.0052356 0.0052356 0.0052356 0.0052356 0.0052356 0.0052356 0.0052356 0.0052356 0.0052356 0.0052356 0.0052356 0.0052356 0.0052356 0.0052356 0.0052356 0.0052356 0.0052356 0.0052356 0.0052356 0.0052356 0.0052356 0.0052356 0.0052356 0.0052356 0.0052356 0.0052356 0.0052356 0.0052356 0.0052356 0.0052356 0.0052356 0.0052356 0.0052356 0.0052356 0.0052356 0.0052356 0.0052356 0.0052356 0.0052356 0.0052356 0.0052356 0.0052356 0.0052356 0.0052356 0.0052356 0.0052356 0.0052356 0.0052356 0.0052356 0.0052356 0.0052356 0.0052356 0.0052356 0.0052356 0.0052356 0.0052356 0.0052356 0.0052356 0.0052356 0.0052356 0.0052356 0.0052356 0.0052356 0.0052356 0.0052356 0.0052356 0.0052356 0.0052356 0.0052356 0.0052356 0.0052356 0.0052356 0.0052356 0.0052356 0.0052356 0.0052356 0.0052356 0.0052356 0.0052356 0.0052356 0.0052356 0.0052356 0.0052356 0.0052356 0.0052356 0.0052356 0.0052356 0.0052356 0.0052356 0.0052356 0.0052356 0.0052356 0.0052356 0.0052356 0.0052356 0.0052356 0.0052356 0.0052356 0.0052356 0.0052356 0.0052356 0.0052356 0.0052356 0.0052356 0.0052356 0.0052356 0.0052356 0.0052356 0.0052356 0.0052356 0.0052356 0.0052356 0.0052356 0.0052356 0.0052356 0.0052356 0.0052356 0.0052356 0.0052356 0.0052356 0.0052356 0.0052356 0.0052356 0.0052356 0.0052356 0.0052356 0.0052356 0.0052356 0.0052356 0.0052356 0.0052356 0.0052356 0.0052356 0.0052356 0.0052356 0.0052356 0.0052356 0.0052356 0.0052356 0.0052356 0.0052356 0.0052356 0.0052356 0.0052356 0.0052356 0.0052356 0.0052356 0.0052356 0.0052356 0.0052356 0.0052356 0.0052356 0.0052356 0.0052356 0.0052356 0.0052356 0.0052356 0.0052356 0.0052356 0.0052356 0.0052356 0.0052356 0.0052356 0.0052356 0.0052356 0.0052356 0.0052356 0.0052356 0.0052356 0.0052356 0.0052356;
   (1026295355) 2.92366e-15 2.92366e-15 3.13907e-15 5.13319e-15 8.3584e-15 1.35522e-14 2.18801e-14 3.51753e-14 5.63089e-14 8.97567e-14 1.42465e-13 2.25165e-13 3.54359e-13 5.55312e-13 8.66527e-13 1.34641e-12 2.08316e-12 3.20939e-12 4.92346e-12 7.52096e-12 1.14399e-11 1.73272e-11 2.61327e-11 3.92459e-11 5.86891e-11 8.73929e-11 1.29583e-10 1.91328e-10 2.81299e-10 4.11832e-10 6.00391e-10 8.71603e-10 1.26001e-09 1.81388e-09 2.60031e-09 3.71226e-09 5.27782e-09 7.47289e-09 1.05379e-08 1.48002e-08 2.07038e-08 2.8849e-08 4.00439e-08 5.53735e-08 7.629e-08 1.04731e-07 1.43277e-07 1.95358e-07 2.65522e-07 3.59796e-07 4.86151e-07 6.55131e-07 8.80668e-07 1.18117e-06 1.58095e-06 2.11213e-06 2.81712e-06 3.75194e-06 4.99052e-06 6.63038e-06 8.80003e-06 1.16685e-05 1.54578e-05 2.04587e-05 2.70509e-05 3.57283e-05 4.71305e-05 6.20819e-05 8.16383e-05 0.000107142 0.000140292 0.000183213 0.000238544 0.000309528 0.000400105 0.000515007 0.000659841 0.00084115 0.00106645 0.00134422 0.00168383 0.00209539 0.00258954 0.00317711 0.00386864 0.00467393 0.00560133 0.00665711 0.00784465 0.00916381 0.0106102 0.0121747 0.0138431 0.0155959 0.0174085 0.0192517 0.0210926 0.0228956 0.0246231 0.0262383 0.0277055 0.0289921 0.0300705 0.0309184 0.0315206 0.0318688 0.0319625 0.0318082 0.0314188 0.0308132 0.0300147 0.0290502 0.0279484 0.0267387 0.0254501 0.0241101 0.0227442 0.0213748 0.0200211 0.018699 0.017421 0.0161964 0.0150316 0.0139304 0.0128947 0.0119241 0.0110173 0.0101717 0.00938417 0.00865113 0.00796881 0.00733343 0.00674142 0.00618938 0.00567424 0.00519329 0.00474411 0.00432464 0.00393307 0.00356788 0.00322775 0.0029115 0.00261812 0.00234665 0.0020962 0.00186589 0.00165486 0.00146223 0.0012871 0.00112855 0.000985628 0.00085736 0.000742772 0.000640868 0.000550673 0.000471213 0.000401541 0.000340741 0.000287934 0.000242288 0.000203019 0.000169397 0.000140746 0.000116445 9.59321e-05 7.86976e-05 6.42854e-05 5.22899e-05 4.23522e-05 3.41575e-05 2.74314e-05 2.19361e-05 1.74673e-05 1.38497e-05 1.09348e-05 8.59662e-06 6.72968e-06 5.24585e-06 4.0718e-06 3.14708e-06 2.42203e-06 1.85611e-06 1.41637e-06 1.07623e-06 8.14287e-07 6.13487e-07 4.60238e-07 3.43803e-07 2.55735e-07 1.89417e-07 1.39701e-07;
}
probability (T | I) {
   (0) 0.00297619 0.00297619 0.00297619 0.00297619 0.00297619 0.00297619 0.00297619 0.00297619 0.00297619 0.00297619 0.00297619 0.00297619 0.00297619 0.00297619 0.00297619 0.00297619 0.00297619 0.00297619 0.00297619 0.00297619 0.00297619 0.00297619 0.00297619 0.00297619 0.00297619 0.00297619 0.00297619 0.00297619 0.00297619 0.00297619 0.00297619 0.00297619 0.00297619 0.00297619 0.00297619 0.00297619 0.00297619 0.00297619 0.00297619 0.00297619 0.00297619 0.00297619 0.00297619 0.00297619 0.00297619 0.00297619 0.00297619 0.00297619 0.00297619 0.00297619 0.00297619 0.00297619 0.00297619 0.00297619 0.00297619 0.00297619 0.00297619 0.00297619 0.00297619 0.00297619 0.00297619 0.00297619 0.00297619 0.00297619 0.00297619 0.00297619 0.00297619 0.00297619 0.00297619 0.00297619 0.00297619 0.00297619 0.00297619 0.00297619 0.00297619 0.00297619 0.00297619 0.00297619 0.00297619 0.00297619 0.00297619 0.00297619 0.00297619 0.00297619 0.00297619 0.00297619 0.00297619 0.00297619 0.00297619 0.00297619 0.00297619 0.00297619 0.00297619 0.00297619 0.00297619 0.00297619 0.00297619 0.00297619 0.00297619 0.00297619 0.00297619 0.00297619 0.00297619 0.00297619 0.00297619 0.00297619 0.00297619 0.00297619 0.00297619 0.00297619 0.00297619 0.00297619 0.00297619 0.00297619 0.00297619 0.00297619 0.00297619 0.00297619 0.00297619 0.00297619 0.00297619 0.00297619 0.00297619 0.00297619 0.00297619 0.00297619 0.00297619 0.00297619 0.00297619 0.00297619 0.00297619 0.00297619 0.00297619 0.00297619 0.00297619 0.00297619 0.00297619 0.00297619 0.00297619 0.00297619 0.00297619 0.00297619 0.00297619 0.00297619 0.00297619 0.00297619 0.00297619 0.00297619 0.00297619 0.00297619 0.00297619 0.00297619 0.00297619 0.00297619 0.00297619 0.00297619 0.00297619 0.00297619 0.00297619 0.00297619 0.00297619 0.00297619 0.00297619 0.00297619 0.00297619 0.00297619 0.00297619 0.00297619 0.00297619 0.00297619 0.00297619 0.00297619 0.00297619 0.00297619 0.00297619 0.00297619 0.00297619 0.00297619 0.00297619 0.00297619 0.00297619 0.00297619 0.00297619 0.00297619 0.00297619 0.00297619 0.00297619 0.00297619 0.00297619 0.00297619 0.00297619 0.00297619 0.00297619 0.00297619 0.00297619 0.00297619 0.00297619 0.00297619 0.00297619 0.00297619 0.00297619 0.00297619 0.00297619 0.00297619 0.00297619 0.00297619 0.00297619 0.00297619 0.00297619 0.00297619 0.00297619 0.00297619 0.00297619 0.00297619 0.00297619 0.00297619 0.00297619 0.00297619 0.00297619 0.00297619 0.00297619 0.00297619 0.00297619 0.00297619 0.00297619 0.00297619 0.00297619 0.00297619 0.00297619 0.00297619 0.00297619 0.00297619 0.00297619 0.00297619 0.00297619 0.00297619 0.00297619 0.00297619 0.00297619 0.00297619 0.00297619 0.00297619 0.00297619 0.00297619 0.00297619 0.00297619 0.00297619 0.00297619 0.00297619 0.00297619 0.00297619 0.00297619 0.00297619 0.00297619 0.00297619 0.00297619 0.00297619 0.00297619 0.00297619 0.00297619 0.00297619 0.00297619 0.00297619 0.00297619 0.00297619 0.00297619 0.00297619 0.00297619 0.00297619 0.00297619 0.00297619 0.00297619 0.00297619 0.00297619 0.00297619 0.00297619 0.00297619 0.00297619 0.00297619 0.00297619 0.00297619 0.00297619 0.00297619 0.00297619 0.00297619 0.00297619 0.00297619 0.00297619 0.00297619 0.00297619 0.00297619 0.00297619 0.00297619 0.00297619 0.00297619 0.00297619 0.00297619 0.00297619 0.00297619 0.00297619 0.00297619 0.00297619 0.00297619 0.00297619 0.00297619 0.00297619 0.00297619 0.00297619 0.00297619 0.00297619 0.00297619 0.00297619 0.00297619 0.00297619 0.00297619 0.00297619 0.00297619 0.00297619 0.00297619 0.00297619 0.00297619 0.00297619 0.00297619 0.00297619 0.00297619 0.00297619 0.00297619 0.00297619 0.00297619 0.00297619 0.00297619 0.00297619 0.00297619 0.00297619 0.00297619 0.00297619;
   (1026295355) 1.6899e-27 1.6899e-27 1.6899e-27 1.6899e-27 1.6899e-27 1.6899e-27 1.6899e-27 1.6899e-27 1.6899e-27 1.6899e-27 1.6899e-27 1.6899e-27 1.6899e-27 1.6899e-27 1.6899e-27 1.6899e-27 1.6899e-27 1.6899e-27 1.6899e-27 1.6899e-27 1.6899e-27 1.6899e-27 1.6899e-27 1.6899e-27 1.6899e-27 1.6899e-27 1.6899e-27 1.6899e-27 1.6899e-27 1.6899e-27 1.6899e-27 1.6899e-27 1.6899e-27 1.6899e-27 1.6899e-27 1.6899e-27 1.6899e-27 1.6899e-27 1.6899e-27 1.6899e-27 1.6899e-27 1.6899e-27 1.6899e-27 1.6899e-27 1.6899e-27 1.6899e-27 1.6899e-27 1.6899e-27 1.6899e-27 1.6899e-27 1.6899e-27 1.6899e-27 1.6899e-27 1.6899e-27 1.6899e-27 1.6899e-27 1.6899e-27 1.6899e-27 1.6899e-27 1.6899e-27 1.6899e-27 1.6899e-27 1.6899e-27 1.6899e-27 1.6899e-27 1.6899e-27 1.6899e-27 1.6899e-27 1.6899e-27 1.6899e-27 1.6899e-27 1.6899e-27 1.6899e-27 1.6899e-27 1.6899e-27 1.6899e-27 1.6899e-27 1.6899e-27 1.6899e-27 1.6899e-27 1.6899e-27 1.6899e-27 1.6899e-27 1.6899e-27 1.6899e-27 1.6899e-27 1.6899e-27 1.6899e-27 1.6899e-27 1.6899e-27 1.6899e-27 1.6899e-27 1.6899e-27 1.6899e-27 1.6899e-27 1.6899e-27 1.6899e-27 1.6899e-27 1.6899e-27 1.6899e-27 1.6899e-27 1.6899e-27 1.6899e-27 1.6899e-27 1.6899e-27 1.6899e-27 1.6899e-27 1.6899e-27 1.6899e-27 1.6899e-27 1.6899e-27 1.6899e-27 1.6899e-27 1.6899e-27 1.6899e-27 1.6899e-27 1.6899e-27 1.6899e-27 1.6899e-27 1.6899e-27 1.6899e-27 1.6899e-27 1.6899e-27 1.6899e-27 1.6899e-27 1.6899e-27 1.6899e-27 1.6899e-27 1.6899e-27 1.6899e-27 1.6899e-27 1.6899e-27 1.6899e-27 1.6899e-27 1.6899e-27 1.6899e-27 1.6899e-27 1.6899e-27 1.6899e-27 1.6899e-27 1.6899e-27 1.6899e-27 1.6899e-27 1.6899e-27 1.6899e-27 1.6899e-27 1.6899e-27 1.6899e-27 1.6899e-27 1.6899e-27 1.6899e-27 1.6899e-27 1.6899e-27 1.6899e-27 1.6899e-27 1.6899e-27 1.6899e-27 1.6899e-27 1.6899e-27 1.6899e-27 1.6899e-27 1.6899e-27 1.6899e-27 1.6899e-27 1.6899e-27 1.6899e-27 1.6899e-27 1.6899e-27 1.6899e-27 1.6899e-27 1.6899e-27 1.6899e-27 1.6899e-27 1.6899e-27 1.6899e-27 1.6899e-27 1.6899e-27 1.6899e-27 1.6899e-27 1.6899e-27 1.6899e-27 1.6899e-27 1.6899e-27 1.6899e-27 1.6899e-27 3.91331e-26 8.43633e-25 1.66801e-23 3.02465e-22 5.03019e-21 7.67234e-20 1.07326e-18 1.37694e-17 1.62017e-16 1.74839e-15 1.73042e-14 1.57071e-13 1.3076e-12 9.98362e-12 6.99088e-11 4.48963e-10 2.64438e-09 1.42846e-08 7.07701e-08 3.21561e-07 1.34002e-06 5.1215e-06 1.79527e-05 5.77206e-05 0.000170243 0.000460782 0.00114534 0.00261806 0.00551599 0.0107465 0.019435 0.0327406 0.0514406 0.0751185 0.100939 0.122829 0.133048 0.126891 0.10667 0.0800431 0.054578 0.0343393 0.0201113 0.010988 0.00558911 0.00263681 0.0011494 0.00046152 0.000170355 5.7735e-05 1.79542e-05 5.12164e-06 1.34003e-06 3.21562e-07 7.07701e-08 1.42846e-08 2.64438e-09 4.48963e-10 6.99088e-11 9.98362e-12 1.3076e-12 1.57071e-13 1.73042e-14 1.74839e-15 1.62017e-16 1.37694e-17 1.07326e-18 7.67234e-20 5.03019e-21 3.02465e-22 1.66801e-23 8.43633e-25 3.91331e-26 1.6899e-27 1.6899e-27 1.6899e-27 1.6899e-27 1.6899e-27 1.6899e-27 1.6899e-27 1.6899e-27 1.6899e-27 1.6899e-27 1.6899e-27 1.6899e-27 1.6899e-27 1.6899e-27 1.6899e-27 1.6899e-27 1.6899e-27 1.6899e-27 1.6899e-27 1.6899e-27 1.6899e-27 1.6899e-27 1.6899e-27 1.6899e-27 1.6899e-27 1.6899e-27 1.6899e-27 1.6899e-27 1.6899e-27 1.6899e-27 1.6899e-27 1.6899e-27 1.6899e-27 1.6899e-27 1.6899e-27 1.6899e-27 1.6899e-27 1.6899e-27 1.6899e-27 1.6899e-27 1.6899e-27 1.6899e-27 1.6899e-27 1.6899e-27 1.6899e-27 1.6899e-27 1.6899e-27 1.6899e-27 1.6899e-27 1.6899e-27 1.6899e-27 1.6899e-27 1.6899e-27 1.6899e-27 1.6899e-27 1.6899e-27 1.6899e-27 1.6899e-27 1.6899e-27 1.6899e-27 1.6899e-27 1.6899e-27 1.6899e-27 1.6899e-27 1.6899e-27 1.6899e-27 1.6899e-27 1.6899e-27 1.6899e-27 1.6899e-27 1.6899e-27 1.6899e-27 1.6899e-27 1.6899e-27 1.6899e-27 1.6899e-27 1.6899e-27 1.6899e-27;
}

