network "C:\Users\sorcar\github\Cardiac\db\memory\recognition\RecogniserBN.bif" {
// written by aGrUM 0.14.1
}

variable I {
   type discrete[8] {0, 1026295355, 1094954671, 1031137228, 1020809921, 1031150558, 1020781807, 1019107402};
}

variable F {
   type discrete[8] {0, 1026295355, 1094954671, 1031137228, 1020809921, 1031150558, 1020781807, 1019107402};
}

variable G {
   type discrete[2] {Female, Male};
}

variable A {
   type discrete[76] {0, 1, 2, 3, 4, 5, 6, 7, 8, 9, 10, 11, 12, 13, 14, 15, 16, 17, 18, 19, 20, 21, 22, 23, 24, 25, 26, 27, 28, 29, 30, 31, 32, 33, 34, 35, 36, 37, 38, 39, 40, 41, 42, 43, 44, 45, 46, 47, 48, 49, 50, 51, 52, 53, 54, 55, 56, 57, 58, 59, 60, 61, 62, 63, 64, 65, 66, 67, 68, 69, 70, 71, 72, 73, 74, 75};
}

variable H {
   type discrete[191] {50, 51, 52, 53, 54, 55, 56, 57, 58, 59, 60, 61, 62, 63, 64, 65, 66, 67, 68, 69, 70, 71, 72, 73, 74, 75, 76, 77, 78, 79, 80, 81, 82, 83, 84, 85, 86, 87, 88, 89, 90, 91, 92, 93, 94, 95, 96, 97, 98, 99, 100, 101, 102, 103, 104, 105, 106, 107, 108, 109, 110, 111, 112, 113, 114, 115, 116, 117, 118, 119, 120, 121, 122, 123, 124, 125, 126, 127, 128, 129, 130, 131, 132, 133, 134, 135, 136, 137, 138, 139, 140, 141, 142, 143, 144, 145, 146, 147, 148, 149, 150, 151, 152, 153, 154, 155, 156, 157, 158, 159, 160, 161, 162, 163, 164, 165, 166, 167, 168, 169, 170, 171, 172, 173, 174, 175, 176, 177, 178, 179, 180, 181, 182, 183, 184, 185, 186, 187, 188, 189, 190, 191, 192, 193, 194, 195, 196, 197, 198, 199, 200, 201, 202, 203, 204, 205, 206, 207, 208, 209, 210, 211, 212, 213, 214, 215, 216, 217, 218, 219, 220, 221, 222, 223, 224, 225, 226, 227, 228, 229, 230, 231, 232, 233, 234, 235, 236, 237, 238, 239, 240};
}

variable T {
   type discrete[336] {0, 1, 2, 3, 4, 5, 6, 7, 8, 9, 10, 11, 12, 13, 14, 15, 16, 17, 18, 19, 20, 21, 22, 23, 24, 25, 26, 27, 28, 29, 30, 31, 32, 33, 34, 35, 36, 37, 38, 39, 40, 41, 42, 43, 44, 45, 46, 47, 48, 49, 50, 51, 52, 53, 54, 55, 56, 57, 58, 59, 60, 61, 62, 63, 64, 65, 66, 67, 68, 69, 70, 71, 72, 73, 74, 75, 76, 77, 78, 79, 80, 81, 82, 83, 84, 85, 86, 87, 88, 89, 90, 91, 92, 93, 94, 95, 96, 97, 98, 99, 100, 101, 102, 103, 104, 105, 106, 107, 108, 109, 110, 111, 112, 113, 114, 115, 116, 117, 118, 119, 120, 121, 122, 123, 124, 125, 126, 127, 128, 129, 130, 131, 132, 133, 134, 135, 136, 137, 138, 139, 140, 141, 142, 143, 144, 145, 146, 147, 148, 149, 150, 151, 152, 153, 154, 155, 156, 157, 158, 159, 160, 161, 162, 163, 164, 165, 166, 167, 168, 169, 170, 171, 172, 173, 174, 175, 176, 177, 178, 179, 180, 181, 182, 183, 184, 185, 186, 187, 188, 189, 190, 191, 192, 193, 194, 195, 196, 197, 198, 199, 200, 201, 202, 203, 204, 205, 206, 207, 208, 209, 210, 211, 212, 213, 214, 215, 216, 217, 218, 219, 220, 221, 222, 223, 224, 225, 226, 227, 228, 229, 230, 231, 232, 233, 234, 235, 236, 237, 238, 239, 240, 241, 242, 243, 244, 245, 246, 247, 248, 249, 250, 251, 252, 253, 254, 255, 256, 257, 258, 259, 260, 261, 262, 263, 264, 265, 266, 267, 268, 269, 270, 271, 272, 273, 274, 275, 276, 277, 278, 279, 280, 281, 282, 283, 284, 285, 286, 287, 288, 289, 290, 291, 292, 293, 294, 295, 296, 297, 298, 299, 300, 301, 302, 303, 304, 305, 306, 307, 308, 309, 310, 311, 312, 313, 314, 315, 316, 317, 318, 319, 320, 321, 322, 323, 324, 325, 326, 327, 328, 329, 330, 331, 332, 333, 334, 335};
}

probability (I) {
   default 0.125 0.125 0.125 0.125 0.125 0.125 0.125 0.125;
}
probability (F | I) {
   (0) 0.9 0.0142857 0.0142857 0.0142857 0.0142857 0.0142857 0.0142857 0.0142857;
   (1026295355) 0.0959629 0.863665 0.0159938 0.0108402 0.00616538 0.00330876 0.00276649 0.00129702;
   (1094954671) 0.048585 0.048585 0.874531 0.0107967 0.00818747 0.00396273 0.00331549 0.00203666;
   (1031137228) 0.0325716 0.0325716 0.0325716 0.879434 0.0122144 0.00494681 0.00331437 0.0023753;
   (1020809921) 0.0246609 0.0246609 0.0246609 0.0246609 0.887793 0.00657625 0.00413756 0.002849;
   (1031150558) 0.0198187 0.0198187 0.0198187 0.0198187 0.0198187 0.891843 0.0055052 0.00355872;
   (1020781807) 0.0165485 0.0165485 0.0165485 0.0165485 0.0165485 0.0165485 0.893617 0.0070922;
   (1019107402) 0.0142857 0.0142857 0.0142857 0.0142857 0.0142857 0.0142857 0.0142857 0.9;
}
probability (G | I) {
   (0) 0.5 0.5;
   (1026295355) 0.294615 0.705385;
   (1094954671) 0.294615 0.705385;
   (1031137228) 0.294615 0.705385;
   (1020809921) 0.294615 0.705385;
   (1031150558) 0.294615 0.705385;
   (1020781807) 0.294615 0.705385;
   (1019107402) 0.294615 0.705385;
}
probability (A | I) {
   (0) 0.0131579 0.0131579 0.0131579 0.0131579 0.0131579 0.0131579 0.0131579 0.0131579 0.0131579 0.0131579 0.0131579 0.0131579 0.0131579 0.0131579 0.0131579 0.0131579 0.0131579 0.0131579 0.0131579 0.0131579 0.0131579 0.0131579 0.0131579 0.0131579 0.0131579 0.0131579 0.0131579 0.0131579 0.0131579 0.0131579 0.0131579 0.0131579 0.0131579 0.0131579 0.0131579 0.0131579 0.0131579 0.0131579 0.0131579 0.0131579 0.0131579 0.0131579 0.0131579 0.0131579 0.0131579 0.0131579 0.0131579 0.0131579 0.0131579 0.0131579 0.0131579 0.0131579 0.0131579 0.0131579 0.0131579 0.0131579 0.0131579 0.0131579 0.0131579 0.0131579 0.0131579 0.0131579 0.0131579 0.0131579 0.0131579 0.0131579 0.0131579 0.0131579 0.0131579 0.0131579 0.0131579 0.0131579 0.0131579 0.0131579 0.0131579 0.0131579;
   (1026295355) 4.2039e-45 4.2039e-45 4.2039e-45 4.2039e-45 4.2039e-45 4.2039e-45 4.2039e-45 4.2039e-45 4.2039e-45 4.2039e-45 4.2039e-45 4.2039e-45 4.2039e-45 4.2039e-45 4.2039e-45 4.2039e-45 4.2039e-45 4.2039e-45 4.2039e-45 4.2039e-45 2.81837e-31 2.64257e-14 0.000402943 0.999194 0.000402943 2.64257e-14 2.81837e-31 4.2039e-45 4.2039e-45 4.2039e-45 4.2039e-45 4.2039e-45 4.2039e-45 4.2039e-45 4.2039e-45 4.2039e-45 4.2039e-45 4.2039e-45 4.2039e-45 4.2039e-45 4.2039e-45 4.2039e-45 4.2039e-45 4.2039e-45 4.2039e-45 4.2039e-45 4.2039e-45 4.2039e-45 4.2039e-45 4.2039e-45 4.2039e-45 4.2039e-45 4.2039e-45 4.2039e-45 4.2039e-45 4.2039e-45 4.2039e-45 4.2039e-45 4.2039e-45 4.2039e-45 4.2039e-45 4.2039e-45 4.2039e-45 4.2039e-45 4.2039e-45 4.2039e-45 4.2039e-45 4.2039e-45 4.2039e-45 4.2039e-45 4.2039e-45 4.2039e-45 4.2039e-45 4.2039e-45 4.2039e-45 4.2039e-45;
   (1094954671) 4.2039e-45 4.2039e-45 4.2039e-45 4.2039e-45 4.2039e-45 4.2039e-45 4.2039e-45 4.2039e-45 4.2039e-45 4.2039e-45 4.2039e-45 4.2039e-45 4.2039e-45 4.2039e-45 4.2039e-45 4.2039e-45 4.2039e-45 4.2039e-45 4.2039e-45 4.2039e-45 2.81837e-31 2.64257e-14 0.000402943 0.999194 0.000402943 2.64257e-14 2.81837e-31 4.2039e-45 4.2039e-45 4.2039e-45 4.2039e-45 4.2039e-45 4.2039e-45 4.2039e-45 4.2039e-45 4.2039e-45 4.2039e-45 4.2039e-45 4.2039e-45 4.2039e-45 4.2039e-45 4.2039e-45 4.2039e-45 4.2039e-45 4.2039e-45 4.2039e-45 4.2039e-45 4.2039e-45 4.2039e-45 4.2039e-45 4.2039e-45 4.2039e-45 4.2039e-45 4.2039e-45 4.2039e-45 4.2039e-45 4.2039e-45 4.2039e-45 4.2039e-45 4.2039e-45 4.2039e-45 4.2039e-45 4.2039e-45 4.2039e-45 4.2039e-45 4.2039e-45 4.2039e-45 4.2039e-45 4.2039e-45 4.2039e-45 4.2039e-45 4.2039e-45 4.2039e-45 4.2039e-45 4.2039e-45 4.2039e-45;
   (1031137228) 4.2039e-45 4.2039e-45 4.2039e-45 4.2039e-45 4.2039e-45 4.2039e-45 4.2039e-45 4.2039e-45 4.2039e-45 4.2039e-45 4.2039e-45 4.2039e-45 4.2039e-45 4.2039e-45 4.2039e-45 4.2039e-45 4.2039e-45 4.2039e-45 4.2039e-45 4.2039e-45 4.2039e-45 4.2039e-45 4.2039e-45 4.2039e-45 2.81837e-31 2.64257e-14 0.000402943 0.999194 0.000402943 2.64257e-14 2.81837e-31 4.2039e-45 4.2039e-45 4.2039e-45 4.2039e-45 4.2039e-45 4.2039e-45 4.2039e-45 4.2039e-45 4.2039e-45 4.2039e-45 4.2039e-45 4.2039e-45 4.2039e-45 4.2039e-45 4.2039e-45 4.2039e-45 4.2039e-45 4.2039e-45 4.2039e-45 4.2039e-45 4.2039e-45 4.2039e-45 4.2039e-45 4.2039e-45 4.2039e-45 4.2039e-45 4.2039e-45 4.2039e-45 4.2039e-45 4.2039e-45 4.2039e-45 4.2039e-45 4.2039e-45 4.2039e-45 4.2039e-45 4.2039e-45 4.2039e-45 4.2039e-45 4.2039e-45 4.2039e-45 4.2039e-45 4.2039e-45 4.2039e-45 4.2039e-45 4.2039e-45;
   (1020809921) 4.2039e-45 4.2039e-45 4.2039e-45 4.2039e-45 4.2039e-45 4.2039e-45 4.2039e-45 4.2039e-45 4.2039e-45 4.2039e-45 4.2039e-45 4.2039e-45 4.2039e-45 4.2039e-45 4.2039e-45 4.2039e-45 4.2039e-45 4.2039e-45 4.2039e-45 4.2039e-45 2.81837e-31 2.64257e-14 0.000402943 0.999194 0.000402943 2.64257e-14 2.81837e-31 4.2039e-45 4.2039e-45 4.2039e-45 4.2039e-45 4.2039e-45 4.2039e-45 4.2039e-45 4.2039e-45 4.2039e-45 4.2039e-45 4.2039e-45 4.2039e-45 4.2039e-45 4.2039e-45 4.2039e-45 4.2039e-45 4.2039e-45 4.2039e-45 4.2039e-45 4.2039e-45 4.2039e-45 4.2039e-45 4.2039e-45 4.2039e-45 4.2039e-45 4.2039e-45 4.2039e-45 4.2039e-45 4.2039e-45 4.2039e-45 4.2039e-45 4.2039e-45 4.2039e-45 4.2039e-45 4.2039e-45 4.2039e-45 4.2039e-45 4.2039e-45 4.2039e-45 4.2039e-45 4.2039e-45 4.2039e-45 4.2039e-45 4.2039e-45 4.2039e-45 4.2039e-45 4.2039e-45 4.2039e-45 4.2039e-45;
   (1031150558) 4.2039e-45 4.2039e-45 4.2039e-45 4.2039e-45 4.2039e-45 4.2039e-45 4.2039e-45 4.2039e-45 4.2039e-45 4.2039e-45 4.2039e-45 4.2039e-45 4.2039e-45 4.2039e-45 4.2039e-45 4.2039e-45 4.2039e-45 4.2039e-45 4.2039e-45 4.2039e-45 4.2039e-45 4.2039e-45 2.81837e-31 2.64257e-14 0.000402943 0.999194 0.000402943 2.64257e-14 2.81837e-31 4.2039e-45 4.2039e-45 4.2039e-45 4.2039e-45 4.2039e-45 4.2039e-45 4.2039e-45 4.2039e-45 4.2039e-45 4.2039e-45 4.2039e-45 4.2039e-45 4.2039e-45 4.2039e-45 4.2039e-45 4.2039e-45 4.2039e-45 4.2039e-45 4.2039e-45 4.2039e-45 4.2039e-45 4.2039e-45 4.2039e-45 4.2039e-45 4.2039e-45 4.2039e-45 4.2039e-45 4.2039e-45 4.2039e-45 4.2039e-45 4.2039e-45 4.2039e-45 4.2039e-45 4.2039e-45 4.2039e-45 4.2039e-45 4.2039e-45 4.2039e-45 4.2039e-45 4.2039e-45 4.2039e-45 4.2039e-45 4.2039e-45 4.2039e-45 4.2039e-45 4.2039e-45 4.2039e-45;
   (1020781807) 4.2039e-45 4.2039e-45 4.2039e-45 4.2039e-45 4.2039e-45 4.2039e-45 4.2039e-45 4.2039e-45 4.2039e-45 4.2039e-45 4.2039e-45 4.2039e-45 4.2039e-45 4.2039e-45 4.2039e-45 4.2039e-45 4.2039e-45 4.2039e-45 4.2039e-45 4.2039e-45 4.2039e-45 4.2039e-45 2.81837e-31 2.64257e-14 0.000402943 0.999194 0.000402943 2.64257e-14 2.81837e-31 4.2039e-45 4.2039e-45 4.2039e-45 4.2039e-45 4.2039e-45 4.2039e-45 4.2039e-45 4.2039e-45 4.2039e-45 4.2039e-45 4.2039e-45 4.2039e-45 4.2039e-45 4.2039e-45 4.2039e-45 4.2039e-45 4.2039e-45 4.2039e-45 4.2039e-45 4.2039e-45 4.2039e-45 4.2039e-45 4.2039e-45 4.2039e-45 4.2039e-45 4.2039e-45 4.2039e-45 4.2039e-45 4.2039e-45 4.2039e-45 4.2039e-45 4.2039e-45 4.2039e-45 4.2039e-45 4.2039e-45 4.2039e-45 4.2039e-45 4.2039e-45 4.2039e-45 4.2039e-45 4.2039e-45 4.2039e-45 4.2039e-45 4.2039e-45 4.2039e-45 4.2039e-45 4.2039e-45;
   (1019107402) 4.2039e-45 4.2039e-45 4.2039e-45 4.2039e-45 4.2039e-45 4.2039e-45 4.2039e-45 4.2039e-45 4.2039e-45 4.2039e-45 4.2039e-45 4.2039e-45 4.2039e-45 4.2039e-45 4.2039e-45 4.2039e-45 4.2039e-45 4.2039e-45 4.2039e-45 4.2039e-45 2.81837e-31 2.64257e-14 0.000402943 0.999194 0.000402943 2.64257e-14 2.81837e-31 4.2039e-45 4.2039e-45 4.2039e-45 4.2039e-45 4.2039e-45 4.2039e-45 4.2039e-45 4.2039e-45 4.2039e-45 4.2039e-45 4.2039e-45 4.2039e-45 4.2039e-45 4.2039e-45 4.2039e-45 4.2039e-45 4.2039e-45 4.2039e-45 4.2039e-45 4.2039e-45 4.2039e-45 4.2039e-45 4.2039e-45 4.2039e-45 4.2039e-45 4.2039e-45 4.2039e-45 4.2039e-45 4.2039e-45 4.2039e-45 4.2039e-45 4.2039e-45 4.2039e-45 4.2039e-45 4.2039e-45 4.2039e-45 4.2039e-45 4.2039e-45 4.2039e-45 4.2039e-45 4.2039e-45 4.2039e-45 4.2039e-45 4.2039e-45 4.2039e-45 4.2039e-45 4.2039e-45 4.2039e-45 4.2039e-45;
}
probability (H | I) {
   (0) 0.0052356 0.0052356 0.0052356 0.0052356 0.0052356 0.0052356 0.0052356 0.0052356 0.0052356 0.0052356 0.0052356 0.0052356 0.0052356 0.0052356 0.0052356 0.0052356 0.0052356 0.0052356 0.0052356 0.0052356 0.0052356 0.0052356 0.0052356 0.0052356 0.0052356 0.0052356 0.0052356 0.0052356 0.0052356 0.0052356 0.0052356 0.0052356 0.0052356 0.0052356 0.0052356 0.0052356 0.0052356 0.0052356 0.0052356 0.0052356 0.0052356 0.0052356 0.0052356 0.0052356 0.0052356 0.0052356 0.0052356 0.0052356 0.0052356 0.0052356 0.0052356 0.0052356 0.0052356 0.0052356 0.0052356 0.0052356 0.0052356 0.0052356 0.0052356 0.0052356 0.0052356 0.0052356 0.0052356 0.0052356 0.0052356 0.0052356 0.0052356 0.0052356 0.0052356 0.0052356 0.0052356 0.0052356 0.0052356 0.0052356 0.0052356 0.0052356 0.0052356 0.0052356 0.0052356 0.0052356 0.0052356 0.0052356 0.0052356 0.0052356 0.0052356 0.0052356 0.0052356 0.0052356 0.0052356 0.0052356 0.0052356 0.0052356 0.0052356 0.0052356 0.0052356 0.0052356 0.0052356 0.0052356 0.0052356 0.0052356 0.0052356 0.0052356 0.0052356 0.0052356 0.0052356 0.0052356 0.0052356 0.0052356 0.0052356 0.0052356 0.0052356 0.0052356 0.0052356 0.0052356 0.0052356 0.0052356 0.0052356 0.0052356 0.0052356 0.0052356 0.0052356 0.0052356 0.0052356 0.0052356 0.0052356 0.0052356 0.0052356 0.0052356 0.0052356 0.0052356 0.0052356 0.0052356 0.0052356 0.0052356 0.0052356 0.0052356 0.0052356 0.0052356 0.0052356 0.0052356 0.0052356 0.0052356 0.0052356 0.0052356 0.0052356 0.0052356 0.0052356 0.0052356 0.0052356 0.0052356 0.0052356 0.0052356 0.0052356 0.0052356 0.0052356 0.0052356 0.0052356 0.0052356 0.0052356 0.0052356 0.0052356 0.0052356 0.0052356 0.0052356 0.0052356 0.0052356 0.0052356 0.0052356 0.0052356 0.0052356 0.0052356 0.0052356 0.0052356 0.0052356 0.0052356 0.0052356 0.0052356 0.0052356 0.0052356 0.0052356 0.0052356 0.0052356 0.0052356 0.0052356 0.0052356 0.0052356 0.0052356 0.0052356 0.0052356 0.0052356 0.0052356;
   (1026295355) 3.43841e-13 5.30016e-13 8.13915e-13 1.24517e-12 1.89774e-12 2.88139e-12 4.3584e-12 6.56766e-12 9.85947e-12 1.47453e-11 2.19692e-11 3.26086e-11 4.82181e-11 7.10306e-11 1.04241e-10 1.52403e-10 2.21975e-10 3.22089e-10 4.65591e-10 6.7049e-10 9.6192e-10 1.37481e-09 1.95753e-09 2.77671e-09 3.92384e-09 5.52397e-09 7.74729e-09 1.08245e-08 1.50669e-08 2.08928e-08 2.88623e-08 3.97212e-08 5.44595e-08 7.43845e-08 1.01216e-07 1.37207e-07 1.85295e-07 2.49291e-07 3.34125e-07 4.46139e-07 5.93459e-07 7.86447e-07 1.03826e-06 1.36553e-06 1.78919e-06 2.33545e-06 3.03699e-06 3.93435e-06 5.07765e-06 6.52846e-06 8.36215e-06 1.06705e-05 1.35646e-05 1.71787e-05 2.16736e-05 2.72415e-05 3.41107e-05 4.25508e-05 5.28791e-05 6.54665e-05 8.07444e-05 9.92121e-05 0.000121444 0.000148097 0.000179917 0.000217751 0.000262546 0.000315362 0.000377375 0.000449878 0.000534287 0.000632141 0.000745094 0.000874919 0.00102349 0.00119277 0.0013848 0.00160169 0.00184556 0.00211854 0.00242273 0.00276013 0.00313267 0.00354207 0.00398988 0.00447734 0.0050054 0.00557464 0.00618519 0.00683673 0.00752839 0.00825875 0.0090258 0.00982687 0.0106587 0.0115173 0.0123981 0.013296 0.0142051 0.0151191 0.0160312 0.0169343 0.0178207 0.0186827 0.0195126 0.0203025 0.0210447 0.0217317 0.0223565 0.0229125 0.0233937 0.023795 0.0241118 0.0243407 0.0244791 0.0245254 0.0244791 0.0243407 0.0241118 0.023795 0.0233937 0.0229125 0.0223565 0.0217317 0.0210447 0.0203025 0.0195126 0.0186827 0.0178207 0.0169343 0.0160312 0.0151191 0.0142051 0.013296 0.0123981 0.0115173 0.0106587 0.00982687 0.0090258 0.00825875 0.00752839 0.00683673 0.00618519 0.00557464 0.0050054 0.00447734 0.00398988 0.00354207 0.00313267 0.00276013 0.00242273 0.00211854 0.00184556 0.00160169 0.0013848 0.00119277 0.00102349 0.000874919 0.000745094 0.000632141 0.000534287 0.000449878 0.000377375 0.000315362 0.000262546 0.000217751 0.000179917 0.000148097 0.000121444 9.92121e-05 8.07444e-05 6.54665e-05 5.28791e-05 4.25508e-05 3.41107e-05 2.72415e-05 2.16736e-05 1.71787e-05 1.35646e-05 1.06705e-05 8.36215e-06 6.52846e-06 5.07765e-06 3.93435e-06 3.03699e-06 2.33545e-06 1.78919e-06 1.36553e-06 1.03826e-06 7.86447e-07 5.93459e-07;
   (1094954671) 2.08644e-13 2.08644e-13 2.08644e-13 2.08644e-13 2.08644e-13 2.08644e-13 2.08644e-13 2.08644e-13 2.08644e-13 2.08644e-13 2.08644e-13 2.08644e-13 2.22234e-13 3.43861e-13 5.30047e-13 8.13963e-13 1.24524e-12 1.89785e-12 2.88156e-12 4.35866e-12 6.56805e-12 9.86005e-12 1.47462e-11 2.19705e-11 3.26106e-11 4.82209e-11 7.10348e-11 1.04247e-10 1.52412e-10 2.21989e-10 3.22108e-10 4.65618e-10 6.7053e-10 9.61976e-10 1.3749e-09 1.95764e-09 2.77687e-09 3.92407e-09 5.5243e-09 7.74775e-09 1.08251e-08 1.50678e-08 2.08941e-08 2.8864e-08 3.97236e-08 5.44627e-08 7.43889e-08 1.01222e-07 1.37215e-07 1.85305e-07 2.49306e-07 3.34145e-07 4.46166e-07 5.93494e-07 7.86493e-07 1.03832e-06 1.36561e-06 1.7893e-06 2.33559e-06 3.03717e-06 3.93459e-06 5.07795e-06 6.52885e-06 8.36264e-06 1.06711e-05 1.35654e-05 1.71797e-05 2.16749e-05 2.72432e-05 3.41127e-05 4.25533e-05 5.28822e-05 6.54703e-05 8.07492e-05 9.9218e-05 0.000121451 0.000148105 0.000179928 0.000217764 0.000262562 0.000315381 0.000377397 0.000449904 0.000534319 0.000632178 0.000745138 0.00087497 0.00102355 0.00119284 0.00138489 0.00160179 0.00184567 0.00211867 0.00242287 0.0027603 0.00313286 0.00354228 0.00399011 0.0044776 0.0050057 0.00557497 0.00618556 0.00683713 0.00752883 0.00825924 0.00902633 0.00982745 0.0106593 0.011518 0.0123989 0.0132968 0.0142059 0.01512 0.0160322 0.0169353 0.0178217 0.0186838 0.0195138 0.0203037 0.0210459 0.021733 0.0223578 0.0229138 0.0233951 0.0237964 0.0241132 0.0243421 0.0244805 0.0245268 0.0244805 0.0243421 0.0241132 0.0237964 0.0233951 0.0229138 0.0223578 0.021733 0.0210459 0.0203037 0.0195138 0.0186838 0.0178217 0.0169353 0.0160322 0.01512 0.0142059 0.0132968 0.0123989 0.011518 0.0106593 0.00982745 0.00902633 0.00825924 0.00752883 0.00683713 0.00618556 0.00557497 0.0050057 0.0044776 0.00399011 0.00354228 0.00313286 0.0027603 0.00242287 0.00211867 0.00184567 0.00160179 0.00138489 0.00119284 0.00102355 0.00087497 0.000745138 0.000632178 0.000534319 0.000449904 0.000377397 0.000315381 0.000262562 0.000217764 0.000179928 0.000148105 0.000121451 9.9218e-05 8.07492e-05 6.54703e-05 5.28822e-05 4.25533e-05 3.41127e-05 2.72432e-05 2.16749e-05 1.71797e-05;
   (1031137228) 2.08633e-13 2.08633e-13 2.08633e-13 2.08633e-13 2.22222e-13 3.43843e-13 5.30019e-13 8.1392e-13 1.24518e-12 1.89775e-12 2.88141e-12 4.35843e-12 6.5677e-12 9.85952e-12 1.47454e-11 2.19693e-11 3.26088e-11 4.82183e-11 7.1031e-11 1.04242e-10 1.52404e-10 2.21977e-10 3.2209e-10 4.65593e-10 6.70494e-10 9.61925e-10 1.37482e-09 1.95754e-09 2.77672e-09 3.92386e-09 5.524e-09 7.74734e-09 1.08245e-08 1.5067e-08 2.0893e-08 2.88625e-08 3.97215e-08 5.44598e-08 7.4385e-08 1.01217e-07 1.37208e-07 1.85296e-07 2.49292e-07 3.34127e-07 4.46142e-07 5.93462e-07 7.86451e-07 1.03827e-06 1.36554e-06 1.7892e-06 2.33546e-06 3.037e-06 3.93438e-06 5.07768e-06 6.5285e-06 8.36219e-06 1.06705e-05 1.35647e-05 1.71788e-05 2.16737e-05 2.72417e-05 3.41109e-05 4.25511e-05 5.28794e-05 6.54668e-05 8.07449e-05 9.92127e-05 0.000121445 0.000148097 0.000179918 0.000217752 0.000262548 0.000315364 0.000377377 0.00044988 0.00053429 0.000632144 0.000745099 0.000874923 0.00102349 0.00119278 0.00138481 0.0016017 0.00184557 0.00211856 0.00242274 0.00276015 0.00313269 0.00354209 0.0039899 0.00447736 0.00500543 0.00557467 0.00618523 0.00683676 0.00752843 0.0082588 0.00902585 0.00982693 0.0106587 0.0115174 0.0123982 0.0132961 0.0142052 0.0151192 0.0160313 0.0169343 0.0178208 0.0186828 0.0195127 0.0203026 0.0210448 0.0217318 0.0223566 0.0229126 0.0233939 0.0237951 0.024112 0.0243408 0.0244792 0.0245255 0.0244792 0.0243408 0.024112 0.0237951 0.0233939 0.0229126 0.0223566 0.0217318 0.0210448 0.0203026 0.0195127 0.0186828 0.0178208 0.0169343 0.0160313 0.0151192 0.0142052 0.0132961 0.0123982 0.0115174 0.0106587 0.00982693 0.00902585 0.0082588 0.00752843 0.00683676 0.00618523 0.00557467 0.00500543 0.00447736 0.0039899 0.00354209 0.00313269 0.00276015 0.00242274 0.00211856 0.00184557 0.0016017 0.00138481 0.00119278 0.00102349 0.000874923 0.000745099 0.000632144 0.00053429 0.00044988 0.000377377 0.000315364 0.000262548 0.000217752 0.000179918 0.000148097 0.000121445 9.92127e-05 8.07449e-05 6.54668e-05 5.28794e-05 4.25511e-05 3.41109e-05 2.72417e-05 2.16737e-05 1.71788e-05 1.35647e-05 1.06705e-05 8.36219e-06 6.5285e-06 5.07768e-06 3.93438e-06 3.037e-06 2.33546e-06;
   (1020809921) 2.08648e-13 2.08648e-13 2.08648e-13 2.08648e-13 2.08648e-13 2.08648e-13 2.08648e-13 2.08648e-13 2.08648e-13 2.08648e-13 2.08648e-13 2.08648e-13 2.08648e-13 2.22237e-13 3.43867e-13 5.30056e-13 8.13977e-13 1.24526e-12 1.89788e-12 2.88161e-12 4.35873e-12 6.56817e-12 9.86022e-12 1.47465e-11 2.19709e-11 3.26111e-11 4.82217e-11 7.1036e-11 1.04249e-10 1.52414e-10 2.21992e-10 3.22113e-10 4.65626e-10 6.70541e-10 9.61993e-10 1.37492e-09 1.95768e-09 2.77692e-09 3.92414e-09 5.52439e-09 7.74788e-09 1.08253e-08 1.5068e-08 2.08944e-08 2.88645e-08 3.97243e-08 5.44636e-08 7.43902e-08 1.01224e-07 1.37218e-07 1.85309e-07 2.4931e-07 3.34151e-07 4.46173e-07 5.93504e-07 7.86507e-07 1.03834e-06 1.36564e-06 1.78933e-06 2.33563e-06 3.03722e-06 3.93465e-06 5.07804e-06 6.52896e-06 8.36278e-06 1.06713e-05 1.35656e-05 1.718e-05 2.16753e-05 2.72436e-05 3.41133e-05 4.25541e-05 5.28831e-05 6.54715e-05 8.07506e-05 9.92197e-05 0.000121453 0.000148108 0.000179931 0.000217768 0.000262566 0.000315387 0.000377404 0.000449912 0.000534328 0.000632189 0.000745151 0.000874985 0.00102357 0.00119286 0.00138491 0.00160182 0.00184571 0.00211871 0.00242291 0.00276035 0.00313291 0.00354234 0.00399018 0.00447768 0.00500578 0.00557506 0.00618566 0.00683725 0.00752896 0.00825938 0.00902649 0.00982762 0.0106595 0.0115182 0.0123991 0.013297 0.0142062 0.0151203 0.0160325 0.0169355 0.017822 0.0186842 0.0195141 0.0203041 0.0210463 0.0217333 0.0223582 0.0229142 0.0233955 0.0237968 0.0241137 0.0243426 0.024481 0.0245273 0.024481 0.0243426 0.0241137 0.0237968 0.0233955 0.0229142 0.0223582 0.0217333 0.0210463 0.0203041 0.0195141 0.0186842 0.017822 0.0169355 0.0160325 0.0151203 0.0142062 0.013297 0.0123991 0.0115182 0.0106595 0.00982762 0.00902649 0.00825938 0.00752896 0.00683725 0.00618566 0.00557506 0.00500578 0.00447768 0.00399018 0.00354234 0.00313291 0.00276035 0.00242291 0.00211871 0.00184571 0.00160182 0.00138491 0.00119286 0.00102357 0.000874985 0.000745151 0.000632189 0.000534328 0.000449912 0.000377404 0.000315387 0.000262566 0.000217768 0.000179931 0.000148108 0.000121453 9.92197e-05 8.07506e-05 6.54715e-05 5.28831e-05 4.25541e-05 3.41133e-05 2.72436e-05 2.16753e-05;
   (1031150558) 2.08633e-13 2.08633e-13 2.08633e-13 2.08633e-13 2.22222e-13 3.43843e-13 5.30019e-13 8.1392e-13 1.24518e-12 1.89775e-12 2.88141e-12 4.35843e-12 6.5677e-12 9.85952e-12 1.47454e-11 2.19693e-11 3.26088e-11 4.82183e-11 7.1031e-11 1.04242e-10 1.52404e-10 2.21977e-10 3.2209e-10 4.65593e-10 6.70494e-10 9.61925e-10 1.37482e-09 1.95754e-09 2.77672e-09 3.92386e-09 5.524e-09 7.74734e-09 1.08245e-08 1.5067e-08 2.0893e-08 2.88625e-08 3.97215e-08 5.44598e-08 7.4385e-08 1.01217e-07 1.37208e-07 1.85296e-07 2.49292e-07 3.34127e-07 4.46142e-07 5.93462e-07 7.86451e-07 1.03827e-06 1.36554e-06 1.7892e-06 2.33546e-06 3.037e-06 3.93438e-06 5.07768e-06 6.5285e-06 8.36219e-06 1.06705e-05 1.35647e-05 1.71788e-05 2.16737e-05 2.72417e-05 3.41109e-05 4.25511e-05 5.28794e-05 6.54668e-05 8.07449e-05 9.92127e-05 0.000121445 0.000148097 0.000179918 0.000217752 0.000262548 0.000315364 0.000377377 0.00044988 0.00053429 0.000632144 0.000745099 0.000874923 0.00102349 0.00119278 0.00138481 0.0016017 0.00184557 0.00211856 0.00242274 0.00276015 0.00313269 0.00354209 0.0039899 0.00447736 0.00500543 0.00557467 0.00618523 0.00683676 0.00752843 0.0082588 0.00902585 0.00982693 0.0106587 0.0115174 0.0123982 0.0132961 0.0142052 0.0151192 0.0160313 0.0169343 0.0178208 0.0186828 0.0195127 0.0203026 0.0210448 0.0217318 0.0223566 0.0229126 0.0233939 0.0237951 0.024112 0.0243408 0.0244792 0.0245255 0.0244792 0.0243408 0.024112 0.0237951 0.0233939 0.0229126 0.0223566 0.0217318 0.0210448 0.0203026 0.0195127 0.0186828 0.0178208 0.0169343 0.0160313 0.0151192 0.0142052 0.0132961 0.0123982 0.0115174 0.0106587 0.00982693 0.00902585 0.0082588 0.00752843 0.00683676 0.00618523 0.00557467 0.00500543 0.00447736 0.0039899 0.00354209 0.00313269 0.00276015 0.00242274 0.00211856 0.00184557 0.0016017 0.00138481 0.00119278 0.00102349 0.000874923 0.000745099 0.000632144 0.00053429 0.00044988 0.000377377 0.000315364 0.000262548 0.000217752 0.000179918 0.000148097 0.000121445 9.92127e-05 8.07449e-05 6.54668e-05 5.28794e-05 4.25511e-05 3.41109e-05 2.72417e-05 2.16737e-05 1.71788e-05 1.35647e-05 1.06705e-05 8.36219e-06 6.5285e-06 5.07768e-06 3.93438e-06 3.037e-06 2.33546e-06;
   (1020781807) 2.08633e-13 2.08633e-13 2.08633e-13 2.08633e-13 2.22222e-13 3.43843e-13 5.30019e-13 8.1392e-13 1.24518e-12 1.89775e-12 2.88141e-12 4.35843e-12 6.5677e-12 9.85952e-12 1.47454e-11 2.19693e-11 3.26088e-11 4.82183e-11 7.1031e-11 1.04242e-10 1.52404e-10 2.21977e-10 3.2209e-10 4.65593e-10 6.70494e-10 9.61925e-10 1.37482e-09 1.95754e-09 2.77672e-09 3.92386e-09 5.524e-09 7.74734e-09 1.08245e-08 1.5067e-08 2.0893e-08 2.88625e-08 3.97215e-08 5.44598e-08 7.4385e-08 1.01217e-07 1.37208e-07 1.85296e-07 2.49292e-07 3.34127e-07 4.46142e-07 5.93462e-07 7.86451e-07 1.03827e-06 1.36554e-06 1.7892e-06 2.33546e-06 3.037e-06 3.93438e-06 5.07768e-06 6.5285e-06 8.36219e-06 1.06705e-05 1.35647e-05 1.71788e-05 2.16737e-05 2.72417e-05 3.41109e-05 4.25511e-05 5.28794e-05 6.54668e-05 8.07449e-05 9.92127e-05 0.000121445 0.000148097 0.000179918 0.000217752 0.000262548 0.000315364 0.000377377 0.00044988 0.00053429 0.000632144 0.000745099 0.000874923 0.00102349 0.00119278 0.00138481 0.0016017 0.00184557 0.00211856 0.00242274 0.00276015 0.00313269 0.00354209 0.0039899 0.00447736 0.00500543 0.00557467 0.00618523 0.00683676 0.00752843 0.0082588 0.00902585 0.00982693 0.0106587 0.0115174 0.0123982 0.0132961 0.0142052 0.0151192 0.0160313 0.0169343 0.0178208 0.0186828 0.0195127 0.0203026 0.0210448 0.0217318 0.0223566 0.0229126 0.0233939 0.0237951 0.024112 0.0243408 0.0244792 0.0245255 0.0244792 0.0243408 0.024112 0.0237951 0.0233939 0.0229126 0.0223566 0.0217318 0.0210448 0.0203026 0.0195127 0.0186828 0.0178208 0.0169343 0.0160313 0.0151192 0.0142052 0.0132961 0.0123982 0.0115174 0.0106587 0.00982693 0.00902585 0.0082588 0.00752843 0.00683676 0.00618523 0.00557467 0.00500543 0.00447736 0.0039899 0.00354209 0.00313269 0.00276015 0.00242274 0.00211856 0.00184557 0.0016017 0.00138481 0.00119278 0.00102349 0.000874923 0.000745099 0.000632144 0.00053429 0.00044988 0.000377377 0.000315364 0.000262548 0.000217752 0.000179918 0.000148097 0.000121445 9.92127e-05 8.07449e-05 6.54668e-05 5.28794e-05 4.25511e-05 3.41109e-05 2.72417e-05 2.16737e-05 1.71788e-05 1.35647e-05 1.06705e-05 8.36219e-06 6.5285e-06 5.07768e-06 3.93438e-06 3.037e-06 2.33546e-06;
   (1019107402) 2.08639e-13 2.08639e-13 2.08639e-13 2.08639e-13 2.08639e-13 2.08639e-13 2.08639e-13 2.08639e-13 2.08639e-13 2.08639e-13 2.22228e-13 3.43853e-13 5.30034e-13 8.13944e-13 1.24521e-12 1.8978e-12 2.88149e-12 4.35855e-12 6.56789e-12 9.85981e-12 1.47458e-11 2.197e-11 3.26098e-11 4.82197e-11 7.10331e-11 1.04245e-10 1.52408e-10 2.21983e-10 3.221e-10 4.65607e-10 6.70513e-10 9.61953e-10 1.37486e-09 1.9576e-09 2.77681e-09 3.92398e-09 5.52416e-09 7.74756e-09 1.08249e-08 1.50674e-08 2.08936e-08 2.88633e-08 3.97226e-08 5.44614e-08 7.43871e-08 1.0122e-07 1.37212e-07 1.85301e-07 2.493e-07 3.34137e-07 4.46155e-07 5.93479e-07 7.86474e-07 1.0383e-06 1.36558e-06 1.78926e-06 2.33553e-06 3.03709e-06 3.93449e-06 5.07783e-06 6.52869e-06 8.36244e-06 1.06708e-05 1.35651e-05 1.71793e-05 2.16744e-05 2.72425e-05 3.41119e-05 4.25523e-05 5.2881e-05 6.54688e-05 8.07472e-05 9.92156e-05 0.000121448 0.000148102 0.000179924 0.000217759 0.000262555 0.000315373 0.000377388 0.000449893 0.000534306 0.000632163 0.00074512 0.000874949 0.00102352 0.00119281 0.00138485 0.00160175 0.00184563 0.00211862 0.00242281 0.00276023 0.00313278 0.0035422 0.00399002 0.00447749 0.00500558 0.00557483 0.00618541 0.00683696 0.00752865 0.00825904 0.00902611 0.00982722 0.0106591 0.0115177 0.0123986 0.0132965 0.0142056 0.0151196 0.0160318 0.0169348 0.0178213 0.0186834 0.0195133 0.0203032 0.0210454 0.0217324 0.0223573 0.0229133 0.0233945 0.0237958 0.0241127 0.0243416 0.0244799 0.0245262 0.0244799 0.0243416 0.0241127 0.0237958 0.0233945 0.0229133 0.0223573 0.0217324 0.0210454 0.0203032 0.0195133 0.0186834 0.0178213 0.0169348 0.0160318 0.0151196 0.0142056 0.0132965 0.0123986 0.0115177 0.0106591 0.00982722 0.00902611 0.00825904 0.00752865 0.00683696 0.00618541 0.00557483 0.00500558 0.00447749 0.00399002 0.0035422 0.00313278 0.00276023 0.00242281 0.00211862 0.00184563 0.00160175 0.00138485 0.00119281 0.00102352 0.000874949 0.00074512 0.000632163 0.000534306 0.000449893 0.000377388 0.000315373 0.000262555 0.000217759 0.000179924 0.000148102 0.000121448 9.92156e-05 8.07472e-05 6.54688e-05 5.2881e-05 4.25523e-05 3.41119e-05 2.72425e-05 2.16744e-05 1.71793e-05 1.35651e-05 1.06708e-05;
}
probability (T | I) {
   (0) 0.00297619 0.00297619 0.00297619 0.00297619 0.00297619 0.00297619 0.00297619 0.00297619 0.00297619 0.00297619 0.00297619 0.00297619 0.00297619 0.00297619 0.00297619 0.00297619 0.00297619 0.00297619 0.00297619 0.00297619 0.00297619 0.00297619 0.00297619 0.00297619 0.00297619 0.00297619 0.00297619 0.00297619 0.00297619 0.00297619 0.00297619 0.00297619 0.00297619 0.00297619 0.00297619 0.00297619 0.00297619 0.00297619 0.00297619 0.00297619 0.00297619 0.00297619 0.00297619 0.00297619 0.00297619 0.00297619 0.00297619 0.00297619 0.00297619 0.00297619 0.00297619 0.00297619 0.00297619 0.00297619 0.00297619 0.00297619 0.00297619 0.00297619 0.00297619 0.00297619 0.00297619 0.00297619 0.00297619 0.00297619 0.00297619 0.00297619 0.00297619 0.00297619 0.00297619 0.00297619 0.00297619 0.00297619 0.00297619 0.00297619 0.00297619 0.00297619 0.00297619 0.00297619 0.00297619 0.00297619 0.00297619 0.00297619 0.00297619 0.00297619 0.00297619 0.00297619 0.00297619 0.00297619 0.00297619 0.00297619 0.00297619 0.00297619 0.00297619 0.00297619 0.00297619 0.00297619 0.00297619 0.00297619 0.00297619 0.00297619 0.00297619 0.00297619 0.00297619 0.00297619 0.00297619 0.00297619 0.00297619 0.00297619 0.00297619 0.00297619 0.00297619 0.00297619 0.00297619 0.00297619 0.00297619 0.00297619 0.00297619 0.00297619 0.00297619 0.00297619 0.00297619 0.00297619 0.00297619 0.00297619 0.00297619 0.00297619 0.00297619 0.00297619 0.00297619 0.00297619 0.00297619 0.00297619 0.00297619 0.00297619 0.00297619 0.00297619 0.00297619 0.00297619 0.00297619 0.00297619 0.00297619 0.00297619 0.00297619 0.00297619 0.00297619 0.00297619 0.00297619 0.00297619 0.00297619 0.00297619 0.00297619 0.00297619 0.00297619 0.00297619 0.00297619 0.00297619 0.00297619 0.00297619 0.00297619 0.00297619 0.00297619 0.00297619 0.00297619 0.00297619 0.00297619 0.00297619 0.00297619 0.00297619 0.00297619 0.00297619 0.00297619 0.00297619 0.00297619 0.00297619 0.00297619 0.00297619 0.00297619 0.00297619 0.00297619 0.00297619 0.00297619 0.00297619 0.00297619 0.00297619 0.00297619 0.00297619 0.00297619 0.00297619 0.00297619 0.00297619 0.00297619 0.00297619 0.00297619 0.00297619 0.00297619 0.00297619 0.00297619 0.00297619 0.00297619 0.00297619 0.00297619 0.00297619 0.00297619 0.00297619 0.00297619 0.00297619 0.00297619 0.00297619 0.00297619 0.00297619 0.00297619 0.00297619 0.00297619 0.00297619 0.00297619 0.00297619 0.00297619 0.00297619 0.00297619 0.00297619 0.00297619 0.00297619 0.00297619 0.00297619 0.00297619 0.00297619 0.00297619 0.00297619 0.00297619 0.00297619 0.00297619 0.00297619 0.00297619 0.00297619 0.00297619 0.00297619 0.00297619 0.00297619 0.00297619 0.00297619 0.00297619 0.00297619 0.00297619 0.00297619 0.00297619 0.00297619 0.00297619 0.00297619 0.00297619 0.00297619 0.00297619 0.00297619 0.00297619 0.00297619 0.00297619 0.00297619 0.00297619 0.00297619 0.00297619 0.00297619 0.00297619 0.00297619 0.00297619 0.00297619 0.00297619 0.00297619 0.00297619 0.00297619 0.00297619 0.00297619 0.00297619 0.00297619 0.00297619 0.00297619 0.00297619 0.00297619 0.00297619 0.00297619 0.00297619 0.00297619 0.00297619 0.00297619 0.00297619 0.00297619 0.00297619 0.00297619 0.00297619 0.00297619 0.00297619 0.00297619 0.00297619 0.00297619 0.00297619 0.00297619 0.00297619 0.00297619 0.00297619 0.00297619 0.00297619 0.00297619 0.00297619 0.00297619 0.00297619 0.00297619 0.00297619 0.00297619 0.00297619 0.00297619 0.00297619 0.00297619 0.00297619 0.00297619 0.00297619 0.00297619 0.00297619 0.00297619 0.00297619 0.00297619 0.00297619 0.00297619 0.00297619 0.00297619 0.00297619 0.00297619 0.00297619 0.00297619 0.00297619 0.00297619 0.00297619 0.00297619 0.00297619 0.00297619 0.00297619 0.00297619 0.00297619 0.00297619;
   (1026295355) 6.36298e-27 6.36298e-27 6.36298e-27 6.36298e-27 6.36298e-27 6.36298e-27 6.36298e-27 6.36298e-27 6.36298e-27 6.36298e-27 6.36298e-27 6.36298e-27 6.36298e-27 6.36298e-27 6.36298e-27 6.36298e-27 6.36298e-27 6.36298e-27 6.36298e-27 6.36298e-27 6.36298e-27 6.36298e-27 6.36298e-27 6.36298e-27 6.36298e-27 6.36298e-27 6.36298e-27 6.36298e-27 6.36298e-27 6.36298e-27 6.36298e-27 6.36298e-27 6.36298e-27 6.36298e-27 6.36298e-27 6.36298e-27 6.36298e-27 6.36298e-27 6.36298e-27 6.36298e-27 6.36298e-27 6.36298e-27 6.36298e-27 6.36298e-27 6.36298e-27 6.36298e-27 6.36298e-27 6.36298e-27 1.39534e-25 2.85209e-24 5.35466e-23 9.2339e-22 1.46259e-20 2.12788e-19 2.84352e-18 3.49019e-17 3.93484e-16 4.07465e-15 3.8756e-14 3.38589e-13 2.71701e-12 2.0026e-11 1.35576e-10 8.43054e-10 4.81519e-09 2.52613e-08 1.21726e-07 5.38763e-07 2.19026e-06 8.17859e-06 2.80509e-05 8.83689e-05 0.000255704 0.000679611 0.00165908 0.00372015 0.00766194 0.0144944 0.0251854 0.0401959 0.058925 0.0793418 0.0981272 0.111471 0.116311 0.111471 0.0981272 0.0793418 0.058925 0.0401959 0.0251854 0.0144944 0.00766194 0.00372015 0.00165908 0.000679611 0.000255704 8.83689e-05 2.80509e-05 8.17859e-06 2.19026e-06 5.38763e-07 1.21726e-07 2.52613e-08 4.81519e-09 8.43054e-10 1.35576e-10 2.0026e-11 2.71701e-12 3.38589e-13 3.8756e-14 4.07465e-15 3.93484e-16 3.49019e-17 2.84352e-18 2.12788e-19 1.46259e-20 9.2339e-22 5.35466e-23 2.85209e-24 1.39534e-25 6.36298e-27 6.36298e-27 6.36298e-27 6.36298e-27 6.36298e-27 6.36298e-27 6.36298e-27 6.36298e-27 6.36298e-27 6.36298e-27 6.36298e-27 6.36298e-27 6.36298e-27 6.36298e-27 6.36298e-27 6.36298e-27 6.36298e-27 6.36298e-27 6.36298e-27 6.36298e-27 6.36298e-27 6.36298e-27 6.36298e-27 6.36298e-27 6.36298e-27 6.36298e-27 6.36298e-27 6.36298e-27 6.36298e-27 6.36298e-27 6.36298e-27 6.36298e-27 6.36298e-27 6.36298e-27 6.36298e-27 6.36298e-27 6.36298e-27 6.36298e-27 6.36298e-27 6.36298e-27 6.36298e-27 6.36298e-27 6.36298e-27 6.36298e-27 6.36298e-27 6.36298e-27 6.36298e-27 6.36298e-27 6.36298e-27 6.36298e-27 6.36298e-27 6.36298e-27 6.36298e-27 6.36298e-27 6.36298e-27 6.36298e-27 6.36298e-27 6.36298e-27 6.36298e-27 6.36298e-27 6.36298e-27 6.36298e-27 6.36298e-27 6.36298e-27 6.36298e-27 6.36298e-27 6.36298e-27 6.36298e-27 6.36298e-27 6.36298e-27 6.36298e-27 6.36298e-27 6.36298e-27 6.36298e-27 6.36298e-27 6.36298e-27 6.36298e-27 6.36298e-27 6.36298e-27 6.36298e-27 6.36298e-27 6.36298e-27 6.36298e-27 6.36298e-27 6.36298e-27 6.36298e-27 6.36298e-27 6.36298e-27 6.36298e-27 6.36298e-27 6.36298e-27 6.36298e-27 6.36298e-27 6.36298e-27 6.36298e-27 6.36298e-27 6.36298e-27 6.36298e-27 6.36298e-27 6.36298e-27 6.36298e-27 6.36298e-27 6.36298e-27 6.36298e-27 6.36298e-27 6.36298e-27 6.36298e-27 6.36298e-27 6.36298e-27 6.36298e-27 6.36298e-27 6.36298e-27 6.36298e-27 6.36298e-27 6.36298e-27 6.36298e-27 6.36298e-27 6.36298e-27 6.36298e-27 6.36298e-27 6.36298e-27 6.36298e-27 6.36298e-27 6.36298e-27 6.36298e-27 6.36298e-27 6.36298e-27 6.36298e-27 6.36298e-27 6.36298e-27 6.36298e-27 6.36298e-27 6.36298e-27 6.36298e-27 6.36298e-27 6.36298e-27 6.36298e-27 6.36298e-27 6.36298e-27 6.36298e-27 6.36298e-27 6.36298e-27 6.36298e-27 6.36298e-27 6.36298e-27 6.36298e-27 6.36298e-27 6.36298e-27 6.36298e-27 6.36298e-27 6.36298e-27 6.36298e-27 6.36298e-27 6.36298e-27 6.36298e-27 6.36298e-27 6.36298e-27 6.36298e-27 6.36298e-27 6.36298e-27 6.36298e-27 6.36298e-27 6.36298e-27 6.36298e-27 6.36298e-27 6.36298e-27 6.36298e-27 6.36298e-27 6.36298e-27 6.36298e-27 6.36298e-27 6.36298e-27 6.36298e-27 6.36298e-27 6.36298e-27 6.36298e-27 6.36298e-27 6.36298e-27 6.36298e-27 6.36298e-27 6.36298e-27 6.36298e-27 6.36298e-27 6.36298e-27 6.36298e-27 6.36298e-27 6.36298e-27 6.36298e-27 6.36298e-27 6.36298e-27 6.36298e-27 6.36298e-27 6.36298e-27 6.36298e-27 6.36298e-27 6.36298e-27 6.36298e-27 6.36298e-27 6.36298e-27 6.36298e-27 6.36298e-27 6.36298e-27 6.36298e-27 6.36298e-27 6.36298e-27 6.36298e-27 6.36298e-27 6.36298e-27 6.36298e-27 6.36298e-27 6.36298e-27 6.36298e-27 6.36298e-27 6.36298e-27 6.36298e-27;
   (1094954671) 6.36298e-27 6.36298e-27 6.36298e-27 6.36298e-27 6.36298e-27 6.36298e-27 6.36298e-27 6.36298e-27 6.36298e-27 6.36298e-27 6.36298e-27 6.36298e-27 6.36298e-27 6.36298e-27 6.36298e-27 6.36298e-27 6.36298e-27 6.36298e-27 6.36298e-27 6.36298e-27 6.36298e-27 6.36298e-27 6.36298e-27 6.36298e-27 6.36298e-27 6.36298e-27 6.36298e-27 6.36298e-27 6.36298e-27 6.36298e-27 6.36298e-27 6.36298e-27 6.36298e-27 6.36298e-27 6.36298e-27 6.36298e-27 6.36298e-27 6.36298e-27 6.36298e-27 6.36298e-27 6.36298e-27 6.36298e-27 6.36298e-27 6.36298e-27 6.36298e-27 6.36298e-27 6.36298e-27 6.36298e-27 6.36298e-27 6.36298e-27 6.36298e-27 6.36298e-27 6.36298e-27 6.36298e-27 6.36298e-27 6.36298e-27 6.36298e-27 6.36298e-27 6.36298e-27 6.36298e-27 6.36298e-27 6.36298e-27 6.36298e-27 6.36298e-27 6.36298e-27 6.36298e-27 6.36298e-27 6.36298e-27 6.36298e-27 6.36298e-27 6.36298e-27 6.36298e-27 6.36298e-27 6.36298e-27 6.36298e-27 6.36298e-27 6.36298e-27 6.36298e-27 6.36298e-27 6.36298e-27 6.36298e-27 6.36298e-27 6.36298e-27 6.36298e-27 6.36298e-27 6.36298e-27 6.36298e-27 6.36298e-27 6.36298e-27 6.36298e-27 6.36298e-27 6.36298e-27 6.36298e-27 6.36298e-27 6.36298e-27 1.39534e-25 2.85209e-24 5.35466e-23 9.2339e-22 1.46259e-20 2.12788e-19 2.84352e-18 3.49019e-17 3.93484e-16 4.07465e-15 3.8756e-14 3.38589e-13 2.71701e-12 2.0026e-11 1.35576e-10 8.43054e-10 4.81519e-09 2.52613e-08 1.21726e-07 5.38763e-07 2.19026e-06 8.17859e-06 2.80509e-05 8.83689e-05 0.000255704 0.000679611 0.00165908 0.00372015 0.00766194 0.0144944 0.0251854 0.0401959 0.058925 0.0793418 0.0981272 0.111471 0.116311 0.111471 0.0981272 0.0793418 0.058925 0.0401959 0.0251854 0.0144944 0.00766194 0.00372015 0.00165908 0.000679611 0.000255704 8.83689e-05 2.80509e-05 8.17859e-06 2.19026e-06 5.38763e-07 1.21726e-07 2.52613e-08 4.81519e-09 8.43054e-10 1.35576e-10 2.0026e-11 2.71701e-12 3.38589e-13 3.8756e-14 4.07465e-15 3.93484e-16 3.49019e-17 2.84352e-18 2.12788e-19 1.46259e-20 9.2339e-22 5.35466e-23 2.85209e-24 1.39534e-25 6.36298e-27 6.36298e-27 6.36298e-27 6.36298e-27 6.36298e-27 6.36298e-27 6.36298e-27 6.36298e-27 6.36298e-27 6.36298e-27 6.36298e-27 6.36298e-27 6.36298e-27 6.36298e-27 6.36298e-27 6.36298e-27 6.36298e-27 6.36298e-27 6.36298e-27 6.36298e-27 6.36298e-27 6.36298e-27 6.36298e-27 6.36298e-27 6.36298e-27 6.36298e-27 6.36298e-27 6.36298e-27 6.36298e-27 6.36298e-27 6.36298e-27 6.36298e-27 6.36298e-27 6.36298e-27 6.36298e-27 6.36298e-27 6.36298e-27 6.36298e-27 6.36298e-27 6.36298e-27 6.36298e-27 6.36298e-27 6.36298e-27 6.36298e-27 6.36298e-27 6.36298e-27 6.36298e-27 6.36298e-27 6.36298e-27 6.36298e-27 6.36298e-27 6.36298e-27 6.36298e-27 6.36298e-27 6.36298e-27 6.36298e-27 6.36298e-27 6.36298e-27 6.36298e-27 6.36298e-27 6.36298e-27 6.36298e-27 6.36298e-27 6.36298e-27 6.36298e-27 6.36298e-27 6.36298e-27 6.36298e-27 6.36298e-27 6.36298e-27 6.36298e-27 6.36298e-27 6.36298e-27 6.36298e-27 6.36298e-27 6.36298e-27 6.36298e-27 6.36298e-27 6.36298e-27 6.36298e-27 6.36298e-27 6.36298e-27 6.36298e-27 6.36298e-27 6.36298e-27 6.36298e-27 6.36298e-27 6.36298e-27 6.36298e-27 6.36298e-27 6.36298e-27 6.36298e-27 6.36298e-27 6.36298e-27 6.36298e-27 6.36298e-27 6.36298e-27 6.36298e-27 6.36298e-27 6.36298e-27 6.36298e-27 6.36298e-27 6.36298e-27 6.36298e-27 6.36298e-27 6.36298e-27 6.36298e-27 6.36298e-27 6.36298e-27 6.36298e-27 6.36298e-27 6.36298e-27 6.36298e-27 6.36298e-27 6.36298e-27 6.36298e-27 6.36298e-27 6.36298e-27 6.36298e-27 6.36298e-27 6.36298e-27 6.36298e-27 6.36298e-27 6.36298e-27 6.36298e-27 6.36298e-27 6.36298e-27 6.36298e-27 6.36298e-27 6.36298e-27 6.36298e-27 6.36298e-27 6.36298e-27 6.36298e-27 6.36298e-27 6.36298e-27 6.36298e-27 6.36298e-27 6.36298e-27 6.36298e-27 6.36298e-27 6.36298e-27 6.36298e-27 6.36298e-27 6.36298e-27 6.36298e-27 6.36298e-27 6.36298e-27 6.36298e-27 6.36298e-27 6.36298e-27 6.36298e-27 6.36298e-27 6.36298e-27 6.36298e-27 6.36298e-27 6.36298e-27 6.36298e-27 6.36298e-27 6.36298e-27 6.36298e-27 6.36298e-27 6.36298e-27 6.36298e-27 6.36298e-27 6.36298e-27 6.36298e-27 6.36298e-27;
   (1031137228) 6.36298e-27 6.36298e-27 6.36298e-27 6.36298e-27 6.36298e-27 6.36298e-27 6.36298e-27 6.36298e-27 6.36298e-27 6.36298e-27 6.36298e-27 6.36298e-27 6.36298e-27 6.36298e-27 6.36298e-27 6.36298e-27 6.36298e-27 6.36298e-27 6.36298e-27 6.36298e-27 6.36298e-27 6.36298e-27 6.36298e-27 6.36298e-27 6.36298e-27 6.36298e-27 6.36298e-27 6.36298e-27 6.36298e-27 6.36298e-27 6.36298e-27 6.36298e-27 6.36298e-27 6.36298e-27 6.36298e-27 6.36298e-27 6.36298e-27 6.36298e-27 6.36298e-27 6.36298e-27 6.36298e-27 6.36298e-27 6.36298e-27 6.36298e-27 6.36298e-27 6.36298e-27 6.36298e-27 6.36298e-27 6.36298e-27 6.36298e-27 6.36298e-27 6.36298e-27 6.36298e-27 6.36298e-27 6.36298e-27 6.36298e-27 6.36298e-27 6.36298e-27 6.36298e-27 6.36298e-27 6.36298e-27 6.36298e-27 6.36298e-27 6.36298e-27 6.36298e-27 6.36298e-27 6.36298e-27 6.36298e-27 6.36298e-27 6.36298e-27 6.36298e-27 6.36298e-27 6.36298e-27 6.36298e-27 6.36298e-27 6.36298e-27 6.36298e-27 6.36298e-27 6.36298e-27 6.36298e-27 6.36298e-27 6.36298e-27 6.36298e-27 6.36298e-27 6.36298e-27 6.36298e-27 6.36298e-27 6.36298e-27 6.36298e-27 6.36298e-27 6.36298e-27 6.36298e-27 6.36298e-27 6.36298e-27 6.36298e-27 6.36298e-27 6.36298e-27 6.36298e-27 6.36298e-27 6.36298e-27 6.36298e-27 6.36298e-27 6.36298e-27 6.36298e-27 6.36298e-27 6.36298e-27 6.36298e-27 6.36298e-27 6.36298e-27 6.36298e-27 6.36298e-27 6.36298e-27 6.36298e-27 6.36298e-27 6.36298e-27 6.36298e-27 6.36298e-27 6.36298e-27 6.36298e-27 6.36298e-27 6.36298e-27 6.36298e-27 6.36298e-27 6.36298e-27 6.36298e-27 6.36298e-27 6.36298e-27 6.36298e-27 6.36298e-27 6.36298e-27 6.36298e-27 6.36298e-27 6.36298e-27 6.36298e-27 6.36298e-27 6.36298e-27 6.36298e-27 6.36298e-27 6.36298e-27 6.36298e-27 6.36298e-27 6.36298e-27 6.36298e-27 1.39534e-25 2.85209e-24 5.35466e-23 9.2339e-22 1.46259e-20 2.12788e-19 2.84352e-18 3.49019e-17 3.93484e-16 4.07465e-15 3.8756e-14 3.38589e-13 2.71701e-12 2.0026e-11 1.35576e-10 8.43054e-10 4.81519e-09 2.52613e-08 1.21726e-07 5.38763e-07 2.19026e-06 8.17859e-06 2.80509e-05 8.83689e-05 0.000255704 0.000679611 0.00165908 0.00372015 0.00766194 0.0144944 0.0251854 0.0401959 0.058925 0.0793418 0.0981272 0.111471 0.116311 0.111471 0.0981272 0.0793418 0.058925 0.0401959 0.0251854 0.0144944 0.00766194 0.00372015 0.00165908 0.000679611 0.000255704 8.83689e-05 2.80509e-05 8.17859e-06 2.19026e-06 5.38763e-07 1.21726e-07 2.52613e-08 4.81519e-09 8.43054e-10 1.35576e-10 2.0026e-11 2.71701e-12 3.38589e-13 3.8756e-14 4.07465e-15 3.93484e-16 3.49019e-17 2.84352e-18 2.12788e-19 1.46259e-20 9.2339e-22 5.35466e-23 2.85209e-24 1.39534e-25 6.36298e-27 6.36298e-27 6.36298e-27 6.36298e-27 6.36298e-27 6.36298e-27 6.36298e-27 6.36298e-27 6.36298e-27 6.36298e-27 6.36298e-27 6.36298e-27 6.36298e-27 6.36298e-27 6.36298e-27 6.36298e-27 6.36298e-27 6.36298e-27 6.36298e-27 6.36298e-27 6.36298e-27 6.36298e-27 6.36298e-27 6.36298e-27 6.36298e-27 6.36298e-27 6.36298e-27 6.36298e-27 6.36298e-27 6.36298e-27 6.36298e-27 6.36298e-27 6.36298e-27 6.36298e-27 6.36298e-27 6.36298e-27 6.36298e-27 6.36298e-27 6.36298e-27 6.36298e-27 6.36298e-27 6.36298e-27 6.36298e-27 6.36298e-27 6.36298e-27 6.36298e-27 6.36298e-27 6.36298e-27 6.36298e-27 6.36298e-27 6.36298e-27 6.36298e-27 6.36298e-27 6.36298e-27 6.36298e-27 6.36298e-27 6.36298e-27 6.36298e-27 6.36298e-27 6.36298e-27 6.36298e-27 6.36298e-27 6.36298e-27 6.36298e-27 6.36298e-27 6.36298e-27 6.36298e-27 6.36298e-27 6.36298e-27 6.36298e-27 6.36298e-27 6.36298e-27 6.36298e-27 6.36298e-27 6.36298e-27 6.36298e-27 6.36298e-27 6.36298e-27 6.36298e-27 6.36298e-27 6.36298e-27 6.36298e-27 6.36298e-27 6.36298e-27 6.36298e-27 6.36298e-27 6.36298e-27 6.36298e-27 6.36298e-27 6.36298e-27 6.36298e-27 6.36298e-27 6.36298e-27 6.36298e-27 6.36298e-27 6.36298e-27 6.36298e-27 6.36298e-27 6.36298e-27 6.36298e-27 6.36298e-27 6.36298e-27 6.36298e-27 6.36298e-27 6.36298e-27 6.36298e-27 6.36298e-27 6.36298e-27 6.36298e-27 6.36298e-27 6.36298e-27 6.36298e-27 6.36298e-27 6.36298e-27 6.36298e-27 6.36298e-27 6.36298e-27 6.36298e-27 6.36298e-27 6.36298e-27;
   (1020809921) 6.36298e-27 6.36298e-27 6.36298e-27 6.36298e-27 6.36298e-27 6.36298e-27 6.36298e-27 6.36298e-27 6.36298e-27 6.36298e-27 6.36298e-27 6.36298e-27 6.36298e-27 6.36298e-27 6.36298e-27 6.36298e-27 6.36298e-27 6.36298e-27 6.36298e-27 6.36298e-27 6.36298e-27 6.36298e-27 6.36298e-27 6.36298e-27 6.36298e-27 6.36298e-27 6.36298e-27 6.36298e-27 6.36298e-27 6.36298e-27 6.36298e-27 6.36298e-27 6.36298e-27 6.36298e-27 6.36298e-27 6.36298e-27 6.36298e-27 6.36298e-27 6.36298e-27 6.36298e-27 6.36298e-27 6.36298e-27 6.36298e-27 6.36298e-27 6.36298e-27 6.36298e-27 6.36298e-27 6.36298e-27 6.36298e-27 6.36298e-27 6.36298e-27 6.36298e-27 6.36298e-27 6.36298e-27 6.36298e-27 6.36298e-27 6.36298e-27 6.36298e-27 6.36298e-27 6.36298e-27 6.36298e-27 6.36298e-27 6.36298e-27 6.36298e-27 6.36298e-27 6.36298e-27 6.36298e-27 6.36298e-27 6.36298e-27 6.36298e-27 6.36298e-27 6.36298e-27 6.36298e-27 6.36298e-27 6.36298e-27 6.36298e-27 6.36298e-27 6.36298e-27 6.36298e-27 6.36298e-27 6.36298e-27 6.36298e-27 6.36298e-27 6.36298e-27 6.36298e-27 6.36298e-27 6.36298e-27 6.36298e-27 6.36298e-27 6.36298e-27 6.36298e-27 6.36298e-27 6.36298e-27 6.36298e-27 6.36298e-27 6.36298e-27 6.36298e-27 6.36298e-27 6.36298e-27 6.36298e-27 6.36298e-27 6.36298e-27 6.36298e-27 6.36298e-27 6.36298e-27 6.36298e-27 6.36298e-27 6.36298e-27 6.36298e-27 6.36298e-27 6.36298e-27 6.36298e-27 6.36298e-27 6.36298e-27 6.36298e-27 6.36298e-27 6.36298e-27 6.36298e-27 6.36298e-27 6.36298e-27 6.36298e-27 6.36298e-27 6.36298e-27 6.36298e-27 6.36298e-27 6.36298e-27 6.36298e-27 6.36298e-27 6.36298e-27 6.36298e-27 6.36298e-27 6.36298e-27 6.36298e-27 6.36298e-27 6.36298e-27 6.36298e-27 6.36298e-27 6.36298e-27 6.36298e-27 6.36298e-27 6.36298e-27 6.36298e-27 6.36298e-27 6.36298e-27 6.36298e-27 6.36298e-27 6.36298e-27 6.36298e-27 6.36298e-27 6.36298e-27 6.36298e-27 6.36298e-27 6.36298e-27 6.36298e-27 6.36298e-27 6.36298e-27 6.36298e-27 6.36298e-27 6.36298e-27 6.36298e-27 6.36298e-27 6.36298e-27 6.36298e-27 6.36298e-27 6.36298e-27 6.36298e-27 6.36298e-27 6.36298e-27 6.36298e-27 6.36298e-27 6.36298e-27 6.36298e-27 6.36298e-27 6.36298e-27 6.36298e-27 6.36298e-27 6.36298e-27 6.36298e-27 6.36298e-27 6.36298e-27 6.36298e-27 6.36298e-27 6.36298e-27 6.36298e-27 6.36298e-27 1.39534e-25 2.85209e-24 5.35466e-23 9.2339e-22 1.46259e-20 2.12788e-19 2.84352e-18 3.49019e-17 3.93484e-16 4.07465e-15 3.8756e-14 3.38589e-13 2.71701e-12 2.0026e-11 1.35576e-10 8.43054e-10 4.81519e-09 2.52613e-08 1.21726e-07 5.38763e-07 2.19026e-06 8.17859e-06 2.80509e-05 8.83689e-05 0.000255704 0.000679611 0.00165908 0.00372015 0.00766194 0.0144944 0.0251854 0.0401959 0.058925 0.0793418 0.0981272 0.111471 0.116311 0.111471 0.0981272 0.0793418 0.058925 0.0401959 0.0251854 0.0144944 0.00766194 0.00372015 0.00165908 0.000679611 0.000255704 8.83689e-05 2.80509e-05 8.17859e-06 2.19026e-06 5.38763e-07 1.21726e-07 2.52613e-08 4.81519e-09 8.43054e-10 1.35576e-10 2.0026e-11 2.71701e-12 3.38589e-13 3.8756e-14 4.07465e-15 3.93484e-16 3.49019e-17 2.84352e-18 2.12788e-19 1.46259e-20 9.2339e-22 5.35466e-23 2.85209e-24 1.39534e-25 6.36298e-27 6.36298e-27 6.36298e-27 6.36298e-27 6.36298e-27 6.36298e-27 6.36298e-27 6.36298e-27 6.36298e-27 6.36298e-27 6.36298e-27 6.36298e-27 6.36298e-27 6.36298e-27 6.36298e-27 6.36298e-27 6.36298e-27 6.36298e-27 6.36298e-27 6.36298e-27 6.36298e-27 6.36298e-27 6.36298e-27 6.36298e-27 6.36298e-27 6.36298e-27 6.36298e-27 6.36298e-27 6.36298e-27 6.36298e-27 6.36298e-27 6.36298e-27 6.36298e-27 6.36298e-27 6.36298e-27 6.36298e-27 6.36298e-27 6.36298e-27 6.36298e-27 6.36298e-27 6.36298e-27 6.36298e-27 6.36298e-27 6.36298e-27 6.36298e-27 6.36298e-27 6.36298e-27 6.36298e-27 6.36298e-27 6.36298e-27 6.36298e-27 6.36298e-27 6.36298e-27 6.36298e-27 6.36298e-27 6.36298e-27 6.36298e-27 6.36298e-27 6.36298e-27 6.36298e-27 6.36298e-27 6.36298e-27 6.36298e-27 6.36298e-27 6.36298e-27 6.36298e-27 6.36298e-27 6.36298e-27 6.36298e-27 6.36298e-27 6.36298e-27 6.36298e-27 6.36298e-27 6.36298e-27 6.36298e-27 6.36298e-27 6.36298e-27 6.36298e-27;
   (1031150558) 6.36298e-27 6.36298e-27 6.36298e-27 6.36298e-27 6.36298e-27 6.36298e-27 6.36298e-27 6.36298e-27 6.36298e-27 6.36298e-27 6.36298e-27 6.36298e-27 6.36298e-27 6.36298e-27 6.36298e-27 6.36298e-27 6.36298e-27 6.36298e-27 6.36298e-27 6.36298e-27 6.36298e-27 6.36298e-27 6.36298e-27 6.36298e-27 6.36298e-27 6.36298e-27 6.36298e-27 6.36298e-27 6.36298e-27 6.36298e-27 6.36298e-27 6.36298e-27 6.36298e-27 6.36298e-27 6.36298e-27 6.36298e-27 6.36298e-27 6.36298e-27 6.36298e-27 6.36298e-27 6.36298e-27 6.36298e-27 6.36298e-27 6.36298e-27 6.36298e-27 6.36298e-27 6.36298e-27 6.36298e-27 1.39534e-25 2.85209e-24 5.35466e-23 9.2339e-22 1.46259e-20 2.12788e-19 2.84352e-18 3.49019e-17 3.93484e-16 4.07465e-15 3.8756e-14 3.38589e-13 2.71701e-12 2.0026e-11 1.35576e-10 8.43054e-10 4.81519e-09 2.52613e-08 1.21726e-07 5.38763e-07 2.19026e-06 8.17859e-06 2.80509e-05 8.83689e-05 0.000255704 0.000679611 0.00165908 0.00372015 0.00766194 0.0144944 0.0251854 0.0401959 0.058925 0.0793418 0.0981272 0.111471 0.116311 0.111471 0.0981272 0.0793418 0.058925 0.0401959 0.0251854 0.0144944 0.00766194 0.00372015 0.00165908 0.000679611 0.000255704 8.83689e-05 2.80509e-05 8.17859e-06 2.19026e-06 5.38763e-07 1.21726e-07 2.52613e-08 4.81519e-09 8.43054e-10 1.35576e-10 2.0026e-11 2.71701e-12 3.38589e-13 3.8756e-14 4.07465e-15 3.93484e-16 3.49019e-17 2.84352e-18 2.12788e-19 1.46259e-20 9.2339e-22 5.35466e-23 2.85209e-24 1.39534e-25 6.36298e-27 6.36298e-27 6.36298e-27 6.36298e-27 6.36298e-27 6.36298e-27 6.36298e-27 6.36298e-27 6.36298e-27 6.36298e-27 6.36298e-27 6.36298e-27 6.36298e-27 6.36298e-27 6.36298e-27 6.36298e-27 6.36298e-27 6.36298e-27 6.36298e-27 6.36298e-27 6.36298e-27 6.36298e-27 6.36298e-27 6.36298e-27 6.36298e-27 6.36298e-27 6.36298e-27 6.36298e-27 6.36298e-27 6.36298e-27 6.36298e-27 6.36298e-27 6.36298e-27 6.36298e-27 6.36298e-27 6.36298e-27 6.36298e-27 6.36298e-27 6.36298e-27 6.36298e-27 6.36298e-27 6.36298e-27 6.36298e-27 6.36298e-27 6.36298e-27 6.36298e-27 6.36298e-27 6.36298e-27 6.36298e-27 6.36298e-27 6.36298e-27 6.36298e-27 6.36298e-27 6.36298e-27 6.36298e-27 6.36298e-27 6.36298e-27 6.36298e-27 6.36298e-27 6.36298e-27 6.36298e-27 6.36298e-27 6.36298e-27 6.36298e-27 6.36298e-27 6.36298e-27 6.36298e-27 6.36298e-27 6.36298e-27 6.36298e-27 6.36298e-27 6.36298e-27 6.36298e-27 6.36298e-27 6.36298e-27 6.36298e-27 6.36298e-27 6.36298e-27 6.36298e-27 6.36298e-27 6.36298e-27 6.36298e-27 6.36298e-27 6.36298e-27 6.36298e-27 6.36298e-27 6.36298e-27 6.36298e-27 6.36298e-27 6.36298e-27 6.36298e-27 6.36298e-27 6.36298e-27 6.36298e-27 6.36298e-27 6.36298e-27 6.36298e-27 6.36298e-27 6.36298e-27 6.36298e-27 6.36298e-27 6.36298e-27 6.36298e-27 6.36298e-27 6.36298e-27 6.36298e-27 6.36298e-27 6.36298e-27 6.36298e-27 6.36298e-27 6.36298e-27 6.36298e-27 6.36298e-27 6.36298e-27 6.36298e-27 6.36298e-27 6.36298e-27 6.36298e-27 6.36298e-27 6.36298e-27 6.36298e-27 6.36298e-27 6.36298e-27 6.36298e-27 6.36298e-27 6.36298e-27 6.36298e-27 6.36298e-27 6.36298e-27 6.36298e-27 6.36298e-27 6.36298e-27 6.36298e-27 6.36298e-27 6.36298e-27 6.36298e-27 6.36298e-27 6.36298e-27 6.36298e-27 6.36298e-27 6.36298e-27 6.36298e-27 6.36298e-27 6.36298e-27 6.36298e-27 6.36298e-27 6.36298e-27 6.36298e-27 6.36298e-27 6.36298e-27 6.36298e-27 6.36298e-27 6.36298e-27 6.36298e-27 6.36298e-27 6.36298e-27 6.36298e-27 6.36298e-27 6.36298e-27 6.36298e-27 6.36298e-27 6.36298e-27 6.36298e-27 6.36298e-27 6.36298e-27 6.36298e-27 6.36298e-27 6.36298e-27 6.36298e-27 6.36298e-27 6.36298e-27 6.36298e-27 6.36298e-27 6.36298e-27 6.36298e-27 6.36298e-27 6.36298e-27 6.36298e-27 6.36298e-27 6.36298e-27 6.36298e-27 6.36298e-27 6.36298e-27 6.36298e-27 6.36298e-27 6.36298e-27 6.36298e-27 6.36298e-27 6.36298e-27 6.36298e-27 6.36298e-27 6.36298e-27 6.36298e-27 6.36298e-27 6.36298e-27 6.36298e-27 6.36298e-27 6.36298e-27 6.36298e-27 6.36298e-27 6.36298e-27 6.36298e-27 6.36298e-27 6.36298e-27 6.36298e-27 6.36298e-27 6.36298e-27 6.36298e-27 6.36298e-27 6.36298e-27 6.36298e-27 6.36298e-27 6.36298e-27 6.36298e-27 6.36298e-27;
   (1020781807) 6.36298e-27 6.36298e-27 6.36298e-27 6.36298e-27 6.36298e-27 6.36298e-27 6.36298e-27 6.36298e-27 6.36298e-27 6.36298e-27 6.36298e-27 6.36298e-27 6.36298e-27 6.36298e-27 6.36298e-27 6.36298e-27 6.36298e-27 6.36298e-27 6.36298e-27 6.36298e-27 6.36298e-27 6.36298e-27 6.36298e-27 6.36298e-27 6.36298e-27 6.36298e-27 6.36298e-27 6.36298e-27 6.36298e-27 6.36298e-27 6.36298e-27 6.36298e-27 6.36298e-27 6.36298e-27 6.36298e-27 6.36298e-27 6.36298e-27 6.36298e-27 6.36298e-27 6.36298e-27 6.36298e-27 6.36298e-27 6.36298e-27 6.36298e-27 6.36298e-27 6.36298e-27 6.36298e-27 6.36298e-27 6.36298e-27 6.36298e-27 6.36298e-27 6.36298e-27 6.36298e-27 6.36298e-27 6.36298e-27 6.36298e-27 6.36298e-27 6.36298e-27 6.36298e-27 6.36298e-27 6.36298e-27 6.36298e-27 6.36298e-27 6.36298e-27 6.36298e-27 6.36298e-27 6.36298e-27 6.36298e-27 6.36298e-27 6.36298e-27 6.36298e-27 6.36298e-27 6.36298e-27 6.36298e-27 6.36298e-27 6.36298e-27 6.36298e-27 6.36298e-27 6.36298e-27 6.36298e-27 6.36298e-27 6.36298e-27 6.36298e-27 6.36298e-27 6.36298e-27 6.36298e-27 6.36298e-27 6.36298e-27 6.36298e-27 1.39534e-25 2.85209e-24 5.35466e-23 9.2339e-22 1.46259e-20 2.12788e-19 2.84352e-18 3.49019e-17 3.93484e-16 4.07465e-15 3.8756e-14 3.38589e-13 2.71701e-12 2.0026e-11 1.35576e-10 8.43054e-10 4.81519e-09 2.52613e-08 1.21726e-07 5.38763e-07 2.19026e-06 8.17859e-06 2.80509e-05 8.83689e-05 0.000255704 0.000679611 0.00165908 0.00372015 0.00766194 0.0144944 0.0251854 0.0401959 0.058925 0.0793418 0.0981272 0.111471 0.116311 0.111471 0.0981272 0.0793418 0.058925 0.0401959 0.0251854 0.0144944 0.00766194 0.00372015 0.00165908 0.000679611 0.000255704 8.83689e-05 2.80509e-05 8.17859e-06 2.19026e-06 5.38763e-07 1.21726e-07 2.52613e-08 4.81519e-09 8.43054e-10 1.35576e-10 2.0026e-11 2.71701e-12 3.38589e-13 3.8756e-14 4.07465e-15 3.93484e-16 3.49019e-17 2.84352e-18 2.12788e-19 1.46259e-20 9.2339e-22 5.35466e-23 2.85209e-24 1.39534e-25 6.36298e-27 6.36298e-27 6.36298e-27 6.36298e-27 6.36298e-27 6.36298e-27 6.36298e-27 6.36298e-27 6.36298e-27 6.36298e-27 6.36298e-27 6.36298e-27 6.36298e-27 6.36298e-27 6.36298e-27 6.36298e-27 6.36298e-27 6.36298e-27 6.36298e-27 6.36298e-27 6.36298e-27 6.36298e-27 6.36298e-27 6.36298e-27 6.36298e-27 6.36298e-27 6.36298e-27 6.36298e-27 6.36298e-27 6.36298e-27 6.36298e-27 6.36298e-27 6.36298e-27 6.36298e-27 6.36298e-27 6.36298e-27 6.36298e-27 6.36298e-27 6.36298e-27 6.36298e-27 6.36298e-27 6.36298e-27 6.36298e-27 6.36298e-27 6.36298e-27 6.36298e-27 6.36298e-27 6.36298e-27 6.36298e-27 6.36298e-27 6.36298e-27 6.36298e-27 6.36298e-27 6.36298e-27 6.36298e-27 6.36298e-27 6.36298e-27 6.36298e-27 6.36298e-27 6.36298e-27 6.36298e-27 6.36298e-27 6.36298e-27 6.36298e-27 6.36298e-27 6.36298e-27 6.36298e-27 6.36298e-27 6.36298e-27 6.36298e-27 6.36298e-27 6.36298e-27 6.36298e-27 6.36298e-27 6.36298e-27 6.36298e-27 6.36298e-27 6.36298e-27 6.36298e-27 6.36298e-27 6.36298e-27 6.36298e-27 6.36298e-27 6.36298e-27 6.36298e-27 6.36298e-27 6.36298e-27 6.36298e-27 6.36298e-27 6.36298e-27 6.36298e-27 6.36298e-27 6.36298e-27 6.36298e-27 6.36298e-27 6.36298e-27 6.36298e-27 6.36298e-27 6.36298e-27 6.36298e-27 6.36298e-27 6.36298e-27 6.36298e-27 6.36298e-27 6.36298e-27 6.36298e-27 6.36298e-27 6.36298e-27 6.36298e-27 6.36298e-27 6.36298e-27 6.36298e-27 6.36298e-27 6.36298e-27 6.36298e-27 6.36298e-27 6.36298e-27 6.36298e-27 6.36298e-27 6.36298e-27 6.36298e-27 6.36298e-27 6.36298e-27 6.36298e-27 6.36298e-27 6.36298e-27 6.36298e-27 6.36298e-27 6.36298e-27 6.36298e-27 6.36298e-27 6.36298e-27 6.36298e-27 6.36298e-27 6.36298e-27 6.36298e-27 6.36298e-27 6.36298e-27 6.36298e-27 6.36298e-27 6.36298e-27 6.36298e-27 6.36298e-27 6.36298e-27 6.36298e-27 6.36298e-27 6.36298e-27 6.36298e-27 6.36298e-27 6.36298e-27 6.36298e-27 6.36298e-27 6.36298e-27 6.36298e-27 6.36298e-27 6.36298e-27 6.36298e-27 6.36298e-27 6.36298e-27 6.36298e-27 6.36298e-27 6.36298e-27 6.36298e-27 6.36298e-27 6.36298e-27 6.36298e-27 6.36298e-27 6.36298e-27 6.36298e-27 6.36298e-27 6.36298e-27 6.36298e-27 6.36298e-27 6.36298e-27;
   (1019107402) 6.36298e-27 6.36298e-27 6.36298e-27 6.36298e-27 6.36298e-27 6.36298e-27 6.36298e-27 6.36298e-27 6.36298e-27 6.36298e-27 6.36298e-27 6.36298e-27 6.36298e-27 6.36298e-27 6.36298e-27 6.36298e-27 6.36298e-27 6.36298e-27 6.36298e-27 6.36298e-27 6.36298e-27 6.36298e-27 6.36298e-27 6.36298e-27 6.36298e-27 6.36298e-27 6.36298e-27 6.36298e-27 6.36298e-27 6.36298e-27 6.36298e-27 6.36298e-27 6.36298e-27 6.36298e-27 6.36298e-27 6.36298e-27 6.36298e-27 6.36298e-27 6.36298e-27 6.36298e-27 6.36298e-27 6.36298e-27 6.36298e-27 6.36298e-27 6.36298e-27 6.36298e-27 6.36298e-27 6.36298e-27 6.36298e-27 6.36298e-27 6.36298e-27 6.36298e-27 6.36298e-27 6.36298e-27 6.36298e-27 6.36298e-27 6.36298e-27 6.36298e-27 6.36298e-27 6.36298e-27 6.36298e-27 6.36298e-27 6.36298e-27 6.36298e-27 6.36298e-27 6.36298e-27 6.36298e-27 6.36298e-27 6.36298e-27 6.36298e-27 6.36298e-27 6.36298e-27 6.36298e-27 6.36298e-27 6.36298e-27 6.36298e-27 6.36298e-27 6.36298e-27 6.36298e-27 6.36298e-27 6.36298e-27 6.36298e-27 6.36298e-27 6.36298e-27 6.36298e-27 6.36298e-27 6.36298e-27 6.36298e-27 6.36298e-27 6.36298e-27 6.36298e-27 6.36298e-27 6.36298e-27 6.36298e-27 6.36298e-27 6.36298e-27 6.36298e-27 6.36298e-27 6.36298e-27 6.36298e-27 6.36298e-27 6.36298e-27 6.36298e-27 6.36298e-27 6.36298e-27 6.36298e-27 6.36298e-27 6.36298e-27 6.36298e-27 6.36298e-27 6.36298e-27 6.36298e-27 6.36298e-27 6.36298e-27 6.36298e-27 6.36298e-27 6.36298e-27 6.36298e-27 6.36298e-27 6.36298e-27 6.36298e-27 6.36298e-27 6.36298e-27 6.36298e-27 6.36298e-27 6.36298e-27 6.36298e-27 6.36298e-27 6.36298e-27 6.36298e-27 6.36298e-27 6.36298e-27 6.36298e-27 6.36298e-27 6.36298e-27 6.36298e-27 6.36298e-27 6.36298e-27 6.36298e-27 6.36298e-27 6.36298e-27 1.39534e-25 2.85209e-24 5.35466e-23 9.2339e-22 1.46259e-20 2.12788e-19 2.84352e-18 3.49019e-17 3.93484e-16 4.07465e-15 3.8756e-14 3.38589e-13 2.71701e-12 2.0026e-11 1.35576e-10 8.43054e-10 4.81519e-09 2.52613e-08 1.21726e-07 5.38763e-07 2.19026e-06 8.17859e-06 2.80509e-05 8.83689e-05 0.000255704 0.000679611 0.00165908 0.00372015 0.00766194 0.0144944 0.0251854 0.0401959 0.058925 0.0793418 0.0981272 0.111471 0.116311 0.111471 0.0981272 0.0793418 0.058925 0.0401959 0.0251854 0.0144944 0.00766194 0.00372015 0.00165908 0.000679611 0.000255704 8.83689e-05 2.80509e-05 8.17859e-06 2.19026e-06 5.38763e-07 1.21726e-07 2.52613e-08 4.81519e-09 8.43054e-10 1.35576e-10 2.0026e-11 2.71701e-12 3.38589e-13 3.8756e-14 4.07465e-15 3.93484e-16 3.49019e-17 2.84352e-18 2.12788e-19 1.46259e-20 9.2339e-22 5.35466e-23 2.85209e-24 1.39534e-25 6.36298e-27 6.36298e-27 6.36298e-27 6.36298e-27 6.36298e-27 6.36298e-27 6.36298e-27 6.36298e-27 6.36298e-27 6.36298e-27 6.36298e-27 6.36298e-27 6.36298e-27 6.36298e-27 6.36298e-27 6.36298e-27 6.36298e-27 6.36298e-27 6.36298e-27 6.36298e-27 6.36298e-27 6.36298e-27 6.36298e-27 6.36298e-27 6.36298e-27 6.36298e-27 6.36298e-27 6.36298e-27 6.36298e-27 6.36298e-27 6.36298e-27 6.36298e-27 6.36298e-27 6.36298e-27 6.36298e-27 6.36298e-27 6.36298e-27 6.36298e-27 6.36298e-27 6.36298e-27 6.36298e-27 6.36298e-27 6.36298e-27 6.36298e-27 6.36298e-27 6.36298e-27 6.36298e-27 6.36298e-27 6.36298e-27 6.36298e-27 6.36298e-27 6.36298e-27 6.36298e-27 6.36298e-27 6.36298e-27 6.36298e-27 6.36298e-27 6.36298e-27 6.36298e-27 6.36298e-27 6.36298e-27 6.36298e-27 6.36298e-27 6.36298e-27 6.36298e-27 6.36298e-27 6.36298e-27 6.36298e-27 6.36298e-27 6.36298e-27 6.36298e-27 6.36298e-27 6.36298e-27 6.36298e-27 6.36298e-27 6.36298e-27 6.36298e-27 6.36298e-27 6.36298e-27 6.36298e-27 6.36298e-27 6.36298e-27 6.36298e-27 6.36298e-27 6.36298e-27 6.36298e-27 6.36298e-27 6.36298e-27 6.36298e-27 6.36298e-27 6.36298e-27 6.36298e-27 6.36298e-27 6.36298e-27 6.36298e-27 6.36298e-27 6.36298e-27 6.36298e-27 6.36298e-27 6.36298e-27 6.36298e-27 6.36298e-27 6.36298e-27 6.36298e-27 6.36298e-27 6.36298e-27 6.36298e-27 6.36298e-27 6.36298e-27 6.36298e-27 6.36298e-27 6.36298e-27 6.36298e-27 6.36298e-27 6.36298e-27 6.36298e-27 6.36298e-27 6.36298e-27 6.36298e-27 6.36298e-27 6.36298e-27 6.36298e-27;
}

