network "C:\Users\sorcar\github\Cardiac\db\memory\recognition\RecogniserBN.bif" {
// written by aGrUM 0.14.1
}

variable I {
   type discrete[25] {0, 314591, 1019107402, 2964414, 9515830, 1052411482, 79397631, 20947316, 80431643, 3014218, 1032480996, 9496683, 3014208, 792781074, 35489133, 123, 79278774, 1, 80087508, 6003265, 1094952099, 1026295355, 2, 3, 1118574845};
}

variable F {
   type discrete[25] {0, 314591, 1019107402, 2964414, 9515830, 1052411482, 79397631, 20947316, 80431643, 3014218, 1032480996, 9496683, 3014208, 792781074, 35489133, 123, 79278774, 1, 80087508, 6003265, 1094952099, 1026295355, 2, 3, 1118574845};
}

variable G {
   type discrete[2] {Female, Male};
}

variable A {
   type discrete[76] {0, 1, 2, 3, 4, 5, 6, 7, 8, 9, 10, 11, 12, 13, 14, 15, 16, 17, 18, 19, 20, 21, 22, 23, 24, 25, 26, 27, 28, 29, 30, 31, 32, 33, 34, 35, 36, 37, 38, 39, 40, 41, 42, 43, 44, 45, 46, 47, 48, 49, 50, 51, 52, 53, 54, 55, 56, 57, 58, 59, 60, 61, 62, 63, 64, 65, 66, 67, 68, 69, 70, 71, 72, 73, 74, 75};
}

variable H {
   type discrete[191] {50, 51, 52, 53, 54, 55, 56, 57, 58, 59, 60, 61, 62, 63, 64, 65, 66, 67, 68, 69, 70, 71, 72, 73, 74, 75, 76, 77, 78, 79, 80, 81, 82, 83, 84, 85, 86, 87, 88, 89, 90, 91, 92, 93, 94, 95, 96, 97, 98, 99, 100, 101, 102, 103, 104, 105, 106, 107, 108, 109, 110, 111, 112, 113, 114, 115, 116, 117, 118, 119, 120, 121, 122, 123, 124, 125, 126, 127, 128, 129, 130, 131, 132, 133, 134, 135, 136, 137, 138, 139, 140, 141, 142, 143, 144, 145, 146, 147, 148, 149, 150, 151, 152, 153, 154, 155, 156, 157, 158, 159, 160, 161, 162, 163, 164, 165, 166, 167, 168, 169, 170, 171, 172, 173, 174, 175, 176, 177, 178, 179, 180, 181, 182, 183, 184, 185, 186, 187, 188, 189, 190, 191, 192, 193, 194, 195, 196, 197, 198, 199, 200, 201, 202, 203, 204, 205, 206, 207, 208, 209, 210, 211, 212, 213, 214, 215, 216, 217, 218, 219, 220, 221, 222, 223, 224, 225, 226, 227, 228, 229, 230, 231, 232, 233, 234, 235, 236, 237, 238, 239, 240};
}

variable T {
   type discrete[336] {0, 1, 2, 3, 4, 5, 6, 7, 8, 9, 10, 11, 12, 13, 14, 15, 16, 17, 18, 19, 20, 21, 22, 23, 24, 25, 26, 27, 28, 29, 30, 31, 32, 33, 34, 35, 36, 37, 38, 39, 40, 41, 42, 43, 44, 45, 46, 47, 48, 49, 50, 51, 52, 53, 54, 55, 56, 57, 58, 59, 60, 61, 62, 63, 64, 65, 66, 67, 68, 69, 70, 71, 72, 73, 74, 75, 76, 77, 78, 79, 80, 81, 82, 83, 84, 85, 86, 87, 88, 89, 90, 91, 92, 93, 94, 95, 96, 97, 98, 99, 100, 101, 102, 103, 104, 105, 106, 107, 108, 109, 110, 111, 112, 113, 114, 115, 116, 117, 118, 119, 120, 121, 122, 123, 124, 125, 126, 127, 128, 129, 130, 131, 132, 133, 134, 135, 136, 137, 138, 139, 140, 141, 142, 143, 144, 145, 146, 147, 148, 149, 150, 151, 152, 153, 154, 155, 156, 157, 158, 159, 160, 161, 162, 163, 164, 165, 166, 167, 168, 169, 170, 171, 172, 173, 174, 175, 176, 177, 178, 179, 180, 181, 182, 183, 184, 185, 186, 187, 188, 189, 190, 191, 192, 193, 194, 195, 196, 197, 198, 199, 200, 201, 202, 203, 204, 205, 206, 207, 208, 209, 210, 211, 212, 213, 214, 215, 216, 217, 218, 219, 220, 221, 222, 223, 224, 225, 226, 227, 228, 229, 230, 231, 232, 233, 234, 235, 236, 237, 238, 239, 240, 241, 242, 243, 244, 245, 246, 247, 248, 249, 250, 251, 252, 253, 254, 255, 256, 257, 258, 259, 260, 261, 262, 263, 264, 265, 266, 267, 268, 269, 270, 271, 272, 273, 274, 275, 276, 277, 278, 279, 280, 281, 282, 283, 284, 285, 286, 287, 288, 289, 290, 291, 292, 293, 294, 295, 296, 297, 298, 299, 300, 301, 302, 303, 304, 305, 306, 307, 308, 309, 310, 311, 312, 313, 314, 315, 316, 317, 318, 319, 320, 321, 322, 323, 324, 325, 326, 327, 328, 329, 330, 331, 332, 333, 334, 335};
}

probability (I) {
   default 0.04 0.04 0.04 0.04 0.04 0.04 0.04 0.04 0.04 0.04 0.04 0.04 0.04 0.04 0.04 0.04 0.04 0.04 0.04 0.04 0.04 0.04 0.04 0.04 0.04;
}
probability (F | I) {
   (0) 0.923671 0.0537003 0.00768333 0.0045185 0.00126213 0.00172254 0.00115278 0.000793917 0.000728635 0.000612293 0.000413993 0.00040684 0.00036464 0.000319261 0.000318726 0.000301078 0.000301195 0.000270118 0.000248068 0.000231963 0.000220388 0.000203593 0.000193179 0.00018816 0.000173581;
   (314591) 0.614716 0.367999 0.00327025 0.00566879 0.00100265 0.00118392 0.000993873 0.000780729 0.000736201 0.000687602 0.000275556 0.000351359 0.00023036 0.000212893 0.000250777 0.00023001 0.00024317 0.000213619 0.000173115 0.000146086 0.000138801 0.00013221 0.000126217 0.000120744 0.000115727;
   (1019107402) 0.054506 0.022231 0.835124 0.0148209 0.0076599 0.00915376 0.00770441 0.00665878 0.00586808 0.00524867 0.00321967 0.00294159 0.00270871 0.0025073 0.00233417 0.00218375 0.0020518 0.00193513 0.00183122 0.00173806 0.00165404 0.00157791 0.00150858 0.00144517 0.00138696;
   (2964414) 0.0902729 0.0137432 0.0122018 0.867657 0.00245852 0.00299518 0.00165049 0.00127048 0.00123203 0.00110158 0.000551131 0.000586616 0.000460371 0.0004254 0.000416112 0.000415748 0.000349472 0.00034491 0.000308065 0.000291941 0.000277426 0.000264288 0.000252342 0.000241431 0.000231428;
   (9515830) 0.753454 0.0496575 0.0453774 0.0719861 0.0734594 0.00079469 0.000932002 0.000507653 0.000748551 0.000593411 0.000225363 0.000319069 0.000193511 0.000174078 0.000221905 0.000207288 0.000191916 0.000172857 0.000139245 0.000122806 0.000114445 0.000109009 0.000103644 9.91488e-05 9.4688e-05;
   (1052411482) 0.0150242 0.0059463 0.0046857 0.00625482 0.00205057 0.950488 0.00199047 0.00174035 0.00128969 0.0011103 0.000989414 0.00090075 0.000826764 0.000764072 0.000710043 0.000663179 0.000622146 0.000585913 0.00055369 0.00052484 0.00049886 0.000475343 0.000453953 0.000434413 0.000416493;
   (79397631) 0.167899 0.0017283 0.00126809 0.00288127 0.00159383 0.0021762 0.815472 0.000985008 0.00115762 0.00146608 0.000245572 0.000560223 0.000218834 0.000191109 0.000415339 0.000294314 0.000294533 0.000270353 0.000168938 0.000139269 0.000128305 0.000118994 0.000113599 0.000108673 0.000104156;
   (20947316) 0.38737 0.00373425 0.00363007 0.00402111 0.00244732 0.00419885 0.00416886 0.575636 0.00320422 0.00290312 0.000573559 0.00120877 0.000506402 0.000447278 0.000951613 0.000880172 0.000860662 0.000812837 0.000755358 0.000330104 0.000298746 0.000284607 0.000271752 0.000260011 0.000245038;
   (80431643) 0.00851889 0.00662789 0.00675094 0.0080591 0.00592849 0.00704886 0.00656961 0.00592849 0.893129 0.00526977 0.00476915 0.00435727 0.00401231 0.0037191 0.00346674 0.0032472 0.00305437 0.00288369 0.0027315 0.00259492 0.00247167 0.00235985 0.00225795 0.00216469 0.002079;
   (3014218) 0.00275885 0.00101506 0.000506636 0.00137038 0.00104447 0.000593152 0.00111148 0.000439998 0.000701011 0.985769 0.000389273 0.000504044 0.000385658 0.000303564 0.000444172 0.00026554 0.000474495 0.000556424 0.000230638 0.000220059 0.000200528 0.000192119 0.000182482 0.000173853 0.000166639;
   (1032480996) 0.372458 0.0479837 0.0479837 0.0479837 0.00244767 0.0479837 0.0479837 0.0479837 0.0479837 0.0479837 0.220289 0.00222516 0.00204434 0.00189105 0.00175932 0.00164497 0.00154474 0.00145612 0.00137726 0.00130659 0.00124289 0.00118518 0.00113266 0.00108465 0.00104058;
   (9496683) 0.77716 0.0167769 0.00945273 0.0111191 0.00128543 0.0103067 0.0128248 0.00878965 0.00875714 0.0136106 0.000280653 0.126974 0.000259601 0.000238466 0.000328981 0.000257348 0.000263979 0.000233925 0.00019847 0.000166437 0.000157042 0.000149661 0.000141988 0.000135833 0.000130191;
   (3014208) 0.788354 0.0173486 0.015803 0.0177692 0.00158017 0.0164071 0.0174564 0.0160826 0.0161951 0.0232346 0.000482986 0.000926555 0.0636513 0.000445833 0.000554468 0.000707715 0.000508978 0.00045629 0.000373659 0.00031616 0.000293702 0.000279804 0.000271098 0.000255622 0.000245038;
   (792781074) 0.142504 0.0422417 0.0422417 0.0422417 0.0422417 0.0422417 0.0422417 0.0422417 0.0422417 0.0422417 0.00373341 0.00373341 0.00373341 0.436809 0.00346674 0.00324718 0.00305439 0.0028837 0.0027315 0.00259492 0.00247168 0.00235985 0.00225795 0.00216469 0.002079;
   (35489133) 0.574577 0.031873 0.0256983 0.0277291 0.0334918 0.0303635 0.0317357 0.0256983 0.0277566 0.0333273 0.00101031 0.00308343 0.00101031 0.00101031 0.143846 0.00127479 0.000885985 0.000835606 0.000789846 0.00074887 0.00071196 0.000678543 0.00064814 0.000620362 0.000594884;
   (123) 0.00469697 0.00359977 0.00345945 0.00344869 0.00325801 0.00353142 0.00376165 0.00325801 0.00336233 0.00325801 0.00325801 0.00325801 0.00325801 0.00325801 0.00325801 0.925478 0.00305441 0.0028837 0.0027315 0.00259492 0.00247168 0.00235986 0.00225795 0.00216469 0.002079;
   (79278774) 0.695357 0.0134924 0.00496653 0.0140085 0.0100379 0.00707125 0.0128648 0.00533733 0.00575142 0.0132511 0.000173179 0.0072479 0.000183195 0.000173179 0.00037721 0.00490673 0.203372 0.000431589 0.000198327 0.000156972 0.000140419 0.000134419 0.000128512 0.000121533 0.000115727;
   (1) 0.297501 0.00120175 0.000907034 0.00432292 0.00148611 0.00111829 0.00131611 0.000848282 0.00149046 0.00158679 0.000189467 0.000948307 0.000206253 0.000189467 0.000948196 0.000926631 0.00135068 0.682212 0.000303949 0.000184634 0.00016935 0.000161315 0.000151781 0.000145207 0.000134391;
   (80087508) 0.00365737 0.00237204 0.00226179 0.00224189 0.00209471 0.00288 0.0020904 0.00216155 0.00233479 0.00210765 0.00183461 0.00202458 0.00183461 0.00183461 0.00194341 0.0019414 0.00264196 0.0022219 0.95021 0.00173806 0.00165404 0.00157791 0.00150857 0.00144517 0.00138696;
   (6003265) 0.0021888 0.00129575 0.000872194 0.00159148 0.00144542 0.00116167 0.00134273 0.00111964 0.00094396 0.00165055 0.000872194 0.00129617 0.00156978 0.000872194 0.00130862 0.000872194 0.00183946 0.00159219 0.000922142 0.971183 0.0009123 0.000921512 0.00078607 0.00074592 0.000693962;
   (1094952099) 0.00246653 0.00101909 0.00111105 0.00139462 0.00120787 0.00193431 0.00118704 0.00103648 0.00101816 0.000924902 0.000830485 0.000945681 0.000936264 0.000830485 0.000925745 0.000858536 0.00105649 0.0014602 0.00132303 0.0010837 0.973406 0.000842736 0.000766953 0.000740073 0.000693962;
   (1026295355) 0.00340069 0.00272521 0.0026398 0.00270451 0.00282874 0.0035922 0.00278991 0.00250004 0.00263205 0.00258286 0.00236547 0.00257252 0.00254663 0.00236547 0.00270191 0.00261652 0.00285203 0.00267603 0.00254663 0.00267864 0.00296332 0.936217 0.00225795 0.00216469 0.002079;
   (2) 0.00813575 0.00194935 0.00164237 0.00209042 0.00180355 0.00198197 0.00362159 0.00173191 0.00173806 0.0017624 0.00113272 0.00173 0.00165303 0.00113272 0.00193921 0.00173317 0.00238333 0.00200558 0.00168676 0.00175062 0.00181639 0.00189348 0.950063 0.0015824 0.00104058;
   (3) 0.0105983 0.00233747 0.00215769 0.00245574 0.00230908 0.00263788 0.00233747 0.00449947 0.00228779 0.00227834 0.00144726 0.00235402 0.00223339 0.00144726 0.00233037 0.00215769 0.00235876 0.00250542 0.00233273 0.00230908 0.00240607 0.00215769 0.00238714 0.936287 0.00138696;
   (1118574845) 0.00299733 0.00227527 0.00208333 0.00235296 0.00225699 0.00233011 0.00239181 0.00273684 0.00233011 0.00235068 0.00208333 0.00218159 0.00242151 0.00208333 0.00233468 0.00221358 0.00250149 0.00230269 0.00225014 0.00230726 0.002241 0.00235525 0.00231183 0.00274827 0.943559;
}
probability (G | I) {
   (0) 0.5 0.5;
   (314591) 0.0138742 0.986126;
   (1019107402) 0.0329501 0.96705;
   (2964414) 0.021879 0.978121;
   (9515830) 0.0367995 0.9632;
   (1052411482) 0.115264 0.884736;
   (79397631) 0.00570308 0.994297;
   (20947316) 0.0460015 0.953999;
   (80431643) 0.0380586 0.961941;
   (3014218) 0.00341368 0.996586;
   (1032480996) 0.0514997 0.9485;
   (9496683) 0.0207401 0.97926;
   (3014208) 0.0441535 0.955846;
   (792781074) 0.0514997 0.9485;
   (35489133) 0.0482175 0.951782;
   (123) 0.0257499 0.97425;
   (79278774) 0.0144211 0.985579;
   (1) 0.0122192 0.987781;
   (80087508) 0.0171666 0.982833;
   (6003265) 0.0281178 0.971882;
   (1094952099) 0.0965588 0.903441;
   (1026295355) 0.0543044 0.945696;
   (2) 0.0292835 0.970717;
   (3) 0.0452907 0.954709;
   (1118574845) 0.0257499 0.97425;
}
probability (A | I) {
   (0) 0.0131579 0.0131579 0.0131579 0.0131579 0.0131579 0.0131579 0.0131579 0.0131579 0.0131579 0.0131579 0.0131579 0.0131579 0.0131579 0.0131579 0.0131579 0.0131579 0.0131579 0.0131579 0.0131579 0.0131579 0.0131579 0.0131579 0.0131579 0.0131579 0.0131579 0.0131579 0.0131579 0.0131579 0.0131579 0.0131579 0.0131579 0.0131579 0.0131579 0.0131579 0.0131579 0.0131579 0.0131579 0.0131579 0.0131579 0.0131579 0.0131579 0.0131579 0.0131579 0.0131579 0.0131579 0.0131579 0.0131579 0.0131579 0.0131579 0.0131579 0.0131579 0.0131579 0.0131579 0.0131579 0.0131579 0.0131579 0.0131579 0.0131579 0.0131579 0.0131579 0.0131579 0.0131579 0.0131579 0.0131579 0.0131579 0.0131579 0.0131579 0.0131579 0.0131579 0.0131579 0.0131579 0.0131579 0.0131579 0.0131579 0.0131579 0.0131579;
   (314591) 6.05683e-41 6.05725e-41 6.05795e-41 6.05935e-41 6.06132e-41 6.06412e-41 6.06804e-41 6.07281e-41 6.07841e-41 6.0843e-41 6.09004e-41 6.09481e-41 6.09789e-41 6.09901e-41 6.09789e-41 6.09481e-41 6.09004e-41 6.0843e-41 6.07841e-41 6.07281e-41 6.06804e-41 6.06412e-41 6.06132e-41 6.05935e-41 6.05795e-41 6.05725e-41 6.05697e-41 6.05739e-41 6.06118e-41 6.07953e-41 6.13755e-41 6.24657e-41 6.32504e-41 6.20551e-41 6.07407e-41 6.06034e-41 6.07014e-41 6.07869e-41 6.07014e-41 6.05949e-41 6.06104e-41 6.14427e-41 6.29421e-41 6.14427e-41 2.00735e-28 4.89229e-13 0.000835282 0.998329 0.000835283 4.89263e-13 2.00879e-28 6.08009e-41 6.0651e-41 6.05669e-41 6.05627e-41 6.05627e-41 6.05627e-41 6.05627e-41 6.05627e-41 6.05627e-41 6.05627e-41 6.05627e-41 6.05627e-41 6.05627e-41 6.05627e-41 6.05627e-41 6.05627e-41 6.05627e-41 6.05627e-41 6.05627e-41 6.05627e-41 6.05627e-41 6.05627e-41 6.05627e-41 6.05627e-41 6.05627e-41;
   (1019107402) 6.02755e-41 6.02755e-41 6.02755e-41 6.02755e-41 6.02755e-41 6.02755e-41 6.02755e-41 6.02755e-41 6.02755e-41 6.02755e-41 6.02755e-41 6.02755e-41 6.02755e-41 6.02755e-41 6.02755e-41 6.02755e-41 6.02755e-41 6.02755e-41 6.02755e-41 6.02755e-41 1.99637e-28 4.86913e-13 0.000831668 0.99832 0.000848299 5.03059e-13 2.03714e-28 6.05627e-41 6.03007e-41 6.02769e-41 6.02755e-41 6.02755e-41 6.02755e-41 6.02755e-41 6.02755e-41 6.02755e-41 6.02755e-41 6.02755e-41 6.02755e-41 6.02755e-41 6.02755e-41 6.02755e-41 6.02755e-41 6.02755e-41 6.02755e-41 6.02755e-41 6.02755e-41 6.02755e-41 6.02755e-41 6.02755e-41 6.02755e-41 6.02755e-41 6.02755e-41 6.02755e-41 6.02755e-41 6.02755e-41 6.02755e-41 6.02755e-41 6.02755e-41 6.02755e-41 6.02755e-41 6.02755e-41 6.02755e-41 6.02755e-41 6.02755e-41 6.02755e-41 6.02755e-41 6.02755e-41 6.02755e-41 6.02755e-41 6.02755e-41 6.02755e-41 6.02755e-41 6.02755e-41 6.02755e-41 6.02755e-41;
   (2964414) 6.04086e-41 6.04086e-41 6.04086e-41 6.04086e-41 6.04086e-41 6.04086e-41 6.04086e-41 6.04086e-41 6.04086e-41 6.04086e-41 6.04086e-41 6.04086e-41 6.04086e-41 6.04086e-41 6.04086e-41 6.04086e-41 6.04086e-41 6.04086e-41 6.04086e-41 6.04086e-41 6.04086e-41 6.04086e-41 6.04086e-41 6.04086e-41 6.04086e-41 6.04086e-41 6.04086e-41 6.04086e-41 6.04086e-41 6.04086e-41 6.04086e-41 6.04086e-41 6.04086e-41 6.04086e-41 6.04086e-41 6.04086e-41 6.04086e-41 6.04086e-41 6.04086e-41 6.04086e-41 6.04086e-41 6.04086e-41 6.04086e-41 6.04086e-41 6.04086e-41 6.04086e-41 6.04086e-41 6.04086e-41 6.04086e-41 6.041e-41 6.04338e-41 6.06972e-41 6.16487e-41 2.06747e-28 4.98022e-13 0.000837476 0.998324 0.000838613 4.92887e-13 2.01657e-28 6.07085e-41 6.07365e-41 6.07869e-41 6.06552e-41 6.05039e-41 6.04408e-41 6.04198e-41 6.04114e-41 6.041e-41 6.04086e-41 6.04086e-41 6.04086e-41 6.04086e-41 6.04086e-41 6.04086e-41 6.04086e-41;
   (9515830) 6.02628e-41 6.02628e-41 6.02628e-41 6.02628e-41 6.02628e-41 6.02628e-41 6.02628e-41 6.02628e-41 6.02628e-41 6.02628e-41 6.02628e-41 6.02628e-41 6.02628e-41 6.02628e-41 6.02628e-41 6.02628e-41 6.02628e-41 6.02628e-41 6.02628e-41 6.02628e-41 6.02628e-41 6.02628e-41 6.02628e-41 6.02628e-41 6.02628e-41 6.02628e-41 6.02628e-41 6.02628e-41 6.02628e-41 6.02628e-41 6.02628e-41 6.02628e-41 6.02628e-41 6.02628e-41 6.02628e-41 6.02628e-41 6.02628e-41 6.02628e-41 6.02628e-41 6.02628e-41 6.02628e-41 6.02628e-41 6.02628e-41 6.02628e-41 6.02628e-41 6.02628e-41 6.02628e-41 6.02628e-41 6.02628e-41 6.02628e-41 6.02628e-41 6.02628e-41 6.02628e-41 6.02628e-41 6.02628e-41 6.0267e-41 6.02951e-41 6.03946e-41 6.05375e-41 6.06118e-41 6.0644e-41 6.06958e-41 6.0822e-41 6.10826e-41 2.03518e-28 4.94678e-13 0.000839048 0.998325 0.000835909 4.90504e-13 2.00503e-28 6.03259e-41 6.02684e-41 6.02628e-41 6.02628e-41 6.02628e-41;
   (1052411482) 5.9132e-41 5.9132e-41 5.9132e-41 5.9132e-41 5.9132e-41 5.9132e-41 5.9132e-41 5.9132e-41 5.9132e-41 5.9132e-41 5.9132e-41 5.9132e-41 5.9132e-41 5.9132e-41 5.9132e-41 5.9132e-41 5.9132e-41 5.9132e-41 1.95884e-28 4.8777e-13 0.000859446 0.998325 0.000815823 4.792e-13 1.97555e-28 5.93226e-41 5.91418e-41 5.9132e-41 5.9132e-41 5.9132e-41 5.9132e-41 5.9132e-41 5.9132e-41 5.9132e-41 5.9132e-41 5.9132e-41 5.9132e-41 5.9132e-41 5.9132e-41 5.9132e-41 5.9132e-41 5.9132e-41 5.9132e-41 5.9132e-41 5.9132e-41 5.9132e-41 5.9132e-41 5.9132e-41 5.9132e-41 5.9132e-41 5.91334e-41 5.91348e-41 5.91376e-41 5.91432e-41 5.91558e-41 5.91754e-41 5.92049e-41 5.92427e-41 5.92847e-41 5.93254e-41 5.93548e-41 5.9366e-41 5.93548e-41 5.93254e-41 5.92847e-41 5.92427e-41 5.92049e-41 5.91754e-41 5.91558e-41 5.91432e-41 5.91376e-41 5.91348e-41 5.91334e-41 5.9132e-41 5.9132e-41 5.9132e-41;
   (79397631) 6.04927e-41 6.04927e-41 6.04927e-41 6.04927e-41 6.04927e-41 6.04927e-41 6.04927e-41 6.04927e-41 6.04927e-41 6.04927e-41 6.04927e-41 6.04927e-41 6.04927e-41 6.04927e-41 6.04927e-41 6.04927e-41 6.04927e-41 6.04927e-41 6.04927e-41 6.04927e-41 6.04927e-41 6.04927e-41 6.04927e-41 6.04927e-41 6.04927e-41 6.04927e-41 6.04927e-41 6.04927e-41 6.04927e-41 6.04927e-41 6.04927e-41 6.04927e-41 6.04927e-41 6.04927e-41 6.04927e-41 6.04927e-41 6.04927e-41 6.04955e-41 6.05039e-41 6.05347e-41 6.05949e-41 6.06412e-41 6.0644e-41 6.06496e-41 6.06888e-41 6.07365e-41 6.07561e-41 6.07463e-41 6.07155e-41 2.00925e-28 4.89561e-13 0.000835263 0.998328 0.000836282 4.91222e-13 2.02352e-28 6.14918e-41 6.19276e-41 6.22779e-41 6.24671e-41 6.24068e-41 6.21154e-41 6.17959e-41 6.16249e-41 6.16109e-41 6.15422e-41 6.10364e-41 6.07014e-41 6.14385e-41 6.30038e-41 6.15815e-41 6.07421e-41 6.07603e-41 6.10153e-41 6.16852e-41 6.09327e-41;
   (20947316) 6.02726e-41 6.02726e-41 6.02726e-41 6.02726e-41 6.02726e-41 6.02726e-41 6.02726e-41 6.02726e-41 6.02726e-41 6.02726e-41 6.02726e-41 6.02726e-41 6.02726e-41 6.02726e-41 6.02726e-41 6.02726e-41 6.02726e-41 6.02726e-41 6.02726e-41 6.02726e-41 6.02726e-41 6.02726e-41 6.02726e-41 6.02726e-41 6.02726e-41 6.02726e-41 6.02726e-41 6.02726e-41 6.02726e-41 6.02726e-41 6.02726e-41 6.02726e-41 6.02726e-41 6.02726e-41 6.02726e-41 6.02726e-41 6.02726e-41 6.02726e-41 6.02726e-41 6.02726e-41 6.02741e-41 6.02755e-41 6.02811e-41 6.02895e-41 6.03035e-41 6.03273e-41 6.03637e-41 6.04142e-41 6.04828e-41 6.05809e-41 6.07057e-41 6.0857e-41 6.10139e-41 6.11527e-41 6.1255e-41 6.13208e-41 6.13629e-41 6.13811e-41 6.13699e-41 6.13236e-41 6.12353e-41 6.11106e-41 2.01932e-28 4.91308e-13 0.000836925 0.998329 0.00083397 4.87888e-13 1.99876e-28 6.03161e-41 6.02965e-41 6.02853e-41 6.02783e-41 6.02755e-41 6.02741e-41 6.02726e-41;
   (80431643) 6.05627e-41 6.05627e-41 6.05627e-41 6.05627e-41 6.05627e-41 6.05627e-41 6.05627e-41 6.05627e-41 6.05627e-41 6.05627e-41 6.05627e-41 6.05627e-41 6.05627e-41 6.05627e-41 6.05627e-41 6.05627e-41 6.05627e-41 6.05627e-41 6.05627e-41 6.05627e-41 6.05627e-41 6.05627e-41 6.05627e-41 6.05627e-41 6.05627e-41 6.05627e-41 6.05627e-41 6.05627e-41 6.05627e-41 6.05627e-41 6.05627e-41 6.05641e-41 6.05879e-41 6.08528e-41 6.18057e-41 6.2582e-41 6.18057e-41 6.08528e-41 6.05879e-41 6.05641e-41 6.05627e-41 6.05627e-41 6.05627e-41 2.00588e-28 4.89227e-13 0.000835282 0.998329 0.000835282 4.89227e-13 2.00588e-28 6.05627e-41 6.05627e-41 6.05627e-41 6.05627e-41 6.05627e-41 6.05627e-41 6.05627e-41 6.05627e-41 6.05627e-41 6.05627e-41 6.05627e-41 6.05627e-41 6.05627e-41 6.05627e-41 6.05627e-41 6.05627e-41 6.05627e-41 6.05627e-41 6.05627e-41 6.05627e-41 6.05627e-41 6.05627e-41 6.05627e-41 6.05627e-41 6.05627e-41 6.05627e-41;
   (3014218) 5.83417e-41 5.83417e-41 5.83417e-41 5.83417e-41 5.83417e-41 5.83417e-41 5.83417e-41 5.83417e-41 5.83417e-41 5.83417e-41 5.83417e-41 5.83417e-41 5.83417e-41 5.83417e-41 5.83417e-41 5.83417e-41 5.83417e-41 5.83417e-41 5.83417e-41 5.83417e-41 5.83417e-41 5.83417e-41 5.83417e-41 5.83417e-41 5.83417e-41 5.83417e-41 5.83417e-41 5.83417e-41 5.83417e-41 5.83417e-41 5.83417e-41 5.83417e-41 5.83417e-41 5.83417e-41 5.83417e-41 5.83417e-41 5.83417e-41 5.83417e-41 5.83417e-41 5.83417e-41 5.83417e-41 5.83417e-41 5.83417e-41 5.83417e-41 5.83417e-41 5.83417e-41 5.83417e-41 5.83417e-41 5.83417e-41 5.83417e-41 5.83417e-41 5.83417e-41 5.83417e-41 5.83431e-41 5.83501e-41 5.83697e-41 5.84117e-41 5.84902e-41 5.85995e-41 5.87214e-41 5.88531e-41 5.89961e-41 5.91152e-41 5.95314e-41 6.10994e-41 6.28286e-41 2.06474e-28 4.97456e-13 0.000847369 0.998327 0.000826101 4.78228e-13 1.94061e-28 5.83837e-41 5.98985e-41 5.83431e-41;
   (1032480996) 6.05627e-41 6.05627e-41 6.05627e-41 6.05627e-41 6.05627e-41 6.05627e-41 6.05627e-41 6.05627e-41 6.05627e-41 6.05627e-41 6.05627e-41 6.05627e-41 6.05627e-41 6.05627e-41 6.05627e-41 6.05627e-41 6.05627e-41 6.05627e-41 6.05627e-41 6.05627e-41 2.00588e-28 4.89227e-13 0.000835282 0.998329 0.000835282 4.89227e-13 2.00588e-28 6.05627e-41 6.05627e-41 6.05627e-41 6.05627e-41 6.05627e-41 6.05627e-41 6.05627e-41 6.05627e-41 6.05627e-41 6.05627e-41 6.05627e-41 6.05627e-41 6.05627e-41 6.05627e-41 6.05627e-41 6.05627e-41 6.05627e-41 6.05627e-41 6.05627e-41 6.05627e-41 6.05627e-41 6.05627e-41 6.05627e-41 6.05627e-41 6.05627e-41 6.05627e-41 6.05627e-41 6.05627e-41 6.05627e-41 6.05627e-41 6.05627e-41 6.05627e-41 6.05627e-41 6.05627e-41 6.05627e-41 6.05627e-41 6.05627e-41 6.05627e-41 6.05627e-41 6.05627e-41 6.05627e-41 6.05627e-41 6.05627e-41 6.05627e-41 6.05627e-41 6.05627e-41 6.05627e-41 6.05627e-41 6.05627e-41;
   (9496683) 5.95131e-41 5.95131e-41 5.95131e-41 5.95131e-41 5.95131e-41 5.95131e-41 5.95131e-41 5.95131e-41 5.95131e-41 5.95131e-41 5.95131e-41 5.95131e-41 5.95131e-41 5.95131e-41 5.95131e-41 5.95131e-41 5.95131e-41 5.95131e-41 5.95131e-41 5.95131e-41 5.95131e-41 5.95131e-41 5.95131e-41 5.95131e-41 5.95131e-41 5.95131e-41 5.95131e-41 5.95131e-41 5.95131e-41 5.95131e-41 5.95131e-41 5.95131e-41 5.95131e-41 5.95131e-41 5.95131e-41 5.95145e-41 5.95145e-41 5.95145e-41 5.95159e-41 5.95188e-41 5.9523e-41 5.953e-41 5.95412e-41 5.95566e-41 5.95762e-41 5.95986e-41 5.96224e-41 5.96407e-41 5.96561e-41 5.96673e-41 5.97626e-41 5.99363e-41 5.98719e-41 5.99882e-41 5.99307e-41 1.99591e-28 4.91588e-13 0.000840417 0.998326 0.000833803 4.88548e-13 1.99405e-28 5.98172e-41 5.95972e-41 5.953e-41 5.95173e-41 5.95145e-41 5.95131e-41 5.95131e-41 5.95131e-41 5.95131e-41 5.95131e-41 5.95131e-41 5.95131e-41 5.95131e-41 5.95131e-41;
   (3014208) 6.05557e-41 6.05557e-41 6.05557e-41 6.05557e-41 6.05557e-41 6.05557e-41 6.05557e-41 6.05557e-41 6.05557e-41 6.05557e-41 6.05557e-41 6.05557e-41 6.05557e-41 6.05557e-41 6.05557e-41 6.05557e-41 6.05557e-41 6.05557e-41 6.05571e-41 6.05571e-41 6.05585e-41 6.05613e-41 6.05641e-41 6.05683e-41 6.05739e-41 6.05823e-41 6.05921e-41 6.06034e-41 6.0616e-41 6.063e-41 6.0644e-41 6.06552e-41 6.0665e-41 6.0672e-41 6.06734e-41 6.0672e-41 6.0665e-41 6.06552e-41 6.0644e-41 6.063e-41 6.0616e-41 6.06034e-41 6.05921e-41 6.05823e-41 6.05739e-41 6.05683e-41 6.05641e-41 6.05613e-41 6.05585e-41 6.05571e-41 6.05571e-41 6.05557e-41 6.05557e-41 6.05557e-41 6.05557e-41 6.05557e-41 6.05557e-41 6.05557e-41 6.05557e-41 6.05557e-41 6.05557e-41 6.05599e-41 6.06006e-41 6.07477e-41 6.08668e-41 6.07547e-41 2.01131e-28 4.91948e-13 0.000836926 0.998328 0.000835195 4.89176e-13 2.00567e-28 6.05557e-41 6.05557e-41 6.05557e-41;
   (792781074) 6.05627e-41 6.05627e-41 6.05627e-41 6.05627e-41 6.05627e-41 6.05627e-41 6.05627e-41 6.05627e-41 6.05627e-41 6.05627e-41 6.05627e-41 6.05627e-41 6.05627e-41 6.05627e-41 6.05627e-41 6.05627e-41 6.05627e-41 6.05627e-41 6.05627e-41 6.05627e-41 6.05627e-41 6.05627e-41 6.05627e-41 6.05627e-41 6.05627e-41 6.05627e-41 6.05627e-41 6.05627e-41 6.05627e-41 6.05627e-41 6.05627e-41 6.05627e-41 6.05627e-41 6.05627e-41 6.05627e-41 6.05627e-41 6.05627e-41 6.05627e-41 6.05627e-41 6.05627e-41 6.05627e-41 6.05627e-41 6.05627e-41 6.05627e-41 6.05627e-41 6.05627e-41 6.05627e-41 6.05627e-41 6.05627e-41 6.05627e-41 6.05627e-41 6.05627e-41 6.05627e-41 6.05627e-41 6.05627e-41 6.05627e-41 2.00588e-28 4.89227e-13 0.000835282 0.998329 0.000835282 4.89227e-13 2.00588e-28 6.05627e-41 6.05627e-41 6.05627e-41 6.05627e-41 6.05627e-41 6.05627e-41 6.05627e-41 6.05627e-41 6.05627e-41 6.05627e-41 6.05627e-41 6.05627e-41 6.05627e-41;
   (35489133) 6.05627e-41 6.05627e-41 6.05627e-41 6.05627e-41 6.05627e-41 6.05627e-41 6.05627e-41 6.05627e-41 6.05627e-41 6.05627e-41 6.05627e-41 6.05627e-41 6.05627e-41 6.05627e-41 6.05627e-41 6.05627e-41 6.05627e-41 6.05627e-41 6.05627e-41 6.05627e-41 6.05627e-41 6.05627e-41 6.05627e-41 6.05627e-41 6.05627e-41 6.05627e-41 6.05627e-41 6.05627e-41 6.05627e-41 6.05627e-41 6.05627e-41 6.05627e-41 6.05627e-41 6.05627e-41 6.05627e-41 6.05627e-41 6.05627e-41 6.05627e-41 6.05627e-41 6.05627e-41 6.05627e-41 6.05627e-41 6.05627e-41 6.05627e-41 6.05627e-41 6.05627e-41 6.05627e-41 6.05627e-41 6.05627e-41 6.05627e-41 6.05627e-41 6.05627e-41 6.05627e-41 6.05627e-41 2.00588e-28 4.89227e-13 0.000835282 0.998329 0.000835282 4.89227e-13 2.00588e-28 6.05627e-41 6.05627e-41 6.05697e-41 6.06132e-41 6.07841e-41 6.1098e-41 6.12802e-41 6.1098e-41 6.07841e-41 6.06132e-41 6.05697e-41 6.05627e-41 6.05627e-41 6.05627e-41 6.05627e-41;
   (123) 5.93716e-41 5.93716e-41 5.93716e-41 5.93716e-41 5.93716e-41 5.93716e-41 5.93716e-41 5.93716e-41 5.93716e-41 5.93716e-41 5.93716e-41 5.93716e-41 5.93716e-41 5.93716e-41 5.93716e-41 5.93716e-41 5.93716e-41 5.93716e-41 5.93716e-41 5.93716e-41 5.93716e-41 5.93716e-41 5.93716e-41 5.93716e-41 5.93716e-41 5.93716e-41 5.9373e-41 5.93758e-41 5.93842e-41 5.94052e-41 5.94487e-41 5.953e-41 5.96659e-41 5.98593e-41 1.99028e-28 4.87299e-13 0.00083439 0.998331 0.00083439 4.87299e-13 1.99028e-28 5.98593e-41 5.96659e-41 5.953e-41 5.94487e-41 5.94052e-41 5.93842e-41 5.93758e-41 5.9373e-41 5.93716e-41 5.93716e-41 5.93716e-41 5.93716e-41 5.93716e-41 5.93716e-41 5.93716e-41 5.93716e-41 5.93716e-41 5.93716e-41 5.93716e-41 5.93716e-41 5.93716e-41 5.93716e-41 5.93716e-41 5.93716e-41 5.93716e-41 5.93716e-41 5.93716e-41 5.93716e-41 5.93716e-41 5.93716e-41 5.93716e-41 5.93716e-41 5.93716e-41 5.93716e-41 5.93716e-41;
   (79278774) 5.98999e-41 5.98999e-41 5.98999e-41 5.98999e-41 5.98999e-41 5.98999e-41 5.98999e-41 5.98999e-41 5.98999e-41 5.98999e-41 5.98999e-41 5.98999e-41 5.98999e-41 5.98999e-41 5.98999e-41 5.98999e-41 5.98999e-41 5.98999e-41 5.98999e-41 5.98999e-41 5.98999e-41 5.98999e-41 5.98999e-41 5.99013e-41 5.99013e-41 5.99041e-41 5.99069e-41 5.99111e-41 5.99181e-41 5.99293e-41 5.99433e-41 5.99602e-41 5.99826e-41 6.00064e-41 6.00344e-41 6.00639e-41 6.01017e-41 6.01465e-41 6.02152e-41 6.03021e-41 6.04058e-41 6.05207e-41 6.0616e-41 6.0651e-41 6.06146e-41 6.05501e-41 6.05249e-41 6.05879e-41 6.08206e-41 6.12255e-41 6.14343e-41 6.12241e-41 6.08976e-41 6.07309e-41 6.07463e-41 6.09229e-41 2.02162e-28 4.91088e-13 0.000836075 0.998329 0.000835176 4.89053e-13 2.00242e-28 6.03105e-41 6.01591e-41 6.00498e-41 6.00078e-41 6.00681e-41 6.01255e-41 6.00386e-41 5.99335e-41 5.99041e-41 5.98999e-41 5.98999e-41 5.98999e-41 5.98999e-41;
   (1) 5.81525e-41 5.81525e-41 5.81525e-41 5.81525e-41 5.81525e-41 5.81525e-41 5.81525e-41 5.81525e-41 5.81525e-41 5.81525e-41 5.81525e-41 5.81525e-41 5.81525e-41 5.81525e-41 5.81525e-41 5.81525e-41 5.81525e-41 5.81525e-41 5.81525e-41 5.81525e-41 5.81525e-41 5.81525e-41 5.81525e-41 5.81525e-41 5.81525e-41 5.81525e-41 5.81525e-41 5.81525e-41 5.81525e-41 5.81525e-41 5.81525e-41 5.81525e-41 5.81525e-41 5.81525e-41 5.81525e-41 5.81525e-41 5.81525e-41 5.81525e-41 5.81525e-41 5.81525e-41 5.81525e-41 5.81525e-41 5.81525e-41 5.81525e-41 5.81525e-41 5.81525e-41 5.81553e-41 5.81833e-41 5.82828e-41 5.83781e-41 5.83375e-41 5.83094e-41 5.83809e-41 1.93827e-28 4.74485e-13 0.000817866 0.998343 0.000839295 4.85306e-13 1.97499e-28 5.94403e-41 5.90886e-41 5.86275e-41 5.83094e-41 5.81903e-41 5.81595e-41 5.81525e-41 5.81525e-41 5.81525e-41 5.81525e-41 5.81525e-41 5.81525e-41 5.81525e-41 5.81525e-41 5.81525e-41 5.81525e-41;
   (80087508) 6.05627e-41 6.05627e-41 6.05627e-41 6.05627e-41 6.05627e-41 6.05627e-41 6.05627e-41 6.05627e-41 6.05627e-41 6.05627e-41 6.05627e-41 6.05627e-41 6.05627e-41 6.05627e-41 6.05627e-41 6.05627e-41 6.05627e-41 6.05627e-41 6.05627e-41 6.05627e-41 6.05627e-41 6.05627e-41 6.05627e-41 6.05627e-41 6.05627e-41 6.05627e-41 6.05627e-41 6.05627e-41 6.05655e-41 6.32168e-41 6.05655e-41 6.05627e-41 6.05627e-41 6.05921e-41 6.11485e-41 6.2149e-41 2.0253e-28 4.89465e-13 0.000835285 0.998329 0.000835282 4.89227e-13 2.00588e-28 6.05627e-41 6.05627e-41 6.05627e-41 6.05627e-41 6.05627e-41 6.05627e-41 6.05627e-41 6.05627e-41 6.05627e-41 6.05627e-41 6.05627e-41 6.05627e-41 6.05627e-41 6.05627e-41 6.05627e-41 6.05627e-41 6.05627e-41 6.05627e-41 6.05627e-41 6.05627e-41 6.05627e-41 6.05627e-41 6.05627e-41 6.05627e-41 6.05627e-41 6.05627e-41 6.05627e-41 6.05627e-41 6.05627e-41 6.05627e-41 6.05627e-41 6.05627e-41 6.05627e-41;
   (6003265) 6.05277e-41 6.05277e-41 6.05277e-41 6.05277e-41 6.05277e-41 6.05277e-41 6.05277e-41 6.05277e-41 6.05277e-41 6.05277e-41 6.05277e-41 6.05277e-41 6.05277e-41 6.05277e-41 6.05277e-41 6.05277e-41 6.05277e-41 6.05277e-41 6.05277e-41 6.05277e-41 6.05277e-41 6.05277e-41 6.05277e-41 6.05277e-41 6.05277e-41 6.05277e-41 6.05277e-41 6.05277e-41 6.05277e-41 6.05277e-41 6.05277e-41 6.05277e-41 6.05277e-41 6.05277e-41 6.05277e-41 6.05277e-41 6.05277e-41 6.05277e-41 6.05277e-41 6.05277e-41 6.05277e-41 6.05277e-41 6.05277e-41 6.05277e-41 6.05277e-41 6.05277e-41 6.05277e-41 6.05277e-41 6.05277e-41 6.05277e-41 6.05277e-41 6.05277e-41 6.05277e-41 6.05277e-41 6.05277e-41 6.05277e-41 6.05277e-41 6.05361e-41 6.06244e-41 6.09425e-41 6.12003e-41 6.09425e-41 6.06244e-41 6.05389e-41 6.05571e-41 6.07519e-41 6.15422e-41 6.31495e-41 6.45074e-41 6.42243e-41 6.28342e-41 2.04152e-28 4.92574e-13 0.000836817 0.998328 0.000834878;
   (1094952099) 6.05599e-41 6.05599e-41 6.05599e-41 6.05599e-41 6.05599e-41 6.05599e-41 6.05599e-41 6.05599e-41 6.05599e-41 6.05599e-41 6.05599e-41 6.05599e-41 6.05669e-41 6.06118e-41 6.2114e-41 6.10966e-41 6.12774e-41 6.10952e-41 6.07855e-41 2.12607e-28 4.89292e-13 0.000859647 0.998305 0.000835242 4.89203e-13 2.00578e-28 6.05599e-41 6.05599e-41 6.05599e-41 6.05599e-41 6.05599e-41 6.05599e-41 6.05599e-41 6.05599e-41 6.05599e-41 6.05599e-41 6.05599e-41 6.05599e-41 6.05599e-41 6.05599e-41 6.05599e-41 6.05599e-41 6.05599e-41 6.05599e-41 6.05599e-41 6.05599e-41 6.05599e-41 6.05599e-41 6.05599e-41 6.05599e-41 6.05599e-41 6.05599e-41 6.05599e-41 6.05599e-41 6.05599e-41 6.05599e-41 6.05599e-41 6.05599e-41 6.05599e-41 6.05599e-41 6.05599e-41 6.05599e-41 6.05599e-41 6.05599e-41 6.05599e-41 6.05599e-41 6.05599e-41 6.05599e-41 6.05599e-41 6.05599e-41 6.05599e-41 6.05599e-41 6.05599e-41 6.05599e-41 6.05599e-41 6.05599e-41;
   (1026295355) 5.97079e-41 5.97079e-41 5.97079e-41 5.97079e-41 5.97079e-41 5.97079e-41 5.97079e-41 5.97079e-41 5.97079e-41 5.97079e-41 5.97079e-41 5.97079e-41 5.97079e-41 5.97079e-41 5.97079e-41 5.97079e-41 5.97079e-41 5.97079e-41 5.97079e-41 5.97079e-41 1.97899e-28 4.89222e-13 0.000855368 0.998321 0.000824082 4.82322e-13 1.97756e-28 5.97079e-41 5.97079e-41 5.97079e-41 5.97079e-41 5.97079e-41 5.97079e-41 5.97079e-41 5.97079e-41 5.97079e-41 5.97079e-41 5.97079e-41 5.97079e-41 5.97079e-41 5.97079e-41 5.97079e-41 5.97079e-41 5.97079e-41 5.97079e-41 5.97079e-41 5.97079e-41 5.97079e-41 5.97079e-41 5.97079e-41 5.97079e-41 5.97079e-41 5.97079e-41 5.97079e-41 5.97079e-41 5.97079e-41 5.97079e-41 5.97079e-41 5.97079e-41 5.97079e-41 5.97079e-41 5.97079e-41 5.97079e-41 5.97079e-41 5.97079e-41 5.97079e-41 5.97079e-41 5.97079e-41 5.97079e-41 5.97079e-41 5.97079e-41 5.97079e-41 5.97079e-41 5.97079e-41 5.97079e-41 5.97079e-41;
   (2) 5.93688e-41 5.93688e-41 5.93688e-41 5.93688e-41 5.93688e-41 5.93688e-41 5.93688e-41 5.93688e-41 5.93688e-41 5.93688e-41 5.93688e-41 5.93688e-41 5.93688e-41 5.93688e-41 5.93688e-41 5.93688e-41 5.93688e-41 5.93688e-41 5.93688e-41 5.93688e-41 5.93688e-41 5.93688e-41 5.93688e-41 5.93688e-41 5.93688e-41 5.93688e-41 5.93688e-41 5.93688e-41 5.93688e-41 5.93688e-41 5.93688e-41 5.93688e-41 5.93688e-41 5.93688e-41 5.93702e-41 5.938e-41 5.94529e-41 5.97317e-41 6.02432e-41 6.05417e-41 6.02432e-41 5.97317e-41 5.94529e-41 5.938e-41 5.93702e-41 5.93688e-41 5.93688e-41 5.93688e-41 5.93688e-41 5.93688e-41 1.96637e-28 4.79781e-13 0.000822652 0.998332 0.000845562 4.89228e-13 1.97555e-28 5.9394e-41 5.93702e-41 5.93688e-41 5.93688e-41 5.93688e-41 5.93688e-41 5.93688e-41 5.93688e-41 5.93688e-41 5.93688e-41 5.93688e-41 5.93688e-41 5.93688e-41 5.93688e-41 5.93688e-41 5.93688e-41 5.93688e-41 5.93688e-41 5.93688e-41;
   (3) 6.05627e-41 6.05627e-41 6.05627e-41 6.05627e-41 6.05627e-41 6.05627e-41 6.05627e-41 6.05627e-41 6.05627e-41 6.05627e-41 6.05627e-41 6.05627e-41 6.05627e-41 6.05627e-41 6.05627e-41 6.05627e-41 6.05627e-41 6.05627e-41 6.05627e-41 6.05627e-41 6.05627e-41 6.05627e-41 6.05627e-41 6.05627e-41 6.05627e-41 6.05627e-41 6.05627e-41 6.05627e-41 6.05627e-41 6.05627e-41 6.05627e-41 6.05627e-41 6.05627e-41 6.05627e-41 6.05627e-41 6.05641e-41 6.05683e-41 6.05837e-41 6.06272e-41 6.07253e-41 6.09116e-41 6.11947e-41 6.15282e-41 6.18085e-41 6.19192e-41 6.18085e-41 6.15282e-41 6.11947e-41 6.09116e-41 6.07253e-41 6.06272e-41 6.05837e-41 6.05683e-41 6.05641e-41 6.05627e-41 6.05627e-41 6.05627e-41 6.05627e-41 6.05627e-41 6.05627e-41 6.05627e-41 6.05627e-41 2.00588e-28 4.89227e-13 0.000835282 0.998329 0.000835282 4.89227e-13 2.00588e-28 6.05627e-41 6.05627e-41 6.05627e-41 6.05627e-41 6.05627e-41 6.05627e-41 6.05627e-41;
   (1118574845) 6.05631e-41 6.05631e-41 6.05631e-41 6.05631e-41 6.05631e-41 6.05631e-41 6.05631e-41 6.05631e-41 6.05631e-41 6.05631e-41 6.05631e-41 6.05631e-41 6.05631e-41 6.05631e-41 6.05631e-41 6.05631e-41 6.05631e-41 2.00588e-28 4.89227e-13 0.000835282 0.998329 0.000835293 4.89433e-13 2.01547e-28 6.1806e-41 6.25818e-41 6.1806e-41 6.08526e-41 6.05886e-41 6.05639e-41 6.05631e-41 6.05631e-41 6.05631e-41 6.05631e-41 6.05631e-41 6.05631e-41 6.05631e-41 6.05631e-41 6.05631e-41 6.05631e-41 6.05631e-41 6.05631e-41 6.05631e-41 6.05631e-41 6.05631e-41 6.05631e-41 6.05631e-41 6.05631e-41 6.05631e-41 6.05631e-41 6.05631e-41 6.05631e-41 6.05631e-41 6.05631e-41 6.05631e-41 6.05631e-41 6.05631e-41 6.05631e-41 6.05631e-41 6.05631e-41 6.05631e-41 6.05631e-41 6.05631e-41 6.05631e-41 6.05631e-41 6.05631e-41 6.05631e-41 6.05631e-41 6.05631e-41 6.05631e-41 6.05631e-41 6.05631e-41 6.05631e-41 6.05631e-41 6.05631e-41 6.05631e-41;
}
probability (H | I) {
   (0) 0.0052356 0.0052356 0.0052356 0.0052356 0.0052356 0.0052356 0.0052356 0.0052356 0.0052356 0.0052356 0.0052356 0.0052356 0.0052356 0.0052356 0.0052356 0.0052356 0.0052356 0.0052356 0.0052356 0.0052356 0.0052356 0.0052356 0.0052356 0.0052356 0.0052356 0.0052356 0.0052356 0.0052356 0.0052356 0.0052356 0.0052356 0.0052356 0.0052356 0.0052356 0.0052356 0.0052356 0.0052356 0.0052356 0.0052356 0.0052356 0.0052356 0.0052356 0.0052356 0.0052356 0.0052356 0.0052356 0.0052356 0.0052356 0.0052356 0.0052356 0.0052356 0.0052356 0.0052356 0.0052356 0.0052356 0.0052356 0.0052356 0.0052356 0.0052356 0.0052356 0.0052356 0.0052356 0.0052356 0.0052356 0.0052356 0.0052356 0.0052356 0.0052356 0.0052356 0.0052356 0.0052356 0.0052356 0.0052356 0.0052356 0.0052356 0.0052356 0.0052356 0.0052356 0.0052356 0.0052356 0.0052356 0.0052356 0.0052356 0.0052356 0.0052356 0.0052356 0.0052356 0.0052356 0.0052356 0.0052356 0.0052356 0.0052356 0.0052356 0.0052356 0.0052356 0.0052356 0.0052356 0.0052356 0.0052356 0.0052356 0.0052356 0.0052356 0.0052356 0.0052356 0.0052356 0.0052356 0.0052356 0.0052356 0.0052356 0.0052356 0.0052356 0.0052356 0.0052356 0.0052356 0.0052356 0.0052356 0.0052356 0.0052356 0.0052356 0.0052356 0.0052356 0.0052356 0.0052356 0.0052356 0.0052356 0.0052356 0.0052356 0.0052356 0.0052356 0.0052356 0.0052356 0.0052356 0.0052356 0.0052356 0.0052356 0.0052356 0.0052356 0.0052356 0.0052356 0.0052356 0.0052356 0.0052356 0.0052356 0.0052356 0.0052356 0.0052356 0.0052356 0.0052356 0.0052356 0.0052356 0.0052356 0.0052356 0.0052356 0.0052356 0.0052356 0.0052356 0.0052356 0.0052356 0.0052356 0.0052356 0.0052356 0.0052356 0.0052356 0.0052356 0.0052356 0.0052356 0.0052356 0.0052356 0.0052356 0.0052356 0.0052356 0.0052356 0.0052356 0.0052356 0.0052356 0.0052356 0.0052356 0.0052356 0.0052356 0.0052356 0.0052356 0.0052356 0.0052356 0.0052356 0.0052356 0.0052356 0.0052356 0.0052356 0.0052356 0.0052356 0.0052356;
   (314591) 2.62383e-16 2.62383e-16 2.62383e-16 2.62383e-16 2.62383e-16 2.62383e-16 2.62383e-16 2.62383e-16 2.62383e-16 2.62383e-16 2.62383e-16 2.62383e-16 2.81718e-16 4.60681e-16 7.50128e-16 1.21627e-15 1.96365e-15 3.15681e-15 5.05349e-15 8.05538e-15 1.27857e-14 2.02074e-14 3.18022e-14 4.98369e-14 7.77652e-14 1.20834e-13 1.86952e-13 2.88026e-13 4.41851e-13 6.74966e-13 1.02667e-12 1.55502e-12 2.34518e-12 3.52194e-12 5.26668e-12 7.84252e-12 1.1628e-11 1.71679e-11 2.52396e-11 3.69495e-11 5.3862e-11 7.81827e-11 1.13007e-10 1.6265e-10 2.33118e-10 3.32699e-10 4.72829e-10 6.69157e-10 9.4306e-10 1.32355e-09 1.8498e-09 2.57473e-09 3.56908e-09 4.92734e-09 6.77527e-09 9.27932e-09 1.26593e-08 1.72044e-08 2.32938e-08 3.14228e-08 4.22378e-08 5.65815e-08 7.55455e-08 1.00553e-07 1.33438e-07 1.76598e-07 2.33125e-07 3.07044e-07 4.03587e-07 5.29567e-07 6.93896e-07 9.08231e-07 1.18791e-06 1.55317e-06 2.03077e-06 2.65626e-06 3.47714e-06 4.55706e-06 5.98149e-06 7.86577e-06 1.03662e-05 1.36948e-05 1.81408e-05 2.40975e-05 3.21034e-05 4.28929e-05 5.7471e-05 7.72082e-05 0.000103973 0.000140299 0.000189612 0.000256513 0.000347146 0.000469624 0.000634531 0.000855563 0.00115005 0.00153963 0.00205056 0.00271421 0.00356637 0.00464669 0.00599682 0.00765753 0.0096647 0.012045 0.0148081 0.0179438 0.0214141 0.0251511 0.0290557 0.0329986 0.0368285 0.0403813 0.0434921 0.0460105 0.0478136 0.0488176 0.0489845 0.0483252 0.0468969 0.0447948 0.0421422 0.0390793 0.0357504 0.0322924 0.0288281 0.0254587 0.0222643 0.0193008 0.016603 0.0141858 0.0120521 0.0101903 0.00858336 0.00720901 0.00604224 0.00505794 0.00423157 0.00354057 0.00296444 0.00248485 0.00208605 0.00175453 0.00147872 0.00124901 0.00105734 0.000897044 0.000762622 0.000649606 0.000554273 0.000473598 0.000405112 0.00034679 0.000296989 0.000254353 0.000217766 0.000186319 0.000159248 0.000135928 0.000115834 9.85188e-05 8.3611e-05 7.07882e-05 5.97734e-05 5.03334e-05 4.22588e-05 3.53699e-05 2.95104e-05 2.454e-05 2.03381e-05 1.67975e-05 1.38247e-05 1.13378e-05 9.26492e-06 7.54366e-06 6.11952e-06 4.94597e-06 3.98269e-06 3.19499e-06 2.55337e-06 2.03291e-06 1.61233e-06 1.27382e-06 1.00251e-06 7.85878e-07 6.13643e-07 4.77269e-07 3.69718e-07 2.85258e-07 2.19211e-07;
   (1019107402) 2.92369e-15 2.92369e-15 2.92369e-15 2.92369e-15 2.92369e-15 2.92369e-15 2.92369e-15 2.92369e-15 2.92369e-15 3.1391e-15 5.13323e-15 8.35847e-15 1.35523e-14 2.18803e-14 3.51755e-14 5.63093e-14 8.97573e-14 1.42466e-13 2.25166e-13 3.54361e-13 5.55315e-13 8.66527e-13 1.34641e-12 2.08317e-12 3.20937e-12 4.92343e-12 7.5208e-12 1.14397e-11 1.73266e-11 2.61315e-11 3.92433e-11 5.86836e-11 8.73814e-11 1.29561e-10 1.91283e-10 2.81211e-10 4.11659e-10 6.00061e-10 8.70969e-10 1.25881e-09 1.81164e-09 2.59616e-09 3.70462e-09 5.26389e-09 7.44769e-09 1.04928e-08 1.472e-08 2.05626e-08 2.86024e-08 3.96169e-08 5.46403e-08 7.50412e-08 1.02623e-07 1.39749e-07 1.89501e-07 2.55882e-07 3.4406e-07 4.60679e-07 6.14239e-07 8.15566e-07 1.07836e-06 1.41994e-06 1.86201e-06 2.4317e-06 3.16279e-06 4.09713e-06 5.28635e-06 6.79395e-06 8.69771e-06 1.10925e-05 1.40938e-05 1.78419e-05 2.25066e-05 2.82928e-05 3.54479e-05 4.42697e-05 5.51166e-05 6.84189e-05 8.46938e-05 0.000104562 0.000128769 0.000158206 0.000193944 0.000237262 0.000289688 0.000353043 0.000429495 0.000521606 0.000632401 0.000765426 0.000924813 0.00111532 0.00134244 0.00161234 0.00193197 0.00230896 0.00275159 0.00326866 0.00386927 0.00456259 0.00535746 0.00626196 0.00728294 0.00842533 0.00969161 0.0110811 0.0125895 0.0142079 0.0159232 0.0177169 0.019566 0.0214424 0.0233147 0.0251476 0.0269037 0.0285453 0.0300351 0.0313379 0.0324228 0.0332636 0.0338405 0.0341411 0.0341606 0.0339022 0.0333762 0.0326002 0.0315977 0.0303968 0.0290289 0.0275279 0.0259275 0.0242614 0.0225615 0.0208564 0.0191723 0.017531 0.0159505 0.0144452 0.0130254 0.0116979 0.0104669 0.00933342 0.00829659 0.00735358 0.00650047 0.00573225 0.00504334 0.00442778 0.00387954 0.00339262 0.00296124 0.0025799 0.00224347 0.00194717 0.00168667 0.00145801 0.00125761 0.00108228 0.000929137 0.000795633 0.000679473 0.000578631 0.000491289 0.000415836 0.000350834 0.000295 0.000247194 0.000206396 0.000171702 0.000142306 0.000117491 9.66285e-05 7.91568e-05 6.45861e-05 5.2485e-05 4.24777e-05 3.42375e-05 2.7482e-05 2.1968e-05 1.74871e-05 1.38619e-05 1.09422e-05 8.60115e-06 6.73247e-06 5.24749e-06 4.07278e-06 3.14767e-06 2.42238e-06 1.85631e-06 1.41649e-06 1.07629e-06;
   (2964414) 4.87279e-16 4.87279e-16 5.2318e-16 8.55534e-16 1.39306e-15 2.25871e-15 3.64671e-15 5.8626e-15 9.38479e-15 1.49593e-14 2.37444e-14 3.75274e-14 5.906e-14 9.2552e-14 1.4442e-13 2.24401e-13 3.4719e-13 5.3489e-13 8.20564e-13 1.25345e-12 1.90661e-12 2.88776e-12 4.35523e-12 6.54048e-12 9.78057e-12 1.45633e-11 2.15932e-11 3.18806e-11 4.68684e-11 6.86094e-11 1.00009e-10 1.4516e-10 2.09802e-10 3.0194e-10 4.32689e-10 6.17435e-10 8.77326e-10 1.24128e-09 1.74882e-09 2.4534e-09 3.42723e-09 4.7673e-09 6.60331e-09 9.10762e-09 1.25086e-08 1.71068e-08 2.32968e-08 3.1593e-08 4.26634e-08 5.73722e-08 7.68288e-08 1.02455e-07 1.36065e-07 1.79961e-07 2.37045e-07 3.10976e-07 4.06333e-07 5.28837e-07 6.85587e-07 8.85429e-07 1.13922e-06 1.46044e-06 1.86559e-06 2.37503e-06 3.01366e-06 3.81198e-06 4.80752e-06 6.04606e-06 7.58424e-06 9.4908e-06 1.18511e-05 1.47698e-05 1.83766e-05 2.28317e-05 2.8333e-05 3.51269e-05 4.35197e-05 5.38901e-05 6.67153e-05 8.25829e-05 0.000102231 0.000126573 0.000156746 0.000194163 0.000240565 0.000298114 0.000369456 0.000457822 0.000567178 0.000702253 0.000868831 0.00107369 0.00132493 0.00163193 0.0020056 0.00245829 0.00300387 0.0036576 0.00443583 0.00535567 0.00643436 0.00768808 0.00913203 0.0107774 0.0126312 0.0146935 0.0169569 0.0194033 0.0220041 0.0247179 0.0274905 0.0302565 0.0329409 0.0354606 0.0377306 0.0396674 0.0411943 0.0422483 0.0427827 0.0427736 0.0422185 0.0411398 0.0395813 0.0376051 0.0352895 0.0327186 0.0299812 0.0271633 0.0243441 0.0215921 0.0189637 0.0165016 0.0142349 0.0121806 0.0103456 0.00872703 0.0073157 0.00609821 0.00505753 0.00417551 0.00343351 0.00281339 0.00229817 0.00187228 0.00152179 0.00123446 0.000999714 0.000808443 0.000652995 0.000526909 0.000424815 0.000342268 0.000275596 0.000221806 0.000178438 0.000143492 0.000115343 9.268e-05 7.44387e-05 5.97579e-05 4.79448e-05 3.84408e-05 3.07962e-05 2.46486e-05 1.97067e-05 1.57359e-05 1.25469e-05 9.98807e-06 7.93663e-06 6.29386e-06 4.98016e-06 3.93135e-06 3.09542e-06 2.43061e-06 1.90303e-06 1.48543e-06 1.15575e-06 8.96263e-07 6.92638e-07 5.33371e-07 4.09235e-07 3.12815e-07 2.38201e-07 1.80679e-07 1.36508e-07 1.02725e-07 7.69914e-08 5.74699e-08 4.27215e-08 3.16273e-08 2.33169e-08;
   (9515830) 1.99342e-16 2.14029e-16 3.49991e-16 5.69881e-16 9.24018e-16 1.49183e-15 2.39834e-15 3.83923e-15 6.1197e-15 9.71364e-15 1.53524e-14 2.41612e-14 3.78625e-14 5.90818e-14 9.18018e-14 1.42037e-13 2.1883e-13 3.357e-13 5.12804e-13 7.80029e-13 1.18147e-12 1.78191e-12 2.67609e-12 4.00206e-12 5.95936e-12 8.83673e-12 1.30478e-11 1.91841e-11 2.80873e-11 4.0949e-11 5.94491e-11 8.59451e-11 1.2373e-10 1.77378e-10 2.53236e-10 3.6002e-10 5.09731e-10 7.18704e-10 1.00922e-09 1.41137e-09 1.96572e-09 2.72687e-09 3.76752e-09 5.18464e-09 7.10673e-09 9.70321e-09 1.3197e-08 1.78799e-08 2.4132e-08 3.24484e-08 4.34669e-08 5.80108e-08 7.71392e-08 1.022e-07 1.34916e-07 1.77468e-07 2.32613e-07 3.03814e-07 3.95433e-07 5.12886e-07 6.62943e-07 8.53964e-07 1.09634e-06 1.40286e-06 1.78909e-06 2.27439e-06 2.88221e-06 3.64129e-06 4.58673e-06 5.76125e-06 7.21747e-06 9.01866e-06 1.12439e-05 1.39887e-05 1.73711e-05 2.15381e-05 2.66692e-05 3.2992e-05 4.07856e-05 5.04053e-05 6.22954e-05 7.70194e-05 9.52914e-05 0.00011802 0.000146358 0.000181783 0.000226189 0.000281984 0.00035225 0.000440923 0.00055301 0.000694848 0.00087446 0.00110183 0.00138944 0.00175263 0.00220989 0.00278347 0.00349931 0.00438716 0.0054799 0.00681276 0.00842124 0.0103387 0.0125921 0.0152 0.0181631 0.021462 0.0250526 0.0288618 0.0327834 0.036686 0.0404129 0.0437961 0.0466653 0.0488657 0.0502699 0.0507954 0.0504075 0.0491289 0.0470339 0.0442403 0.0409009 0.0371834 0.0332611 0.0292941 0.0254216 0.0217561 0.0183781 0.0153384 0.0126609 0.0103467 0.00838024 0.00673443 0.00537515 0.00426582 0.00336962 0.00265199 0.00208156 0.00163093 0.00127667 0.000999166 0.000782417 0.000613396 0.000481677 0.000379048 0.000299011 0.000236501 0.000187587 0.000149218 0.000119033 9.52186e-05 7.63624e-05 6.13844e-05 4.94473e-05 3.99002e-05 3.22419e-05 2.60803e-05 2.11102e-05 1.70916e-05 1.38365e-05 1.11956e-05 9.05108e-06 7.30864e-06 5.8926e-06 4.74211e-06 3.80826e-06 3.05098e-06 2.43795e-06 1.94255e-06 1.54318e-06 1.22197e-06 9.6443e-07 7.585e-07 5.94396e-07 4.64072e-07 3.60965e-07 2.79673e-07 2.15845e-07 1.65919e-07 1.27028e-07 9.68597e-08 7.3552e-08 5.56241e-08 4.18896e-08 3.14155e-08 2.34621e-08 1.74486e-08 1.29218e-08 9.52887e-09 6.99734e-09;
   (1052411482) 8.77096e-16 8.77096e-16 8.77096e-16 8.77096e-16 9.41724e-16 1.53996e-15 2.50752e-15 4.06568e-15 6.56406e-15 1.05527e-14 1.68926e-14 2.69269e-14 4.27396e-14 6.75498e-14 1.06307e-13 1.66593e-13 2.59956e-13 4.03919e-13 6.24948e-13 9.62811e-13 1.47702e-12 2.25623e-12 3.43188e-12 5.19795e-12 7.83944e-12 1.1773e-11 1.76051e-11 2.62144e-11 3.88679e-11 5.73856e-11 8.4364e-11 1.23499e-10 1.80021e-10 2.61296e-10 3.77656e-10 5.43516e-10 7.78892e-10 1.11148e-09 1.57934e-09 2.23463e-09 3.1484e-09 4.41706e-09 6.1707e-09 8.58408e-09 1.18911e-08 1.64027e-08 2.25307e-08 3.08183e-08 4.19786e-08 5.69409e-08 7.69155e-08 1.03468e-07 1.38614e-07 1.84941e-07 2.45749e-07 3.25236e-07 4.28723e-07 5.62911e-07 7.36224e-07 9.59198e-07 1.245e-06 1.60998e-06 2.07441e-06 2.66333e-06 3.40758e-06 4.34524e-06 5.52275e-06 6.99726e-06 8.83842e-06 1.11313e-05 1.39796e-05 1.75093e-05 2.18739e-05 2.72597e-05 3.38918e-05 4.20447e-05 5.20488e-05 6.4305e-05 7.92987e-05 9.76108e-05 0.000119951 0.000147166 0.000180277 0.000220514 0.000269346 0.00032854 0.000400205 0.00048685 0.000591468 0.000717596 0.000869409 0.00105184 0.00127061 0.00153237 0.00184479 0.00221662 0.00265769 0.00317896 0.00379237 0.00451075 0.00534739 0.00631569 0.00742844 0.00869714 0.0101309 0.0117351 0.0135104 0.0154516 0.0175457 0.019771 0.0220973 0.0244853 0.0268859 0.0292439 0.0314975 0.0335831 0.0354365 0.0369985 0.0382165 0.0390489 0.0394671 0.0394579 0.0390233 0.0381802 0.0369608 0.0354078 0.0335739 0.0315169 0.0292979 0.0269771 0.024612 0.0222551 0.0199516 0.0177393 0.015648 0.013699 0.0119066 0.0102781 0.00881512 0.00751438 0.00636904 0.00536955 0.00450452 0.00376165 0.00312817 0.00259149 0.00213953 0.00176098 0.00144548 0.00118368 0.000967291 0.000789081 0.000642729 0.000522863 0.000424904 0.000344993 0.0002799 0.000226941 0.000183895 0.000148927 0.000120536 9.74951e-05 7.87984e-05 6.36336e-05 5.13351e-05 4.1365e-05 3.32859e-05 2.67431e-05 2.14485e-05 1.71683e-05 1.37123e-05 1.09259e-05 8.6835e-06 6.88225e-06 5.4386e-06 4.28449e-06 3.36433e-06 2.63289e-06 2.05325e-06 1.59546e-06 1.23515e-06 9.52582e-07 7.31827e-07 5.60019e-07 4.26846e-07 3.24028e-07 2.44979e-07 1.84455e-07 1.38311e-07 1.0328e-07 7.68007e-08;
   (79397631) 2.19282e-16 2.19282e-16 2.19282e-16 2.19282e-16 2.19282e-16 2.19282e-16 2.19282e-16 2.19282e-16 2.19282e-16 2.19282e-16 2.19282e-16 2.19282e-16 2.19282e-16 2.19282e-16 2.35438e-16 3.85005e-16 6.26908e-16 1.01646e-15 1.64108e-15 2.63821e-15 4.22332e-15 6.73192e-15 1.06852e-14 1.68878e-14 2.65781e-14 4.16501e-14 6.49913e-14 1.00984e-13 1.56243e-13 2.40707e-13 3.69271e-13 5.64086e-13 8.58016e-13 1.29955e-12 1.95998e-12 2.94348e-12 4.40162e-12 6.55438e-12 9.71832e-12 1.43485e-11 2.10951e-11 3.08827e-11 4.50199e-11 6.53516e-11 9.44649e-11 1.35976e-10 1.94906e-10 2.78197e-10 3.95448e-10 5.59765e-10 7.89097e-10 1.10788e-09 1.54911e-09 2.15743e-09 2.99272e-09 4.13542e-09 5.69272e-09 7.80754e-09 1.06696e-08 1.45307e-08 1.97236e-08 2.66888e-08 3.60086e-08 4.84511e-08 6.5036e-08 8.71094e-08 1.16463e-07 1.55473e-07 2.0732e-07 2.76266e-07 3.68035e-07 4.90372e-07 6.538e-07 8.72663e-07 1.16663e-06 1.56278e-06 2.09864e-06 2.82633e-06 3.81878e-06 5.17796e-06 7.04776e-06 9.63045e-06 1.32135e-05 1.82025e-05 2.51742e-05 3.49455e-05 4.86749e-05 6.80004e-05 9.52295e-05 0.000133605 0.000187641 0.000263586 0.000369988 0.000518431 0.000724383 0.00100807 0.00139554 0.00191936 0.00261939 0.00354227 0.00474073 0.00627098 0.00818837 0.0105418 0.0133652 0.0166695 0.0204333 0.0245932 0.0290427 0.0336289 0.038161 0.0424222 0.0461894 0.0492508 0.0514333 0.0526161 0.0527468 0.0518432 0.0499902 0.0473268 0.0440294 0.0402922 0.0363105 0.0322614 0.0282952 0.0245305 0.0210484 0.0179013 0.0151107 0.012677 0.0105842 0.00880601 0.00731017 0.0060617 0.00502624 0.00417174 0.00346876 0.00289161 0.00241816 0.00202969 0.00171052 0.00144766 0.00123062 0.00105068 0.00090091 0.000775653 0.00067035 0.000581355 0.000505715 0.000441074 0.000385521 0.000337529 0.000295855 0.000259516 0.000227692 0.000199726 0.000175081 0.000153317 0.000134067 0.000117025 0.00010194 8.8587e-05 7.67828e-05 6.63623e-05 5.71811e-05 4.91117e-05 4.2039e-05 3.58577e-05 3.04754e-05 2.58038e-05 2.17655e-05 1.82876e-05 1.53046e-05 1.27573e-05 1.05913e-05 8.75658e-06 7.21017e-06 5.91233e-06 4.82787e-06 3.92596e-06 3.17913e-06 2.56352e-06 2.05844e-06 1.64591e-06 1.3105e-06 1.03899e-06 8.20289e-07 6.44842e-07 5.04799e-07 3.93485e-07 3.05417e-07;
   (20947316) 9.79962e-14 1.52916e-13 2.37601e-13 3.67617e-13 5.66359e-13 8.68832e-13 1.32718e-12 2.01876e-12 3.05763e-12 4.6114e-12 6.92521e-12 1.0356e-11 1.54201e-11 2.28634e-11 3.37557e-11 4.96249e-11 7.26452e-11 1.05892e-10 1.53699e-10 2.22139e-10 3.19698e-10 4.58134e-10 6.53743e-10 9.28888e-10 1.31427e-09 1.85159e-09 2.59749e-09 3.62841e-09 5.04702e-09 6.99044e-09 9.64094e-09 1.324e-08 1.81054e-08 2.46534e-08 3.34269e-08 4.51305e-08 6.06728e-08 8.12209e-08 1.08268e-07 1.43707e-07 1.89939e-07 2.49978e-07 3.276e-07 4.27509e-07 5.55522e-07 7.18818e-07 9.26176e-07 1.18832e-06 1.51826e-06 1.93164e-06 2.44732e-06 3.08769e-06 3.87953e-06 4.85423e-06 6.04894e-06 7.50693e-06 9.27879e-06 1.14233e-05 1.40082e-05 1.71114e-05 2.08228e-05 2.52453e-05 3.04967e-05 3.67109e-05 4.40432e-05 5.26692e-05 6.27914e-05 7.46427e-05 8.84948e-05 0.000104655 0.000123493 0.000145432 0.000170981 0.000200734 0.000235411 0.000275856 0.000323105 0.000378395 0.000443238 0.000519451 0.000609258 0.000715362 0.000841051 0.000990307 0.00116797 0.00137991 0.00163314 0.0019361 0.00229877 0.00273296 0.00325231 0.00387255 0.00461135 0.00548827 0.00652415 0.00774074 0.00915908 0.0107987 0.0126753 0.0147979 0.0171673 0.0197728 0.0225882 0.025572 0.0286638 0.0317853 0.0348431 0.0377302 0.0403333 0.0425393 0.0442445 0.0453618 0.0458284 0.045614 0.0447216 0.0431877 0.041081 0.0384961 0.0355436 0.0323452 0.0290203 0.0256833 0.0224306 0.0193428 0.0164797 0.0138813 0.0115672 0.00954284 0.00779962 0.00632056 0.00508217 0.00405773 0.00321943 0.00254012 0.00199444 0.00155952 0.00121519 0.000944182 0.000731944 0.000566455 0.000437859 0.000338208 0.000261157 0.000201672 0.000155793 0.000120424 9.31628e-05 7.21404e-05 5.59188e-05 4.33909e-05 3.37042e-05 2.62044e-05 2.03901e-05 1.58758e-05 1.23663e-05 9.63431e-06 7.50521e-06 5.84466e-06 4.54849e-06 3.53645e-06 2.74619e-06 2.12928e-06 1.64801e-06 1.27285e-06 9.80829e-07 7.53876e-07 5.77847e-07 4.41615e-07 3.36443e-07 2.55474e-07 1.9333e-07 1.45782e-07 1.09528e-07 8.19801e-08 6.11259e-08 4.53991e-08 3.35846e-08 2.47451e-08 1.81584e-08 1.32704e-08 9.65819e-09 7.00009e-09 5.05247e-09 3.63149e-09 2.59917e-09 1.85247e-09 1.31475e-09 9.29154e-10 6.53876e-10 4.5821e-10 3.19733e-10;
   (80431643) 4.38566e-15 4.38566e-15 4.38566e-15 4.38566e-15 4.38566e-15 4.38566e-15 4.38566e-15 4.38566e-15 4.38566e-15 4.38566e-15 4.38566e-15 4.38566e-15 4.38566e-15 4.38566e-15 4.70879e-15 7.70008e-15 1.25381e-14 2.03291e-14 3.28214e-14 5.27649e-14 8.44665e-14 1.3464e-13 2.13706e-13 3.37759e-13 5.31557e-13 8.32997e-13 1.29983e-12 2.01968e-12 3.12484e-12 4.8142e-12 7.38536e-12 1.12816e-11 1.716e-11 2.59907e-11 3.91984e-11 5.88666e-11 8.8028e-11 1.31076e-10 1.94347e-10 2.86933e-10 4.21829e-10 6.17507e-10 9.00115e-10 1.30649e-09 1.88827e-09 2.71752e-09 3.89432e-09 5.55702e-09 7.89593e-09 1.11716e-08 1.5739e-08 2.20796e-08 3.08429e-08 4.29013e-08 5.94205e-08 8.19507e-08 1.12543e-07 1.539e-07 2.09559e-07 2.84136e-07 3.83616e-07 5.15725e-07 6.90383e-07 9.20265e-07 1.22148e-06 1.6144e-06 2.12464e-06 2.78427e-06 3.6332e-06 4.72081e-06 6.10794e-06 7.86909e-06 1.0095e-05 1.28954e-05 1.64028e-05 2.07756e-05 2.62022e-05 3.2906e-05 4.11495e-05 5.12395e-05 6.3533e-05 7.84417e-05 9.6438e-05 0.000118061 0.000143919 0.000174699 0.000211165 0.000254165 0.000304632 0.000363585 0.000432125 0.000511439 0.000602789 0.000707511 0.000827001 0.000962714 0.00111614 0.00128882 0.00148229 0.00169811 0.00193783 0.00220298 0.0024951 0.00281568 0.00316619 0.0035481 0.00396285 0.0044119 0.00489671 0.00541875 0.00597956 0.00658065 0.00722358 0.00790987 0.008641 0.00941827 0.0102428 0.0111152 0.0120356 0.0130036 0.0140175 0.0150747 0.0161712 0.0173013 0.0184577 0.0196311 0.0208103 0.0219823 0.0231319 0.0242427 0.0252969 0.0262757 0.02716 0.0279312 0.0285711 0.0290635 0.0293941 0.0295515 0.0295278 0.0293185 0.0289233 0.0283461 0.0275949 0.0266813 0.0256208 0.0244316 0.0231344 0.0217517 0.0203066 0.0188227 0.0173229 0.0158291 0.0143613 0.0129372 0.0115721 0.0102786 0.00906628 0.007942 0.00690996 0.00597186 0.00512724 0.00437374 0.00370751 0.00312351 0.00261584 0.00217806 0.00180348 0.00148537 0.00121713 0.000992502 0.000805612 0.000651082 0.000524055 0.000420208 0.000335745 0.000267376 0.000212277 0.000168053 0.000132689 0.000104505 8.21123e-05 6.43717e-05 5.03526e-05 3.9301e-05 3.06082e-05 2.37854e-05 1.84415e-05 1.42646e-05 1.10067e-05 8.47104e-06 6.50201e-06;
   (3014218) 3.50839e-16 3.50839e-16 3.7669e-16 6.15984e-16 1.00299e-15 1.62627e-15 2.62563e-15 4.22108e-15 6.757e-15 1.07707e-14 1.70959e-14 2.70197e-14 4.25227e-14 6.66375e-14 1.03983e-13 1.61568e-13 2.49976e-13 3.8512e-13 5.90812e-13 9.02485e-13 1.37277e-12 2.07917e-12 3.13578e-12 4.70916e-12 7.04208e-12 1.04857e-11 1.55472e-11 2.29538e-11 3.37451e-11 4.93989e-11 7.20072e-11 1.04516e-10 1.51059e-10 2.17397e-10 3.11539e-10 4.44555e-10 6.31677e-10 8.93733e-10 1.25917e-09 1.76645e-09 2.46765e-09 3.43254e-09 4.75452e-09 6.55767e-09 9.00655e-09 1.23175e-08 1.67749e-08 2.27493e-08 3.0722e-08 4.1315e-08 5.53291e-08 7.37903e-08 9.80046e-08 1.29635e-07 1.70779e-07 2.24077e-07 2.92845e-07 3.8123e-07 4.94378e-07 6.38734e-07 8.2223e-07 1.05467e-06 1.34827e-06 1.71794e-06 2.18223e-06 2.764e-06 3.49138e-06 4.3994e-06 5.53141e-06 6.94128e-06 8.6966e-06 1.08819e-05 1.36032e-05 1.69957e-05 2.12301e-05 2.65242e-05 3.31578e-05 4.14906e-05 5.19856e-05 6.52452e-05 8.20466e-05 0.000103411 0.000130654 0.000165507 0.000210218 0.000267719 0.000341813 0.00043743 0.000560929 0.000720445 0.000926299 0.0011915 0.00153218 0.00196804 0.0025228 0.00322421 0.00410408 0.00519743 0.00654118 0.00817211 0.0101234 0.012421 0.0150789 0.0180912 0.0214324 0.0250467 0.0288501 0.0327299 0.0365467 0.0401432 0.0433564 0.0460278 0.0480206 0.0492295 0.0495942 0.0491022 0.0477906 0.0457419 0.043075 0.039932 0.036466 0.0328283 0.0291579 0.0255741 0.0221712 0.0190172 0.0161556 0.013607 0.0113739 0.00944576 0.00780155 0.00641475 0.0052559 0.00429529 0.00350408 0.00285596 0.00232717 0.00189706 0.00154795 0.00126489 0.00103547 0.000849428 0.000698396 0.000575593 0.000475522 0.000393768 0.000326792 0.000271758 0.000226392 0.000188884 0.000157774 0.000131893 0.00011031 9.22647e-05 7.71501e-05 6.44677e-05 5.38151e-05 4.48629e-05 3.73363e-05 3.10109e-05 2.56989e-05 2.12431e-05 1.75118e-05 1.4393e-05 1.17928e-05 9.63002e-06 7.83691e-06 6.35488e-06 5.13411e-06 4.13221e-06 3.31301e-06 2.64577e-06 2.10449e-06 1.66718e-06 1.31541e-06 1.03355e-06 8.08764e-07 6.30219e-07 4.89045e-07 3.77907e-07 2.90794e-07 2.22822e-07 1.70014e-07 1.29177e-07 9.77319e-08 7.36272e-08 5.52342e-08 4.12592e-08 3.06897e-08 2.27307e-08 1.67645e-08;
   (1032480996) 3.84989e-15 6.2688e-15 1.01642e-14 1.64101e-14 2.63814e-14 4.22316e-14 6.73175e-14 1.06849e-13 1.68873e-13 2.65769e-13 4.16482e-13 6.4989e-13 1.0098e-12 1.56236e-12 2.40701e-12 3.69254e-12 5.64055e-12 8.5797e-12 1.29949e-11 1.95984e-11 2.94322e-11 4.40123e-11 6.55355e-11 9.71693e-11 1.43461e-10 2.10906e-10 3.08741e-10 4.5004e-10 6.5322e-10 9.44093e-10 1.35871e-09 1.94708e-09 2.77841e-09 3.94781e-09 5.5856e-09 7.86923e-09 1.10394e-08 1.5421e-08 2.145e-08 2.97095e-08 4.09745e-08 5.6271e-08 7.69493e-08 1.0478e-07 1.4207e-07 1.91815e-07 2.57878e-07 3.45225e-07 4.60196e-07 6.1086e-07 8.07411e-07 1.0627e-06 1.39281e-06 1.81775e-06 2.36237e-06 3.05727e-06 3.94002e-06 5.05646e-06 6.4624e-06 8.22504e-06 1.04256e-05 1.31611e-05 1.65471e-05 2.07212e-05 2.58458e-05 3.21122e-05 3.97451e-05 4.90075e-05 6.02058e-05 7.36973e-05 8.98972e-05 0.000109287 0.000132423 0.000159951 0.000192617 0.000231285 0.00027695 0.000330763 0.000394051 0.000468345 0.000555404 0.00065725 0.000776203 0.000914909 0.00107638 0.00126403 0.00148171 0.00173371 0.00202484 0.0023604 0.00274615 0.00318837 0.00369374 0.0042693 0.00492232 0.00566017 0.00649003 0.00741873 0.00845226 0.00959546 0.0108515 0.0122213 0.0137034 0.0152922 0.0169789 0.0187497 0.0205864 0.0224654 0.0243584 0.0262322 0.0280498 0.0297712 0.0313544 0.032758 0.033942 0.0348705 0.0355128 0.0358463 0.0358569 0.0355402 0.0349024 0.0339594 0.0327367 0.0312675 0.0295916 0.0277531 0.0257982 0.0237729 0.0217212 0.0196841 0.0176969 0.0157898 0.0139862 0.0123036 0.0107534 0.00934148 0.00806911 0.00693357 0.00592916 0.00504793 0.00428047 0.00361651 0.00304556 0.0025572 0.00214148 0.00178906 0.00149143 0.00124087 0.00103055 0.000854431 0.00070727 0.000584546 0.000482375 0.000397446 0.00032695 0.000268516 0.000220144 0.000180155 0.000147144 0.000119933 9.75384e-05 7.91395e-05 6.40516e-05 5.17034e-05 4.16202e-05 3.34057e-05 2.67309e-05 2.13219e-05 1.69515e-05 1.34309e-05 1.06043e-05 8.34231e-06 6.53873e-06 5.10575e-06 3.97155e-06 3.07728e-06 2.37496e-06 1.82561e-06 1.39767e-06 1.06568e-06 8.09223e-07 6.11953e-07 4.60849e-07 3.45612e-07 2.58106e-07 1.91948e-07 1.42147e-07 1.04824e-07 7.69739e-08 5.62849e-08 4.09823e-08;
   (9496683) 2.74092e-16 2.74092e-16 2.74092e-16 2.74092e-16 2.94289e-16 4.81236e-16 7.83587e-16 1.27052e-15 2.05126e-15 3.29771e-15 5.27889e-15 8.41458e-15 1.33562e-14 2.11093e-14 3.32209e-14 5.20605e-14 8.12368e-14 1.26225e-13 1.95295e-13 3.00874e-13 4.61573e-13 7.05067e-13 1.07247e-12 1.62435e-12 2.44982e-12 3.67901e-12 5.50164e-12 8.19195e-12 1.21463e-11 1.7933e-11 2.63635e-11 3.85932e-11 5.62564e-11 8.16546e-11 1.18016e-10 1.69844e-10 2.43397e-10 3.47319e-10 4.93517e-10 6.98282e-10 9.83806e-10 1.38021e-09 1.92814e-09 2.68217e-09 3.7154e-09 5.12487e-09 7.03937e-09 9.62833e-09 1.31147e-08 1.77887e-08 2.40289e-08 3.23239e-08 4.33045e-08 5.77802e-08 7.6785e-08 1.01636e-07 1.3401e-07 1.76015e-07 2.30318e-07 3.00279e-07 3.90111e-07 5.05084e-07 6.51819e-07 8.38586e-07 1.07574e-06 1.37627e-06 1.75644e-06 2.23673e-06 2.84293e-06 3.60771e-06 4.57243e-06 5.78994e-06 7.32768e-06 9.27244e-06 1.17362e-05 1.48643e-05 1.88456e-05 2.39269e-05 3.04325e-05 3.87883e-05 4.95565e-05 6.34804e-05 8.15457e-05 0.000105057 0.000135741 0.00017589 0.000228529 0.000297646 0.000388465 0.000507808 0.000664499 0.000869834 0.00113816 0.00148743 0.00193959 0.00252112 0.00326314 0.00420111 0.00537376 0.00682162 0.00858405 0.0106956 0.0131802 0.0160483 0.0192848 0.022852 0.0266787 0.0306607 0.0346654 0.0385345 0.0420959 0.0451768 0.0476203 0.0492957 0.0501179 0.0500489 0.0491071 0.0473591 0.0449155 0.0419156 0.0385167 0.034879 0.0311521 0.0274675 0.023933 0.0206281 0.0176057 0.0148955 0.0125062 0.0104308 0.00865149 0.00714296 0.00587632 0.00482133 0.00394849 0.00323023 0.00264179 0.00216114 0.00176942 0.00145056 0.00119109 0.000979934 0.00080792 0.000667561 0.000552808 0.00045878 0.000381523 0.000317868 0.000265266 0.000221674 0.000185441 0.000155247 0.000130021 0.000108902 9.11854e-05 7.63068e-05 6.37948e-05 5.32685e-05 4.44113e-05 3.69588e-05 3.0694e-05 2.54325e-05 2.10207e-05 1.73273e-05 1.42422e-05 1.16714e-05 9.53424e-06 7.76317e-06 6.29989e-06 5.09451e-06 4.1052e-06 3.29599e-06 2.63648e-06 2.101e-06 1.66793e-06 1.31899e-06 1.03897e-06 8.15182e-07 6.37033e-07 4.9583e-07 3.84365e-07 2.96748e-07 2.28164e-07 1.74712e-07 1.3323e-07 1.01177e-07 7.65141e-08 5.76221e-08 4.32139e-08 3.22718e-08 2.39994e-08;
   (3014208) 5.15938e-16 5.15938e-16 5.53955e-16 9.05859e-16 1.475e-15 2.39158e-15 3.86121e-15 6.20745e-15 9.93675e-15 1.58394e-14 2.51411e-14 3.97352e-14 6.25335e-14 9.79962e-14 1.52915e-13 2.37601e-13 3.67616e-13 5.66359e-13 8.68839e-13 1.32719e-12 2.01875e-12 3.05763e-12 4.61143e-12 6.92521e-12 1.0356e-11 1.54201e-11 2.28633e-11 3.37556e-11 4.96248e-11 7.26452e-11 1.05892e-10 1.537e-10 2.22142e-10 3.19701e-10 4.58146e-10 6.53756e-10 9.28925e-10 1.31431e-09 1.85168e-09 2.59769e-09 3.62881e-09 5.0477e-09 6.99158e-09 9.64302e-09 1.3244e-08 1.81124e-08 2.46659e-08 3.34492e-08 4.51693e-08 6.074e-08 8.13366e-08 1.08466e-07 1.44042e-07 1.90498e-07 2.50908e-07 3.29136e-07 4.30021e-07 5.59589e-07 7.25356e-07 9.36595e-07 1.20483e-06 1.54416e-06 1.97197e-06 2.50956e-06 3.18306e-06 4.02438e-06 5.07271e-06 6.37577e-06 7.99234e-06 9.9943e-06 1.24699e-05 1.5528e-05 1.93028e-05 2.39608e-05 2.97074e-05 3.68003e-05 4.55588e-05 5.63842e-05 6.97788e-05 8.63728e-05 0.000106962 0.000132549 0.000164394 0.00020409 0.000253649 0.00031559 0.000393099 0.000490143 0.000611679 0.000763886 0.000954333 0.00119233 0.00148913 0.00185823 0.00231557 0.00287967 0.00357162 0.00441487 0.00543469 0.0066572 0.00810803 0.00981027 0.0117824 0.0140346 0.0165661 0.0193615 0.0223881 0.0255935 0.0289048 0.0322296 0.0354594 0.038474 0.0411506 0.0433705 0.0450308 0.0460509 0.0463808 0.0460066 0.0449491 0.0432641 0.0410365 0.0383717 0.0353883 0.0322073 0.028944 0.0257028 0.0225706 0.0196151 0.0168847 0.0144086 0.0121998 0.0102583 0.0085738 0.00712901 0.00590195 0.00486891 0.00400559 0.00328862 0.0026962 0.00220874 0.00180893 0.00148175 0.00121445 0.000996221 0.000818123 0.000672717 0.000553918 0.000456724 0.00037709 0.000311727 0.000257976 0.000213685 0.000177116 0.000146861 0.00012179 0.000100979 8.36835e-05 6.92933e-05 5.73133e-05 4.73375e-05 3.90305e-05 3.21182e-05 2.63704e-05 2.15976e-05 1.76407e-05 1.43669e-05 1.16646e-05 9.4399e-06 7.61335e-06 6.11887e-06 4.89971e-06 3.90889e-06 3.1065e-06 2.45923e-06 1.93916e-06 1.52295e-06 1.19123e-06 9.2795e-07 7.19892e-07 5.56177e-07 4.27899e-07 3.27833e-07 2.50115e-07 1.90019e-07 1.43753e-07 1.08294e-07 8.12372e-08 6.06811e-08 4.5135e-08 3.34297e-08 2.46548e-08;
   (792781074) 7.69978e-15 1.25376e-14 2.03283e-14 3.28201e-14 5.27628e-14 8.44632e-14 1.34635e-13 2.13697e-13 3.37746e-13 5.31537e-13 8.32964e-13 1.29978e-12 2.0196e-12 3.12472e-12 4.81402e-12 7.38507e-12 1.12811e-11 1.71594e-11 2.59897e-11 3.91969e-11 5.88644e-11 8.80247e-11 1.31071e-10 1.9434e-10 2.86924e-10 4.21815e-10 6.17488e-10 9.00092e-10 1.30646e-09 1.88824e-09 2.7175e-09 3.89434e-09 5.55713e-09 7.89624e-09 1.11723e-08 1.57406e-08 2.20828e-08 3.08493e-08 4.29134e-08 5.94431e-08 8.19923e-08 1.12619e-07 1.54035e-07 2.09798e-07 2.84553e-07 3.84338e-07 5.16961e-07 6.92482e-07 9.23795e-07 1.22736e-06 1.62412e-06 2.14056e-06 2.8101e-06 3.67475e-06 4.78708e-06 6.21274e-06 8.03338e-06 1.03503e-05 1.32889e-05 1.7004e-05 2.16862e-05 2.75699e-05 3.49426e-05 4.41564e-05 5.56413e-05 6.99219e-05 8.76358e-05 0.000109557 0.00013662 0.000169951 0.000210902 0.000261086 0.000322415 0.000397145 0.000487917 0.000597795 0.000730306 0.000889462 0.00107978 0.00130629 0.00157449 0.00189032 0.00226005 0.00269022 0.00318741 0.00375808 0.00440834 0.00514364 0.00596846 0.006886 0.00789782 0.00900348 0.0102003 0.011483 0.0128435 0.0142709 0.0157515 0.0172687 0.0188034 0.0203343 0.0218384 0.0232918 0.0246699 0.0259487 0.0271051 0.0281182 0.0289695 0.0296437 0.0301295 0.0304194 0.0305106 0.0304046 0.0301069 0.0296273 0.0289788 0.0281777 0.0272422 0.0261925 0.0250493 0.023834 0.0225671 0.0212684 0.0199563 0.0186473 0.0173558 0.0160942 0.0148727 0.0136992 0.0125798 0.0115185 0.0105179 0.00957906 0.00870203 0.00788584 0.00712885 0.00642891 0.00578352 0.00518996 0.00464542 0.00414704 0.00369202 0.00327759 0.00290111 0.00256001 0.00225184 0.00197426 0.00172504 0.00150201 0.00130312 0.00112643 0.000970038 0.00083217 0.000711125 0.000605293 0.000513158 0.000433294 0.000364371 0.000305157 0.000254511 0.000211391 0.000174845 0.000144012 0.000118119 9.64745e-05 7.84639e-05 6.35463e-05 5.12473e-05 4.11538e-05 3.29084e-05 2.62034e-05 2.07761e-05 1.6403e-05 1.28954e-05 1.00948e-05 7.86894e-06 6.10779e-06 4.72068e-06 3.63308e-06 2.78418e-06 2.12457e-06 1.61434e-06 1.22144e-06 9.20231e-07 6.90357e-07 5.15705e-07 3.83602e-07 2.84125e-07 2.09551e-07 1.53894e-07 1.12539e-07 8.19475e-08;
   (35489133) 2.19993e-15 3.58217e-15 5.80811e-15 9.37723e-15 1.50751e-14 2.41323e-14 3.84671e-14 6.10566e-14 9.64989e-14 1.51868e-13 2.37989e-13 3.71366e-13 5.77029e-13 8.92783e-13 1.37544e-12 2.11002e-12 3.22317e-12 4.90269e-12 7.42564e-12 1.11991e-11 1.68184e-11 2.51499e-11 3.74488e-11 5.55253e-11 8.19778e-11 1.20518e-10 1.76424e-10 2.57166e-10 3.73269e-10 5.39481e-10 7.76407e-10 1.11261e-09 1.58767e-09 2.2559e-09 3.19178e-09 4.4967e-09 6.30823e-09 8.81203e-09 1.22572e-08 1.69768e-08 2.34141e-08 3.21548e-08 4.39714e-08 5.9875e-08 8.11844e-08 1.09611e-07 1.47364e-07 1.97278e-07 2.62982e-07 3.49083e-07 4.61419e-07 6.07323e-07 7.96001e-07 1.0389e-06 1.35025e-06 1.74757e-06 2.25236e-06 2.89095e-06 3.69527e-06 4.70411e-06 5.96401e-06 7.53102e-06 9.47209e-06 1.18667e-05 1.48096e-05 1.84128e-05 2.2808e-05 2.81513e-05 3.46254e-05 4.2446e-05 5.18657e-05 6.31823e-05 7.67441e-05 9.29647e-05 0.000112329 0.00013541 0.000162888 0.000195566 0.000234403 0.000280535 0.000335317 0.000400359 0.00047758 0.000569263 0.000678127 0.00080738 0.000960832 0.00114295 0.00135897 0.00161502 0.00191814 0.00227647 0.00269917 0.0031966 0.00378014 0.0044622 0.00525595 0.00617499 0.00723286 0.00844242 0.00981475 0.0113585 0.0130784 0.0149738 0.0170373 0.0192539 0.0215985 0.024037 0.0265249 0.0290078 0.0314228 0.0337015 0.0357718 0.0375627 0.0390075 0.0400497 0.0406451 0.0407664 0.0404047 0.0395708 0.0382948 0.036623 0.0346162 0.0323443 0.0298835 0.0273094 0.0246947 0.0221054 0.0195975 0.0172162 0.0149956 0.0129579 0.0111154 0.00947142 0.00802236 0.00675875 0.00566758 0.00473342 0.00393976 0.00326991 0.00270776 0.00223825 0.00184766 0.00152376 0.00125584 0.00103462 0.000852197 0.000701883 0.000578072 0.000476094 0.000392084 0.000322848 0.000265763 0.000218672 0.000179809 0.000147725 0.000121235 9.93627e-05 8.13092e-05 6.64157e-05 5.41406e-05 4.40346e-05 3.57265e-05 2.89083e-05 2.33247e-05 1.87625e-05 1.50445e-05 1.20232e-05 9.57551e-06 7.59878e-06 6.00801e-06 4.73244e-06 3.71343e-06 2.90244e-06 2.25958e-06 1.75205e-06 1.35303e-06 1.04061e-06 7.97032e-07 6.07945e-07 4.61788e-07 3.49302e-07 2.63111e-07 1.97353e-07 1.47406e-07 1.09635e-07 8.11982e-08 5.98827e-08 4.39757e-08 3.21574e-08 2.34154e-08;
   (123) 4.38654e-15 4.38654e-15 4.38654e-15 4.38654e-15 4.38654e-15 4.38654e-15 4.38654e-15 4.38654e-15 4.38654e-15 4.38654e-15 4.38654e-15 4.38654e-15 4.38654e-15 4.38654e-15 4.38654e-15 4.38654e-15 4.38654e-15 4.38654e-15 4.38654e-15 4.38654e-15 4.38654e-15 4.70974e-15 7.70162e-15 1.25406e-14 2.03332e-14 3.2828e-14 5.27755e-14 8.44836e-14 1.34667e-13 2.13749e-13 3.37828e-13 5.31667e-13 8.3317e-13 1.30011e-12 2.02011e-12 3.12553e-12 4.81529e-12 7.3871e-12 1.12844e-11 1.71646e-11 2.59982e-11 3.92108e-11 5.88877e-11 8.80642e-11 1.31139e-10 1.94457e-10 2.8713e-10 4.22182e-10 6.18143e-10 9.01268e-10 1.30858e-09 1.89205e-09 2.72434e-09 3.90661e-09 5.57903e-09 7.93512e-09 1.1241e-08 1.5861e-08 2.22926e-08 3.1212e-08 4.35361e-08 6.05037e-08 8.37843e-08 1.15622e-07 1.59027e-07 2.18028e-07 2.98008e-07 4.0615e-07 5.52024e-07 7.48365e-07 1.0121e-06 1.36572e-06 1.83904e-06 2.47154e-06 3.31544e-06 4.43964e-06 5.93484e-06 7.9201e-06 1.05512e-05 1.40309e-05 1.86226e-05 2.46657e-05 3.25959e-05 4.29684e-05 5.64857e-05 7.40305e-05 9.67024e-05 0.000125859 0.000163161 0.00021062 0.000270646 0.000346095 0.000440309 0.000557151 0.000701024 0.000876874 0.00109017 0.00134684 0.0016532 0.00201584 0.00244143 0.00293653 0.00350734 0.0041594 0.00489732 0.00572437 0.00664223 0.00765061 0.00874695 0.00992625 0.0111808 0.0125003 0.0138717 0.0152793 0.0167052 0.0181298 0.019532 0.02089 0.0221817 0.0233859 0.0244827 0.0254539 0.0262843 0.0269615 0.0274768 0.0278253 0.0280057 0.0280206 0.0278762 0.0275816 0.0271489 0.0265919 0.0259263 0.0251684 0.0243349 0.0234421 0.0225056 0.0215399 0.0205577 0.0195706 0.0185878 0.0176172 0.0166648 0.0157352 0.0148316 0.013956 0.0131097 0.0122932 0.0115064 0.0107492 0.0100211 0.00932159 0.00865043 0.00800726 0.00739191 0.00680434 0.00624459 0.00571274 0.00520893 0.00473326 0.00428579 0.00386646 0.00347512 0.00311147 0.00277503 0.0024652 0.0021812 0.00192212 0.00168689 0.00147437 0.00128328 0.00111232 0.0009601 0.00082524 0.000706341 0.000602026 0.000510951 0.00043182 0.0003634 0.000304526 0.000254108 0.000211138 0.00017469 0.00014392 0.000118067 9.64468e-05 7.84509e-05 6.35418e-05 5.12475e-05 4.11563e-05 3.29118e-05;
   (79278774) 4.6276e-14 7.22105e-14 1.12201e-13 1.73596e-13 2.67445e-13 4.10282e-13 6.26726e-13 9.53304e-13 1.44388e-12 2.17759e-12 3.27023e-12 4.89035e-12 7.28165e-12 1.07965e-11 1.59402e-11 2.34342e-11 3.43043e-11 5.00046e-11 7.25798e-11 1.04899e-10 1.50968e-10 2.16343e-10 3.08714e-10 4.38641e-10 6.20627e-10 8.74355e-10 1.22658e-09 1.71342e-09 2.38335e-09 3.30104e-09 4.55265e-09 6.2522e-09 8.54976e-09 1.1642e-08 1.57851e-08 2.13121e-08 2.86517e-08 3.83552e-08 5.11278e-08 6.78629e-08 8.9696e-08 1.18051e-07 1.54709e-07 2.01892e-07 2.62353e-07 3.39481e-07 4.37429e-07 5.61261e-07 7.17132e-07 9.12436e-07 1.15611e-06 1.45873e-06 1.83298e-06 2.29377e-06 2.8587e-06 3.54837e-06 4.38678e-06 5.40171e-06 6.62562e-06 8.09575e-06 9.85474e-06 1.1952e-05 1.44441e-05 1.7395e-05 2.08792e-05 2.49811e-05 2.97984e-05 3.54428e-05 4.20445e-05 4.97528e-05 5.87434e-05 6.92202e-05 8.14245e-05 9.56419e-05 0.00011221 0.000131536 0.000154103 0.000180495 0.000211423 0.000247741 0.000290501 0.000340965 0.000400692 0.000471594 0.000555978 0.000656706 0.000777246 0.000921851 0.00109573 0.00130513 0.00155765 0.00186249 0.00223048 0.00267457 0.00320983 0.00385358 0.00462543 0.00554708 0.00664191 0.00793378 0.00944659 0.0112016 0.0132165 0.0154998 0.0180522 0.020858 0.0238872 0.0270896 0.0303936 0.0337085 0.0369257 0.0399237 0.0425757 0.0447557 0.0463539 0.0472791 0.0474738 0.0469168 0.0456264 0.0436599 0.0411077 0.0380879 0.0347328 0.031181 0.027567 0.0240102 0.0206121 0.0174492 0.0145758 0.0120209 0.00979504 0.00789042 0.00628859 0.00496216 0.00387958 0.00300752 0.00231352 0.00176719 0.00134141 0.00101251 0.000760502 0.00056876 0.000423809 0.000314825 0.000233275 0.000172502 0.000127362 9.3935e-05 6.92301e-05 5.1009e-05 3.75855e-05 2.77025e-05 2.04313e-05 1.50808e-05 1.11431e-05 8.24295e-06 6.10555e-06 4.52838e-06 3.36314e-06 2.50105e-06 1.8622e-06 1.38808e-06 1.03567e-06 7.73315e-07 5.77711e-07 4.31694e-07 3.22565e-07 2.40948e-07 1.79865e-07 1.3414e-07 9.99118e-08 7.43045e-08 5.51575e-08 4.08575e-08 3.01936e-08 2.22549e-08 1.63572e-08 1.19863e-08 8.75535e-09 6.37406e-09 4.62426e-09 3.3428e-09 2.40744e-09 1.72727e-09 1.23448e-09 8.78812e-10 6.23111e-10 4.40024e-10 3.09472e-10 2.16758e-10 1.51193e-10;
   (1) 4.9676e-16 8.08862e-16 1.3115e-15 2.11744e-15 3.40406e-15 5.44919e-15 8.68609e-15 1.37871e-14 2.17903e-14 3.42926e-14 5.37399e-14 8.38573e-14 1.30298e-13 2.01595e-13 3.10585e-13 4.76457e-13 7.27809e-13 1.10707e-12 1.67676e-12 2.52883e-12 3.79769e-12 5.67911e-12 8.45621e-12 1.2538e-11 1.85112e-11 2.72138e-11 3.98377e-11 5.80696e-11 8.42869e-11 1.21817e-10 1.75319e-10 2.51237e-10 3.58506e-10 5.09398e-10 7.20735e-10 1.01539e-09 1.42444e-09 1.98983e-09 2.76783e-09 3.83362e-09 5.28741e-09 7.26133e-09 9.9299e-09 1.35221e-08 1.83353e-08 2.47571e-08 3.3286e-08 4.45638e-08 5.94129e-08 7.8877e-08 1.04276e-07 1.37279e-07 1.79977e-07 2.34974e-07 3.05509e-07 3.95601e-07 5.10172e-07 6.55277e-07 8.38292e-07 1.06822e-06 1.35592e-06 1.71463e-06 2.16007e-06 2.71137e-06 3.39133e-06 4.22727e-06 5.25193e-06 6.50423e-06 8.03089e-06 9.88763e-06 1.21411e-05 1.48713e-05 1.81737e-05 2.21637e-05 2.698e-05 3.27896e-05 3.97956e-05 4.82433e-05 5.84326e-05 7.07252e-05 8.55664e-05 0.0001035 0.000125184 0.000151442 0.00018326 0.000221866 0.000268747 0.000325732 0.000395052 0.000479422 0.00058215 0.000707217 0.000859454 0.00104459 0.00126951 0.00154229 0.00187244 0.00227082 0.00274997 0.00332389 0.004008 0.00481892 0.00577377 0.00689007 0.00818424 0.00967033 0.0113596 0.013257 0.0153614 0.0176616 0.0201376 0.0227549 0.0254693 0.0282231 0.0309482 0.0335667 0.0359984 0.0381593 0.0399717 0.0413652 0.0422845 0.0426911 0.0425676 0.0419179 0.0407667 0.0391591 0.0371556 0.0348292 0.0322602 0.0295322 0.0267244 0.0239143 0.0211655 0.0185344 0.0160642 0.0137844 0.0117144 0.00986359 0.00823148 0.00681126 0.00559028 0.00455271 0.00368047 0.00295459 0.00235617 0.0018673 0.00147121 0.00115276 0.000898617 0.000697181 0.000538511 0.000414272 0.000317523 0.000242558 0.000184743 0.000140336 0.000106361 8.04539e-05 6.0762e-05 4.58292e-05 3.45315e-05 2.60008e-05 1.95679e-05 1.47228e-05 1.10766e-05 8.3342e-06 6.27183e-06 4.72086e-06 3.55432e-06 2.67664e-06 2.01595e-06 1.51843e-06 1.1436e-06 8.6103e-07 6.47995e-07 4.87334e-07 3.66177e-07 2.74827e-07 2.05985e-07 1.54134e-07 1.15126e-07 8.58085e-08 6.38117e-08 4.73354e-08 3.50181e-08 2.58321e-08 1.89976e-08 1.3927e-08 1.01756e-08 7.4093e-09 5.37569e-09;
   (80087508) 2.92369e-15 2.92369e-15 2.92369e-15 2.92369e-15 2.92369e-15 2.92369e-15 2.92369e-15 2.92369e-15 2.92369e-15 3.1391e-15 5.13323e-15 8.35847e-15 1.35523e-14 2.18803e-14 3.51755e-14 5.63093e-14 8.97573e-14 1.42466e-13 2.25166e-13 3.54361e-13 5.55315e-13 8.66527e-13 1.34641e-12 2.08317e-12 3.20937e-12 4.92343e-12 7.5208e-12 1.14397e-11 1.73266e-11 2.61315e-11 3.92434e-11 5.86838e-11 8.73818e-11 1.29562e-10 1.91285e-10 2.81215e-10 4.11667e-10 6.00076e-10 8.71002e-10 1.25887e-09 1.81175e-09 2.59637e-09 3.70501e-09 5.26463e-09 7.44905e-09 1.04952e-08 1.47245e-08 2.05709e-08 2.86173e-08 3.96434e-08 5.46871e-08 7.51231e-08 1.02765e-07 1.39994e-07 1.89919e-07 2.56589e-07 3.45244e-07 4.62649e-07 6.17488e-07 8.20874e-07 1.08698e-06 1.43379e-06 1.88408e-06 2.46659e-06 3.2175e-06 4.18218e-06 5.41747e-06 6.99439e-06 9.00164e-06 1.15496e-05 1.47757e-05 1.88509e-05 2.39874e-05 3.04489e-05 3.85622e-05 4.87329e-05 6.14627e-05 7.73725e-05 9.72298e-05 0.000121979 0.000152783 0.000191066 0.000238567 0.000297399 0.000370116 0.000459782 0.000570055 0.000705249 0.000870416 0.00107139 0.00131486 0.0016083 0.00196005 0.00237908 0.00287499 0.0034576 0.00413676 0.00492189 0.00582138 0.00684217 0.00798893 0.00926352 0.0106642 0.0121853 0.0138163 0.0155419 0.017342 0.0191912 0.0210601 0.0229157 0.0247222 0.0264426 0.0280399 0.0294785 0.0307264 0.0317555 0.0325434 0.033075 0.0333413 0.0333415 0.0330816 0.0325743 0.0318386 0.0308977 0.0297792 0.0285123 0.0271278 0.0256564 0.0241275 0.0225687 0.0210049 0.0194578 0.0179462 0.0164853 0.0150868 0.0137594 0.0125093 0.01134 0.0102526 0.00924695 0.00832121 0.00747244 0.00669717 0.00599114 0.0053499 0.00476887 0.00424346 0.00376919 0.00334176 0.00295711 0.00261147 0.0023013 0.00202339 0.00177477 0.00155273 0.00135482 0.00117879 0.00102258 0.000884298 0.000762245 0.000654824 0.000560587 0.000478196 0.000406417 0.000344116 0.000290251 0.000243865 0.000204083 0.000170108 0.000141217 0.000116755 9.61344e-05 7.88283e-05 6.43694e-05 5.23433e-05 4.23858e-05 3.41785e-05 2.74445e-05 2.19442e-05 1.74723e-05 1.38527e-05 1.09366e-05 8.59772e-06 6.73036e-06 5.24624e-06 4.07204e-06 3.14722e-06 2.42212e-06 1.85616e-06 1.41641e-06 1.07625e-06;
   (6003265) 1.46183e-15 1.46183e-15 1.56953e-15 2.56659e-15 4.1792e-15 6.77613e-15 1.09401e-14 1.75877e-14 2.81545e-14 4.48783e-14 7.12327e-14 1.12583e-13 1.77179e-13 2.77655e-13 4.3326e-13 6.732e-13 1.04158e-12 1.60468e-12 2.46169e-12 3.76037e-12 5.7198e-12 8.66325e-12 1.30657e-11 1.96215e-11 2.93415e-11 4.36903e-11 6.47795e-11 9.56417e-11 1.40605e-10 2.05828e-10 3.00028e-10 4.35481e-10 6.29401e-10 9.05817e-10 1.29808e-09 1.85231e-09 2.63195e-09 3.72386e-09 5.2464e-09 7.36009e-09 1.02815e-08 1.43017e-08 1.98094e-08 2.73219e-08 3.75242e-08 5.13179e-08 6.98857e-08 9.4772e-08 1.27979e-07 1.72096e-07 2.30456e-07 3.07322e-07 4.08129e-07 5.39772e-07 7.10965e-07 9.32673e-07 1.21861e-06 1.58593e-06 2.05596e-06 2.65511e-06 3.4161e-06 4.37919e-06 5.59402e-06 7.12145e-06 9.0365e-06 1.14307e-05 1.44166e-05 1.81326e-05 2.27478e-05 2.84709e-05 3.55579e-05 4.43255e-05 5.51631e-05 6.85534e-05 8.5093e-05 0.000105521 0.000130754 0.000161928 0.000200449 0.00024806 0.000306907 0.000379639 0.0004695 0.000580447 0.000717295 0.000885824 0.00109298 0.00134694 0.00165727 0.00203505 0.00249282 0.00304457 0.00370548 0.00449169 0.00541963 0.00650531 0.00776333 0.00920559 0.0108399 0.0126685 0.0146862 0.0168793 0.0192238 0.0216857 0.0242196 0.0267708 0.029276 0.031666 0.0338692 0.0358154 0.0374393 0.0386858 0.0395121 0.0398913 0.0398144 0.0392892 0.0383416 0.0370118 0.0353521 0.0334237 0.0312919 0.0290231 0.0266812 0.0243245 0.0220042 0.0197627 0.0176332 0.0156397 0.013798 0.0121161 0.0105958 0.0092342 0.00802414 0.00695618 0.00601905 0.00520069 0.00448888 0.00387171 0.00333786 0.00287685 0.00247919 0.00213636 0.00184082 0.00158601 0.00136618 0.00117642 0.00101249 0.000870774 0.000748179 0.000642085 0.000550249 0.000470753 0.000401971 0.000342497 0.000291125 0.000246817 0.000208666 0.000175886 0.000147789 0.000123772 0.000103301 8.59095e-05 7.11843e-05 5.87622e-05 4.83219e-05 3.95816e-05 3.22936e-05 2.62419e-05 2.12379e-05 1.71178e-05 1.37402e-05 1.09833e-05 8.74296e-06 6.93061e-06 5.47086e-06 4.30039e-06 3.36611e-06 2.62366e-06 2.03633e-06 1.57379e-06 1.21117e-06 9.28135e-07 7.08235e-07 5.38139e-07 4.0716e-07 3.06752e-07 2.30123e-07 1.71904e-07 1.27869e-07 9.47093e-08 6.98507e-08;
   (1094952099) 1.46183e-15 1.46183e-15 1.46183e-15 1.46183e-15 1.56954e-15 2.56659e-15 4.1792e-15 6.77613e-15 1.09401e-14 1.75877e-14 2.81545e-14 4.48783e-14 7.12327e-14 1.12583e-13 1.77179e-13 2.77655e-13 4.3326e-13 6.732e-13 1.04158e-12 1.60468e-12 2.46169e-12 3.76037e-12 5.7198e-12 8.66325e-12 1.30657e-11 1.96215e-11 2.93415e-11 4.36904e-11 6.47795e-11 9.56417e-11 1.40605e-10 2.05828e-10 3.00029e-10 4.35483e-10 6.29405e-10 9.05819e-10 1.29808e-09 1.85231e-09 2.63196e-09 3.72388e-09 5.24643e-09 7.36014e-09 1.02816e-08 1.43017e-08 1.98093e-08 2.73217e-08 3.75235e-08 5.13165e-08 6.98838e-08 9.4766e-08 1.27967e-07 1.72074e-07 2.30413e-07 3.0724e-07 4.07979e-07 5.395e-07 7.10479e-07 9.31798e-07 1.2171e-06 1.58332e-06 2.05153e-06 2.64766e-06 3.40367e-06 4.35876e-06 5.56076e-06 7.06795e-06 8.95102e-06 1.12957e-05 1.42055e-05 1.78051e-05 2.22449e-05 2.77051e-05 3.44022e-05 4.25957e-05 5.25958e-05 6.47745e-05 7.9574e-05 9.75257e-05 0.000119258 0.000145523 0.000177213 0.000215387 0.000261299 0.00031643 0.000382526 0.000461637 0.000556162 0.000668899 0.000803104 0.000962528 0.00115148 0.0013749 0.00163838 0.00194819 0.00231137 0.00273562 0.00322936 0.00380158 0.00446174 0.00521957 0.00608463 0.00706609 0.00817208 0.00940907 0.0107813 0.0122893 0.0139303 0.0156963 0.0175731 0.0195411 0.0215738 0.0236383 0.0256958 0.0277028 0.0296122 0.0313755 0.0329451 0.0342762 0.0353299 0.0360747 0.0364891 0.0365613 0.0362916 0.0356904 0.0347791 0.0335873 0.0321518 0.0305141 0.0287188 0.0268106 0.0248331 0.0228277 0.0208311 0.0188752 0.016987 0.015188 0.0134941 0.0119168 0.0104626 0.00913444 0.00793201 0.0068522 0.00589005 0.00503882 0.00429092 0.00363804 0.00307163 0.00258307 0.00216401 0.00180644 0.00150284 0.00124627 0.00103041 0.000849542 0.000698592 0.000573053 0.000468995 0.000383015 0.000312169 0.000253946 0.00020621 0.000167157 0.00013527 0.000109282 8.81373e-05 7.09607e-05 5.70288e-05 4.57463e-05 3.6623e-05 2.92579e-05 2.33215e-05 1.85455e-05 1.47103e-05 1.16371e-05 9.17993e-06 7.22015e-06 5.66111e-06 4.42437e-06 3.4462e-06 2.675e-06 2.06895e-06 1.59435e-06 1.22401e-06 9.36095e-07 7.13121e-07 5.4111e-07 4.08956e-07 3.07827e-07 2.30762e-07 1.7228e-07 1.28088e-07;
   (1026295355) 4.38549e-15 4.38549e-15 4.70861e-15 7.69978e-15 1.25376e-14 2.03283e-14 3.28201e-14 5.27629e-14 8.44633e-14 1.34635e-13 2.13697e-13 3.37747e-13 5.31537e-13 8.32965e-13 1.29978e-12 2.0196e-12 3.12472e-12 4.81402e-12 7.38508e-12 1.12811e-11 1.71594e-11 2.59897e-11 3.91969e-11 5.88644e-11 8.80246e-11 1.31071e-10 1.94339e-10 2.86922e-10 4.21812e-10 6.17483e-10 9.00081e-10 1.30644e-09 1.8882e-09 2.71741e-09 3.89417e-09 5.55681e-09 7.89563e-09 1.11712e-08 1.57384e-08 2.20788e-08 3.08418e-08 4.28998e-08 5.94186e-08 8.19482e-08 1.1254e-07 1.53896e-07 2.09556e-07 2.84133e-07 3.83616e-07 5.15732e-07 6.90404e-07 9.20314e-07 1.22158e-06 1.6146e-06 2.12501e-06 2.78494e-06 3.63438e-06 4.72286e-06 6.11145e-06 7.87499e-06 1.01048e-05 1.29116e-05 1.64292e-05 2.08182e-05 2.62703e-05 3.30137e-05 4.13184e-05 5.1502e-05 6.39373e-05 7.90588e-05 9.73718e-05 0.000119461 0.000146001 0.000177768 0.000215649 0.000260659 0.000313957 0.000376857 0.000450852 0.000537634 0.00063911 0.000757434 0.000895022 0.00105458 0.00123914 0.00145203 0.00169696 0.00197797 0.00229943 0.00266605 0.00308279 0.00355482 0.0040874 0.00468577 0.00535496 0.00609962 0.00692374 0.00783043 0.00882157 0.00989758 0.011057 0.0122965 0.01361 0.0149893 0.0164232 0.0178979 0.0193971 0.0209019 0.0223911 0.0238421 0.0252311 0.0265335 0.0277253 0.0287834 0.0296863 0.0304153 0.0309547 0.0312928 0.031422 0.0313396 0.0310471 0.030551 0.029862 0.0289948 0.0279674 0.0268007 0.0255175 0.0241419 0.0226983 0.0212109 0.0197028 0.0181956 0.0167089 0.0152599 0.013863 0.01253 0.0112701 0.0100897 0.00899285 0.00798146 0.0070555 0.00621335 0.00545211 0.00476791 0.00415615 0.00361179 0.00312954 0.00270404 0.00233 0.00200233 0.00171619 0.00146707 0.00125078 0.00106352 0.000901817 0.000762551 0.000642929 0.000540458 0.000452922 0.000378359 0.000315038 0.00026143 0.000216193 0.000178149 0.000146266 0.000119643 9.74957e-05 7.91425e-05 6.39933e-05 5.15392e-05 4.13428e-05 3.30296e-05 2.62806e-05 2.08247e-05 1.64334e-05 1.29143e-05 1.01064e-05 7.87601e-06 6.11207e-06 4.72324e-06 3.6346e-06 2.78508e-06 2.12509e-06 1.61464e-06 1.22161e-06 9.2033e-07 6.90413e-07 5.15737e-07 3.83619e-07 2.84135e-07 2.09557e-07;
   (2) 2.19283e-15 2.19283e-15 2.19283e-15 2.19283e-15 2.19283e-15 2.19283e-15 2.19283e-15 2.19283e-15 2.19283e-15 2.19283e-15 2.19283e-15 2.19283e-15 2.19283e-15 2.19283e-15 2.35439e-15 3.85004e-15 6.26905e-15 1.01645e-14 1.64107e-14 2.63824e-14 4.22332e-14 6.732e-14 1.06853e-13 1.6888e-13 2.65779e-13 4.16499e-13 6.49916e-13 1.00984e-12 1.56242e-12 2.40711e-12 3.6927e-12 5.64084e-12 8.58007e-12 1.29955e-11 1.95996e-11 2.94341e-11 4.40156e-11 6.5541e-11 9.71798e-11 1.43479e-10 2.10938e-10 3.08799e-10 4.50146e-10 6.53412e-10 9.44447e-10 1.35936e-09 1.94827e-09 2.78056e-09 3.9517e-09 5.59255e-09 7.88165e-09 1.10615e-08 1.54598e-08 2.15179e-08 2.98273e-08 4.11771e-08 5.6617e-08 7.75348e-08 1.05764e-07 1.43711e-07 1.94526e-07 2.62324e-07 3.52456e-07 4.71863e-07 6.29532e-07 8.37057e-07 1.10939e-06 1.46575e-06 1.93082e-06 2.53624e-06 3.32258e-06 4.34172e-06 5.66005e-06 7.3623e-06 9.5568e-06 1.23818e-05 1.60134e-05 2.0676e-05 2.66554e-05 3.43144e-05 4.41138e-05 5.66366e-05 7.26203e-05 9.2992e-05 0.000118919 0.000151859 0.000193628 0.00024647 0.000313151 0.000397049 0.000502255 0.000633679 0.000797153 0.000999512 0.0012487 0.00155371 0.00192465 0.0023726 0.00290941 0.00354736 0.00429879 0.00517546 0.00618785 0.00734432 0.00865023 0.0101069 0.0117108 0.0134528 0.015317 0.0172814 0.0193171 0.0213891 0.0234572 0.0254773 0.027403 0.0291883 0.0307886 0.0321634 0.0332791 0.0341093 0.0346364 0.034853 0.0347612 0.0343724 0.0337063 0.0327895 0.0316541 0.0303355 0.0288713 0.0272987 0.025654 0.0239708 0.0222791 0.0206054 0.0189718 0.0173959 0.0158915 0.0144684 0.0131329 0.0118885 0.0107363 0.00967518 0.00870242 0.00781448 0.00700659 0.0062737 0.00561051 0.00501146 0.00447122 0.00398459 0.00354667 0.00315288 0.00279896 0.00248106 0.00219566 0.0019396 0.00171003 0.0015044 0.00132042 0.00115604 0.00100941 0.000878874 0.000762925 0.000660183 0.000569399 0.000489423 0.000419196 0.000357744 0.000304164 0.000257625 0.000217363 0.000182673 0.000152907 0.000127475 0.000105841 8.75189e-05 7.20693e-05 5.91007e-05 4.8264e-05 3.92492e-05 3.17843e-05 2.56308e-05 2.05815e-05 1.64571e-05 1.31036e-05 1.03893e-05 8.20228e-06 6.44827e-06 5.0478e-06 3.93472e-06 3.05407e-06;
   (3) 1.42465e-13 2.25164e-13 3.54357e-13 5.55309e-13 8.6652e-13 1.3464e-12 2.08315e-12 3.20934e-12 4.92338e-12 7.52073e-12 1.14396e-11 1.73265e-11 2.61312e-11 3.92429e-11 5.8683e-11 8.73807e-11 1.29559e-10 1.91281e-10 2.81208e-10 4.11655e-10 6.00053e-10 8.7096e-10 1.25879e-09 1.81161e-09 2.59611e-09 3.70453e-09 5.26375e-09 7.44747e-09 1.04923e-08 1.47191e-08 2.05611e-08 2.85997e-08 3.96121e-08 5.46317e-08 7.5026e-08 1.02596e-07 1.39701e-07 1.89417e-07 2.55735e-07 3.43805e-07 4.60241e-07 6.13492e-07 8.143e-07 1.07624e-06 1.41641e-06 1.85617e-06 2.42214e-06 3.14727e-06 4.07213e-06 5.24642e-06 6.73064e-06 8.59828e-06 1.09375e-05 1.38544e-05 1.74749e-05 2.19485e-05 2.74514e-05 3.41897e-05 4.24035e-05 5.23709e-05 6.44121e-05 7.8894e-05 9.6234e-05 0.000116906 0.000141441 0.00017044 0.000204569 0.00024457 0.000291266 0.000345565 0.000408466 0.000481068 0.000564577 0.000660318 0.000769745 0.000894448 0.00103618 0.00119688 0.00137866 0.00158387 0.0018151 0.00207518 0.00236723 0.00269469 0.00306127 0.00347101 0.00392822 0.0044375 0.00500363 0.00563152 0.00632613 0.00709226 0.00793445 0.00885659 0.00986192 0.0109526 0.0121292 0.0133906 0.0147333 0.0161516 0.0176367 0.0191763 0.0207553 0.0223545 0.0239517 0.0255213 0.0270354 0.0284635 0.0297744 0.0309366 0.0319202 0.0326969 0.033243 0.0335392 0.0335724 0.0333362 0.0328316 0.0320668 0.0310578 0.0298266 0.0284013 0.0268142 0.0251008 0.0232983 0.0214439 0.0195731 0.0177196 0.0159126 0.0141776 0.0125348 0.0110001 0.009584 0.00829252 0.0071277 0.00608801 0.00516907 0.00436432 0.00366561 0.00306384 0.0025494 0.00211263 0.00174415 0.00143505 0.0011771 0.000962854 0.000785641 0.000639596 0.000519629 0.000421363 0.000341076 0.000275618 0.000222356 0.000179091 0.000144004 0.000115591 9.26161e-05 7.40649e-05 5.91095e-05 4.70712e-05 3.73978e-05 2.96392e-05 2.34287e-05 1.84684e-05 1.45159e-05 1.13746e-05 8.88464e-06 6.91681e-06 5.36642e-06 4.14888e-06 3.19595e-06 2.45277e-06 1.87528e-06 1.42823e-06 1.0835e-06 8.18718e-07 6.16158e-07 4.61836e-07 3.44753e-07 2.56293e-07 1.89743e-07 1.3989e-07 1.02705e-07 7.50878e-08 5.46666e-08 3.96316e-08 2.86106e-08 2.05671e-08 1.47224e-08 1.0494e-08 7.44842e-09 5.26425e-09;
   (1118574845) 4.38554e-15 4.38554e-15 4.38554e-15 4.38554e-15 4.38554e-15 4.38554e-15 4.38554e-15 4.38554e-15 4.38554e-15 4.38554e-15 4.70867e-15 7.69987e-15 1.25378e-14 2.03286e-14 3.28205e-14 5.27635e-14 8.44643e-14 1.34637e-13 2.137e-13 3.37751e-13 5.31543e-13 8.32975e-13 1.2998e-12 2.01963e-12 3.12476e-12 4.81408e-12 7.38518e-12 1.12813e-11 1.71596e-11 2.59901e-11 3.91976e-11 5.88656e-11 8.80269e-11 1.31075e-10 1.94346e-10 2.86936e-10 4.21837e-10 6.17529e-10 9.00168e-10 1.3066e-09 1.8885e-09 2.71799e-09 3.89525e-09 5.55882e-09 7.89934e-09 1.1178e-08 1.57508e-08 2.21012e-08 3.0882e-08 4.29713e-08 5.95447e-08 8.21691e-08 1.12924e-07 1.54557e-07 2.10684e-07 2.86044e-07 3.86824e-07 5.21073e-07 6.99222e-07 9.34749e-07 1.24501e-06 1.6523e-06 2.18518e-06 2.88012e-06 3.78368e-06 4.95505e-06 6.46946e-06 8.4223e-06 1.09343e-05 1.41582e-05 1.82863e-05 2.35611e-05 3.02869e-05 3.88449e-05 4.9711e-05 6.34771e-05 8.08764e-05 0.000102813 0.000130393 0.000164968 0.000208168 0.000261953 0.000328655 0.000411025 0.000512273 0.000636108 0.00078676 0.000968995 0.0011881 0.00144987 0.0017605 0.00212652 0.00255466 0.00305164 0.00362395 0.00427759 0.00501778 0.00584862 0.00677273 0.00779095 0.00890196 0.010102 0.0113848 0.0127411 0.0141589 0.0156234 0.0171171 0.0186205 0.0201119 0.0215684 0.0229666 0.0242829 0.0254947 0.026581 0.0275226 0.0283039 0.028912 0.0293385 0.0295786 0.0296318 0.0295019 0.0291961 0.0287254 0.0281035 0.0273466 0.0264725 0.0255 0.0244484 0.0233365 0.0221826 0.0210036 0.0198149 0.0186303 0.0174613 0.0163177 0.0152074 0.0141362 0.0131086 0.0121276 0.0111948 0.010311 0.00947619 0.00868963 0.00795029 0.00725684 0.00660775 0.00600142 0.00543622 0.00491052 0.00442272 0.00397125 0.00355455 0.0031711 0.00281937 0.00249786 0.00220502 0.00193932 0.00169919 0.00148306 0.00128937 0.00111652 0.000962976 0.00082718 0.00070763 0.000602868 0.00051149 0.000432157 0.000363604 0.000304643 0.000254171 0.000211167 0.000174699 0.000143919 0.00011806 9.64368e-05 7.84404e-05 6.35318e-05 5.12385e-05 4.11485e-05 3.29052e-05 2.62016e-05 2.07751e-05 1.64024e-05 1.28951e-05 1.00947e-05 7.86889e-06 6.10778e-06 4.72069e-06 3.6331e-06 2.7842e-06 2.12459e-06;
}
probability (T | I) {
   (0) 0.00297619 0.00297619 0.00297619 0.00297619 0.00297619 0.00297619 0.00297619 0.00297619 0.00297619 0.00297619 0.00297619 0.00297619 0.00297619 0.00297619 0.00297619 0.00297619 0.00297619 0.00297619 0.00297619 0.00297619 0.00297619 0.00297619 0.00297619 0.00297619 0.00297619 0.00297619 0.00297619 0.00297619 0.00297619 0.00297619 0.00297619 0.00297619 0.00297619 0.00297619 0.00297619 0.00297619 0.00297619 0.00297619 0.00297619 0.00297619 0.00297619 0.00297619 0.00297619 0.00297619 0.00297619 0.00297619 0.00297619 0.00297619 0.00297619 0.00297619 0.00297619 0.00297619 0.00297619 0.00297619 0.00297619 0.00297619 0.00297619 0.00297619 0.00297619 0.00297619 0.00297619 0.00297619 0.00297619 0.00297619 0.00297619 0.00297619 0.00297619 0.00297619 0.00297619 0.00297619 0.00297619 0.00297619 0.00297619 0.00297619 0.00297619 0.00297619 0.00297619 0.00297619 0.00297619 0.00297619 0.00297619 0.00297619 0.00297619 0.00297619 0.00297619 0.00297619 0.00297619 0.00297619 0.00297619 0.00297619 0.00297619 0.00297619 0.00297619 0.00297619 0.00297619 0.00297619 0.00297619 0.00297619 0.00297619 0.00297619 0.00297619 0.00297619 0.00297619 0.00297619 0.00297619 0.00297619 0.00297619 0.00297619 0.00297619 0.00297619 0.00297619 0.00297619 0.00297619 0.00297619 0.00297619 0.00297619 0.00297619 0.00297619 0.00297619 0.00297619 0.00297619 0.00297619 0.00297619 0.00297619 0.00297619 0.00297619 0.00297619 0.00297619 0.00297619 0.00297619 0.00297619 0.00297619 0.00297619 0.00297619 0.00297619 0.00297619 0.00297619 0.00297619 0.00297619 0.00297619 0.00297619 0.00297619 0.00297619 0.00297619 0.00297619 0.00297619 0.00297619 0.00297619 0.00297619 0.00297619 0.00297619 0.00297619 0.00297619 0.00297619 0.00297619 0.00297619 0.00297619 0.00297619 0.00297619 0.00297619 0.00297619 0.00297619 0.00297619 0.00297619 0.00297619 0.00297619 0.00297619 0.00297619 0.00297619 0.00297619 0.00297619 0.00297619 0.00297619 0.00297619 0.00297619 0.00297619 0.00297619 0.00297619 0.00297619 0.00297619 0.00297619 0.00297619 0.00297619 0.00297619 0.00297619 0.00297619 0.00297619 0.00297619 0.00297619 0.00297619 0.00297619 0.00297619 0.00297619 0.00297619 0.00297619 0.00297619 0.00297619 0.00297619 0.00297619 0.00297619 0.00297619 0.00297619 0.00297619 0.00297619 0.00297619 0.00297619 0.00297619 0.00297619 0.00297619 0.00297619 0.00297619 0.00297619 0.00297619 0.00297619 0.00297619 0.00297619 0.00297619 0.00297619 0.00297619 0.00297619 0.00297619 0.00297619 0.00297619 0.00297619 0.00297619 0.00297619 0.00297619 0.00297619 0.00297619 0.00297619 0.00297619 0.00297619 0.00297619 0.00297619 0.00297619 0.00297619 0.00297619 0.00297619 0.00297619 0.00297619 0.00297619 0.00297619 0.00297619 0.00297619 0.00297619 0.00297619 0.00297619 0.00297619 0.00297619 0.00297619 0.00297619 0.00297619 0.00297619 0.00297619 0.00297619 0.00297619 0.00297619 0.00297619 0.00297619 0.00297619 0.00297619 0.00297619 0.00297619 0.00297619 0.00297619 0.00297619 0.00297619 0.00297619 0.00297619 0.00297619 0.00297619 0.00297619 0.00297619 0.00297619 0.00297619 0.00297619 0.00297619 0.00297619 0.00297619 0.00297619 0.00297619 0.00297619 0.00297619 0.00297619 0.00297619 0.00297619 0.00297619 0.00297619 0.00297619 0.00297619 0.00297619 0.00297619 0.00297619 0.00297619 0.00297619 0.00297619 0.00297619 0.00297619 0.00297619 0.00297619 0.00297619 0.00297619 0.00297619 0.00297619 0.00297619 0.00297619 0.00297619 0.00297619 0.00297619 0.00297619 0.00297619 0.00297619 0.00297619 0.00297619 0.00297619 0.00297619 0.00297619 0.00297619 0.00297619 0.00297619 0.00297619 0.00297619 0.00297619 0.00297619 0.00297619 0.00297619 0.00297619 0.00297619 0.00297619 0.00297619 0.00297619 0.00297619 0.00297619 0.00297619 0.00297619 0.00297619;
   (314591) 2.29964e-27 2.29964e-27 2.29964e-27 2.29964e-27 2.29964e-27 2.29964e-27 2.29964e-27 2.29964e-27 2.29964e-27 2.29964e-27 2.29964e-27 2.29964e-27 2.29964e-27 2.29964e-27 2.29964e-27 2.29964e-27 2.29964e-27 2.29964e-27 2.29964e-27 2.29964e-27 2.29964e-27 2.29964e-27 2.29964e-27 2.29964e-27 2.29964e-27 2.29964e-27 2.29964e-27 2.29964e-27 2.29964e-27 2.29964e-27 2.29964e-27 2.29964e-27 2.29964e-27 2.29964e-27 2.29964e-27 2.29964e-27 2.29964e-27 2.29964e-27 2.29964e-27 2.29964e-27 2.29964e-27 2.29964e-27 2.29964e-27 2.29964e-27 2.29964e-27 2.29964e-27 2.29964e-27 2.29964e-27 2.29964e-27 2.29964e-27 2.29964e-27 2.29964e-27 2.29964e-27 2.29964e-27 2.29964e-27 2.29964e-27 2.29964e-27 2.29964e-27 2.29964e-27 2.29964e-27 2.29964e-27 2.29964e-27 2.29964e-27 2.29964e-27 2.29964e-27 2.29964e-27 2.29964e-27 2.29964e-27 2.29964e-27 2.29964e-27 2.29964e-27 2.29964e-27 2.29964e-27 2.29964e-27 2.29964e-27 2.29964e-27 2.29964e-27 2.29964e-27 2.29964e-27 2.29964e-27 2.29964e-27 2.29964e-27 2.29964e-27 2.29964e-27 2.29964e-27 2.29964e-27 2.29964e-27 2.29964e-27 2.29964e-27 2.29964e-27 2.29964e-27 2.29964e-27 2.29964e-27 2.29964e-27 2.29964e-27 2.29964e-27 2.29964e-27 2.29964e-27 2.29964e-27 2.29964e-27 2.29964e-27 2.29964e-27 2.29964e-27 2.29964e-27 2.29964e-27 2.29964e-27 2.29964e-27 2.29964e-27 2.29964e-27 2.29964e-27 2.29964e-27 2.29964e-27 2.29964e-27 2.29964e-27 2.29964e-27 2.29964e-27 2.29964e-27 2.29964e-27 2.29964e-27 2.29972e-27 2.30008e-27 2.30108e-27 2.30395e-27 2.31173e-27 2.33105e-27 2.37506e-27 2.46847e-27 2.65446e-27 3.00902e-27 3.66707e-27 4.86891e-27 7.00639e-27 1.05232e-26 1.53001e-26 1.95796e-26 2.04862e-26 1.7324e-26 1.2528e-26 8.48996e-27 5.85749e-27 4.32112e-27 3.45748e-27 2.97525e-27 2.70419e-27 2.54847e-27 2.45538e-27 2.39707e-27 2.35945e-27 2.33509e-27 2.31966e-27 2.31033e-27 2.30497e-27 2.30212e-27 2.30071e-27 2.30006e-27 2.29979e-27 2.29969e-27 2.29966e-27 2.29965e-27 2.29964e-27 2.29964e-27 2.29964e-27 2.29964e-27 2.29964e-27 2.29964e-27 2.29964e-27 2.29964e-27 2.29964e-27 2.29964e-27 2.29964e-27 2.29964e-27 5.3253e-26 1.14803e-24 2.26985e-23 4.11598e-22 6.84517e-21 1.04407e-19 1.46051e-18 1.87377e-17 2.20476e-16 2.37924e-15 2.35478e-14 2.13745e-13 1.7794e-12 1.35858e-11 9.51331e-11 6.10957e-10 3.59852e-09 1.94388e-08 9.63052e-08 4.37585e-07 1.82352e-06 6.96931e-06 2.44289e-05 7.85328e-05 0.000231543 0.000626104 0.00155272 0.00353164 0.00736701 0.0140942 0.0247299 0.0397958 0.0587336 0.0795003 0.0986927 0.112366 0.117332 0.112366 0.0986927 0.0795003 0.0587336 0.0397958 0.0247299 0.0140942 0.00736701 0.00353164 0.00155272 0.000626104 0.000231543 7.85328e-05 2.44289e-05 6.96931e-06 1.82352e-06 4.37585e-07 9.63052e-08 1.94388e-08 3.59852e-09 6.10957e-10 9.51331e-11 1.35858e-11 1.7794e-12 2.13745e-13 2.35478e-14 2.37924e-15 2.20476e-16 1.87377e-17 1.46051e-18 1.04407e-19 6.84517e-21 4.11598e-22 2.26985e-23 1.14803e-24 5.3253e-26 2.29964e-27 2.29964e-27 2.29964e-27 2.29964e-27 2.29964e-27 2.29964e-27 2.29964e-27 2.29964e-27 2.29964e-27 2.29964e-27 2.29964e-27 2.29964e-27 2.29964e-27 2.29964e-27 2.29964e-27 2.29964e-27 2.29964e-27 2.29964e-27 2.29964e-27 2.29964e-27 2.29964e-27 2.29964e-27 2.29964e-27 2.29964e-27 2.29964e-27 2.29964e-27 2.29964e-27 2.29964e-27 2.29964e-27 2.29964e-27 2.29964e-27 2.29964e-27 2.29964e-27 2.29964e-27 2.29964e-27 2.29964e-27 2.29964e-27 2.29964e-27 2.29964e-27 2.29964e-27 2.29964e-27 2.29964e-27 2.29964e-27 2.29964e-27 2.29964e-27 2.29964e-27 2.29964e-27 2.29964e-27 2.29964e-27 2.29964e-27 2.29964e-27 2.29964e-27 2.29964e-27 2.29964e-27 2.29964e-27 2.29964e-27 2.29964e-27 2.29964e-27 2.29964e-27 2.29964e-27 2.29964e-27 2.29964e-27 2.29964e-27 2.29964e-27 2.29964e-27 2.29964e-27 2.29964e-27 2.29964e-27 2.29964e-27 2.29964e-27 2.29964e-27 2.29964e-27 2.29964e-27 2.29964e-27 2.29964e-27 2.29964e-27 2.29964e-27 2.29964e-27 2.29964e-27 2.29964e-27 2.29964e-27 2.29964e-27 2.29964e-27 2.29964e-27 2.29964e-27 2.29964e-27 2.29964e-27 2.29964e-27 2.29964e-27 2.29964e-27 2.29964e-27 2.29964e-27;
