network "C:\Users\sorcar\github\Cardiac\db\memory\recognition\RecogniserBN.bif" {
// written by aGrUM 0.14.1
}

variable I {
   type discrete[28] {0, 314591, 1019107402, 2964414, 9515830, 1052411482, 79397631, 20947316, 80431643, 3014218, 1032480996, 9496683, 3014208, 792781074, 35489133, 123, 79278774, 1, 80087508, 6003265, 1094952099, 1026295355, 2, 3, 1118574845, 41719150, 1015479777, 80417229};
}

variable F {
   type discrete[28] {0, 314591, 1019107402, 2964414, 9515830, 1052411482, 79397631, 20947316, 80431643, 3014218, 1032480996, 9496683, 3014208, 792781074, 35489133, 123, 79278774, 1, 80087508, 6003265, 1094952099, 1026295355, 2, 3, 1118574845, 41719150, 1015479777, 80417229};
}

variable G {
   type discrete[2] {Female, Male};
}

variable A {
   type discrete[76] {0, 1, 2, 3, 4, 5, 6, 7, 8, 9, 10, 11, 12, 13, 14, 15, 16, 17, 18, 19, 20, 21, 22, 23, 24, 25, 26, 27, 28, 29, 30, 31, 32, 33, 34, 35, 36, 37, 38, 39, 40, 41, 42, 43, 44, 45, 46, 47, 48, 49, 50, 51, 52, 53, 54, 55, 56, 57, 58, 59, 60, 61, 62, 63, 64, 65, 66, 67, 68, 69, 70, 71, 72, 73, 74, 75};
}

variable H {
   type discrete[191] {50, 51, 52, 53, 54, 55, 56, 57, 58, 59, 60, 61, 62, 63, 64, 65, 66, 67, 68, 69, 70, 71, 72, 73, 74, 75, 76, 77, 78, 79, 80, 81, 82, 83, 84, 85, 86, 87, 88, 89, 90, 91, 92, 93, 94, 95, 96, 97, 98, 99, 100, 101, 102, 103, 104, 105, 106, 107, 108, 109, 110, 111, 112, 113, 114, 115, 116, 117, 118, 119, 120, 121, 122, 123, 124, 125, 126, 127, 128, 129, 130, 131, 132, 133, 134, 135, 136, 137, 138, 139, 140, 141, 142, 143, 144, 145, 146, 147, 148, 149, 150, 151, 152, 153, 154, 155, 156, 157, 158, 159, 160, 161, 162, 163, 164, 165, 166, 167, 168, 169, 170, 171, 172, 173, 174, 175, 176, 177, 178, 179, 180, 181, 182, 183, 184, 185, 186, 187, 188, 189, 190, 191, 192, 193, 194, 195, 196, 197, 198, 199, 200, 201, 202, 203, 204, 205, 206, 207, 208, 209, 210, 211, 212, 213, 214, 215, 216, 217, 218, 219, 220, 221, 222, 223, 224, 225, 226, 227, 228, 229, 230, 231, 232, 233, 234, 235, 236, 237, 238, 239, 240};
}

variable T {
   type discrete[336] {0, 1, 2, 3, 4, 5, 6, 7, 8, 9, 10, 11, 12, 13, 14, 15, 16, 17, 18, 19, 20, 21, 22, 23, 24, 25, 26, 27, 28, 29, 30, 31, 32, 33, 34, 35, 36, 37, 38, 39, 40, 41, 42, 43, 44, 45, 46, 47, 48, 49, 50, 51, 52, 53, 54, 55, 56, 57, 58, 59, 60, 61, 62, 63, 64, 65, 66, 67, 68, 69, 70, 71, 72, 73, 74, 75, 76, 77, 78, 79, 80, 81, 82, 83, 84, 85, 86, 87, 88, 89, 90, 91, 92, 93, 94, 95, 96, 97, 98, 99, 100, 101, 102, 103, 104, 105, 106, 107, 108, 109, 110, 111, 112, 113, 114, 115, 116, 117, 118, 119, 120, 121, 122, 123, 124, 125, 126, 127, 128, 129, 130, 131, 132, 133, 134, 135, 136, 137, 138, 139, 140, 141, 142, 143, 144, 145, 146, 147, 148, 149, 150, 151, 152, 153, 154, 155, 156, 157, 158, 159, 160, 161, 162, 163, 164, 165, 166, 167, 168, 169, 170, 171, 172, 173, 174, 175, 176, 177, 178, 179, 180, 181, 182, 183, 184, 185, 186, 187, 188, 189, 190, 191, 192, 193, 194, 195, 196, 197, 198, 199, 200, 201, 202, 203, 204, 205, 206, 207, 208, 209, 210, 211, 212, 213, 214, 215, 216, 217, 218, 219, 220, 221, 222, 223, 224, 225, 226, 227, 228, 229, 230, 231, 232, 233, 234, 235, 236, 237, 238, 239, 240, 241, 242, 243, 244, 245, 246, 247, 248, 249, 250, 251, 252, 253, 254, 255, 256, 257, 258, 259, 260, 261, 262, 263, 264, 265, 266, 267, 268, 269, 270, 271, 272, 273, 274, 275, 276, 277, 278, 279, 280, 281, 282, 283, 284, 285, 286, 287, 288, 289, 290, 291, 292, 293, 294, 295, 296, 297, 298, 299, 300, 301, 302, 303, 304, 305, 306, 307, 308, 309, 310, 311, 312, 313, 314, 315, 316, 317, 318, 319, 320, 321, 322, 323, 324, 325, 326, 327, 328, 329, 330, 331, 332, 333, 334, 335};
}

probability (I) {
   default 0.0357143 0.0357143 0.0357143 0.0357143 0.0357143 0.0357143 0.0357143 0.0357143 0.0357143 0.0357143 0.0357143 0.0357143 0.0357143 0.0357143 0.0357143 0.0357143 0.0357143 0.0357143 0.0357143 0.0357143 0.0357143 0.0357143 0.0357143 0.0357143 0.0357143 0.0357143 0.0357143 0.0357143;
}
probability (F | I) {
   (0) 0.928786 0.050011 0.00691418 0.0042558 0.00117228 0.00159563 0.00107881 0.000722061 0.000661096 0.000564479 0.00036783 0.000375987 0.000333714 0.000283661 0.000298058 0.000268739 0.000284627 0.000252894 0.000225621 0.000218474 0.000203742 0.00018834 0.000179225 0.000170616 0.000158144 0.000148764 0.00014312 0.000137155;
   (314591) 0.6257 0.357519 0.00311053 0.00539193 0.00096485 0.00112637 0.000950144 0.000746738 0.000700244 0.000654389 0.000260971 0.000341165 0.000219728 0.000201623 0.000240745 0.000219855 0.000232751 0.000204219 0.000165126 0.000139691 0.000132021 0.000126749 0.000120635 0.000114847 0.000110075 0.000106265 0.000101631 9.74564e-05;
   (1019107402) 0.0542967 0.0221457 0.831917 0.0147641 0.00763049 0.00911863 0.00767483 0.00663322 0.00584556 0.00522852 0.0032073 0.00293029 0.00269831 0.00249767 0.00232521 0.00217537 0.00204393 0.0019277 0.00182419 0.00173139 0.0016477 0.00157185 0.00150279 0.00143962 0.00138163 0.00132822 0.00127883 0.00123305;
   (2964414) 0.090215 0.0137344 0.012194 0.867101 0.00245694 0.00299325 0.00164943 0.00126967 0.00123125 0.00110088 0.000550779 0.00058624 0.000460076 0.000425128 0.000415845 0.000415481 0.000349247 0.000344688 0.000307868 0.000291754 0.000277248 0.000264119 0.00025218 0.000241276 0.00023128 0.00022208 0.000213586 0.000205719;
   (9515830) 0.757951 0.0487004 0.0445029 0.0705987 0.0720436 0.000779374 0.00091404 0.000497869 0.000734124 0.000581973 0.000220298 0.000312919 0.000189781 0.000170166 0.000217628 0.000203293 0.000188217 0.000169525 0.000136561 0.000120439 0.000112239 0.000106908 0.000101647 9.72379e-05 9.28631e-05 8.88661e-05 8.54558e-05 8.22978e-05;
   (1052411482) 0.0150068 0.00593943 0.0046803 0.0062476 0.0020482 0.949391 0.00198816 0.00173834 0.00128819 0.00110902 0.000988271 0.000899711 0.00082581 0.00076319 0.000709224 0.000662414 0.000621428 0.000585237 0.00055305 0.000524234 0.000498284 0.000474794 0.000453428 0.000433911 0.000416012 0.000399538 0.000384325 0.000370233;
   (79397631) 0.168057 0.00170193 0.00124436 0.00284671 0.00157258 0.00213408 0.815303 0.000962474 0.00112906 0.0014485 0.000239513 0.000554043 0.000215944 0.000186395 0.000408471 0.000287054 0.000291983 0.000267769 0.000166123 0.000136538 0.000125921 0.000116288 0.000113627 0.000106528 0.000101974 9.79108e-05 9.44192e-05 9.03261e-05;
   (20947316) 0.387107 0.00373171 0.0036276 0.00401837 0.00244566 0.004196 0.00416603 0.575245 0.00320203 0.00290114 0.000573169 0.00120795 0.000506057 0.000446974 0.000950966 0.000879573 0.000860077 0.000812284 0.000754845 0.000329879 0.000298542 0.000284414 0.000271567 0.000259834 0.000244872 0.000235135 0.000226144 0.000217817;
   (80431643) 0.00846988 0.00658976 0.0067121 0.00801273 0.00589437 0.00700831 0.00653181 0.00589437 0.887991 0.00523945 0.00474171 0.0043322 0.00398922 0.00369771 0.0034468 0.00322852 0.0030368 0.0028671 0.00271579 0.00257999 0.00245746 0.00234628 0.00224495 0.00215223 0.00206704 0.0019885 0.00191584 0.00184843;
   (3014218) 0.00269659 0.000985146 0.000487673 0.00133581 0.00101408 0.000573371 0.00108009 0.000423619 0.00067689 0.985736 0.000374131 0.000487318 0.000380764 0.000291755 0.000429959 0.000255211 0.000462391 0.000544342 0.000222334 0.000214301 0.000193275 0.000185838 0.000176188 0.000167097 0.000161 0.000154546 0.000148325 0.00014243;
   (1032480996) 0.371384 0.0478454 0.0478454 0.0478454 0.00244062 0.0478454 0.0478454 0.0478454 0.0478454 0.0478454 0.219655 0.00221875 0.00203845 0.00188559 0.00175425 0.00164023 0.00154029 0.00145193 0.00137329 0.00130283 0.00123931 0.00118177 0.00112939 0.00108153 0.00103758 0.000997118 0.000959727 0.00092507;
   (9496683) 0.779637 0.0159365 0.00867141 0.0103715 0.00120722 0.00963304 0.0120811 0.00812811 0.00814547 0.0128296 0.000256508 0.130294 0.000241513 0.000217951 0.000314051 0.000236077 0.000247597 0.000217872 0.000182772 0.000155373 0.000145052 0.000138828 0.000132147 0.000125809 0.000120284 0.000116078 0.000110381 0.0001062;
   (3014208) 0.797978 0.0165077 0.0150371 0.0169079 0.00150358 0.0156119 0.0166103 0.0153031 0.0154101 0.0221085 0.00045586 0.000881645 0.0605662 0.000420796 0.000527594 0.000673413 0.000484308 0.000434174 0.000355548 0.000300836 0.000279467 0.000266242 0.000257959 0.000243232 0.000233161 0.000222079 0.000213586 0.000205719;
   (792781074) 0.141685 0.0419987 0.0419987 0.0419987 0.0419987 0.0419987 0.0419987 0.0419987 0.0419987 0.0419987 0.00371193 0.00371193 0.00371193 0.434296 0.0034468 0.0032285 0.00303682 0.0028671 0.00271579 0.00257999 0.00245746 0.00234627 0.00224495 0.00215223 0.00206704 0.0019885 0.00191583 0.00184843;
   (35489133) 0.57363 0.0318205 0.0256559 0.0276835 0.0334366 0.0303135 0.0316834 0.0256559 0.0277108 0.0332724 0.00100865 0.00307835 0.00100865 0.00100865 0.143609 0.00127269 0.000884524 0.000834229 0.000788544 0.000747636 0.000710786 0.000677425 0.000647072 0.00061934 0.000593903 0.000570486 0.000548859 0.000528821;
   (123) 0.00466994 0.00357905 0.00343954 0.00342885 0.00323927 0.0035111 0.00374 0.00323927 0.00334299 0.00323927 0.00323927 0.00323927 0.00323927 0.00323927 0.00323927 0.920154 0.00303684 0.00286711 0.00271579 0.00257999 0.00245746 0.00234628 0.00224495 0.00215223 0.00206704 0.0019885 0.00191584 0.00184843;
   (79278774) 0.701335 0.0129781 0.00462164 0.0133074 0.00952425 0.00661262 0.0122826 0.00498665 0.00536151 0.0126041 0.000159809 0.00682766 0.000174127 0.000159809 0.000353406 0.00458992 0.202476 0.000411339 0.000185874 0.000148579 0.000131033 0.000126342 0.000121035 0.000113973 0.000108827 0.000104013 9.96827e-05 9.49577e-05;
   (1) 0.350523 0.00107903 0.000808513 0.00400219 0.00133908 0.00100242 0.00118386 0.000757743 0.00134383 0.00143067 0.000163096 0.00084646 0.000185123 0.000163096 0.000846886 0.000824369 0.00121576 0.63084 0.000271832 0.000165405 0.0001519 0.000144203 0.0001359 0.000129913 0.000120172 0.000112704 0.000108382 0.000104381;
   (80087508) 0.00364332 0.00236293 0.00225311 0.00223327 0.00208666 0.00286895 0.00208238 0.00215325 0.00232582 0.00209955 0.00182756 0.0020168 0.00182756 0.00182756 0.00193594 0.00193394 0.00263181 0.00221337 0.946561 0.00173139 0.00164769 0.00157185 0.00150277 0.00143962 0.00138163 0.00132821 0.00127883 0.00123305;
   (6003265) 0.00968979 0.00128428 0.00086447 0.00157739 0.00143263 0.00115139 0.00133084 0.00110972 0.0009356 0.00163593 0.00065299 0.0012847 0.00155588 0.00065299 0.00129703 0.00086447 0.00182316 0.00157809 0.000913976 0.962582 0.00090422 0.000913351 0.000779107 0.000739315 0.000687817 0.000660762 0.000635772 0.000462749;
   (1094952099) 0.00246179 0.00101713 0.00110892 0.00139194 0.00120555 0.00193059 0.00118476 0.00103449 0.0010162 0.000923123 0.000828887 0.000943863 0.000934464 0.000828887 0.000923965 0.000856885 0.00105446 0.0014574 0.00132048 0.00108162 0.971534 0.000841116 0.000765478 0.00073865 0.000692627 0.000665384 0.00064022 0.000616903;
   (1026295355) 0.00338113 0.00270953 0.00262461 0.00268895 0.00281246 0.00357154 0.00277386 0.00248566 0.00261691 0.00256799 0.00235186 0.00255772 0.00253198 0.00235186 0.00268638 0.00260147 0.00283563 0.00266064 0.00253198 0.00266323 0.00294627 0.930831 0.00224496 0.00215223 0.00206704 0.0019885 0.00191584 0.00184843;
   (2) 0.0123503 0.00144887 0.00114459 0.00196475 0.00145101 0.00150391 0.00430588 0.00144941 0.00115603 0.00136304 0.000753404 0.00171504 0.00128664 0.000753404 0.00156612 0.00115278 0.00248276 0.00188506 0.00137057 0.00162914 0.00143088 0.00158558 0.949987 0.00132206 0.000835714 0.000720658 0.000720214 0.000665275;
   (3) 0.0734554 0.00218341 0.00201547 0.00229388 0.00215688 0.00246402 0.00218341 0.0042029 0.002137 0.00212818 0.000865288 0.00219886 0.00208618 0.000865288 0.00217677 0.00201547 0.00220329 0.00234028 0.00217897 0.00215688 0.00224747 0.00201547 0.0022298 0.874574 0.00129555 0.00124545 0.00119914 0.000884905;
   (1118574845) 0.00298009 0.00226218 0.00207134 0.00233942 0.002244 0.00231671 0.00237806 0.0027211 0.00231671 0.00233716 0.00207134 0.00216903 0.00240758 0.00207134 0.00232125 0.00220084 0.0024871 0.00228944 0.0022372 0.00229398 0.00222811 0.0023417 0.00229852 0.00273246 0.938131 0.0019885 0.00191584 0.00184843;
   (41719150) 0.0112581 0.00230985 0.0019783 0.00237704 0.00216684 0.00252006 0.0022015 0.00221234 0.00208882 0.00209965 0.00132831 0.0022015 0.00213 0.00132831 0.00228601 0.0019783 0.00240086 0.00238353 0.00221234 0.00263057 0.0025894 0.00242686 0.0021885 0.00217982 0.00208882 0.932697 0.00190221 0.00183528;
   (1015479777) 0.00137557 0.000722754 0.000850572 0.000623477 0.000519151 0.000868934 0.00077024 0.000483995 0.000731998 0.000554166 0.000426563 0.000470541 0.000507423 0.000426563 0.000438153 0.000528432 0.00101914 0.000715587 0.000933114 0.000488759 0.000733613 0.000900435 0.000738576 0.00044679 0.000580864 0.000510787 0.98213 0.000503925;
   (80417229) 0.00266284 0.00220057 0.0020181 0.00236885 0.00229181 0.00196133 0.00241143 0.00196742 0.00207284 0.00225532 0.00185185 0.00215394 0.00212353 0.00185185 0.00241143 0.00185185 0.00240332 0.00223301 0.00196133 0.00210934 0.00185185 0.00204649 0.0023425 0.00196742 0.00215192 0.00185185 0.00195322 0.942673;
}
probability (G | I) {
   (0) 0.5 0.5;
   (314591) 0.01377 0.98623;
   (1019107402) 0.0329501 0.96705;
   (2964414) 0.021879 0.978121;
   (9515830) 0.0367995 0.9632;
   (1052411482) 0.115264 0.884736;
   (79397631) 0.00557768 0.994422;
   (20947316) 0.0460015 0.953999;
   (80431643) 0.0380586 0.961941;
   (3014218) 0.00333529 0.996665;
   (1032480996) 0.0514997 0.9485;
   (9496683) 0.0195201 0.98048;
   (3014208) 0.0441535 0.955846;
   (792781074) 0.0514997 0.9485;
   (35489133) 0.0482175 0.951782;
   (123) 0.0257499 0.97425;
   (79278774) 0.0138918 0.986108;
   (1) 0.0119242 0.988076;
   (80087508) 0.0171666 0.982833;
   (6003265) 0.0281178 0.971882;
   (1094952099) 0.0965588 0.903441;
   (1026295355) 0.0543044 0.945696;
   (2) 0.0229787 0.977021;
   (3) 0.0452907 0.954709;
   (1118574845) 0.0257499 0.97425;
   (41719150) 0.52575 0.47425;
   (1015479777) 0.00830578 0.991694;
   (80417229) 0.0257499 0.97425;
}
probability (A | I) {
   (0) 0.0131579 0.0131579 0.0131579 0.0131579 0.0131579 0.0131579 0.0131579 0.0131579 0.0131579 0.0131579 0.0131579 0.0131579 0.0131579 0.0131579 0.0131579 0.0131579 0.0131579 0.0131579 0.0131579 0.0131579 0.0131579 0.0131579 0.0131579 0.0131579 0.0131579 0.0131579 0.0131579 0.0131579 0.0131579 0.0131579 0.0131579 0.0131579 0.0131579 0.0131579 0.0131579 0.0131579 0.0131579 0.0131579 0.0131579 0.0131579 0.0131579 0.0131579 0.0131579 0.0131579 0.0131579 0.0131579 0.0131579 0.0131579 0.0131579 0.0131579 0.0131579 0.0131579 0.0131579 0.0131579 0.0131579 0.0131579 0.0131579 0.0131579 0.0131579 0.0131579 0.0131579 0.0131579 0.0131579 0.0131579 0.0131579 0.0131579 0.0131579 0.0131579 0.0131579 0.0131579 0.0131579 0.0131579 0.0131579 0.0131579 0.0131579 0.0131579;
   (314591) 6.05683e-41 6.05725e-41 6.05795e-41 6.05935e-41 6.06132e-41 6.06412e-41 6.06804e-41 6.07281e-41 6.07841e-41 6.0843e-41 6.09004e-41 6.09481e-41 6.09789e-41 6.09901e-41 6.09789e-41 6.09481e-41 6.09004e-41 6.0843e-41 6.07841e-41 6.07281e-41 6.06804e-41 6.06412e-41 6.06132e-41 6.05935e-41 6.05795e-41 6.05725e-41 6.05697e-41 6.05739e-41 6.06118e-41 6.07953e-41 6.13755e-41 6.24657e-41 6.32504e-41 6.20551e-41 6.07449e-41 6.06188e-41 6.07421e-41 6.08598e-41 6.07897e-41 6.06678e-41 6.0651e-41 6.14581e-41 6.29463e-41 6.14427e-41 2.00735e-28 4.89229e-13 0.000835282 0.998329 0.000835283 4.89263e-13 2.00879e-28 6.08009e-41 6.0651e-41 6.05669e-41 6.05627e-41 6.05627e-41 6.05627e-41 6.05627e-41 6.05627e-41 6.05627e-41 6.05627e-41 6.05627e-41 6.05627e-41 6.05627e-41 6.05627e-41 6.05627e-41 6.05627e-41 6.05627e-41 6.05627e-41 6.05627e-41 6.05627e-41 6.05627e-41 6.05627e-41 6.05627e-41 6.05627e-41 6.05627e-41;
   (1019107402) 6.02755e-41 6.02755e-41 6.02755e-41 6.02755e-41 6.02755e-41 6.02755e-41 6.02755e-41 6.02755e-41 6.02755e-41 6.02755e-41 6.02755e-41 6.02755e-41 6.02755e-41 6.02755e-41 6.02755e-41 6.02755e-41 6.02755e-41 6.02755e-41 6.02755e-41 6.02755e-41 1.99637e-28 4.86913e-13 0.000831668 0.99832 0.000848299 5.03059e-13 2.03714e-28 6.05627e-41 6.03007e-41 6.02769e-41 6.02755e-41 6.02755e-41 6.02755e-41 6.02755e-41 6.02755e-41 6.02755e-41 6.02755e-41 6.02755e-41 6.02755e-41 6.02755e-41 6.02755e-41 6.02755e-41 6.02755e-41 6.02755e-41 6.02755e-41 6.02755e-41 6.02755e-41 6.02755e-41 6.02755e-41 6.02755e-41 6.02755e-41 6.02755e-41 6.02755e-41 6.02755e-41 6.02755e-41 6.02755e-41 6.02755e-41 6.02755e-41 6.02755e-41 6.02755e-41 6.02755e-41 6.02755e-41 6.02755e-41 6.02755e-41 6.02755e-41 6.02755e-41 6.02755e-41 6.02755e-41 6.02755e-41 6.02755e-41 6.02755e-41 6.02755e-41 6.02755e-41 6.02755e-41 6.02755e-41 6.02755e-41;
   (2964414) 6.04086e-41 6.04086e-41 6.04086e-41 6.04086e-41 6.04086e-41 6.04086e-41 6.04086e-41 6.04086e-41 6.04086e-41 6.04086e-41 6.04086e-41 6.04086e-41 6.04086e-41 6.04086e-41 6.04086e-41 6.04086e-41 6.04086e-41 6.04086e-41 6.04086e-41 6.04086e-41 6.04086e-41 6.04086e-41 6.04086e-41 6.04086e-41 6.04086e-41 6.04086e-41 6.04086e-41 6.04086e-41 6.04086e-41 6.04086e-41 6.04086e-41 6.04086e-41 6.04086e-41 6.04086e-41 6.04086e-41 6.04086e-41 6.04086e-41 6.04086e-41 6.04086e-41 6.04086e-41 6.04086e-41 6.04086e-41 6.04086e-41 6.04086e-41 6.04086e-41 6.04086e-41 6.04086e-41 6.04086e-41 6.04086e-41 6.041e-41 6.04338e-41 6.06972e-41 6.16487e-41 2.06747e-28 4.98022e-13 0.000837476 0.998324 0.000838613 4.92887e-13 2.01657e-28 6.07085e-41 6.07365e-41 6.07869e-41 6.06552e-41 6.05039e-41 6.04408e-41 6.04198e-41 6.04114e-41 6.041e-41 6.04086e-41 6.04086e-41 6.04086e-41 6.04086e-41 6.04086e-41 6.04086e-41 6.04086e-41;
   (9515830) 6.02628e-41 6.02628e-41 6.02628e-41 6.02628e-41 6.02628e-41 6.02628e-41 6.02628e-41 6.02628e-41 6.02628e-41 6.02628e-41 6.02628e-41 6.02628e-41 6.02628e-41 6.02628e-41 6.02628e-41 6.02628e-41 6.02628e-41 6.02628e-41 6.02628e-41 6.02628e-41 6.02628e-41 6.02628e-41 6.02628e-41 6.02628e-41 6.02628e-41 6.02628e-41 6.02628e-41 6.02628e-41 6.02628e-41 6.02628e-41 6.02628e-41 6.02628e-41 6.02628e-41 6.02628e-41 6.02628e-41 6.02628e-41 6.02628e-41 6.02628e-41 6.02628e-41 6.02628e-41 6.02628e-41 6.02628e-41 6.02628e-41 6.02628e-41 6.02628e-41 6.02628e-41 6.02628e-41 6.02628e-41 6.02628e-41 6.02628e-41 6.02628e-41 6.02628e-41 6.02628e-41 6.02628e-41 6.02628e-41 6.0267e-41 6.02951e-41 6.03946e-41 6.05375e-41 6.06118e-41 6.0644e-41 6.06958e-41 6.0822e-41 6.10826e-41 2.03518e-28 4.94678e-13 0.000839048 0.998325 0.000835909 4.90504e-13 2.00503e-28 6.03259e-41 6.02684e-41 6.02628e-41 6.02628e-41 6.02628e-41;
   (1052411482) 5.9132e-41 5.9132e-41 5.9132e-41 5.9132e-41 5.9132e-41 5.9132e-41 5.9132e-41 5.9132e-41 5.9132e-41 5.9132e-41 5.9132e-41 5.9132e-41 5.9132e-41 5.9132e-41 5.9132e-41 5.9132e-41 5.9132e-41 5.9132e-41 1.95884e-28 4.8777e-13 0.000859446 0.998325 0.000815823 4.792e-13 1.97555e-28 5.93226e-41 5.91418e-41 5.9132e-41 5.9132e-41 5.9132e-41 5.9132e-41 5.9132e-41 5.9132e-41 5.9132e-41 5.9132e-41 5.9132e-41 5.9132e-41 5.9132e-41 5.9132e-41 5.9132e-41 5.9132e-41 5.9132e-41 5.9132e-41 5.9132e-41 5.9132e-41 5.9132e-41 5.9132e-41 5.9132e-41 5.9132e-41 5.9132e-41 5.91334e-41 5.91348e-41 5.91376e-41 5.91432e-41 5.91558e-41 5.91754e-41 5.92049e-41 5.92427e-41 5.92847e-41 5.93254e-41 5.93548e-41 5.9366e-41 5.93548e-41 5.93254e-41 5.92847e-41 5.92427e-41 5.92049e-41 5.91754e-41 5.91558e-41 5.91432e-41 5.91376e-41 5.91348e-41 5.91334e-41 5.9132e-41 5.9132e-41 5.9132e-41;
   (79397631) 6.048e-41 6.048e-41 6.048e-41 6.048e-41 6.048e-41 6.048e-41 6.048e-41 6.048e-41 6.048e-41 6.048e-41 6.048e-41 6.048e-41 6.048e-41 6.048e-41 6.048e-41 6.048e-41 6.048e-41 6.048e-41 6.048e-41 6.048e-41 6.048e-41 6.048e-41 6.048e-41 6.048e-41 6.048e-41 6.048e-41 6.048e-41 6.048e-41 6.048e-41 6.048e-41 6.048e-41 6.048e-41 6.048e-41 6.048e-41 6.048e-41 6.048e-41 6.048e-41 6.04828e-41 6.04913e-41 6.05221e-41 6.05823e-41 6.063e-41 6.06328e-41 6.06426e-41 6.06888e-41 6.07505e-41 6.07883e-41 6.07967e-41 6.07729e-41 2.01091e-28 4.89825e-13 0.000835455 0.998328 0.000836177 4.91134e-13 2.02312e-28 6.14792e-41 6.1915e-41 6.22653e-41 6.24545e-41 6.23942e-41 6.21027e-41 6.17832e-41 6.16123e-41 6.15983e-41 6.15296e-41 6.10237e-41 6.06888e-41 6.14259e-41 6.29912e-41 6.15689e-41 6.07295e-41 6.07477e-41 6.10027e-41 6.16725e-41 6.092e-41;
   (20947316) 6.02726e-41 6.02726e-41 6.02726e-41 6.02726e-41 6.02726e-41 6.02726e-41 6.02726e-41 6.02726e-41 6.02726e-41 6.02726e-41 6.02726e-41 6.02726e-41 6.02726e-41 6.02726e-41 6.02726e-41 6.02726e-41 6.02726e-41 6.02726e-41 6.02726e-41 6.02726e-41 6.02726e-41 6.02726e-41 6.02726e-41 6.02726e-41 6.02726e-41 6.02726e-41 6.02726e-41 6.02726e-41 6.02726e-41 6.02726e-41 6.02726e-41 6.02726e-41 6.02726e-41 6.02726e-41 6.02726e-41 6.02726e-41 6.02726e-41 6.02726e-41 6.02726e-41 6.02726e-41 6.02741e-41 6.02755e-41 6.02811e-41 6.02895e-41 6.03035e-41 6.03273e-41 6.03637e-41 6.04142e-41 6.04828e-41 6.05809e-41 6.07057e-41 6.0857e-41 6.10139e-41 6.11527e-41 6.1255e-41 6.13208e-41 6.13629e-41 6.13811e-41 6.13699e-41 6.13236e-41 6.12353e-41 6.11106e-41 2.01932e-28 4.91308e-13 0.000836925 0.998329 0.00083397 4.87888e-13 1.99876e-28 6.03161e-41 6.02965e-41 6.02853e-41 6.02783e-41 6.02755e-41 6.02741e-41 6.02726e-41;
   (80431643) 6.05627e-41 6.05627e-41 6.05627e-41 6.05627e-41 6.05627e-41 6.05627e-41 6.05627e-41 6.05627e-41 6.05627e-41 6.05627e-41 6.05627e-41 6.05627e-41 6.05627e-41 6.05627e-41 6.05627e-41 6.05627e-41 6.05627e-41 6.05627e-41 6.05627e-41 6.05627e-41 6.05627e-41 6.05627e-41 6.05627e-41 6.05627e-41 6.05627e-41 6.05627e-41 6.05627e-41 6.05627e-41 6.05627e-41 6.05627e-41 6.05627e-41 6.05641e-41 6.05879e-41 6.08528e-41 6.18057e-41 6.2582e-41 6.18057e-41 6.08528e-41 6.05879e-41 6.05641e-41 6.05627e-41 6.05627e-41 6.05627e-41 2.00588e-28 4.89227e-13 0.000835282 0.998329 0.000835282 4.89227e-13 2.00588e-28 6.05627e-41 6.05627e-41 6.05627e-41 6.05627e-41 6.05627e-41 6.05627e-41 6.05627e-41 6.05627e-41 6.05627e-41 6.05627e-41 6.05627e-41 6.05627e-41 6.05627e-41 6.05627e-41 6.05627e-41 6.05627e-41 6.05627e-41 6.05627e-41 6.05627e-41 6.05627e-41 6.05627e-41 6.05627e-41 6.05627e-41 6.05627e-41 6.05627e-41 6.05627e-41;
   (3014218) 5.83417e-41 5.83417e-41 5.83417e-41 5.83417e-41 5.83417e-41 5.83417e-41 5.83417e-41 5.83417e-41 5.83417e-41 5.83417e-41 5.83417e-41 5.83417e-41 5.83417e-41 5.83417e-41 5.83417e-41 5.83417e-41 5.83417e-41 5.83417e-41 5.83417e-41 5.83417e-41 5.83417e-41 5.83417e-41 5.83417e-41 5.83417e-41 5.83417e-41 5.83417e-41 5.83417e-41 5.83417e-41 5.83417e-41 5.83417e-41 5.83417e-41 5.83417e-41 5.83417e-41 5.83417e-41 5.83417e-41 5.83417e-41 5.83417e-41 5.83417e-41 5.83417e-41 5.83417e-41 5.83417e-41 5.83417e-41 5.83417e-41 5.83417e-41 5.83417e-41 5.83417e-41 5.83417e-41 5.83417e-41 5.83417e-41 5.83417e-41 5.83417e-41 5.83417e-41 5.83417e-41 5.83431e-41 5.83501e-41 5.83697e-41 5.84117e-41 5.84902e-41 5.85995e-41 5.87214e-41 5.88531e-41 5.89961e-41 5.91166e-41 5.95538e-41 6.11961e-41 6.29898e-41 2.068e-28 4.97638e-13 0.000847395 0.998327 0.0008261 4.78227e-13 1.94061e-28 5.83837e-41 5.98985e-41 5.83431e-41;
   (1032480996) 6.05627e-41 6.05627e-41 6.05627e-41 6.05627e-41 6.05627e-41 6.05627e-41 6.05627e-41 6.05627e-41 6.05627e-41 6.05627e-41 6.05627e-41 6.05627e-41 6.05627e-41 6.05627e-41 6.05627e-41 6.05627e-41 6.05627e-41 6.05627e-41 6.05627e-41 6.05627e-41 2.00588e-28 4.89227e-13 0.000835282 0.998329 0.000835282 4.89227e-13 2.00588e-28 6.05627e-41 6.05627e-41 6.05627e-41 6.05627e-41 6.05627e-41 6.05627e-41 6.05627e-41 6.05627e-41 6.05627e-41 6.05627e-41 6.05627e-41 6.05627e-41 6.05627e-41 6.05627e-41 6.05627e-41 6.05627e-41 6.05627e-41 6.05627e-41 6.05627e-41 6.05627e-41 6.05627e-41 6.05627e-41 6.05627e-41 6.05627e-41 6.05627e-41 6.05627e-41 6.05627e-41 6.05627e-41 6.05627e-41 6.05627e-41 6.05627e-41 6.05627e-41 6.05627e-41 6.05627e-41 6.05627e-41 6.05627e-41 6.05627e-41 6.05627e-41 6.05627e-41 6.05627e-41 6.05627e-41 6.05627e-41 6.05627e-41 6.05627e-41 6.05627e-41 6.05627e-41 6.05627e-41 6.05627e-41 6.05627e-41;
   (9496683) 5.94487e-41 5.94487e-41 5.94487e-41 5.94487e-41 5.94487e-41 5.94487e-41 5.94487e-41 5.94487e-41 5.94487e-41 5.94487e-41 5.94487e-41 5.94487e-41 5.94487e-41 5.94487e-41 5.94487e-41 5.94487e-41 5.94487e-41 5.94487e-41 5.94487e-41 5.94487e-41 5.94487e-41 5.94487e-41 5.94487e-41 5.94487e-41 5.94487e-41 5.94487e-41 5.94487e-41 5.94487e-41 5.94487e-41 5.94487e-41 5.94487e-41 5.94487e-41 5.94487e-41 5.94501e-41 5.94501e-41 5.94529e-41 5.94543e-41 5.94557e-41 5.94613e-41 5.94697e-41 5.94809e-41 5.94963e-41 5.95173e-41 5.95426e-41 5.95706e-41 5.95986e-41 5.96238e-41 5.96421e-41 5.96533e-41 5.96575e-41 5.97458e-41 5.99153e-41 5.98481e-41 5.99658e-41 5.99125e-41 1.99551e-28 4.91542e-13 0.000840399 0.998326 0.000833766 4.88476e-13 1.99346e-28 5.97892e-41 5.95594e-41 5.94837e-41 5.94655e-41 5.94571e-41 5.94529e-41 5.94515e-41 5.94501e-41 5.94501e-41 5.94487e-41 5.94487e-41 5.94487e-41 5.94487e-41 5.94487e-41;
   (3014208) 6.05557e-41 6.05557e-41 6.05557e-41 6.05557e-41 6.05557e-41 6.05557e-41 6.05557e-41 6.05557e-41 6.05557e-41 6.05557e-41 6.05557e-41 6.05557e-41 6.05557e-41 6.05557e-41 6.05557e-41 6.05557e-41 6.05557e-41 6.05557e-41 6.05571e-41 6.05571e-41 6.05585e-41 6.05613e-41 6.05641e-41 6.05683e-41 6.05739e-41 6.05823e-41 6.05921e-41 6.06034e-41 6.0616e-41 6.063e-41 6.0644e-41 6.06552e-41 6.0665e-41 6.0672e-41 6.06734e-41 6.0672e-41 6.0665e-41 6.06552e-41 6.0644e-41 6.063e-41 6.0616e-41 6.06034e-41 6.05921e-41 6.05823e-41 6.05739e-41 6.05683e-41 6.05641e-41 6.05613e-41 6.05585e-41 6.05571e-41 6.05571e-41 6.05557e-41 6.05557e-41 6.05557e-41 6.05557e-41 6.05557e-41 6.05557e-41 6.05557e-41 6.05557e-41 6.05557e-41 6.05557e-41 6.05599e-41 6.06006e-41 6.07477e-41 6.08668e-41 6.07547e-41 2.01131e-28 4.91948e-13 0.000836926 0.998328 0.000835195 4.89176e-13 2.00567e-28 6.05557e-41 6.05557e-41 6.05557e-41;
   (792781074) 6.05627e-41 6.05627e-41 6.05627e-41 6.05627e-41 6.05627e-41 6.05627e-41 6.05627e-41 6.05627e-41 6.05627e-41 6.05627e-41 6.05627e-41 6.05627e-41 6.05627e-41 6.05627e-41 6.05627e-41 6.05627e-41 6.05627e-41 6.05627e-41 6.05627e-41 6.05627e-41 6.05627e-41 6.05627e-41 6.05627e-41 6.05627e-41 6.05627e-41 6.05627e-41 6.05627e-41 6.05627e-41 6.05627e-41 6.05627e-41 6.05627e-41 6.05627e-41 6.05627e-41 6.05627e-41 6.05627e-41 6.05627e-41 6.05627e-41 6.05627e-41 6.05627e-41 6.05627e-41 6.05627e-41 6.05627e-41 6.05627e-41 6.05627e-41 6.05627e-41 6.05627e-41 6.05627e-41 6.05627e-41 6.05627e-41 6.05627e-41 6.05627e-41 6.05627e-41 6.05627e-41 6.05627e-41 6.05627e-41 6.05627e-41 2.00588e-28 4.89227e-13 0.000835282 0.998329 0.000835282 4.89227e-13 2.00588e-28 6.05627e-41 6.05627e-41 6.05627e-41 6.05627e-41 6.05627e-41 6.05627e-41 6.05627e-41 6.05627e-41 6.05627e-41 6.05627e-41 6.05627e-41 6.05627e-41 6.05627e-41;
   (35489133) 6.05627e-41 6.05627e-41 6.05627e-41 6.05627e-41 6.05627e-41 6.05627e-41 6.05627e-41 6.05627e-41 6.05627e-41 6.05627e-41 6.05627e-41 6.05627e-41 6.05627e-41 6.05627e-41 6.05627e-41 6.05627e-41 6.05627e-41 6.05627e-41 6.05627e-41 6.05627e-41 6.05627e-41 6.05627e-41 6.05627e-41 6.05627e-41 6.05627e-41 6.05627e-41 6.05627e-41 6.05627e-41 6.05627e-41 6.05627e-41 6.05627e-41 6.05627e-41 6.05627e-41 6.05627e-41 6.05627e-41 6.05627e-41 6.05627e-41 6.05627e-41 6.05627e-41 6.05627e-41 6.05627e-41 6.05627e-41 6.05627e-41 6.05627e-41 6.05627e-41 6.05627e-41 6.05627e-41 6.05627e-41 6.05627e-41 6.05627e-41 6.05627e-41 6.05627e-41 6.05627e-41 6.05627e-41 2.00588e-28 4.89227e-13 0.000835282 0.998329 0.000835282 4.89227e-13 2.00588e-28 6.05627e-41 6.05627e-41 6.05697e-41 6.06132e-41 6.07841e-41 6.1098e-41 6.12802e-41 6.1098e-41 6.07841e-41 6.06132e-41 6.05697e-41 6.05627e-41 6.05627e-41 6.05627e-41 6.05627e-41;
   (123) 5.93716e-41 5.93716e-41 5.93716e-41 5.93716e-41 5.93716e-41 5.93716e-41 5.93716e-41 5.93716e-41 5.93716e-41 5.93716e-41 5.93716e-41 5.93716e-41 5.93716e-41 5.93716e-41 5.93716e-41 5.93716e-41 5.93716e-41 5.93716e-41 5.93716e-41 5.93716e-41 5.93716e-41 5.93716e-41 5.93716e-41 5.93716e-41 5.93716e-41 5.93716e-41 5.9373e-41 5.93758e-41 5.93842e-41 5.94052e-41 5.94487e-41 5.953e-41 5.96659e-41 5.98593e-41 1.99028e-28 4.87299e-13 0.00083439 0.998331 0.00083439 4.87299e-13 1.99028e-28 5.98593e-41 5.96659e-41 5.953e-41 5.94487e-41 5.94052e-41 5.93842e-41 5.93758e-41 5.9373e-41 5.93716e-41 5.93716e-41 5.93716e-41 5.93716e-41 5.93716e-41 5.93716e-41 5.93716e-41 5.93716e-41 5.93716e-41 5.93716e-41 5.93716e-41 5.93716e-41 5.93716e-41 5.93716e-41 5.93716e-41 5.93716e-41 5.93716e-41 5.93716e-41 5.93716e-41 5.93716e-41 5.93716e-41 5.93716e-41 5.93716e-41 5.93716e-41 5.93716e-41 5.93716e-41 5.93716e-41;
   (79278774) 5.97934e-41 5.97934e-41 5.97934e-41 5.97934e-41 5.97934e-41 5.97934e-41 5.97934e-41 5.97934e-41 5.97934e-41 5.97934e-41 5.97934e-41 5.97934e-41 5.97934e-41 5.97934e-41 5.97934e-41 5.97934e-41 5.97934e-41 5.97934e-41 5.97934e-41 5.97934e-41 5.97934e-41 5.97934e-41 5.97934e-41 5.97948e-41 5.97948e-41 5.97976e-41 5.98004e-41 5.98046e-41 5.98116e-41 5.98228e-41 5.98368e-41 5.98537e-41 5.98761e-41 5.98999e-41 5.99279e-41 5.99574e-41 5.99952e-41 6.004e-41 6.01087e-41 6.01956e-41 6.02979e-41 6.04128e-41 6.05081e-41 6.05431e-41 6.05067e-41 6.04422e-41 6.0417e-41 6.048e-41 6.07127e-41 6.11176e-41 6.13264e-41 6.11162e-41 6.07897e-41 6.0623e-41 6.06384e-41 6.0815e-41 2.01811e-28 4.90602e-13 0.000836513 0.998328 0.000835097 4.8868e-13 1.99934e-28 6.0204e-41 6.00526e-41 5.99433e-41 5.99013e-41 5.99616e-41 6.0019e-41 5.99321e-41 5.9827e-41 5.97976e-41 5.97934e-41 5.97934e-41 5.97934e-41 5.97934e-41;
   (1) 5.8081e-41 5.8081e-41 5.8081e-41 5.8081e-41 5.8081e-41 5.8081e-41 5.8081e-41 5.8081e-41 5.8081e-41 5.8081e-41 5.8081e-41 5.8081e-41 5.8081e-41 5.8081e-41 5.8081e-41 5.8081e-41 5.8081e-41 5.8081e-41 5.8081e-41 5.8081e-41 5.8081e-41 5.8081e-41 5.8081e-41 5.8081e-41 5.8081e-41 5.8081e-41 5.8081e-41 5.8081e-41 5.8081e-41 5.8081e-41 5.8081e-41 5.8081e-41 5.8081e-41 5.8081e-41 5.8081e-41 5.8081e-41 5.8081e-41 5.8081e-41 5.8081e-41 5.8081e-41 5.8081e-41 5.8081e-41 5.8081e-41 5.8081e-41 5.8081e-41 5.8081e-41 5.80838e-41 5.81118e-41 5.82113e-41 5.83066e-41 5.8266e-41 5.8238e-41 5.83094e-41 1.93588e-28 4.73912e-13 0.000817093 0.998343 0.00083994 4.85306e-13 1.97312e-28 5.93688e-41 5.90157e-41 5.85547e-41 5.8238e-41 5.81189e-41 5.8088e-41 5.8081e-41 5.8081e-41 5.8081e-41 5.8081e-41 5.8081e-41 5.8081e-41 5.8081e-41 5.8081e-41 5.8081e-41 5.8081e-41;
   (80087508) 6.05627e-41 6.05627e-41 6.05627e-41 6.05627e-41 6.05627e-41 6.05627e-41 6.05627e-41 6.05627e-41 6.05627e-41 6.05627e-41 6.05627e-41 6.05627e-41 6.05627e-41 6.05627e-41 6.05627e-41 6.05627e-41 6.05627e-41 6.05627e-41 6.05627e-41 6.05627e-41 6.05627e-41 6.05627e-41 6.05627e-41 6.05627e-41 6.05627e-41 6.05627e-41 6.05627e-41 6.05627e-41 6.05655e-41 6.32168e-41 6.05655e-41 6.05627e-41 6.05627e-41 6.05921e-41 6.11485e-41 6.2149e-41 2.0253e-28 4.89465e-13 0.000835285 0.998329 0.000835282 4.89227e-13 2.00588e-28 6.05627e-41 6.05627e-41 6.05627e-41 6.05627e-41 6.05627e-41 6.05627e-41 6.05627e-41 6.05627e-41 6.05627e-41 6.05627e-41 6.05627e-41 6.05627e-41 6.05627e-41 6.05627e-41 6.05627e-41 6.05627e-41 6.05627e-41 6.05627e-41 6.05627e-41 6.05627e-41 6.05627e-41 6.05627e-41 6.05627e-41 6.05627e-41 6.05627e-41 6.05627e-41 6.05627e-41 6.05627e-41 6.05627e-41 6.05627e-41 6.05627e-41 6.05627e-41 6.05627e-41;
   (6003265) 6.05277e-41 6.05277e-41 6.05277e-41 6.05277e-41 6.05277e-41 6.05277e-41 6.05277e-41 6.05277e-41 6.05277e-41 6.05277e-41 6.05277e-41 6.05277e-41 6.05277e-41 6.05277e-41 6.05277e-41 6.05277e-41 6.05277e-41 6.05277e-41 6.05277e-41 6.05277e-41 6.05277e-41 6.05277e-41 6.05277e-41 6.05277e-41 6.05277e-41 6.05277e-41 6.05277e-41 6.05277e-41 6.05277e-41 6.05277e-41 6.05277e-41 6.05277e-41 6.05277e-41 6.05277e-41 6.05277e-41 6.05277e-41 6.05277e-41 6.05277e-41 6.05277e-41 6.05277e-41 6.05277e-41 6.05277e-41 6.05277e-41 6.05277e-41 6.05277e-41 6.05277e-41 6.05277e-41 6.05277e-41 6.05277e-41 6.05277e-41 6.05277e-41 6.05277e-41 6.05277e-41 6.05277e-41 6.05277e-41 6.05277e-41 6.05277e-41 6.05361e-41 6.06244e-41 6.09425e-41 6.12003e-41 6.09425e-41 6.06244e-41 6.05389e-41 6.05571e-41 6.07519e-41 6.15422e-41 6.31495e-41 6.45074e-41 6.42243e-41 6.28342e-41 2.04152e-28 4.92574e-13 0.000836817 0.998328 0.000834878;
   (1094952099) 6.05599e-41 6.05599e-41 6.05599e-41 6.05599e-41 6.05599e-41 6.05599e-41 6.05599e-41 6.05599e-41 6.05599e-41 6.05599e-41 6.05599e-41 6.05599e-41 6.05669e-41 6.06118e-41 6.2114e-41 6.10966e-41 6.12774e-41 6.10952e-41 6.07855e-41 2.12607e-28 4.89292e-13 0.000859647 0.998305 0.000835242 4.89203e-13 2.00578e-28 6.05599e-41 6.05599e-41 6.05599e-41 6.05599e-41 6.05599e-41 6.05599e-41 6.05599e-41 6.05599e-41 6.05599e-41 6.05599e-41 6.05599e-41 6.05599e-41 6.05599e-41 6.05599e-41 6.05599e-41 6.05599e-41 6.05599e-41 6.05599e-41 6.05599e-41 6.05599e-41 6.05599e-41 6.05599e-41 6.05599e-41 6.05599e-41 6.05599e-41 6.05599e-41 6.05599e-41 6.05599e-41 6.05599e-41 6.05599e-41 6.05599e-41 6.05599e-41 6.05599e-41 6.05599e-41 6.05599e-41 6.05599e-41 6.05599e-41 6.05599e-41 6.05599e-41 6.05599e-41 6.05599e-41 6.05599e-41 6.05599e-41 6.05599e-41 6.05599e-41 6.05599e-41 6.05599e-41 6.05599e-41 6.05599e-41 6.05599e-41;
   (1026295355) 5.97079e-41 5.97079e-41 5.97079e-41 5.97079e-41 5.97079e-41 5.97079e-41 5.97079e-41 5.97079e-41 5.97079e-41 5.97079e-41 5.97079e-41 5.97079e-41 5.97079e-41 5.97079e-41 5.97079e-41 5.97079e-41 5.97079e-41 5.97079e-41 5.97079e-41 5.97079e-41 1.97899e-28 4.89222e-13 0.000855368 0.998321 0.000824082 4.82322e-13 1.97756e-28 5.97079e-41 5.97079e-41 5.97079e-41 5.97079e-41 5.97079e-41 5.97079e-41 5.97079e-41 5.97079e-41 5.97079e-41 5.97079e-41 5.97079e-41 5.97079e-41 5.97079e-41 5.97079e-41 5.97079e-41 5.97079e-41 5.97079e-41 5.97079e-41 5.97079e-41 5.97079e-41 5.97079e-41 5.97079e-41 5.97079e-41 5.97079e-41 5.97079e-41 5.97079e-41 5.97079e-41 5.97079e-41 5.97079e-41 5.97079e-41 5.97079e-41 5.97079e-41 5.97079e-41 5.97079e-41 5.97079e-41 5.97079e-41 5.97079e-41 5.97079e-41 5.97079e-41 5.97079e-41 5.97079e-41 5.97079e-41 5.97079e-41 5.97079e-41 5.97079e-41 5.97079e-41 5.97079e-41 5.97079e-41 5.97079e-41;
   (2) 5.90843e-41 5.90843e-41 5.90843e-41 5.90843e-41 5.90843e-41 5.90843e-41 5.90843e-41 5.90843e-41 5.90843e-41 5.90843e-41 5.90843e-41 5.90843e-41 5.90843e-41 5.90843e-41 5.90843e-41 5.90843e-41 5.90843e-41 5.90843e-41 5.90843e-41 5.90843e-41 5.90843e-41 5.90843e-41 5.90843e-41 5.90843e-41 5.90843e-41 5.90843e-41 5.90843e-41 5.90843e-41 5.90843e-41 5.90843e-41 5.90843e-41 5.90843e-41 5.90843e-41 5.90843e-41 5.90857e-41 5.90956e-41 5.91684e-41 5.94459e-41 5.99546e-41 6.02516e-41 5.99546e-41 5.94459e-41 5.91684e-41 5.90956e-41 5.90857e-41 5.90843e-41 5.90886e-41 5.9111e-41 5.91908e-41 5.93688e-41 1.97399e-28 4.82547e-13 0.000825839 0.998331 0.000843018 4.87103e-13 1.96623e-28 5.91096e-41 5.90857e-41 5.90928e-41 5.91782e-41 5.94879e-41 5.97402e-41 5.94879e-41 5.91782e-41 5.90928e-41 5.90843e-41 5.90843e-41 5.90843e-41 5.90843e-41 5.90843e-41 5.90843e-41 5.90843e-41 5.90843e-41 5.90843e-41 5.90843e-41;
   (3) 6.05627e-41 6.05627e-41 6.05627e-41 6.05627e-41 6.05627e-41 6.05627e-41 6.05627e-41 6.05627e-41 6.05627e-41 6.05627e-41 6.05627e-41 6.05627e-41 6.05627e-41 6.05627e-41 6.05627e-41 6.05627e-41 6.05627e-41 6.05627e-41 6.05627e-41 6.05627e-41 6.05627e-41 6.05627e-41 6.05627e-41 6.05627e-41 6.05627e-41 6.05627e-41 6.05627e-41 6.05627e-41 6.05627e-41 6.05627e-41 6.05627e-41 6.05627e-41 6.05627e-41 6.05627e-41 6.05627e-41 6.05641e-41 6.05683e-41 6.05837e-41 6.06272e-41 6.07253e-41 6.09116e-41 6.11947e-41 6.15282e-41 6.18085e-41 6.19192e-41 6.18085e-41 6.15282e-41 6.11947e-41 6.09116e-41 6.07253e-41 6.06272e-41 6.05837e-41 6.05683e-41 6.05641e-41 6.05627e-41 6.05627e-41 6.05627e-41 6.05627e-41 6.05627e-41 6.05627e-41 6.05627e-41 6.05627e-41 2.00588e-28 4.89227e-13 0.000835282 0.998329 0.000835282 4.89227e-13 2.00588e-28 6.05627e-41 6.05627e-41 6.05627e-41 6.05627e-41 6.05627e-41 6.05627e-41 6.05627e-41;
   (1118574845) 6.05627e-41 6.05627e-41 6.05627e-41 6.05627e-41 6.05627e-41 6.05627e-41 6.05627e-41 6.05627e-41 6.05627e-41 6.05627e-41 6.05627e-41 6.05627e-41 6.05627e-41 6.05627e-41 6.05627e-41 6.05627e-41 6.05627e-41 2.00588e-28 4.89227e-13 0.000835282 0.998329 0.000835293 4.89433e-13 2.01547e-28 6.18057e-41 6.2582e-41 6.18057e-41 6.08528e-41 6.05879e-41 6.05641e-41 6.05627e-41 6.05627e-41 6.05627e-41 6.05627e-41 6.05627e-41 6.05627e-41 6.05627e-41 6.05627e-41 6.05627e-41 6.05627e-41 6.05627e-41 6.05627e-41 6.05627e-41 6.05627e-41 6.05627e-41 6.05627e-41 6.05627e-41 6.05627e-41 6.05627e-41 6.05627e-41 6.05627e-41 6.05627e-41 6.05627e-41 6.05627e-41 6.05627e-41 6.05627e-41 6.05627e-41 6.05627e-41 6.05627e-41 6.05627e-41 6.05627e-41 6.05627e-41 6.05627e-41 6.05627e-41 6.05627e-41 6.05627e-41 6.05627e-41 6.05627e-41 6.05627e-41 6.05627e-41 6.05627e-41 6.05627e-41 6.05627e-41 6.05627e-41 6.05627e-41 6.05627e-41;
   (41719150) 6.05627e-41 6.05627e-41 6.05627e-41 6.05627e-41 6.05627e-41 6.05627e-41 6.05627e-41 6.05627e-41 6.05627e-41 6.05627e-41 6.05627e-41 6.05627e-41 6.05627e-41 6.05627e-41 6.05627e-41 6.05627e-41 6.05627e-41 6.05627e-41 6.05627e-41 6.05627e-41 6.05627e-41 6.05627e-41 6.05627e-41 6.05627e-41 6.05627e-41 6.05627e-41 6.05627e-41 6.05627e-41 6.05627e-41 6.05627e-41 6.05627e-41 6.05627e-41 6.05627e-41 6.05627e-41 6.05627e-41 6.05627e-41 6.05627e-41 6.05627e-41 6.05627e-41 6.05627e-41 6.05627e-41 6.05627e-41 6.05627e-41 6.05627e-41 6.05627e-41 6.05627e-41 6.05627e-41 6.05627e-41 6.05627e-41 6.05627e-41 6.05627e-41 6.05627e-41 6.05627e-41 6.05627e-41 6.05627e-41 6.06076e-41 6.14427e-41 6.29421e-41 2.03501e-28 4.89584e-13 0.000835286 0.998329 0.000835282 4.89227e-13 2.00588e-28 6.05627e-41 6.05627e-41 6.05627e-41 6.05627e-41 6.05627e-41 6.05627e-41 6.05627e-41 6.05627e-41 6.05627e-41 6.05627e-41 6.05627e-41;
   (1015479777) 5.97261e-41 5.97261e-41 5.97261e-41 5.97261e-41 5.97261e-41 5.97261e-41 5.97261e-41 5.97261e-41 5.97261e-41 5.97261e-41 5.97261e-41 5.97261e-41 5.97261e-41 5.97261e-41 5.97261e-41 5.97261e-41 5.97261e-41 1.97814e-28 4.82461e-13 0.000823752 0.998349 0.000827683 4.97155e-13 2.04526e-28 6.16501e-41 6.3682e-41 6.04352e-41 5.97611e-41 5.97261e-41 5.97261e-41 5.97317e-41 5.97976e-41 6.0033e-41 6.02236e-41 6.0033e-41 5.98074e-41 5.98466e-41 6.02166e-41 6.05221e-41 6.02166e-41 5.9841e-41 5.97359e-41 5.97261e-41 5.97261e-41 5.97261e-41 5.97261e-41 5.97261e-41 5.97261e-41 5.97261e-41 5.97261e-41 5.97261e-41 5.97261e-41 5.97261e-41 5.97261e-41 5.97261e-41 5.97261e-41 5.97261e-41 5.97261e-41 5.97261e-41 5.97261e-41 5.97261e-41 5.97261e-41 5.97261e-41 5.97261e-41 5.97261e-41 5.97261e-41 5.97261e-41 5.97261e-41 5.97261e-41 5.97261e-41 5.97261e-41 5.97261e-41 5.97261e-41 5.97261e-41 5.97261e-41 5.97261e-41;
   (80417229) 6.05543e-41 6.05543e-41 6.05543e-41 6.05543e-41 6.05543e-41 6.05543e-41 6.05543e-41 6.05543e-41 6.05543e-41 6.05543e-41 6.05543e-41 6.05543e-41 6.05543e-41 6.05543e-41 6.05543e-41 6.05543e-41 6.05543e-41 6.05543e-41 6.05543e-41 6.05543e-41 6.05543e-41 6.05543e-41 6.05543e-41 6.05543e-41 6.05543e-41 6.05543e-41 6.05543e-41 6.05543e-41 6.05543e-41 6.05543e-41 6.05543e-41 6.05543e-41 6.05543e-41 6.05543e-41 6.05543e-41 6.05543e-41 6.05543e-41 6.05557e-41 6.05627e-41 6.05978e-41 6.07099e-41 6.09761e-41 6.14147e-41 6.18715e-41 6.20733e-41 6.18715e-41 6.14147e-41 2.01956e-28 4.90412e-13 0.000835753 0.998329 0.000835176 4.89155e-13 2.00558e-28 6.05543e-41 6.05543e-41 6.05543e-41 6.05543e-41 6.05543e-41 6.05543e-41 6.05543e-41 6.05543e-41 6.05543e-41 6.05543e-41 6.05543e-41 6.05543e-41 6.05543e-41 6.05543e-41 6.05543e-41 6.05543e-41 6.05543e-41 6.05543e-41 6.05543e-41 6.05543e-41 6.05543e-41 6.05543e-41;
}
probability (H | I) {
   (0) 0.0052356 0.0052356 0.0052356 0.0052356 0.0052356 0.0052356 0.0052356 0.0052356 0.0052356 0.0052356 0.0052356 0.0052356 0.0052356 0.0052356 0.0052356 0.0052356 0.0052356 0.0052356 0.0052356 0.0052356 0.0052356 0.0052356 0.0052356 0.0052356 0.0052356 0.0052356 0.0052356 0.0052356 0.0052356 0.0052356 0.0052356 0.0052356 0.0052356 0.0052356 0.0052356 0.0052356 0.0052356 0.0052356 0.0052356 0.0052356 0.0052356 0.0052356 0.0052356 0.0052356 0.0052356 0.0052356 0.0052356 0.0052356 0.0052356 0.0052356 0.0052356 0.0052356 0.0052356 0.0052356 0.0052356 0.0052356 0.0052356 0.0052356 0.0052356 0.0052356 0.0052356 0.0052356 0.0052356 0.0052356 0.0052356 0.0052356 0.0052356 0.0052356 0.0052356 0.0052356 0.0052356 0.0052356 0.0052356 0.0052356 0.0052356 0.0052356 0.0052356 0.0052356 0.0052356 0.0052356 0.0052356 0.0052356 0.0052356 0.0052356 0.0052356 0.0052356 0.0052356 0.0052356 0.0052356 0.0052356 0.0052356 0.0052356 0.0052356 0.0052356 0.0052356 0.0052356 0.0052356 0.0052356 0.0052356 0.0052356 0.0052356 0.0052356 0.0052356 0.0052356 0.0052356 0.0052356 0.0052356 0.0052356 0.0052356 0.0052356 0.0052356 0.0052356 0.0052356 0.0052356 0.0052356 0.0052356 0.0052356 0.0052356 0.0052356 0.0052356 0.0052356 0.0052356 0.0052356 0.0052356 0.0052356 0.0052356 0.0052356 0.0052356 0.0052356 0.0052356 0.0052356 0.0052356 0.0052356 0.0052356 0.0052356 0.0052356 0.0052356 0.0052356 0.0052356 0.0052356 0.0052356 0.0052356 0.0052356 0.0052356 0.0052356 0.0052356 0.0052356 0.0052356 0.0052356 0.0052356 0.0052356 0.0052356 0.0052356 0.0052356 0.0052356 0.0052356 0.0052356 0.0052356 0.0052356 0.0052356 0.0052356 0.0052356 0.0052356 0.0052356 0.0052356 0.0052356 0.0052356 0.0052356 0.0052356 0.0052356 0.0052356 0.0052356 0.0052356 0.0052356 0.0052356 0.0052356 0.0052356 0.0052356 0.0052356 0.0052356 0.0052356 0.0052356 0.0052356 0.0052356 0.0052356 0.0052356 0.0052356 0.0052356 0.0052356 0.0052356 0.0052356;
   (314591) 2.48574e-16 2.48574e-16 2.48574e-16 2.48574e-16 2.48574e-16 2.48574e-16 2.48574e-16 2.48574e-16 2.48574e-16 2.48574e-16 2.48574e-16 2.48574e-16 2.66891e-16 4.36434e-16 7.10647e-16 1.15226e-15 1.8603e-15 2.99066e-15 4.78752e-15 7.63141e-15 1.21127e-14 1.91439e-14 3.01284e-14 4.72139e-14 7.36722e-14 1.14474e-13 1.77112e-13 2.72867e-13 4.18596e-13 6.39442e-13 9.72634e-13 1.47317e-12 2.22175e-12 3.33658e-12 4.98949e-12 7.42977e-12 1.10161e-11 1.62644e-11 2.39114e-11 3.50051e-11 5.10276e-11 7.40687e-11 1.07061e-10 1.54093e-10 2.20855e-10 3.15199e-10 4.47963e-10 6.33974e-10 8.93491e-10 1.25401e-09 1.75265e-09 2.43958e-09 3.38186e-09 4.66909e-09 6.42054e-09 8.79409e-09 1.19984e-08 1.63078e-08 2.20824e-08 2.97931e-08 4.00541e-08 5.36673e-08 7.16718e-08 9.54241e-08 1.26673e-07 1.6771e-07 2.21491e-07 2.9187e-07 3.83868e-07 5.0403e-07 6.60937e-07 8.65834e-07 1.13355e-06 1.48369e-06 1.94226e-06 2.54385e-06 3.33484e-06 4.37756e-06 5.75587e-06 7.58334e-06 1.00142e-05 1.32586e-05 1.76036e-05 2.34411e-05 3.13094e-05 4.19448e-05 5.6358e-05 7.59317e-05 0.000102557 0.000138806 0.000188166 0.000255335 0.000346601 0.000470291 0.00063729 0.000861711 0.00116144 0.00155883 0.00208104 0.00276047 0.00363413 0.00474287 0.0061295 0.00783561 0.00989742 0.0123411 0.0151749 0.0183856 0.0219314 0.0257388 0.0297027 0.0336875 0.0375358 0.041079 0.0441496 0.0465971 0.0483012 0.0491835 0.0492132 0.0484097 0.0468389 0.0446039 0.0418348 0.0386763 0.0352751 0.0317687 0.0282787 0.0249034 0.02172 0.0187803 0.0161156 0.0137374 0.0116457 0.00982656 0.00826129 0.00692636 0.005796 0.00484467 0.00404773 0.00338265 0.00282913 0.00236912 0.00198717 0.00167007 0.00140658 0.00118737 0.00100464 0.000851944 0.000723997 0.000616497 0.00052587 0.000449219 0.000384178 0.000328812 0.000281551 0.000241101 0.000206398 0.000176578 0.000150911 0.000128804 0.000109758 9.33479e-05 7.92201e-05 6.7069e-05 5.66318e-05 4.76871e-05 4.00366e-05 3.35096e-05 2.7958e-05 2.32489e-05 1.9268e-05 1.59137e-05 1.30972e-05 1.07412e-05 8.77734e-06 7.14665e-06 5.79746e-06 4.68567e-06 3.77308e-06 3.02684e-06 2.41898e-06 1.92592e-06 1.52747e-06 1.20677e-06 9.49746e-07 7.44516e-07 5.81346e-07 4.5215e-07 3.50259e-07 2.70244e-07 2.07673e-07;
   (1019107402) 2.92369e-15 2.92369e-15 2.92369e-15 2.92369e-15 2.92369e-15 2.92369e-15 2.92369e-15 2.92369e-15 2.92369e-15 3.1391e-15 5.13323e-15 8.35847e-15 1.35523e-14 2.18803e-14 3.51755e-14 5.63093e-14 8.97573e-14 1.42466e-13 2.25166e-13 3.54361e-13 5.55315e-13 8.66527e-13 1.34641e-12 2.08317e-12 3.20937e-12 4.92343e-12 7.5208e-12 1.14397e-11 1.73266e-11 2.61315e-11 3.92433e-11 5.86836e-11 8.73814e-11 1.29561e-10 1.91283e-10 2.81211e-10 4.11659e-10 6.00061e-10 8.70969e-10 1.25881e-09 1.81164e-09 2.59616e-09 3.70462e-09 5.26389e-09 7.44769e-09 1.04928e-08 1.472e-08 2.05626e-08 2.86024e-08 3.96169e-08 5.46403e-08 7.50412e-08 1.02623e-07 1.39749e-07 1.89501e-07 2.55882e-07 3.4406e-07 4.60679e-07 6.14239e-07 8.15566e-07 1.07836e-06 1.41994e-06 1.86201e-06 2.4317e-06 3.16279e-06 4.09713e-06 5.28635e-06 6.79395e-06 8.69771e-06 1.10925e-05 1.40938e-05 1.78419e-05 2.25066e-05 2.82928e-05 3.54479e-05 4.42697e-05 5.51166e-05 6.84189e-05 8.46938e-05 0.000104562 0.000128769 0.000158206 0.000193944 0.000237262 0.000289688 0.000353043 0.000429495 0.000521606 0.000632401 0.000765426 0.000924813 0.00111532 0.00134244 0.00161234 0.00193197 0.00230896 0.00275159 0.00326866 0.00386927 0.00456259 0.00535746 0.00626196 0.00728294 0.00842533 0.00969161 0.0110811 0.0125895 0.0142079 0.0159232 0.0177169 0.019566 0.0214424 0.0233147 0.0251476 0.0269037 0.0285453 0.0300351 0.0313379 0.0324228 0.0332636 0.0338405 0.0341411 0.0341606 0.0339022 0.0333762 0.0326002 0.0315977 0.0303968 0.0290289 0.0275279 0.0259275 0.0242614 0.0225615 0.0208564 0.0191723 0.017531 0.0159505 0.0144452 0.0130254 0.0116979 0.0104669 0.00933342 0.00829659 0.00735358 0.00650047 0.00573225 0.00504334 0.00442778 0.00387954 0.00339262 0.00296124 0.0025799 0.00224347 0.00194717 0.00168667 0.00145801 0.00125761 0.00108228 0.000929137 0.000795633 0.000679473 0.000578631 0.000491289 0.000415836 0.000350834 0.000295 0.000247194 0.000206396 0.000171702 0.000142306 0.000117491 9.66285e-05 7.91568e-05 6.45861e-05 5.2485e-05 4.24777e-05 3.42375e-05 2.7482e-05 2.1968e-05 1.74871e-05 1.38619e-05 1.09422e-05 8.60115e-06 6.73247e-06 5.24749e-06 4.07278e-06 3.14767e-06 2.42238e-06 1.85631e-06 1.41649e-06 1.07629e-06;
   (2964414) 4.87279e-16 4.87279e-16 5.2318e-16 8.55534e-16 1.39306e-15 2.25871e-15 3.64671e-15 5.8626e-15 9.38479e-15 1.49593e-14 2.37444e-14 3.75274e-14 5.906e-14 9.2552e-14 1.4442e-13 2.24401e-13 3.4719e-13 5.3489e-13 8.20564e-13 1.25345e-12 1.90661e-12 2.88776e-12 4.35523e-12 6.54048e-12 9.78057e-12 1.45633e-11 2.15932e-11 3.18806e-11 4.68684e-11 6.86094e-11 1.00009e-10 1.4516e-10 2.09802e-10 3.0194e-10 4.32689e-10 6.17435e-10 8.77326e-10 1.24128e-09 1.74882e-09 2.4534e-09 3.42723e-09 4.7673e-09 6.60331e-09 9.10762e-09 1.25086e-08 1.71068e-08 2.32968e-08 3.1593e-08 4.26634e-08 5.73722e-08 7.68288e-08 1.02455e-07 1.36065e-07 1.79961e-07 2.37045e-07 3.10976e-07 4.06333e-07 5.28837e-07 6.85587e-07 8.85429e-07 1.13922e-06 1.46044e-06 1.86559e-06 2.37503e-06 3.01366e-06 3.81198e-06 4.80752e-06 6.04606e-06 7.58424e-06 9.4908e-06 1.18511e-05 1.47698e-05 1.83766e-05 2.28317e-05 2.8333e-05 3.51269e-05 4.35197e-05 5.38901e-05 6.67153e-05 8.25829e-05 0.000102231 0.000126573 0.000156746 0.000194163 0.000240565 0.000298114 0.000369456 0.000457822 0.000567178 0.000702253 0.000868831 0.00107369 0.00132493 0.00163193 0.0020056 0.00245829 0.00300387 0.0036576 0.00443583 0.00535567 0.00643436 0.00768808 0.00913203 0.0107774 0.0126312 0.0146935 0.0169569 0.0194033 0.0220041 0.0247179 0.0274905 0.0302565 0.0329409 0.0354606 0.0377306 0.0396674 0.0411943 0.0422483 0.0427827 0.0427736 0.0422185 0.0411398 0.0395813 0.0376051 0.0352895 0.0327186 0.0299812 0.0271633 0.0243441 0.0215921 0.0189637 0.0165016 0.0142349 0.0121806 0.0103456 0.00872703 0.0073157 0.00609821 0.00505753 0.00417551 0.00343351 0.00281339 0.00229817 0.00187228 0.00152179 0.00123446 0.000999714 0.000808443 0.000652995 0.000526909 0.000424815 0.000342268 0.000275596 0.000221806 0.000178438 0.000143492 0.000115343 9.268e-05 7.44387e-05 5.97579e-05 4.79448e-05 3.84408e-05 3.07962e-05 2.46486e-05 1.97067e-05 1.57359e-05 1.25469e-05 9.98807e-06 7.93663e-06 6.29386e-06 4.98016e-06 3.93135e-06 3.09542e-06 2.43061e-06 1.90303e-06 1.48543e-06 1.15575e-06 8.96263e-07 6.92638e-07 5.33371e-07 4.09235e-07 3.12815e-07 2.38201e-07 1.80679e-07 1.36508e-07 1.02725e-07 7.69914e-08 5.74699e-08 4.27215e-08 3.16273e-08 2.33169e-08;
   (9515830) 1.94912e-16 2.09273e-16 3.42213e-16 5.57217e-16 9.03484e-16 1.45868e-15 2.34504e-15 3.75391e-15 5.98371e-15 9.49778e-15 1.50112e-14 2.36243e-14 3.70211e-14 5.77689e-14 8.97618e-14 1.38881e-13 2.13967e-13 3.2824e-13 5.01408e-13 7.62695e-13 1.15522e-12 1.74231e-12 2.61662e-12 3.91313e-12 5.82693e-12 8.64036e-12 1.27579e-11 1.87578e-11 2.74631e-11 4.0039e-11 5.81281e-11 8.40353e-11 1.20981e-10 1.73437e-10 2.47609e-10 3.52021e-10 4.98406e-10 7.02736e-10 9.868e-10 1.38002e-09 1.92206e-09 2.66631e-09 3.68387e-09 5.06955e-09 6.94902e-09 9.48797e-09 1.29044e-08 1.74837e-08 2.35977e-08 3.17306e-08 4.25064e-08 5.67308e-08 7.54399e-08 9.99533e-08 1.31957e-07 1.73588e-07 2.27545e-07 2.97223e-07 3.86898e-07 5.01882e-07 6.4882e-07 8.35922e-07 1.0734e-06 1.37384e-06 1.75257e-06 2.22866e-06 2.82528e-06 3.57082e-06 4.50003e-06 5.65525e-06 7.08873e-06 8.86341e-06 1.10581e-05 1.37681e-05 1.71114e-05 2.12353e-05 2.632e-05 3.25941e-05 4.03387e-05 4.9912e-05 6.17625e-05 7.646e-05 9.47274e-05 0.000117485 0.000145904 0.000181483 0.000226148 0.000282348 0.000353221 0.000442775 0.000556112 0.00069969 0.000881687 0.00111228 0.00140418 0.00177301 0.00223759 0.00282053 0.00354815 0.00445056 0.00556099 0.00691486 0.00854772 0.0104927 0.0127761 0.0154154 0.0184099 0.0217381 0.0253534 0.0291802 0.0331094 0.0370074 0.0407158 0.0440659 0.0468878 0.0490288 0.0503643 0.0508161 0.0503538 0.0490048 0.0468475 0.0440028 0.0406256 0.0368843 0.0329517 0.0289866 0.025126 0.0214801 0.0181267 0.0151144 0.0124653 0.0101787 0.00823822 0.00661593 0.00527742 0.00418601 0.00330499 0.00260002 0.00203999 0.00159783 0.00125039 0.000978351 0.000765948 0.00060037 0.000471371 0.000370885 0.000292537 0.000231357 0.000183491 0.00014595 0.000116419 9.31227e-05 7.46785e-05 6.00287e-05 4.83539e-05 3.9017e-05 3.15277e-05 2.55022e-05 2.0642e-05 1.67124e-05 1.35294e-05 1.0947e-05 8.85009e-06 7.14632e-06 5.76171e-06 4.63676e-06 3.72365e-06 2.98319e-06 2.38378e-06 1.89939e-06 1.50889e-06 1.19482e-06 9.42999e-07 7.41645e-07 5.81188e-07 4.5376e-07 3.52944e-07 2.73458e-07 2.11048e-07 1.62232e-07 1.24205e-07 9.47073e-08 7.19175e-08 5.4388e-08 4.09587e-08 3.07174e-08 2.29407e-08 1.70609e-08 1.26346e-08 9.31712e-09 6.84184e-09;
   (1052411482) 8.77096e-16 8.77096e-16 8.77096e-16 8.77096e-16 9.41724e-16 1.53996e-15 2.50752e-15 4.06568e-15 6.56406e-15 1.05527e-14 1.68926e-14 2.69269e-14 4.27396e-14 6.75498e-14 1.06307e-13 1.66593e-13 2.59956e-13 4.03919e-13 6.24948e-13 9.62811e-13 1.47702e-12 2.25623e-12 3.43188e-12 5.19795e-12 7.83944e-12 1.1773e-11 1.76051e-11 2.62144e-11 3.88679e-11 5.73856e-11 8.4364e-11 1.23499e-10 1.80021e-10 2.61296e-10 3.77656e-10 5.43516e-10 7.78892e-10 1.11148e-09 1.57934e-09 2.23463e-09 3.1484e-09 4.41706e-09 6.1707e-09 8.58408e-09 1.18911e-08 1.64027e-08 2.25307e-08 3.08183e-08 4.19786e-08 5.69409e-08 7.69155e-08 1.03468e-07 1.38614e-07 1.84941e-07 2.45749e-07 3.25236e-07 4.28723e-07 5.62911e-07 7.36224e-07 9.59198e-07 1.245e-06 1.60998e-06 2.07441e-06 2.66333e-06 3.40758e-06 4.34524e-06 5.52275e-06 6.99726e-06 8.83842e-06 1.11313e-05 1.39796e-05 1.75093e-05 2.18739e-05 2.72597e-05 3.38918e-05 4.20447e-05 5.20488e-05 6.4305e-05 7.92987e-05 9.76108e-05 0.000119951 0.000147166 0.000180277 0.000220514 0.000269346 0.00032854 0.000400205 0.00048685 0.000591468 0.000717596 0.000869409 0.00105184 0.00127061 0.00153237 0.00184479 0.00221662 0.00265769 0.00317896 0.00379237 0.00451075 0.00534739 0.00631569 0.00742844 0.00869714 0.0101309 0.0117351 0.0135104 0.0154516 0.0175457 0.019771 0.0220973 0.0244853 0.0268859 0.0292439 0.0314975 0.0335831 0.0354365 0.0369985 0.0382165 0.0390489 0.0394671 0.0394579 0.0390233 0.0381802 0.0369608 0.0354078 0.0335739 0.0315169 0.0292979 0.0269771 0.024612 0.0222551 0.0199516 0.0177393 0.015648 0.013699 0.0119066 0.0102781 0.00881512 0.00751438 0.00636904 0.00536955 0.00450452 0.00376165 0.00312817 0.00259149 0.00213953 0.00176098 0.00144548 0.00118368 0.000967291 0.000789081 0.000642729 0.000522863 0.000424904 0.000344993 0.0002799 0.000226941 0.000183895 0.000148927 0.000120536 9.74951e-05 7.87984e-05 6.36336e-05 5.13351e-05 4.1365e-05 3.32859e-05 2.67431e-05 2.14485e-05 1.71683e-05 1.37123e-05 1.09259e-05 8.6835e-06 6.88225e-06 5.4386e-06 4.28449e-06 3.36433e-06 2.63289e-06 2.05325e-06 1.59546e-06 1.23515e-06 9.52582e-07 7.31827e-07 5.60019e-07 4.26846e-07 3.24028e-07 2.44979e-07 1.84455e-07 1.38311e-07 1.0328e-07 7.68007e-08;
   (79397631) 2.13934e-16 2.13934e-16 2.13934e-16 2.13934e-16 2.13934e-16 2.13934e-16 2.13934e-16 2.13934e-16 2.13934e-16 2.13934e-16 2.13934e-16 2.13934e-16 2.13934e-16 2.13934e-16 2.29696e-16 3.75615e-16 6.11618e-16 9.91669e-16 1.60105e-15 2.57386e-15 4.12031e-15 6.56773e-15 1.04246e-14 1.64759e-14 2.59299e-14 4.06343e-14 6.34062e-14 9.8521e-14 1.52432e-13 2.34836e-13 3.60265e-13 5.50328e-13 8.3709e-13 1.26786e-12 1.91218e-12 2.87169e-12 4.29428e-12 6.39454e-12 9.48133e-12 1.39986e-11 2.05807e-11 3.01298e-11 4.39224e-11 6.37588e-11 9.21629e-11 1.32663e-10 1.90159e-10 2.71424e-10 3.85825e-10 5.46152e-10 7.69922e-10 1.08098e-09 1.51154e-09 2.10518e-09 2.92037e-09 4.03565e-09 5.55571e-09 7.62018e-09 1.04145e-08 1.41847e-08 1.92563e-08 2.60601e-08 3.51662e-08 4.73268e-08 6.35411e-08 8.5129e-08 1.13849e-07 1.52034e-07 2.02812e-07 2.70375e-07 3.60361e-07 4.80407e-07 6.40898e-07 8.56009e-07 1.1452e-06 1.5353e-06 2.06352e-06 2.78164e-06 3.76219e-06 5.10672e-06 6.95875e-06 9.52031e-06 1.3079e-05 1.8041e-05 2.4985e-05 3.47317e-05 4.84468e-05 6.77805e-05 9.50608e-05 0.000133563 0.000187854 0.000264259 0.000371442 0.000521153 0.000729092 0.0010158 0.00140773 0.00193796 0.00264697 0.00358207 0.00479668 0.00634762 0.00829061 0.0106746 0.0135329 0.0168753 0.0206782 0.0248755 0.0293572 0.0339666 0.0385095 0.0427661 0.0465117 0.0495345 0.051663 0.0527798 0.0528368 0.0518572 0.0499309 0.0472014 0.0438485 0.0400687 0.0360578 0.0319925 0.0280217 0.0242621 0.0207925 0.0176629 0.0148931 0.0124815 0.0104109 0.00865408 0.00717812 0.00594771 0.00492832 0.00408791 0.00339714 0.00283048 0.00236597 0.00198509 0.00167234 0.00141491 0.00120245 0.00102639 0.0008799 0.00075743 0.000654502 0.000567538 0.000493641 0.000430504 0.000376253 0.000329393 0.000288708 0.000253235 0.000222173 0.000194879 0.000170828 0.00014959 0.000130805 0.000114176 9.94576e-05 8.6429e-05 7.49119e-05 6.47449e-05 5.57873e-05 4.79144e-05 4.1014e-05 3.49834e-05 2.97323e-05 2.51745e-05 2.12347e-05 1.78416e-05 1.49313e-05 1.24462e-05 1.0333e-05 8.54301e-06 7.03432e-06 5.76813e-06 4.71012e-06 3.83021e-06 3.10159e-06 2.501e-06 2.00823e-06 1.60577e-06 1.27854e-06 1.01365e-06 8.00282e-07 6.29114e-07 4.92487e-07 3.83888e-07 2.97968e-07;
   (20947316) 9.79962e-14 1.52916e-13 2.37601e-13 3.67617e-13 5.66359e-13 8.68832e-13 1.32718e-12 2.01876e-12 3.05763e-12 4.6114e-12 6.92521e-12 1.0356e-11 1.54201e-11 2.28634e-11 3.37557e-11 4.96249e-11 7.26452e-11 1.05892e-10 1.53699e-10 2.22139e-10 3.19698e-10 4.58134e-10 6.53743e-10 9.28888e-10 1.31427e-09 1.85159e-09 2.59749e-09 3.62841e-09 5.04702e-09 6.99044e-09 9.64094e-09 1.324e-08 1.81054e-08 2.46534e-08 3.34269e-08 4.51305e-08 6.06728e-08 8.12209e-08 1.08268e-07 1.43707e-07 1.89939e-07 2.49978e-07 3.276e-07 4.27509e-07 5.55522e-07 7.18818e-07 9.26176e-07 1.18832e-06 1.51826e-06 1.93164e-06 2.44732e-06 3.08769e-06 3.87953e-06 4.85423e-06 6.04894e-06 7.50693e-06 9.27879e-06 1.14233e-05 1.40082e-05 1.71114e-05 2.08228e-05 2.52453e-05 3.04967e-05 3.67109e-05 4.40432e-05 5.26692e-05 6.27914e-05 7.46427e-05 8.84948e-05 0.000104655 0.000123493 0.000145432 0.000170981 0.000200734 0.000235411 0.000275856 0.000323105 0.000378395 0.000443238 0.000519451 0.000609258 0.000715362 0.000841051 0.000990307 0.00116797 0.00137991 0.00163314 0.0019361 0.00229877 0.00273296 0.00325231 0.00387255 0.00461135 0.00548827 0.00652415 0.00774074 0.00915908 0.0107987 0.0126753 0.0147979 0.0171673 0.0197728 0.0225882 0.025572 0.0286638 0.0317853 0.0348431 0.0377302 0.0403333 0.0425393 0.0442445 0.0453618 0.0458284 0.045614 0.0447216 0.0431877 0.041081 0.0384961 0.0355436 0.0323452 0.0290203 0.0256833 0.0224306 0.0193428 0.0164797 0.0138813 0.0115672 0.00954284 0.00779962 0.00632056 0.00508217 0.00405773 0.00321943 0.00254012 0.00199444 0.00155952 0.00121519 0.000944182 0.000731944 0.000566455 0.000437859 0.000338208 0.000261157 0.000201672 0.000155793 0.000120424 9.31628e-05 7.21404e-05 5.59188e-05 4.33909e-05 3.37042e-05 2.62044e-05 2.03901e-05 1.58758e-05 1.23663e-05 9.63431e-06 7.50521e-06 5.84466e-06 4.54849e-06 3.53645e-06 2.74619e-06 2.12928e-06 1.64801e-06 1.27285e-06 9.80829e-07 7.53876e-07 5.77847e-07 4.41615e-07 3.36443e-07 2.55474e-07 1.9333e-07 1.45782e-07 1.09528e-07 8.19801e-08 6.11259e-08 4.53991e-08 3.35846e-08 2.47451e-08 1.81584e-08 1.32704e-08 9.65819e-09 7.00009e-09 5.05247e-09 3.63149e-09 2.59917e-09 1.85247e-09 1.31475e-09 9.29154e-10 6.53876e-10 4.5821e-10 3.19733e-10;
   (80431643) 4.38566e-15 4.38566e-15 4.38566e-15 4.38566e-15 4.38566e-15 4.38566e-15 4.38566e-15 4.38566e-15 4.38566e-15 4.38566e-15 4.38566e-15 4.38566e-15 4.38566e-15 4.38566e-15 4.70879e-15 7.70008e-15 1.25381e-14 2.03291e-14 3.28214e-14 5.27649e-14 8.44665e-14 1.3464e-13 2.13706e-13 3.37759e-13 5.31557e-13 8.32997e-13 1.29983e-12 2.01968e-12 3.12484e-12 4.8142e-12 7.38536e-12 1.12816e-11 1.716e-11 2.59907e-11 3.91984e-11 5.88666e-11 8.8028e-11 1.31076e-10 1.94347e-10 2.86933e-10 4.21829e-10 6.17507e-10 9.00115e-10 1.30649e-09 1.88827e-09 2.71752e-09 3.89432e-09 5.55702e-09 7.89593e-09 1.11716e-08 1.5739e-08 2.20796e-08 3.08429e-08 4.29013e-08 5.94205e-08 8.19507e-08 1.12543e-07 1.539e-07 2.09559e-07 2.84136e-07 3.83616e-07 5.15725e-07 6.90383e-07 9.20265e-07 1.22148e-06 1.6144e-06 2.12464e-06 2.78427e-06 3.6332e-06 4.72081e-06 6.10794e-06 7.86909e-06 1.0095e-05 1.28954e-05 1.64028e-05 2.07756e-05 2.62022e-05 3.2906e-05 4.11495e-05 5.12395e-05 6.3533e-05 7.84417e-05 9.6438e-05 0.000118061 0.000143919 0.000174699 0.000211165 0.000254165 0.000304632 0.000363585 0.000432125 0.000511439 0.000602789 0.000707511 0.000827001 0.000962714 0.00111614 0.00128882 0.00148229 0.00169811 0.00193783 0.00220298 0.0024951 0.00281568 0.00316619 0.0035481 0.00396285 0.0044119 0.00489671 0.00541875 0.00597956 0.00658065 0.00722358 0.00790987 0.008641 0.00941827 0.0102428 0.0111152 0.0120356 0.0130036 0.0140175 0.0150747 0.0161712 0.0173013 0.0184577 0.0196311 0.0208103 0.0219823 0.0231319 0.0242427 0.0252969 0.0262757 0.02716 0.0279312 0.0285711 0.0290635 0.0293941 0.0295515 0.0295278 0.0293185 0.0289233 0.0283461 0.0275949 0.0266813 0.0256208 0.0244316 0.0231344 0.0217517 0.0203066 0.0188227 0.0173229 0.0158291 0.0143613 0.0129372 0.0115721 0.0102786 0.00906628 0.007942 0.00690996 0.00597186 0.00512724 0.00437374 0.00370751 0.00312351 0.00261584 0.00217806 0.00180348 0.00148537 0.00121713 0.000992502 0.000805612 0.000651082 0.000524055 0.000420208 0.000335745 0.000267376 0.000212277 0.000168053 0.000132689 0.000104505 8.21123e-05 6.43717e-05 5.03526e-05 3.9301e-05 3.06082e-05 2.37854e-05 1.84415e-05 1.42646e-05 1.10067e-05 8.47104e-06 6.50201e-06;
   (3014218) 3.37345e-16 3.37345e-16 3.62202e-16 5.92292e-16 9.64413e-16 1.56372e-15 2.52464e-15 4.05873e-15 6.49711e-15 1.03564e-14 1.64384e-14 2.59805e-14 4.08872e-14 6.40745e-14 9.99836e-14 1.55354e-13 2.40362e-13 3.70308e-13 5.68088e-13 8.67774e-13 1.31997e-12 1.9992e-12 3.01517e-12 4.52804e-12 6.77123e-12 1.00824e-11 1.49492e-11 2.2071e-11 3.24472e-11 4.74989e-11 6.92377e-11 1.00496e-10 1.45249e-10 2.09036e-10 2.99557e-10 4.27457e-10 6.07382e-10 8.59359e-10 1.21074e-09 1.69851e-09 2.37274e-09 3.30052e-09 4.57165e-09 6.30545e-09 8.66015e-09 1.18438e-08 1.61297e-08 2.18743e-08 2.95404e-08 3.9726e-08 5.32012e-08 7.09524e-08 9.42355e-08 1.2465e-07 1.64212e-07 2.15461e-07 2.81585e-07 3.66573e-07 4.75373e-07 6.14183e-07 7.90631e-07 1.01415e-06 1.29648e-06 1.65198e-06 2.09848e-06 2.65797e-06 3.35754e-06 4.2309e-06 5.31976e-06 6.67601e-06 8.36475e-06 1.04674e-05 1.30862e-05 1.63514e-05 2.04278e-05 2.55254e-05 3.19146e-05 3.99429e-05 5.00579e-05 6.28425e-05 7.90494e-05 9.96684e-05 0.000125976 0.000159654 0.000202888 0.000258535 0.000330301 0.000423003 0.000542863 0.000697855 0.00089812 0.00115647 0.00148882 0.00191469 0.00245762 0.00314529 0.00400953 0.00508557 0.00641076 0.00802262 0.00995543 0.0122365 0.0148817 0.017887 0.0212289 0.0248534 0.0286779 0.0325904 0.0364508 0.0401005 0.0433736 0.046108 0.0481627 0.0494279 0.0498395 0.0493816 0.0480897 0.0460457 0.0433693 0.0402049 0.0367082 0.0330338 0.0293238 0.0257006 0.0222606 0.0190735 0.0161838 0.0136124 0.0113618 0.00942098 0.00776829 0.00637647 0.00521534 0.0042545 0.00346452 0.00281861 0.00229261 0.00186558 0.00151963 0.00123967 0.00101318 0.000829859 0.000681302 0.000560722 0.00046263 0.000382624 0.000317183 0.000263491 0.000219293 0.0001828 0.00015257 0.000127451 0.000106526 8.90478e-05 7.44218e-05 6.21595e-05 5.18674e-05 4.3224e-05 3.59613e-05 2.98609e-05 2.47402e-05 2.04466e-05 1.68524e-05 1.3849e-05 1.13457e-05 9.264e-06 7.5384e-06 6.11239e-06 4.93791e-06 3.9741e-06 3.18612e-06 2.54435e-06 2.02376e-06 1.60319e-06 1.2649e-06 9.9385e-07 7.7769e-07 6.05999e-07 4.70247e-07 3.63379e-07 2.79614e-07 2.14254e-07 1.63476e-07 1.24209e-07 9.39734e-08 7.07956e-08 5.311e-08 3.96724e-08 2.95094e-08 2.18565e-08 1.61197e-08;
   (1032480996) 3.84989e-15 6.2688e-15 1.01642e-14 1.64101e-14 2.63814e-14 4.22316e-14 6.73175e-14 1.06849e-13 1.68873e-13 2.65769e-13 4.16482e-13 6.4989e-13 1.0098e-12 1.56236e-12 2.40701e-12 3.69254e-12 5.64055e-12 8.5797e-12 1.29949e-11 1.95984e-11 2.94322e-11 4.40123e-11 6.55355e-11 9.71693e-11 1.43461e-10 2.10906e-10 3.08741e-10 4.5004e-10 6.5322e-10 9.44093e-10 1.35871e-09 1.94708e-09 2.77841e-09 3.94781e-09 5.5856e-09 7.86923e-09 1.10394e-08 1.5421e-08 2.145e-08 2.97095e-08 4.09745e-08 5.6271e-08 7.69493e-08 1.0478e-07 1.4207e-07 1.91815e-07 2.57878e-07 3.45225e-07 4.60196e-07 6.1086e-07 8.07411e-07 1.0627e-06 1.39281e-06 1.81775e-06 2.36237e-06 3.05727e-06 3.94002e-06 5.05646e-06 6.4624e-06 8.22504e-06 1.04256e-05 1.31611e-05 1.65471e-05 2.07212e-05 2.58458e-05 3.21122e-05 3.97451e-05 4.90075e-05 6.02058e-05 7.36973e-05 8.98972e-05 0.000109287 0.000132423 0.000159951 0.000192617 0.000231285 0.00027695 0.000330763 0.000394051 0.000468345 0.000555404 0.00065725 0.000776203 0.000914909 0.00107638 0.00126403 0.00148171 0.00173371 0.00202484 0.0023604 0.00274615 0.00318837 0.00369374 0.0042693 0.00492232 0.00566017 0.00649003 0.00741873 0.00845226 0.00959546 0.0108515 0.0122213 0.0137034 0.0152922 0.0169789 0.0187497 0.0205864 0.0224654 0.0243584 0.0262322 0.0280498 0.0297712 0.0313544 0.032758 0.033942 0.0348705 0.0355128 0.0358463 0.0358569 0.0355402 0.0349024 0.0339594 0.0327367 0.0312675 0.0295916 0.0277531 0.0257982 0.0237729 0.0217212 0.0196841 0.0176969 0.0157898 0.0139862 0.0123036 0.0107534 0.00934148 0.00806911 0.00693357 0.00592916 0.00504793 0.00428047 0.00361651 0.00304556 0.0025572 0.00214148 0.00178906 0.00149143 0.00124087 0.00103055 0.000854431 0.00070727 0.000584546 0.000482375 0.000397446 0.00032695 0.000268516 0.000220144 0.000180155 0.000147144 0.000119933 9.75384e-05 7.91395e-05 6.40516e-05 5.17034e-05 4.16202e-05 3.34057e-05 2.67309e-05 2.13219e-05 1.69515e-05 1.34309e-05 1.06043e-05 8.34231e-06 6.53873e-06 5.10575e-06 3.97155e-06 3.07728e-06 2.37496e-06 1.82561e-06 1.39767e-06 1.06568e-06 8.09223e-07 6.11953e-07 4.60849e-07 3.45612e-07 2.58106e-07 1.91948e-07 1.42147e-07 1.04824e-07 7.69739e-08 5.62849e-08 4.09823e-08;
   (9496683) 2.50598e-16 2.50598e-16 2.50598e-16 2.50598e-16 2.69064e-16 4.39987e-16 7.16423e-16 1.16161e-15 1.87544e-15 3.01505e-15 4.82641e-15 7.69332e-15 1.22114e-14 1.93e-14 3.03734e-14 4.75981e-14 7.42737e-14 1.15406e-13 1.78555e-13 2.75085e-13 4.2201e-13 6.44632e-13 9.8054e-13 1.48512e-12 2.23983e-12 3.36366e-12 5.03007e-12 7.48978e-12 1.11052e-11 1.63959e-11 2.41038e-11 3.52852e-11 5.14344e-11 7.46556e-11 1.079e-10 1.55286e-10 2.22534e-10 3.17548e-10 4.51216e-10 6.3843e-10 8.9948e-10 1.26191e-09 1.76287e-09 2.45226e-09 3.39693e-09 4.6856e-09 6.436e-09 8.80305e-09 1.19906e-08 1.6264e-08 2.19694e-08 2.95533e-08 3.95927e-08 5.28277e-08 7.02036e-08 9.29248e-08 1.22524e-07 1.6093e-07 2.10579e-07 2.74545e-07 3.5668e-07 4.61804e-07 5.9597e-07 7.66742e-07 9.8359e-07 1.2584e-06 1.60604e-06 2.04527e-06 2.59967e-06 3.29913e-06 4.18156e-06 5.29533e-06 6.70223e-06 8.4818e-06 1.07367e-05 1.36004e-05 1.7246e-05 2.19004e-05 2.78619e-05 3.55221e-05 4.5399e-05 5.81781e-05 7.47695e-05 9.63797e-05 0.000124609 0.000161583 0.000210117 0.00027393 0.000357903 0.000468437 0.000613835 0.000804771 0.00105486 0.00138124 0.00180495 0.0023516 0.00305149 0.00393951 0.0050542 0.00643654 0.00812719 0.0101631 0.0125719 0.0153688 0.0185454 0.0220704 0.0258801 0.029877 0.0339334 0.0378935 0.0415843 0.0448284 0.0474605 0.0493387 0.050365 0.0504879 0.0497136 0.0480991 0.0457491 0.0428004 0.0394121 0.035749 0.0319674 0.028207 0.0245835 0.0211838 0.0180672 0.015268 0.0127979 0.0106521 0.00881309 0.00725555 0.00594979 0.00486441 0.00396864 0.00323365 0.00263343 0.00214489 0.00174827 0.00142672 0.00116618 0.000955078 0.000783891 0.000644851 0.000531708 0.000439434 0.000363975 0.000302089 0.000251185 0.000209189 0.000174435 0.000145596 0.000121601 0.00010159 8.48631e-05 7.08643e-05 5.91299e-05 4.92871e-05 4.10273e-05 3.40949e-05 2.82804e-05 2.34068e-05 1.93277e-05 1.59183e-05 1.30745e-05 1.07075e-05 8.74211e-06 7.11482e-06 5.77143e-06 4.66556e-06 3.75845e-06 3.01686e-06 2.41272e-06 1.92235e-06 1.52589e-06 1.20653e-06 9.50293e-07 7.45545e-07 5.82577e-07 4.53421e-07 3.51475e-07 2.71346e-07 2.08627e-07 1.5975e-07 1.21817e-07 9.25089e-08 6.99582e-08 5.26845e-08 3.95106e-08 2.95061e-08 2.19425e-08;
   (3014208) 4.87275e-16 4.87275e-16 5.2318e-16 8.55533e-16 1.39306e-15 2.25871e-15 3.6467e-15 5.86259e-15 9.38471e-15 1.49594e-14 2.37444e-14 3.75277e-14 5.90594e-14 9.2552e-14 1.4442e-13 2.24401e-13 3.47193e-13 5.34895e-13 8.2057e-13 1.25346e-12 1.9066e-12 2.88776e-12 4.35524e-12 6.54047e-12 9.78066e-12 1.45634e-11 2.15931e-11 3.18803e-11 4.68679e-11 6.86094e-11 1.00009e-10 1.45161e-10 2.09801e-10 3.0194e-10 4.32694e-10 6.17437e-10 8.77319e-10 1.24129e-09 1.74881e-09 2.45338e-09 3.42722e-09 4.76729e-09 6.60319e-09 9.10736e-09 1.25083e-08 1.71064e-08 2.32959e-08 3.15916e-08 4.26611e-08 5.73676e-08 7.68214e-08 1.02446e-07 1.3605e-07 1.79932e-07 2.36997e-07 3.10898e-07 4.06209e-07 5.28627e-07 6.85263e-07 8.84889e-07 1.13841e-06 1.45919e-06 1.86369e-06 2.37212e-06 3.00927e-06 3.80546e-06 4.79796e-06 6.0322e-06 7.56423e-06 9.46269e-06 1.1812e-05 1.47165e-05 1.8305e-05 2.27377e-05 2.82127e-05 3.49792e-05 4.33465e-05 5.37046e-05 6.65429e-05 8.24769e-05 0.000102286 0.000126957 0.00015773 0.000196182 0.000244307 0.000304614 0.000380283 0.00047529 0.000594616 0.000744495 0.000932586 0.00116834 0.00146323 0.00183104 0.00228811 0.00285348 0.00354888 0.00439854 0.0054286 0.00666615 0.00813777 0.00986741 0.0118742 0.0141685 0.0167492 0.0195999 0.0226859 0.0259521 0.0293218 0.0326984 0.0359688 0.0390085 0.0416908 0.0438945 0.0455158 0.0464749 0.0467246 0.0462554 0.0450937 0.0433014 0.0409697 0.0382095 0.0351438 0.0318967 0.0285847 0.0253125 0.0221657 0.0192099 0.0164911 0.0140355 0.0118535 0.00994262 0.00829046 0.00687808 0.00568226 0.00467846 0.00384185 0.00314884 0.00257756 0.00210853 0.00172461 0.00141101 0.00115524 0.000946749 0.000776835 0.000638285 0.000525217 0.000432807 0.000357161 0.000295121 0.00024414 0.000202158 0.000167514 0.000138866 0.000115136 9.54458e-05 7.90865e-05 6.54789e-05 5.41529e-05 4.47235e-05 3.68727e-05 3.03408e-05 2.49099e-05 2.04007e-05 1.66626e-05 1.357e-05 1.10174e-05 8.91596e-06 7.1907e-06 5.77913e-06 4.62762e-06 3.6918e-06 2.93396e-06 2.32263e-06 1.83144e-06 1.43835e-06 1.12506e-06 8.764e-07 6.799e-07 5.25279e-07 4.04127e-07 3.0962e-07 2.3622e-07 1.79462e-07 1.35767e-07 1.02278e-07 7.6724e-08 5.73099e-08 4.26275e-08 3.15725e-08 2.32851e-08;
   (792781074) 7.69978e-15 1.25376e-14 2.03283e-14 3.28201e-14 5.27628e-14 8.44632e-14 1.34635e-13 2.13697e-13 3.37746e-13 5.31537e-13 8.32964e-13 1.29978e-12 2.0196e-12 3.12472e-12 4.81402e-12 7.38507e-12 1.12811e-11 1.71594e-11 2.59897e-11 3.91969e-11 5.88644e-11 8.80247e-11 1.31071e-10 1.9434e-10 2.86924e-10 4.21815e-10 6.17488e-10 9.00092e-10 1.30646e-09 1.88824e-09 2.7175e-09 3.89434e-09 5.55713e-09 7.89624e-09 1.11723e-08 1.57406e-08 2.20828e-08 3.08493e-08 4.29134e-08 5.94431e-08 8.19923e-08 1.12619e-07 1.54035e-07 2.09798e-07 2.84553e-07 3.84338e-07 5.16961e-07 6.92482e-07 9.23795e-07 1.22736e-06 1.62412e-06 2.14056e-06 2.8101e-06 3.67475e-06 4.78708e-06 6.21274e-06 8.03338e-06 1.03503e-05 1.32889e-05 1.7004e-05 2.16862e-05 2.75699e-05 3.49426e-05 4.41564e-05 5.56413e-05 6.99219e-05 8.76358e-05 0.000109557 0.00013662 0.000169951 0.000210902 0.000261086 0.000322415 0.000397145 0.000487917 0.000597795 0.000730306 0.000889462 0.00107978 0.00130629 0.00157449 0.00189032 0.00226005 0.00269022 0.00318741 0.00375808 0.00440834 0.00514364 0.00596846 0.006886 0.00789782 0.00900348 0.0102003 0.011483 0.0128435 0.0142709 0.0157515 0.0172687 0.0188034 0.0203343 0.0218384 0.0232918 0.0246699 0.0259487 0.0271051 0.0281182 0.0289695 0.0296437 0.0301295 0.0304194 0.0305106 0.0304046 0.0301069 0.0296273 0.0289788 0.0281777 0.0272422 0.0261925 0.0250493 0.023834 0.0225671 0.0212684 0.0199563 0.0186473 0.0173558 0.0160942 0.0148727 0.0136992 0.0125798 0.0115185 0.0105179 0.00957906 0.00870203 0.00788584 0.00712885 0.00642891 0.00578352 0.00518996 0.00464542 0.00414704 0.00369202 0.00327759 0.00290111 0.00256001 0.00225184 0.00197426 0.00172504 0.00150201 0.00130312 0.00112643 0.000970038 0.00083217 0.000711125 0.000605293 0.000513158 0.000433294 0.000364371 0.000305157 0.000254511 0.000211391 0.000174845 0.000144012 0.000118119 9.64745e-05 7.84639e-05 6.35463e-05 5.12473e-05 4.11538e-05 3.29084e-05 2.62034e-05 2.07761e-05 1.6403e-05 1.28954e-05 1.00948e-05 7.86894e-06 6.10779e-06 4.72068e-06 3.63308e-06 2.78418e-06 2.12457e-06 1.61434e-06 1.22144e-06 9.20231e-07 6.90357e-07 5.15705e-07 3.83602e-07 2.84125e-07 2.09551e-07 1.53894e-07 1.12539e-07 8.19475e-08;
   (35489133) 2.19993e-15 3.58217e-15 5.80811e-15 9.37723e-15 1.50751e-14 2.41323e-14 3.84671e-14 6.10566e-14 9.64989e-14 1.51868e-13 2.37989e-13 3.71366e-13 5.77029e-13 8.92783e-13 1.37544e-12 2.11002e-12 3.22317e-12 4.90269e-12 7.42564e-12 1.11991e-11 1.68184e-11 2.51499e-11 3.74488e-11 5.55253e-11 8.19778e-11 1.20518e-10 1.76424e-10 2.57166e-10 3.73269e-10 5.39481e-10 7.76407e-10 1.11261e-09 1.58767e-09 2.2559e-09 3.19178e-09 4.4967e-09 6.30823e-09 8.81203e-09 1.22572e-08 1.69768e-08 2.34141e-08 3.21548e-08 4.39714e-08 5.9875e-08 8.11844e-08 1.09611e-07 1.47364e-07 1.97278e-07 2.62982e-07 3.49083e-07 4.61419e-07 6.07323e-07 7.96001e-07 1.0389e-06 1.35025e-06 1.74757e-06 2.25236e-06 2.89095e-06 3.69527e-06 4.70411e-06 5.96401e-06 7.53102e-06 9.47209e-06 1.18667e-05 1.48096e-05 1.84128e-05 2.2808e-05 2.81513e-05 3.46254e-05 4.2446e-05 5.18657e-05 6.31823e-05 7.67441e-05 9.29647e-05 0.000112329 0.00013541 0.000162888 0.000195566 0.000234403 0.000280535 0.000335317 0.000400359 0.00047758 0.000569263 0.000678127 0.00080738 0.000960832 0.00114295 0.00135897 0.00161502 0.00191814 0.00227647 0.00269917 0.0031966 0.00378014 0.0044622 0.00525595 0.00617499 0.00723286 0.00844242 0.00981475 0.0113585 0.0130784 0.0149738 0.0170373 0.0192539 0.0215985 0.024037 0.0265249 0.0290078 0.0314228 0.0337015 0.0357718 0.0375627 0.0390075 0.0400497 0.0406451 0.0407664 0.0404047 0.0395708 0.0382948 0.036623 0.0346162 0.0323443 0.0298835 0.0273094 0.0246947 0.0221054 0.0195975 0.0172162 0.0149956 0.0129579 0.0111154 0.00947142 0.00802236 0.00675875 0.00566758 0.00473342 0.00393976 0.00326991 0.00270776 0.00223825 0.00184766 0.00152376 0.00125584 0.00103462 0.000852197 0.000701883 0.000578072 0.000476094 0.000392084 0.000322848 0.000265763 0.000218672 0.000179809 0.000147725 0.000121235 9.93627e-05 8.13092e-05 6.64157e-05 5.41406e-05 4.40346e-05 3.57265e-05 2.89083e-05 2.33247e-05 1.87625e-05 1.50445e-05 1.20232e-05 9.57551e-06 7.59878e-06 6.00801e-06 4.73244e-06 3.71343e-06 2.90244e-06 2.25958e-06 1.75205e-06 1.35303e-06 1.04061e-06 7.97032e-07 6.07945e-07 4.61788e-07 3.49302e-07 2.63111e-07 1.97353e-07 1.47406e-07 1.09635e-07 8.11982e-08 5.98827e-08 4.39757e-08 3.21574e-08 2.34154e-08;
   (123) 4.38654e-15 4.38654e-15 4.38654e-15 4.38654e-15 4.38654e-15 4.38654e-15 4.38654e-15 4.38654e-15 4.38654e-15 4.38654e-15 4.38654e-15 4.38654e-15 4.38654e-15 4.38654e-15 4.38654e-15 4.38654e-15 4.38654e-15 4.38654e-15 4.38654e-15 4.38654e-15 4.38654e-15 4.70974e-15 7.70162e-15 1.25406e-14 2.03332e-14 3.2828e-14 5.27755e-14 8.44836e-14 1.34667e-13 2.13749e-13 3.37828e-13 5.31667e-13 8.3317e-13 1.30011e-12 2.02011e-12 3.12553e-12 4.81529e-12 7.3871e-12 1.12844e-11 1.71646e-11 2.59982e-11 3.92108e-11 5.88877e-11 8.80642e-11 1.31139e-10 1.94457e-10 2.8713e-10 4.22182e-10 6.18143e-10 9.01268e-10 1.30858e-09 1.89205e-09 2.72434e-09 3.90661e-09 5.57903e-09 7.93512e-09 1.1241e-08 1.5861e-08 2.22926e-08 3.1212e-08 4.35361e-08 6.05037e-08 8.37843e-08 1.15622e-07 1.59027e-07 2.18028e-07 2.98008e-07 4.0615e-07 5.52024e-07 7.48365e-07 1.0121e-06 1.36572e-06 1.83904e-06 2.47154e-06 3.31544e-06 4.43964e-06 5.93484e-06 7.9201e-06 1.05512e-05 1.40309e-05 1.86226e-05 2.46657e-05 3.25959e-05 4.29684e-05 5.64857e-05 7.40305e-05 9.67024e-05 0.000125859 0.000163161 0.00021062 0.000270646 0.000346095 0.000440309 0.000557151 0.000701024 0.000876874 0.00109017 0.00134684 0.0016532 0.00201584 0.00244143 0.00293653 0.00350734 0.0041594 0.00489732 0.00572437 0.00664223 0.00765061 0.00874695 0.00992625 0.0111808 0.0125003 0.0138717 0.0152793 0.0167052 0.0181298 0.019532 0.02089 0.0221817 0.0233859 0.0244827 0.0254539 0.0262843 0.0269615 0.0274768 0.0278253 0.0280057 0.0280206 0.0278762 0.0275816 0.0271489 0.0265919 0.0259263 0.0251684 0.0243349 0.0234421 0.0225056 0.0215399 0.0205577 0.0195706 0.0185878 0.0176172 0.0166648 0.0157352 0.0148316 0.013956 0.0131097 0.0122932 0.0115064 0.0107492 0.0100211 0.00932159 0.00865043 0.00800726 0.00739191 0.00680434 0.00624459 0.00571274 0.00520893 0.00473326 0.00428579 0.00386646 0.00347512 0.00311147 0.00277503 0.0024652 0.0021812 0.00192212 0.00168689 0.00147437 0.00128328 0.00111232 0.0009601 0.00082524 0.000706341 0.000602026 0.000510951 0.00043182 0.0003634 0.000304526 0.000254108 0.000211138 0.00017469 0.00014392 0.000118067 9.64468e-05 7.84509e-05 6.35418e-05 5.12475e-05 4.11563e-05 3.29118e-05;
   (79278774) 4.27163e-14 6.66559e-14 1.0357e-13 1.60242e-13 2.46872e-13 3.78722e-13 5.78516e-13 8.79973e-13 1.33282e-12 2.01008e-12 3.01868e-12 4.51417e-12 6.72153e-12 9.96604e-12 1.47141e-11 2.16316e-11 3.16656e-11 4.61581e-11 6.69967e-11 9.683e-11 1.39356e-10 1.99702e-10 2.84967e-10 4.049e-10 5.72886e-10 8.07098e-10 1.13222e-09 1.58162e-09 2.20002e-09 3.04711e-09 4.20245e-09 5.77127e-09 7.89209e-09 1.07465e-08 1.45709e-08 1.96727e-08 2.64477e-08 3.54048e-08 4.71949e-08 6.26427e-08 8.27964e-08 1.08969e-07 1.42809e-07 1.86362e-07 2.42172e-07 3.13368e-07 4.03781e-07 5.18087e-07 6.61968e-07 8.4225e-07 1.06718e-06 1.34652e-06 1.69198e-06 2.11733e-06 2.63881e-06 3.27543e-06 4.04935e-06 4.98621e-06 6.11599e-06 7.47307e-06 9.09678e-06 1.10328e-05 1.33332e-05 1.60573e-05 1.92737e-05 2.30604e-05 2.75076e-05 3.27186e-05 3.88135e-05 4.59304e-05 5.42319e-05 6.39064e-05 7.5177e-05 8.83083e-05 0.000103612 0.000121467 0.00014232 0.000166714 0.000195307 0.000228896 0.000268457 0.000315167 0.000370478 0.000436176 0.00051442 0.000607892 0.000719845 0.000854283 0.00101612 0.00121126 0.00144692 0.00173185 0.00207641 0.00249304 0.00299628 0.00360297 0.0043323 0.00520571 0.00624655 0.00747899 0.00892771 0.0106153 0.0125618 0.0147785 0.0172698 0.0200248 0.0230188 0.0262068 0.0295228 0.0328806 0.0361748 0.0392851 0.0420831 0.0444389 0.0462353 0.0473716 0.0477794 0.0474253 0.0463168 0.0445013 0.0420622 0.0391139 0.0357883 0.0322267 0.028569 0.0249416 0.0214539 0.0181903 0.0152123 0.0125549 0.010233 0.00824184 0.00656472 0.0051747 0.00403989 0.00312599 0.00239927 0.00182792 0.00138344 0.00104085 0.000779035 0.000580429 0.000430788 0.000318684 0.000235124 0.000173107 0.00012724 9.34248e-05 6.85452e-05 5.02794e-05 3.6885e-05 2.70689e-05 1.98801e-05 1.46141e-05 1.07558e-05 7.92653e-06 5.8501e-06 4.32415e-06 3.20115e-06 2.3734e-06 1.76219e-06 1.31009e-06 9.75128e-07 7.26488e-07 5.41625e-07 4.03978e-07 3.01349e-07 2.24759e-07 1.67551e-07 1.24805e-07 9.28585e-08 6.89928e-08 5.11714e-08 3.78767e-08 2.79727e-08 2.06064e-08 1.51382e-08 1.10884e-08 8.0966e-09 5.89269e-09 4.27392e-09 3.08887e-09 2.22415e-09 1.59552e-09 1.14017e-09 8.11587e-10 5.75395e-10 4.06298e-10 2.85736e-10 2.00123e-10 1.39584e-10;
   (1) 4.27765e-16 6.9652e-16 1.12934e-15 1.82335e-15 2.93127e-15 4.69235e-15 7.47968e-15 1.18723e-14 1.8764e-14 2.95298e-14 4.6276e-14 7.22105e-14 1.12201e-13 1.73595e-13 2.67448e-13 4.10283e-13 6.26724e-13 9.53304e-13 1.44388e-12 2.17759e-12 3.27022e-12 4.89035e-12 7.28173e-12 1.07966e-11 1.59403e-11 2.34341e-11 3.43047e-11 5.00044e-11 7.25804e-11 1.04898e-10 1.50969e-10 2.16343e-10 3.08715e-10 4.38649e-10 6.20635e-10 8.74366e-10 1.2266e-09 1.71347e-09 2.38343e-09 3.3012e-09 4.55309e-09 6.25291e-09 8.55091e-09 1.16442e-08 1.57891e-08 2.13194e-08 2.86644e-08 3.83769e-08 5.11654e-08 6.7929e-08 8.98048e-08 1.18232e-07 1.55013e-07 2.02392e-07 2.63163e-07 3.40795e-07 4.39532e-07 5.6461e-07 7.22399e-07 9.2069e-07 1.16889e-06 1.47846e-06 1.86303e-06 2.33926e-06 2.92698e-06 3.65004e-06 4.53704e-06 5.62212e-06 6.94631e-06 8.55876e-06 1.05183e-05 1.28961e-05 1.57773e-05 1.92648e-05 2.34836e-05 2.8584e-05 3.47501e-05 4.22056e-05 5.12243e-05 6.21392e-05 7.53615e-05 9.13959e-05 0.000110857 0.000134517 0.000163306 0.000198387 0.000241179 0.000293433 0.0003573 0.000435409 0.000530981 0.000647919 0.000790975 0.000965828 0.00117933 0.00143956 0.00175608 0.00213992 0.0026038 0.00316206 0.00383055 0.0046265 0.00556774 0.00667265 0.00795865 0.00944086 0.0111316 0.0130371 0.0151568 0.0174808 0.0199889 0.0226469 0.0254101 0.0282195 0.0310054 0.0336877 0.036184 0.0384069 0.0402764 0.0417188 0.0426768 0.0431098 0.0429995 0.0423492 0.041184 0.0395502 0.0375099 0.0351384 0.0325187 0.0297368 0.0268747 0.0240121 0.0212145 0.0185403 0.016033 0.0137232 0.0116305 0.00976356 0.00812151 0.00669684 0.00547594 0.00444203 0.0035761 0.00285837 0.00226916 0.00178999 0.00140355 0.00109438 0.000848895 0.00065532 0.000503645 0.000385517 0.000294023 0.00022351 0.000169422 0.000128098 9.66458e-05 7.27868e-05 5.47417e-05 4.11237e-05 3.08688e-05 2.31599e-05 1.73714e-05 1.30292e-05 9.77391e-06 7.33432e-06 5.50573e-06 4.13485e-06 3.1067e-06 2.33521e-06 1.75585e-06 1.32053e-06 9.93226e-07 7.46918e-07 5.61525e-07 4.21913e-07 3.16766e-07 2.37575e-07 1.77956e-07 1.3309e-07 9.93636e-08 7.40316e-08 5.50359e-08 4.08142e-08 3.01869e-08 2.22638e-08 1.63708e-08 1.19997e-08 8.76643e-09 6.38263e-09 4.63047e-09;
   (80087508) 2.92369e-15 2.92369e-15 2.92369e-15 2.92369e-15 2.92369e-15 2.92369e-15 2.92369e-15 2.92369e-15 2.92369e-15 3.1391e-15 5.13323e-15 8.35847e-15 1.35523e-14 2.18803e-14 3.51755e-14 5.63093e-14 8.97573e-14 1.42466e-13 2.25166e-13 3.54361e-13 5.55315e-13 8.66527e-13 1.34641e-12 2.08317e-12 3.20937e-12 4.92343e-12 7.5208e-12 1.14397e-11 1.73266e-11 2.61315e-11 3.92434e-11 5.86838e-11 8.73818e-11 1.29562e-10 1.91285e-10 2.81215e-10 4.11667e-10 6.00076e-10 8.71002e-10 1.25887e-09 1.81175e-09 2.59637e-09 3.70501e-09 5.26463e-09 7.44905e-09 1.04952e-08 1.47245e-08 2.05709e-08 2.86173e-08 3.96434e-08 5.46871e-08 7.51231e-08 1.02765e-07 1.39994e-07 1.89919e-07 2.56589e-07 3.45244e-07 4.62649e-07 6.17488e-07 8.20874e-07 1.08698e-06 1.43379e-06 1.88408e-06 2.46659e-06 3.2175e-06 4.18218e-06 5.41747e-06 6.99439e-06 9.00164e-06 1.15496e-05 1.47757e-05 1.88509e-05 2.39874e-05 3.04489e-05 3.85622e-05 4.87329e-05 6.14627e-05 7.73725e-05 9.72298e-05 0.000121979 0.000152783 0.000191066 0.000238567 0.000297399 0.000370116 0.000459782 0.000570055 0.000705249 0.000870416 0.00107139 0.00131486 0.0016083 0.00196005 0.00237908 0.00287499 0.0034576 0.00413676 0.00492189 0.00582138 0.00684217 0.00798893 0.00926352 0.0106642 0.0121853 0.0138163 0.0155419 0.017342 0.0191912 0.0210601 0.0229157 0.0247222 0.0264426 0.0280399 0.0294785 0.0307264 0.0317555 0.0325434 0.033075 0.0333413 0.0333415 0.0330816 0.0325743 0.0318386 0.0308977 0.0297792 0.0285123 0.0271278 0.0256564 0.0241275 0.0225687 0.0210049 0.0194578 0.0179462 0.0164853 0.0150868 0.0137594 0.0125093 0.01134 0.0102526 0.00924695 0.00832121 0.00747244 0.00669717 0.00599114 0.0053499 0.00476887 0.00424346 0.00376919 0.00334176 0.00295711 0.00261147 0.0023013 0.00202339 0.00177477 0.00155273 0.00135482 0.00117879 0.00102258 0.000884298 0.000762245 0.000654824 0.000560587 0.000478196 0.000406417 0.000344116 0.000290251 0.000243865 0.000204083 0.000170108 0.000141217 0.000116755 9.61344e-05 7.88283e-05 6.43694e-05 5.23433e-05 4.23858e-05 3.41785e-05 2.74445e-05 2.19442e-05 1.74723e-05 1.38527e-05 1.09366e-05 8.59772e-06 6.73036e-06 5.24624e-06 4.07204e-06 3.14722e-06 2.42212e-06 1.85616e-06 1.41641e-06 1.07625e-06;
   (6003265) 1.09637e-15 1.09637e-15 1.17715e-15 1.92494e-15 3.1344e-15 5.0821e-15 8.20508e-15 1.31908e-14 2.11159e-14 3.36587e-14 5.34245e-14 8.44372e-14 1.32885e-13 2.08241e-13 3.24945e-13 5.049e-13 7.81185e-13 1.20351e-12 1.84627e-12 2.82027e-12 4.28985e-12 6.49743e-12 9.7993e-12 1.47161e-11 2.20062e-11 3.27677e-11 4.85846e-11 7.17313e-11 1.05454e-10 1.54371e-10 2.25021e-10 3.26611e-10 4.72052e-10 6.79365e-10 9.7356e-10 1.38924e-09 1.97398e-09 2.79292e-09 3.93485e-09 5.52017e-09 7.71131e-09 1.07266e-08 1.48577e-08 2.04925e-08 2.81451e-08 3.8492e-08 5.24206e-08 7.10899e-08 9.60032e-08 1.29105e-07 1.72898e-07 2.30587e-07 3.06257e-07 4.05096e-07 5.33665e-07 7.00229e-07 9.15133e-07 1.19135e-06 1.54501e-06 1.99616e-06 2.56968e-06 3.2963e-06 4.21398e-06 5.36951e-06 6.82083e-06 8.63897e-06 1.09118e-05 1.37482e-05 1.72819e-05 2.16797e-05 2.71478e-05 3.39436e-05 4.23873e-05 5.28796e-05 6.59222e-05 8.21439e-05 0.000102334 0.000127487 0.000158849 0.000197987 0.000246862 0.000307939 0.000384281 0.000479696 0.000598903 0.000747675 0.000933082 0.00116364 0.0014495 0.00180268 0.0022371 0.00276865 0.00341498 0.00419535 0.00512994 0.00623899 0.00754174 0.00905473 0.0107901 0.0127534 0.0149414 0.0173401 0.0199226 0.0226489 0.0254641 0.0283009 0.031081 0.0337186 0.036125 0.0382142 0.0399079 0.0411422 0.0418704 0.042068 0.0417335 0.0408875 0.0395726 0.0378479 0.0357853 0.0334645 0.0309671 0.0283727 0.0257542 0.0231748 0.0206874 0.0183324 0.0161387 0.0141242 0.012298 0.0106605 0.00920653 0.00792669 0.00680818 0.00583678 0.00499747 0.00427527 0.00365587 0.00312595 0.00267332 0.00228706 0.00195757 0.00167644 0.00143643 0.00123133 0.00105585 0.000905512 0.000776529 0.000665717 0.000570392 0.000488311 0.000417578 0.00035659 0.000304004 0.000258671 0.000219616 0.000186007 0.000157123 0.000132347 0.000111139 9.30324e-05 7.76134e-05 6.45248e-05 5.345e-05 4.41126e-05 3.62683e-05 2.97037e-05 2.42315e-05 1.96887e-05 1.5933e-05 1.28413e-05 1.03069e-05 8.23861e-06 6.55791e-06 5.19839e-06 4.1034e-06 3.22545e-06 2.52468e-06 1.9678e-06 1.52728e-06 1.18036e-06 9.0839e-07 6.96107e-07 5.31179e-07 4.03606e-07 3.05371e-07 2.30064e-07 1.72592e-07 1.28928e-07 9.59018e-08 7.1032e-08 5.2388e-08;
   (1094952099) 1.46183e-15 1.46183e-15 1.46183e-15 1.46183e-15 1.56954e-15 2.56659e-15 4.1792e-15 6.77613e-15 1.09401e-14 1.75877e-14 2.81545e-14 4.48783e-14 7.12327e-14 1.12583e-13 1.77179e-13 2.77655e-13 4.3326e-13 6.732e-13 1.04158e-12 1.60468e-12 2.46169e-12 3.76037e-12 5.7198e-12 8.66325e-12 1.30657e-11 1.96215e-11 2.93415e-11 4.36904e-11 6.47795e-11 9.56417e-11 1.40605e-10 2.05828e-10 3.00029e-10 4.35483e-10 6.29405e-10 9.05819e-10 1.29808e-09 1.85231e-09 2.63196e-09 3.72388e-09 5.24643e-09 7.36014e-09 1.02816e-08 1.43017e-08 1.98093e-08 2.73217e-08 3.75235e-08 5.13165e-08 6.98838e-08 9.4766e-08 1.27967e-07 1.72074e-07 2.30413e-07 3.0724e-07 4.07979e-07 5.395e-07 7.10479e-07 9.31798e-07 1.2171e-06 1.58332e-06 2.05153e-06 2.64766e-06 3.40367e-06 4.35876e-06 5.56076e-06 7.06795e-06 8.95102e-06 1.12957e-05 1.42055e-05 1.78051e-05 2.22449e-05 2.77051e-05 3.44022e-05 4.25957e-05 5.25958e-05 6.47745e-05 7.9574e-05 9.75257e-05 0.000119258 0.000145523 0.000177213 0.000215387 0.000261299 0.00031643 0.000382526 0.000461637 0.000556162 0.000668899 0.000803104 0.000962528 0.00115148 0.0013749 0.00163838 0.00194819 0.00231137 0.00273562 0.00322936 0.00380158 0.00446174 0.00521957 0.00608463 0.00706609 0.00817208 0.00940907 0.0107813 0.0122893 0.0139303 0.0156963 0.0175731 0.0195411 0.0215738 0.0236383 0.0256958 0.0277028 0.0296122 0.0313755 0.0329451 0.0342762 0.0353299 0.0360747 0.0364891 0.0365613 0.0362916 0.0356904 0.0347791 0.0335873 0.0321518 0.0305141 0.0287188 0.0268106 0.0248331 0.0228277 0.0208311 0.0188752 0.016987 0.015188 0.0134941 0.0119168 0.0104626 0.00913444 0.00793201 0.0068522 0.00589005 0.00503882 0.00429092 0.00363804 0.00307163 0.00258307 0.00216401 0.00180644 0.00150284 0.00124627 0.00103041 0.000849542 0.000698592 0.000573053 0.000468995 0.000383015 0.000312169 0.000253946 0.00020621 0.000167157 0.00013527 0.000109282 8.81373e-05 7.09607e-05 5.70288e-05 4.57463e-05 3.6623e-05 2.92579e-05 2.33215e-05 1.85455e-05 1.47103e-05 1.16371e-05 9.17993e-06 7.22015e-06 5.66111e-06 4.42437e-06 3.4462e-06 2.675e-06 2.06895e-06 1.59435e-06 1.22401e-06 9.36095e-07 7.13121e-07 5.4111e-07 4.08956e-07 3.07827e-07 2.30762e-07 1.7228e-07 1.28088e-07;
   (1026295355) 4.38549e-15 4.38549e-15 4.70861e-15 7.69978e-15 1.25376e-14 2.03283e-14 3.28201e-14 5.27629e-14 8.44633e-14 1.34635e-13 2.13697e-13 3.37747e-13 5.31537e-13 8.32965e-13 1.29978e-12 2.0196e-12 3.12472e-12 4.81402e-12 7.38508e-12 1.12811e-11 1.71594e-11 2.59897e-11 3.91969e-11 5.88644e-11 8.80246e-11 1.31071e-10 1.94339e-10 2.86922e-10 4.21812e-10 6.17483e-10 9.00081e-10 1.30644e-09 1.8882e-09 2.71741e-09 3.89417e-09 5.55681e-09 7.89563e-09 1.11712e-08 1.57384e-08 2.20788e-08 3.08418e-08 4.28998e-08 5.94186e-08 8.19482e-08 1.1254e-07 1.53896e-07 2.09556e-07 2.84133e-07 3.83616e-07 5.15732e-07 6.90404e-07 9.20314e-07 1.22158e-06 1.6146e-06 2.12501e-06 2.78494e-06 3.63438e-06 4.72286e-06 6.11145e-06 7.87499e-06 1.01048e-05 1.29116e-05 1.64292e-05 2.08182e-05 2.62703e-05 3.30137e-05 4.13184e-05 5.1502e-05 6.39373e-05 7.90588e-05 9.73718e-05 0.000119461 0.000146001 0.000177768 0.000215649 0.000260659 0.000313957 0.000376857 0.000450852 0.000537634 0.00063911 0.000757434 0.000895022 0.00105458 0.00123914 0.00145203 0.00169696 0.00197797 0.00229943 0.00266605 0.00308279 0.00355482 0.0040874 0.00468577 0.00535496 0.00609962 0.00692374 0.00783043 0.00882157 0.00989758 0.011057 0.0122965 0.01361 0.0149893 0.0164232 0.0178979 0.0193971 0.0209019 0.0223911 0.0238421 0.0252311 0.0265335 0.0277253 0.0287834 0.0296863 0.0304153 0.0309547 0.0312928 0.031422 0.0313396 0.0310471 0.030551 0.029862 0.0289948 0.0279674 0.0268007 0.0255175 0.0241419 0.0226983 0.0212109 0.0197028 0.0181956 0.0167089 0.0152599 0.013863 0.01253 0.0112701 0.0100897 0.00899285 0.00798146 0.0070555 0.00621335 0.00545211 0.00476791 0.00415615 0.00361179 0.00312954 0.00270404 0.00233 0.00200233 0.00171619 0.00146707 0.00125078 0.00106352 0.000901817 0.000762551 0.000642929 0.000540458 0.000452922 0.000378359 0.000315038 0.00026143 0.000216193 0.000178149 0.000146266 0.000119643 9.74957e-05 7.91425e-05 6.39933e-05 5.15392e-05 4.13428e-05 3.30296e-05 2.62806e-05 2.08247e-05 1.64334e-05 1.29143e-05 1.01064e-05 7.87601e-06 6.11207e-06 4.72324e-06 3.6346e-06 2.78508e-06 2.12509e-06 1.61464e-06 1.22161e-06 9.2033e-07 6.90413e-07 5.15737e-07 3.83619e-07 2.84135e-07 2.09557e-07;
   (2) 1.46188e-15 1.46188e-15 1.46188e-15 1.46188e-15 1.46188e-15 1.46188e-15 1.46188e-15 1.46188e-15 1.46188e-15 1.46188e-15 1.46188e-15 1.46188e-15 1.46188e-15 1.46188e-15 1.56959e-15 2.56669e-15 4.17937e-15 6.77633e-15 1.09405e-14 1.75882e-14 2.81555e-14 4.488e-14 7.12354e-14 1.12587e-13 1.77186e-13 2.77667e-13 4.33279e-13 6.7323e-13 1.04162e-12 1.60476e-12 2.46183e-12 3.76062e-12 5.72018e-12 8.66393e-12 1.3067e-11 1.96238e-11 2.93459e-11 4.36983e-11 6.47949e-11 9.56686e-11 1.40657e-10 2.05926e-10 3.0021e-10 4.35819e-10 6.30025e-10 9.06968e-10 1.30017e-09 1.85611e-09 2.63879e-09 3.73608e-09 5.26806e-09 7.3982e-09 1.03481e-08 1.44167e-08 2.00071e-08 2.76586e-08 3.80929e-08 5.22706e-08 7.14699e-08 9.73837e-08 1.32249e-07 1.79026e-07 2.4161e-07 3.25134e-07 4.36352e-07 5.84146e-07 7.80199e-07 1.03987e-06 1.38338e-06 1.8373e-06 2.43669e-06 3.22768e-06 4.27117e-06 5.64739e-06 7.46233e-06 9.85589e-06 1.30125e-05 1.71756e-05 2.26659e-05 2.99055e-05 3.94486e-05 5.20211e-05 6.85716e-05 9.03319e-05 0.0001189 0.000156331 0.000205254 0.000269002 0.000351774 0.000458795 0.000596501 0.000772708 0.000996775 0.0012797 0.00163423 0.00207465 0.00261671 0.00327718 0.0040732 0.00502137 0.00613676 0.0074315 0.00891328 0.0105839 0.0124376 0.0144603 0.0166281 0.0189078 0.0212565 0.0236238 0.0259528 0.0281834 0.0302548 0.032109 0.033694 0.0349672 0.0358966 0.0364628 0.0366604 0.0364967 0.0359903 0.0351705 0.0340745 0.0327446 0.0312262 0.0295651 0.0278058 0.0259895 0.0241539 0.0223309 0.0205473 0.018825 0.0171801 0.0156245 0.014166 0.0128086 0.0115534 0.0103995 0.00934374 0.00838194 0.00750906 0.0067193 0.00600651 0.00536473 0.00478778 0.00426984 0.00380539 0.00338915 0.00301631 0.0026824 0.00238341 0.00211566 0.00187588 0.00166114 0.00146883 0.00129665 0.00114254 0.0010047 0.000881502 0.00077154 0.00067352 0.000586311 0.000508883 0.000440301 0.000379718 0.000326361 0.000279516 0.000238529 0.000202797 0.000171764 0.000144917 0.000121788 0.000101942 8.49851e-05 7.0562e-05 5.83467e-05 4.80467e-05 3.94008e-05 3.21762e-05 2.61662e-05 2.11896e-05 1.70873e-05 1.3721e-05 1.09714e-05 8.73575e-06 6.9262e-06 5.46819e-06 4.29885e-06 3.3652e-06 2.62315e-06 2.03605e-06;
   (3) 8.54792e-14 1.35098e-13 2.12614e-13 3.33186e-13 5.19912e-13 8.0784e-13 1.24989e-12 1.9256e-12 2.95402e-12 4.51244e-12 6.86376e-12 1.03959e-11 1.56787e-11 2.35458e-11 3.52098e-11 5.24284e-11 7.77354e-11 1.14769e-10 1.68725e-10 2.46993e-10 3.60032e-10 5.22576e-10 7.55275e-10 1.08697e-09 1.55767e-09 2.22272e-09 3.15826e-09 4.4685e-09 6.29542e-09 8.83153e-09 1.23368e-08 1.71601e-08 2.37678e-08 3.278e-08 4.50173e-08 6.15608e-08 8.38266e-08 1.13661e-07 1.53459e-07 2.06315e-07 2.76201e-07 3.68193e-07 4.88749e-07 6.46032e-07 8.5033e-07 1.11451e-06 1.45463e-06 1.89059e-06 2.44691e-06 3.15374e-06 4.04783e-06 5.17401e-06 6.58624e-06 8.34983e-06 1.05426e-05 1.32579e-05 1.66064e-05 2.0719e-05 2.575e-05 3.18809e-05 3.9324e-05 4.83273e-05 5.91796e-05 7.22165e-05 8.78263e-05 0.000106462 0.000128644 0.000154976 0.000186155 0.000222989 0.000266409 0.000317492 0.000377482 0.000447819 0.000530167 0.000626442 0.000738859 0.000869978 0.00102272 0.00120045 0.00140701 0.00164677 0.00192465 0.00224619 0.00261755 0.0030455 0.0035374 0.00410117 0.00474507 0.00547761 0.00630729 0.0072422 0.00828969 0.00945569 0.0107444 0.0121575 0.0136931 0.0153457 0.0171049 0.0189554 0.0208765 0.0228408 0.0248168 0.0267669 0.0286502 0.0304223 0.0320388 0.033455 0.0346302 0.0355278 0.0361195 0.0363844 0.0363126 0.0359043 0.0351704 0.0341318 0.0328183 0.0312669 0.0295202 0.0276234 0.0256234 0.0235653 0.0214921 0.0194426 0.0174503 0.0155427 0.0137419 0.0120637 0.0105182 0.00911069 0.00784245 0.0067106 0.00570968 0.00483212 0.00406888 0.00341005 0.00284533 0.00236444 0.00195744 0.0016149 0.00132811 0.00108914 0.000890851 0.000726969 0.000591996 0.000481172 0.000390422 0.000316288 0.000255852 0.000206675 0.00016672 0.000134305 0.000108041 8.67858e-05 6.96036e-05 5.57305e-05 4.45422e-05 3.55315e-05 2.82845e-05 2.2465e-05 1.77999e-05 1.40674e-05 1.10874e-05 8.71341e-06 6.82711e-06 5.33221e-06 4.15094e-06 3.22036e-06 2.48963e-06 1.91774e-06 1.47177e-06 1.12522e-06 8.56975e-07 6.50119e-07 4.91242e-07 3.69701e-07 2.77105e-07 2.06853e-07 1.53777e-07 1.13846e-07 8.39346e-08 6.16232e-08 4.50528e-08 3.28e-08 2.3779e-08 1.71664e-08 1.23402e-08 8.83344e-09 6.2964e-09 4.46906e-09 3.15855e-09;
   (1118574845) 4.38554e-15 4.38554e-15 4.38554e-15 4.38554e-15 4.38554e-15 4.38554e-15 4.38554e-15 4.38554e-15 4.38554e-15 4.38554e-15 4.70867e-15 7.69987e-15 1.25378e-14 2.03286e-14 3.28205e-14 5.27635e-14 8.44643e-14 1.34637e-13 2.137e-13 3.37751e-13 5.31543e-13 8.32975e-13 1.2998e-12 2.01963e-12 3.12476e-12 4.81408e-12 7.38518e-12 1.12813e-11 1.71596e-11 2.59901e-11 3.91976e-11 5.88656e-11 8.80269e-11 1.31075e-10 1.94346e-10 2.86936e-10 4.21837e-10 6.17529e-10 9.00168e-10 1.3066e-09 1.8885e-09 2.71799e-09 3.89525e-09 5.55882e-09 7.89934e-09 1.1178e-08 1.57508e-08 2.21012e-08 3.0882e-08 4.29713e-08 5.95447e-08 8.21691e-08 1.12924e-07 1.54557e-07 2.10684e-07 2.86044e-07 3.86824e-07 5.21073e-07 6.99222e-07 9.34749e-07 1.24501e-06 1.6523e-06 2.18518e-06 2.88012e-06 3.78368e-06 4.95505e-06 6.46946e-06 8.4223e-06 1.09343e-05 1.41582e-05 1.82863e-05 2.35611e-05 3.02869e-05 3.88449e-05 4.9711e-05 6.34771e-05 8.08764e-05 0.000102813 0.000130393 0.000164968 0.000208168 0.000261953 0.000328655 0.000411025 0.000512273 0.000636108 0.00078676 0.000968995 0.0011881 0.00144987 0.0017605 0.00212652 0.00255466 0.00305164 0.00362395 0.00427759 0.00501778 0.00584862 0.00677273 0.00779095 0.00890196 0.010102 0.0113848 0.0127411 0.0141589 0.0156234 0.0171171 0.0186205 0.0201119 0.0215684 0.0229666 0.0242829 0.0254947 0.026581 0.0275226 0.0283039 0.028912 0.0293385 0.0295786 0.0296318 0.0295019 0.0291961 0.0287254 0.0281035 0.0273466 0.0264725 0.0255 0.0244484 0.0233365 0.0221826 0.0210036 0.0198149 0.0186303 0.0174613 0.0163177 0.0152074 0.0141362 0.0131086 0.0121276 0.0111948 0.010311 0.00947619 0.00868963 0.00795029 0.00725684 0.00660775 0.00600142 0.00543622 0.00491052 0.00442272 0.00397125 0.00355455 0.0031711 0.00281937 0.00249786 0.00220502 0.00193932 0.00169919 0.00148306 0.00128937 0.00111652 0.000962976 0.00082718 0.00070763 0.000602868 0.00051149 0.000432157 0.000363604 0.000304643 0.000254171 0.000211167 0.000174699 0.000143919 0.00011806 9.64368e-05 7.84404e-05 6.35318e-05 5.12385e-05 4.11485e-05 3.29052e-05 2.62016e-05 2.07751e-05 1.64024e-05 1.28951e-05 1.00947e-05 7.86889e-06 6.10778e-06 4.72069e-06 3.6331e-06 2.7842e-06 2.12459e-06;
   (41719150) 3.54357e-13 5.55309e-13 8.6652e-13 1.3464e-12 2.08315e-12 3.20934e-12 4.92338e-12 7.52073e-12 1.14396e-11 1.73265e-11 2.61312e-11 3.92429e-11 5.8683e-11 8.73807e-11 1.29559e-10 1.91281e-10 2.81208e-10 4.11655e-10 6.00053e-10 8.7096e-10 1.25879e-09 1.81161e-09 2.59611e-09 3.70453e-09 5.26375e-09 7.44747e-09 1.04923e-08 1.47191e-08 2.05611e-08 2.85997e-08 3.96121e-08 5.46317e-08 7.5026e-08 1.02596e-07 1.39701e-07 1.89418e-07 2.55736e-07 3.43806e-07 4.60243e-07 6.13496e-07 8.14304e-07 1.07626e-06 1.41643e-06 1.85621e-06 2.42222e-06 3.14741e-06 4.07235e-06 5.2468e-06 6.73133e-06 8.5993e-06 1.09393e-05 1.38572e-05 1.74796e-05 2.19562e-05 2.74637e-05 3.42091e-05 4.24339e-05 5.24184e-05 6.44855e-05 7.90062e-05 9.64048e-05 0.000117162 0.000141825 0.000171007 0.000205401 0.000245781 0.000293011 0.00034806 0.000412002 0.000486037 0.000571502 0.000669887 0.000782856 0.00091227 0.00106021 0.00122901 0.00142128 0.00163994 0.00188827 0.00216992 0.00248894 0.00284981 0.00325741 0.00371707 0.00423444 0.00481553 0.00546652 0.00619363 0.00700291 0.0079 0.00888984 0.00997624 0.0111614 0.0124455 0.0138264 0.0152987 0.016854 0.0184795 0.0201589 0.0218715 0.0235927 0.025294 0.0269441 0.028509 0.0299539 0.0312437 0.0323452 0.0332275 0.0338648 0.0342363 0.0343285 0.0341351 0.0336579 0.0329068 0.0318993 0.0306598 0.0292184 0.0276096 0.0258709 0.024041 0.0221582 0.0202592 0.0183777 0.0165436 0.0147821 0.0131135 0.0115531 0.0101113 0.00879384 0.00760259 0.00653597 0.00558961 0.00475705 0.00403035 0.00340062 0.00285854 0.0023947 0.002 0.00166575 0.00138393 0.00114723 0.000949093 0.000783718 0.000646045 0.000531677 0.000436852 0.000358364 0.000293495 0.000239958 0.000195834 0.000159516 0.000129667 0.000105171 8.5102e-05 6.86894e-05 5.52935e-05 4.4384e-05 3.55207e-05 2.83386e-05 2.25349e-05 1.78592e-05 1.41042e-05 1.10985e-05 8.70112e-06 6.79586e-06 5.28739e-06 4.09766e-06 3.16304e-06 2.43181e-06 1.86204e-06 1.41994e-06 1.07835e-06 8.15551e-07 6.14225e-07 4.60667e-07 3.44052e-07 2.55876e-07 1.89497e-07 1.39746e-07 1.02621e-07 7.50398e-08 5.46393e-08 3.96162e-08 2.8602e-08 2.05623e-08 1.47198e-08 1.04926e-08 7.44762e-09 5.26384e-09 3.70458e-09 2.59614e-09;
   (1015479777) 9.7456e-16 9.7456e-16 9.7456e-16 9.7456e-16 9.7456e-16 9.7456e-16 9.7456e-16 9.7456e-16 9.7456e-16 9.7456e-16 9.7456e-16 1.04638e-15 1.71108e-15 2.78618e-15 4.51751e-15 7.29348e-15 1.17252e-14 1.87699e-14 2.99193e-14 4.74889e-14 7.5056e-14 1.18121e-13 1.85107e-13 2.88845e-13 4.48811e-13 6.94401e-13 1.06981e-12 1.64116e-12 2.50698e-12 3.81333e-12 5.77574e-12 8.71081e-12 1.30818e-11 1.95624e-11 2.91295e-11 4.31914e-11 6.377e-11 9.37542e-11 1.37252e-10 2.00081e-10 2.90441e-10 4.19825e-10 6.04288e-10 8.66147e-10 1.23627e-09 1.75718e-09 2.48717e-09 3.50586e-09 4.92143e-09 6.88026e-09 9.57966e-09 1.32849e-08 1.83502e-08 2.52476e-08 3.46044e-08 4.72501e-08 6.42813e-08 8.71393e-08 1.17718e-07 1.585e-07 2.12736e-07 2.84673e-07 3.79867e-07 5.05574e-07 6.71266e-07 8.89343e-07 1.17602e-06 1.55254e-06 2.0468e-06 2.69547e-06 3.5468e-06 4.66449e-06 6.13267e-06 8.06277e-06 1.06022e-05 1.39469e-05 1.83563e-05 2.41751e-05 3.18603e-05 4.20173e-05 5.54454e-05 7.31995e-05 9.66654e-05 0.000127656 0.000168525 0.000222318 0.000292941 0.000385363 0.000505825 0.0006621 0.000863738 0.00112225 0.00145137 0.00186701 0.00238734 0.00303245 0.00382381 0.00478348 0.00593287 0.00729108 0.00887312 0.0106877 0.0127344 0.0150028 0.0174695 0.0200973 0.022835 0.0256195 0.0283754 0.0310221 0.033475 0.0356523 0.0374807 0.0388978 0.0398595 0.0403395 0.0403334 0.0398564 0.0389414 0.0376367 0.036002 0.0341031 0.0320088 0.0297864 0.0274989 0.0252022 0.022944 0.0207628 0.0186884 0.0167415 0.0149358 0.0132775 0.0117683 0.0104049 0.00918141 0.00808952 0.0071194 0.00626098 0.00550349 0.0048367 0.00425068 0.00373616 0.00328469 0.00288857 0.0025409 0.00223554 0.0019671 0.00173088 0.00152275 0.00133916 0.00117702 0.00103369 0.000906882 0.000794625 0.000695217 0.000607181 0.000529255 0.000460314 0.000399393 0.000345635 0.000298278 0.00025665 0.000220141 0.000188211 0.000160367 0.000136163 0.000115195 9.70941e-05 8.15291e-05 6.81944e-05 5.68173e-05 4.7151e-05 3.89714e-05 3.20804e-05 2.62997e-05 2.14723e-05 1.7458e-05 1.41354e-05 1.13972e-05 9.15097e-06 7.31656e-06 5.82523e-06 4.61832e-06 3.64598e-06 2.86619e-06 2.24363e-06 1.74885e-06 1.35741e-06 1.04912e-06 8.07398e-07 6.18741e-07;
