network "C:\Users\sorcar\github\Cardiac\db\memory\recognition\RecogniserBN.bif" {
// written by aGrUM 0.14.1
}

variable I {
   type discrete[3] {0, 1026295355, 1000468354};
}

variable F {
   type discrete[3] {0, 1026295355, 1000468354};
}

variable G {
   type discrete[2] {Female, Male};
}

variable A {
   type discrete[76] {0, 1, 2, 3, 4, 5, 6, 7, 8, 9, 10, 11, 12, 13, 14, 15, 16, 17, 18, 19, 20, 21, 22, 23, 24, 25, 26, 27, 28, 29, 30, 31, 32, 33, 34, 35, 36, 37, 38, 39, 40, 41, 42, 43, 44, 45, 46, 47, 48, 49, 50, 51, 52, 53, 54, 55, 56, 57, 58, 59, 60, 61, 62, 63, 64, 65, 66, 67, 68, 69, 70, 71, 72, 73, 74, 75};
}

variable H {
   type discrete[191] {50, 51, 52, 53, 54, 55, 56, 57, 58, 59, 60, 61, 62, 63, 64, 65, 66, 67, 68, 69, 70, 71, 72, 73, 74, 75, 76, 77, 78, 79, 80, 81, 82, 83, 84, 85, 86, 87, 88, 89, 90, 91, 92, 93, 94, 95, 96, 97, 98, 99, 100, 101, 102, 103, 104, 105, 106, 107, 108, 109, 110, 111, 112, 113, 114, 115, 116, 117, 118, 119, 120, 121, 122, 123, 124, 125, 126, 127, 128, 129, 130, 131, 132, 133, 134, 135, 136, 137, 138, 139, 140, 141, 142, 143, 144, 145, 146, 147, 148, 149, 150, 151, 152, 153, 154, 155, 156, 157, 158, 159, 160, 161, 162, 163, 164, 165, 166, 167, 168, 169, 170, 171, 172, 173, 174, 175, 176, 177, 178, 179, 180, 181, 182, 183, 184, 185, 186, 187, 188, 189, 190, 191, 192, 193, 194, 195, 196, 197, 198, 199, 200, 201, 202, 203, 204, 205, 206, 207, 208, 209, 210, 211, 212, 213, 214, 215, 216, 217, 218, 219, 220, 221, 222, 223, 224, 225, 226, 227, 228, 229, 230, 231, 232, 233, 234, 235, 236, 237, 238, 239, 240};
}

variable T {
   type discrete[336] {0, 1, 2, 3, 4, 5, 6, 7, 8, 9, 10, 11, 12, 13, 14, 15, 16, 17, 18, 19, 20, 21, 22, 23, 24, 25, 26, 27, 28, 29, 30, 31, 32, 33, 34, 35, 36, 37, 38, 39, 40, 41, 42, 43, 44, 45, 46, 47, 48, 49, 50, 51, 52, 53, 54, 55, 56, 57, 58, 59, 60, 61, 62, 63, 64, 65, 66, 67, 68, 69, 70, 71, 72, 73, 74, 75, 76, 77, 78, 79, 80, 81, 82, 83, 84, 85, 86, 87, 88, 89, 90, 91, 92, 93, 94, 95, 96, 97, 98, 99, 100, 101, 102, 103, 104, 105, 106, 107, 108, 109, 110, 111, 112, 113, 114, 115, 116, 117, 118, 119, 120, 121, 122, 123, 124, 125, 126, 127, 128, 129, 130, 131, 132, 133, 134, 135, 136, 137, 138, 139, 140, 141, 142, 143, 144, 145, 146, 147, 148, 149, 150, 151, 152, 153, 154, 155, 156, 157, 158, 159, 160, 161, 162, 163, 164, 165, 166, 167, 168, 169, 170, 171, 172, 173, 174, 175, 176, 177, 178, 179, 180, 181, 182, 183, 184, 185, 186, 187, 188, 189, 190, 191, 192, 193, 194, 195, 196, 197, 198, 199, 200, 201, 202, 203, 204, 205, 206, 207, 208, 209, 210, 211, 212, 213, 214, 215, 216, 217, 218, 219, 220, 221, 222, 223, 224, 225, 226, 227, 228, 229, 230, 231, 232, 233, 234, 235, 236, 237, 238, 239, 240, 241, 242, 243, 244, 245, 246, 247, 248, 249, 250, 251, 252, 253, 254, 255, 256, 257, 258, 259, 260, 261, 262, 263, 264, 265, 266, 267, 268, 269, 270, 271, 272, 273, 274, 275, 276, 277, 278, 279, 280, 281, 282, 283, 284, 285, 286, 287, 288, 289, 290, 291, 292, 293, 294, 295, 296, 297, 298, 299, 300, 301, 302, 303, 304, 305, 306, 307, 308, 309, 310, 311, 312, 313, 314, 315, 316, 317, 318, 319, 320, 321, 322, 323, 324, 325, 326, 327, 328, 329, 330, 331, 332, 333, 334, 335};
}

probability (I) {
   default 0.333333 0.333333 0.333333;
}
probability (F | I) {
   (0) 0.9 0.05 0.05;
   (1026295355) 0.0998279 0.898451 0.00172117;
   (1000468354) 0.05 0.05 0.9;
}
probability (G | I) {
   (0) 0.5 0.5;
   (1026295355) 0.294615 0.705385;
   (1000468354) 0.294615 0.705385;
}
probability (A | I) {
   (0) 0.0131579 0.0131579 0.0131579 0.0131579 0.0131579 0.0131579 0.0131579 0.0131579 0.0131579 0.0131579 0.0131579 0.0131579 0.0131579 0.0131579 0.0131579 0.0131579 0.0131579 0.0131579 0.0131579 0.0131579 0.0131579 0.0131579 0.0131579 0.0131579 0.0131579 0.0131579 0.0131579 0.0131579 0.0131579 0.0131579 0.0131579 0.0131579 0.0131579 0.0131579 0.0131579 0.0131579 0.0131579 0.0131579 0.0131579 0.0131579 0.0131579 0.0131579 0.0131579 0.0131579 0.0131579 0.0131579 0.0131579 0.0131579 0.0131579 0.0131579 0.0131579 0.0131579 0.0131579 0.0131579 0.0131579 0.0131579 0.0131579 0.0131579 0.0131579 0.0131579 0.0131579 0.0131579 0.0131579 0.0131579 0.0131579 0.0131579 0.0131579 0.0131579 0.0131579 0.0131579 0.0131579 0.0131579 0.0131579 0.0131579 0.0131579 0.0131579;
   (1026295355) 4.2039e-45 4.2039e-45 4.2039e-45 4.2039e-45 4.2039e-45 4.2039e-45 4.2039e-45 4.2039e-45 4.2039e-45 4.2039e-45 4.2039e-45 4.2039e-45 4.2039e-45 4.2039e-45 4.2039e-45 4.2039e-45 4.2039e-45 4.2039e-45 4.2039e-45 4.2039e-45 2.81837e-31 2.64257e-14 0.000402943 0.999194 0.000402943 2.64257e-14 2.81837e-31 4.2039e-45 4.2039e-45 4.2039e-45 4.2039e-45 4.2039e-45 4.2039e-45 4.2039e-45 4.2039e-45 4.2039e-45 4.2039e-45 4.2039e-45 4.2039e-45 4.2039e-45 4.2039e-45 4.2039e-45 4.2039e-45 4.2039e-45 4.2039e-45 4.2039e-45 4.2039e-45 4.2039e-45 4.2039e-45 4.2039e-45 4.2039e-45 4.2039e-45 4.2039e-45 4.2039e-45 4.2039e-45 4.2039e-45 4.2039e-45 4.2039e-45 4.2039e-45 4.2039e-45 4.2039e-45 4.2039e-45 4.2039e-45 4.2039e-45 4.2039e-45 4.2039e-45 4.2039e-45 4.2039e-45 4.2039e-45 4.2039e-45 4.2039e-45 4.2039e-45 4.2039e-45 4.2039e-45 4.2039e-45 4.2039e-45;
   (1000468354) 4.2039e-45 4.2039e-45 4.2039e-45 4.2039e-45 4.2039e-45 4.2039e-45 4.2039e-45 4.2039e-45 4.2039e-45 4.2039e-45 4.2039e-45 4.2039e-45 4.2039e-45 4.2039e-45 4.2039e-45 2.81837e-31 2.64257e-14 0.000402943 0.999194 0.000402943 2.64257e-14 2.81837e-31 4.2039e-45 4.2039e-45 4.2039e-45 4.2039e-45 4.2039e-45 4.2039e-45 4.2039e-45 4.2039e-45 4.2039e-45 4.2039e-45 4.2039e-45 4.2039e-45 4.2039e-45 4.2039e-45 4.2039e-45 4.2039e-45 4.2039e-45 4.2039e-45 4.2039e-45 4.2039e-45 4.2039e-45 4.2039e-45 4.2039e-45 4.2039e-45 4.2039e-45 4.2039e-45 4.2039e-45 4.2039e-45 4.2039e-45 4.2039e-45 4.2039e-45 4.2039e-45 4.2039e-45 4.2039e-45 4.2039e-45 4.2039e-45 4.2039e-45 4.2039e-45 4.2039e-45 4.2039e-45 4.2039e-45 4.2039e-45 4.2039e-45 4.2039e-45 4.2039e-45 4.2039e-45 4.2039e-45 4.2039e-45 4.2039e-45 4.2039e-45 4.2039e-45 4.2039e-45 4.2039e-45 4.2039e-45;
}
probability (H | I) {
   (0) 0.0052356 0.0052356 0.0052356 0.0052356 0.0052356 0.0052356 0.0052356 0.0052356 0.0052356 0.0052356 0.0052356 0.0052356 0.0052356 0.0052356 0.0052356 0.0052356 0.0052356 0.0052356 0.0052356 0.0052356 0.0052356 0.0052356 0.0052356 0.0052356 0.0052356 0.0052356 0.0052356 0.0052356 0.0052356 0.0052356 0.0052356 0.0052356 0.0052356 0.0052356 0.0052356 0.0052356 0.0052356 0.0052356 0.0052356 0.0052356 0.0052356 0.0052356 0.0052356 0.0052356 0.0052356 0.0052356 0.0052356 0.0052356 0.0052356 0.0052356 0.0052356 0.0052356 0.0052356 0.0052356 0.0052356 0.0052356 0.0052356 0.0052356 0.0052356 0.0052356 0.0052356 0.0052356 0.0052356 0.0052356 0.0052356 0.0052356 0.0052356 0.0052356 0.0052356 0.0052356 0.0052356 0.0052356 0.0052356 0.0052356 0.0052356 0.0052356 0.0052356 0.0052356 0.0052356 0.0052356 0.0052356 0.0052356 0.0052356 0.0052356 0.0052356 0.0052356 0.0052356 0.0052356 0.0052356 0.0052356 0.0052356 0.0052356 0.0052356 0.0052356 0.0052356 0.0052356 0.0052356 0.0052356 0.0052356 0.0052356 0.0052356 0.0052356 0.0052356 0.0052356 0.0052356 0.0052356 0.0052356 0.0052356 0.0052356 0.0052356 0.0052356 0.0052356 0.0052356 0.0052356 0.0052356 0.0052356 0.0052356 0.0052356 0.0052356 0.0052356 0.0052356 0.0052356 0.0052356 0.0052356 0.0052356 0.0052356 0.0052356 0.0052356 0.0052356 0.0052356 0.0052356 0.0052356 0.0052356 0.0052356 0.0052356 0.0052356 0.0052356 0.0052356 0.0052356 0.0052356 0.0052356 0.0052356 0.0052356 0.0052356 0.0052356 0.0052356 0.0052356 0.0052356 0.0052356 0.0052356 0.0052356 0.0052356 0.0052356 0.0052356 0.0052356 0.0052356 0.0052356 0.0052356 0.0052356 0.0052356 0.0052356 0.0052356 0.0052356 0.0052356 0.0052356 0.0052356 0.0052356 0.0052356 0.0052356 0.0052356 0.0052356 0.0052356 0.0052356 0.0052356 0.0052356 0.0052356 0.0052356 0.0052356 0.0052356 0.0052356 0.0052356 0.0052356 0.0052356 0.0052356 0.0052356 0.0052356 0.0052356 0.0052356 0.0052356 0.0052356 0.0052356;
   (1026295355) 2.08632e-13 2.08632e-13 2.22221e-13 3.43841e-13 5.30017e-13 8.13917e-13 1.24517e-12 1.89774e-12 2.8814e-12 4.35841e-12 6.56768e-12 9.85949e-12 1.47454e-11 2.19693e-11 3.26087e-11 4.82182e-11 7.10308e-11 1.04242e-10 1.52403e-10 2.21976e-10 3.22089e-10 4.65592e-10 6.70492e-10 9.61922e-10 1.37482e-09 1.95753e-09 2.77672e-09 3.92385e-09 5.52398e-09 7.74731e-09 1.08245e-08 1.50669e-08 2.08929e-08 2.88624e-08 3.97213e-08 5.44596e-08 7.43847e-08 1.01217e-07 1.37208e-07 1.85295e-07 2.49292e-07 3.34126e-07 4.4614e-07 5.9346e-07 7.86448e-07 1.03826e-06 1.36554e-06 1.7892e-06 2.33546e-06 3.03699e-06 3.93436e-06 5.07766e-06 6.52848e-06 8.36217e-06 1.06705e-05 1.35646e-05 1.71787e-05 2.16737e-05 2.72416e-05 3.41108e-05 4.25509e-05 5.28792e-05 6.54666e-05 8.07446e-05 9.92123e-05 0.000121444 0.000148097 0.000179918 0.000217752 0.000262547 0.000315363 0.000377376 0.000449879 0.000534288 0.000632142 0.000745096 0.000874921 0.00102349 0.00119277 0.00138481 0.0016017 0.00184557 0.00211855 0.00242273 0.00276014 0.00313268 0.00354208 0.00398989 0.00447735 0.00500541 0.00557465 0.00618521 0.00683674 0.00752841 0.00825877 0.00902582 0.0098269 0.0106587 0.0115173 0.0123982 0.013296 0.0142051 0.0151192 0.0160313 0.0169343 0.0178207 0.0186828 0.0195127 0.0203026 0.0210447 0.0217317 0.0223565 0.0229125 0.0233938 0.023795 0.0241119 0.0243408 0.0244791 0.0245254 0.0244791 0.0243408 0.0241119 0.023795 0.0233938 0.0229125 0.0223565 0.0217317 0.0210447 0.0203026 0.0195127 0.0186828 0.0178207 0.0169343 0.0160313 0.0151192 0.0142051 0.013296 0.0123982 0.0115173 0.0106587 0.0098269 0.00902582 0.00825877 0.00752841 0.00683674 0.00618521 0.00557465 0.00500541 0.00447735 0.00398989 0.00354208 0.00313268 0.00276014 0.00242273 0.00211855 0.00184557 0.0016017 0.00138481 0.00119277 0.00102349 0.000874921 0.000745096 0.000632142 0.000534288 0.000449879 0.000377376 0.000315363 0.000262547 0.000217752 0.000179918 0.000148097 0.000121444 9.92123e-05 8.07446e-05 6.54666e-05 5.28792e-05 4.25509e-05 3.41108e-05 2.72416e-05 2.16737e-05 1.71787e-05 1.35646e-05 1.06705e-05 8.36217e-06 6.52848e-06 5.07766e-06 3.93436e-06 3.03699e-06 2.33546e-06 1.7892e-06 1.36554e-06;
   (1000468354) 2.88139e-12 4.3584e-12 6.56766e-12 9.85945e-12 1.47453e-11 2.19692e-11 3.26086e-11 4.8218e-11 7.10305e-11 1.04241e-10 1.52403e-10 2.21975e-10 3.22088e-10 4.6559e-10 6.70489e-10 9.61918e-10 1.37481e-09 1.95752e-09 2.7767e-09 3.92384e-09 5.52396e-09 7.74728e-09 1.08245e-08 1.50668e-08 2.08928e-08 2.88623e-08 3.97212e-08 5.44594e-08 7.43844e-08 1.01216e-07 1.37207e-07 1.85294e-07 2.49291e-07 3.34125e-07 4.46139e-07 5.93458e-07 7.86445e-07 1.03826e-06 1.36553e-06 1.78919e-06 2.33545e-06 3.03698e-06 3.93435e-06 5.07764e-06 6.52845e-06 8.36213e-06 1.06704e-05 1.35646e-05 1.71787e-05 2.16736e-05 2.72415e-05 3.41106e-05 4.25508e-05 5.2879e-05 6.54664e-05 8.07443e-05 9.9212e-05 0.000121444 0.000148096 0.000179917 0.000217751 0.000262546 0.000315362 0.000377374 0.000449877 0.000534286 0.00063214 0.000745093 0.000874917 0.00102349 0.00119277 0.0013848 0.00160169 0.00184556 0.00211854 0.00242272 0.00276013 0.00313267 0.00354207 0.00398987 0.00447733 0.00500539 0.00557463 0.00618518 0.00683672 0.00752838 0.00825874 0.00902578 0.00982686 0.0106587 0.0115173 0.0123981 0.013296 0.0142051 0.0151191 0.0160312 0.0169342 0.0178206 0.0186827 0.0195126 0.0203025 0.0210446 0.0217317 0.0223565 0.0229124 0.0233937 0.0237949 0.0241118 0.0243407 0.0244791 0.0245254 0.0244791 0.0243407 0.0241118 0.0237949 0.0233937 0.0229124 0.0223565 0.0217317 0.0210446 0.0203025 0.0195126 0.0186827 0.0178206 0.0169342 0.0160312 0.0151191 0.0142051 0.013296 0.0123981 0.0115173 0.0106587 0.00982686 0.00902578 0.00825874 0.00752838 0.00683672 0.00618518 0.00557463 0.00500539 0.00447733 0.00398987 0.00354207 0.00313267 0.00276013 0.00242272 0.00211854 0.00184556 0.00160169 0.0013848 0.00119277 0.00102349 0.000874917 0.000745093 0.00063214 0.000534286 0.000449877 0.000377374 0.000315362 0.000262546 0.000217751 0.000179917 0.000148096 0.000121444 9.9212e-05 8.07443e-05 6.54664e-05 5.2879e-05 4.25508e-05 3.41106e-05 2.72415e-05 2.16736e-05 1.71787e-05 1.35646e-05 1.06704e-05 8.36213e-06 6.52845e-06 5.07764e-06 3.93435e-06 3.03698e-06 2.33545e-06 1.78919e-06 1.36553e-06 1.03826e-06 7.86445e-07 5.93458e-07 4.46139e-07 3.34125e-07 2.49291e-07 1.85294e-07 1.37207e-07;
}
probability (T | I) {
   (0) 0.00297619 0.00297619 0.00297619 0.00297619 0.00297619 0.00297619 0.00297619 0.00297619 0.00297619 0.00297619 0.00297619 0.00297619 0.00297619 0.00297619 0.00297619 0.00297619 0.00297619 0.00297619 0.00297619 0.00297619 0.00297619 0.00297619 0.00297619 0.00297619 0.00297619 0.00297619 0.00297619 0.00297619 0.00297619 0.00297619 0.00297619 0.00297619 0.00297619 0.00297619 0.00297619 0.00297619 0.00297619 0.00297619 0.00297619 0.00297619 0.00297619 0.00297619 0.00297619 0.00297619 0.00297619 0.00297619 0.00297619 0.00297619 0.00297619 0.00297619 0.00297619 0.00297619 0.00297619 0.00297619 0.00297619 0.00297619 0.00297619 0.00297619 0.00297619 0.00297619 0.00297619 0.00297619 0.00297619 0.00297619 0.00297619 0.00297619 0.00297619 0.00297619 0.00297619 0.00297619 0.00297619 0.00297619 0.00297619 0.00297619 0.00297619 0.00297619 0.00297619 0.00297619 0.00297619 0.00297619 0.00297619 0.00297619 0.00297619 0.00297619 0.00297619 0.00297619 0.00297619 0.00297619 0.00297619 0.00297619 0.00297619 0.00297619 0.00297619 0.00297619 0.00297619 0.00297619 0.00297619 0.00297619 0.00297619 0.00297619 0.00297619 0.00297619 0.00297619 0.00297619 0.00297619 0.00297619 0.00297619 0.00297619 0.00297619 0.00297619 0.00297619 0.00297619 0.00297619 0.00297619 0.00297619 0.00297619 0.00297619 0.00297619 0.00297619 0.00297619 0.00297619 0.00297619 0.00297619 0.00297619 0.00297619 0.00297619 0.00297619 0.00297619 0.00297619 0.00297619 0.00297619 0.00297619 0.00297619 0.00297619 0.00297619 0.00297619 0.00297619 0.00297619 0.00297619 0.00297619 0.00297619 0.00297619 0.00297619 0.00297619 0.00297619 0.00297619 0.00297619 0.00297619 0.00297619 0.00297619 0.00297619 0.00297619 0.00297619 0.00297619 0.00297619 0.00297619 0.00297619 0.00297619 0.00297619 0.00297619 0.00297619 0.00297619 0.00297619 0.00297619 0.00297619 0.00297619 0.00297619 0.00297619 0.00297619 0.00297619 0.00297619 0.00297619 0.00297619 0.00297619 0.00297619 0.00297619 0.00297619 0.00297619 0.00297619 0.00297619 0.00297619 0.00297619 0.00297619 0.00297619 0.00297619 0.00297619 0.00297619 0.00297619 0.00297619 0.00297619 0.00297619 0.00297619 0.00297619 0.00297619 0.00297619 0.00297619 0.00297619 0.00297619 0.00297619 0.00297619 0.00297619 0.00297619 0.00297619 0.00297619 0.00297619 0.00297619 0.00297619 0.00297619 0.00297619 0.00297619 0.00297619 0.00297619 0.00297619 0.00297619 0.00297619 0.00297619 0.00297619 0.00297619 0.00297619 0.00297619 0.00297619 0.00297619 0.00297619 0.00297619 0.00297619 0.00297619 0.00297619 0.00297619 0.00297619 0.00297619 0.00297619 0.00297619 0.00297619 0.00297619 0.00297619 0.00297619 0.00297619 0.00297619 0.00297619 0.00297619 0.00297619 0.00297619 0.00297619 0.00297619 0.00297619 0.00297619 0.00297619 0.00297619 0.00297619 0.00297619 0.00297619 0.00297619 0.00297619 0.00297619 0.00297619 0.00297619 0.00297619 0.00297619 0.00297619 0.00297619 0.00297619 0.00297619 0.00297619 0.00297619 0.00297619 0.00297619 0.00297619 0.00297619 0.00297619 0.00297619 0.00297619 0.00297619 0.00297619 0.00297619 0.00297619 0.00297619 0.00297619 0.00297619 0.00297619 0.00297619 0.00297619 0.00297619 0.00297619 0.00297619 0.00297619 0.00297619 0.00297619 0.00297619 0.00297619 0.00297619 0.00297619 0.00297619 0.00297619 0.00297619 0.00297619 0.00297619 0.00297619 0.00297619 0.00297619 0.00297619 0.00297619 0.00297619 0.00297619 0.00297619 0.00297619 0.00297619 0.00297619 0.00297619 0.00297619 0.00297619 0.00297619 0.00297619 0.00297619 0.00297619 0.00297619 0.00297619 0.00297619 0.00297619 0.00297619 0.00297619 0.00297619 0.00297619 0.00297619 0.00297619 0.00297619 0.00297619 0.00297619 0.00297619 0.00297619 0.00297619 0.00297619 0.00297619 0.00297619 0.00297619 0.00297619 0.00297619;
   (1026295355) 2.0026e-11 1.35576e-10 8.43054e-10 4.81519e-09 2.52613e-08 1.21726e-07 5.38763e-07 2.19026e-06 8.17859e-06 2.80509e-05 8.83689e-05 0.000255704 0.000679611 0.00165908 0.00372015 0.00766194 0.0144944 0.0251854 0.0401959 0.058925 0.0793418 0.0981272 0.111471 0.116311 0.111471 0.0981272 0.0793418 0.058925 0.0401959 0.0251854 0.0144944 0.00766194 0.00372015 0.00165908 0.000679611 0.000255704 8.83689e-05 2.80509e-05 8.17859e-06 2.19026e-06 5.38763e-07 1.21726e-07 2.52613e-08 4.81519e-09 8.43054e-10 1.35576e-10 2.0026e-11 2.71701e-12 3.38589e-13 3.8756e-14 4.07465e-15 3.93484e-16 3.49019e-17 2.84352e-18 2.12788e-19 1.46259e-20 9.2339e-22 5.35466e-23 2.85209e-24 1.39534e-25 6.36298e-27 6.36298e-27 6.36298e-27 6.36298e-27 6.36298e-27 6.36298e-27 6.36298e-27 6.36298e-27 6.36298e-27 6.36298e-27 6.36298e-27 6.36298e-27 6.36298e-27 6.36298e-27 6.36298e-27 6.36298e-27 6.36298e-27 6.36298e-27 6.36298e-27 6.36298e-27 6.36298e-27 6.36298e-27 6.36298e-27 6.36298e-27 6.36298e-27 6.36298e-27 6.36298e-27 6.36298e-27 6.36298e-27 6.36298e-27 6.36298e-27 6.36298e-27 6.36298e-27 6.36298e-27 6.36298e-27 6.36298e-27 6.36298e-27 6.36298e-27 6.36298e-27 6.36298e-27 6.36298e-27 6.36298e-27 6.36298e-27 6.36298e-27 6.36298e-27 6.36298e-27 6.36298e-27 6.36298e-27 6.36298e-27 6.36298e-27 6.36298e-27 6.36298e-27 6.36298e-27 6.36298e-27 6.36298e-27 6.36298e-27 6.36298e-27 6.36298e-27 6.36298e-27 6.36298e-27 6.36298e-27 6.36298e-27 6.36298e-27 6.36298e-27 6.36298e-27 6.36298e-27 6.36298e-27 6.36298e-27 6.36298e-27 6.36298e-27 6.36298e-27 6.36298e-27 6.36298e-27 6.36298e-27 6.36298e-27 6.36298e-27 6.36298e-27 6.36298e-27 6.36298e-27 6.36298e-27 6.36298e-27 6.36298e-27 6.36298e-27 6.36298e-27 6.36298e-27 6.36298e-27 6.36298e-27 6.36298e-27 6.36298e-27 6.36298e-27 6.36298e-27 6.36298e-27 6.36298e-27 6.36298e-27 6.36298e-27 6.36298e-27 6.36298e-27 6.36298e-27 6.36298e-27 6.36298e-27 6.36298e-27 6.36298e-27 6.36298e-27 6.36298e-27 6.36298e-27 6.36298e-27 6.36298e-27 6.36298e-27 6.36298e-27 6.36298e-27 6.36298e-27 6.36298e-27 6.36298e-27 6.36298e-27 6.36298e-27 6.36298e-27 6.36298e-27 6.36298e-27 6.36298e-27 6.36298e-27 6.36298e-27 6.36298e-27 6.36298e-27 6.36298e-27 6.36298e-27 6.36298e-27 6.36298e-27 6.36298e-27 6.36298e-27 6.36298e-27 6.36298e-27 6.36298e-27 6.36298e-27 6.36298e-27 6.36298e-27 6.36298e-27 6.36298e-27 6.36298e-27 6.36298e-27 6.36298e-27 6.36298e-27 6.36298e-27 6.36298e-27 6.36298e-27 6.36298e-27 6.36298e-27 6.36298e-27 6.36298e-27 6.36298e-27 6.36298e-27 6.36298e-27 6.36298e-27 6.36298e-27 6.36298e-27 6.36298e-27 6.36298e-27 6.36298e-27 6.36298e-27 6.36298e-27 6.36298e-27 6.36298e-27 6.36298e-27 6.36298e-27 6.36298e-27 6.36298e-27 6.36298e-27 6.36298e-27 6.36298e-27 6.36298e-27 6.36298e-27 6.36298e-27 6.36298e-27 6.36298e-27 6.36298e-27 6.36298e-27 6.36298e-27 6.36298e-27 6.36298e-27 6.36298e-27 6.36298e-27 6.36298e-27 6.36298e-27 6.36298e-27 6.36298e-27 6.36298e-27 6.36298e-27 6.36298e-27 6.36298e-27 6.36298e-27 6.36298e-27 6.36298e-27 6.36298e-27 6.36298e-27 6.36298e-27 6.36298e-27 6.36298e-27 6.36298e-27 6.36298e-27 6.36298e-27 6.36298e-27 6.36298e-27 6.36298e-27 6.36298e-27 6.36298e-27 6.36298e-27 6.36298e-27 6.36298e-27 6.36298e-27 6.36298e-27 6.36298e-27 6.36298e-27 6.36298e-27 6.36298e-27 6.36298e-27 6.36298e-27 6.36298e-27 6.36298e-27 6.36298e-27 6.36298e-27 6.36298e-27 6.36298e-27 6.36298e-27 6.36298e-27 6.36298e-27 6.36298e-27 6.36298e-27 6.36298e-27 6.36298e-27 6.36298e-27 6.36298e-27 6.36298e-27 6.36298e-27 6.36298e-27 6.36298e-27 6.36298e-27 6.36298e-27 6.36298e-27 6.36298e-27 6.36298e-27 6.36298e-27 6.36298e-27 6.36298e-27 6.36298e-27 6.36298e-27 6.36298e-27 6.36298e-27 6.36298e-27 6.36298e-27 6.36298e-27 6.36298e-27 6.36298e-27 6.36298e-27 6.36298e-27 6.36298e-27 6.36298e-27 6.36298e-27 6.36298e-27 6.36298e-27 6.36298e-27 6.36298e-27 6.36298e-27 6.36298e-27 6.36298e-27 6.36298e-27 6.36298e-27 6.36298e-27 6.36298e-27 6.36298e-27 6.36298e-27 6.36298e-27 6.36298e-27 6.36298e-27 6.36298e-27 6.36298e-27 6.36298e-27 6.36298e-27;
   (1000468354) 6.36298e-27 6.36298e-27 6.36298e-27 6.36298e-27 6.36298e-27 6.36298e-27 6.36298e-27 6.36298e-27 6.36298e-27 6.36298e-27 6.36298e-27 6.36298e-27 6.36298e-27 6.36298e-27 6.36298e-27 6.36298e-27 6.36298e-27 6.36298e-27 6.36298e-27 6.36298e-27 6.36298e-27 6.36298e-27 6.36298e-27 6.36298e-27 6.36298e-27 6.36298e-27 6.36298e-27 6.36298e-27 6.36298e-27 6.36298e-27 6.36298e-27 6.36298e-27 6.36298e-27 6.36298e-27 6.36298e-27 6.36298e-27 6.36298e-27 6.36298e-27 6.36298e-27 6.36298e-27 6.36298e-27 6.36298e-27 6.36298e-27 6.36298e-27 1.39534e-25 2.85209e-24 5.35466e-23 9.2339e-22 1.46259e-20 2.12788e-19 2.84352e-18 3.49019e-17 3.93484e-16 4.07465e-15 3.8756e-14 3.38589e-13 2.71701e-12 2.0026e-11 1.35576e-10 8.43054e-10 4.81519e-09 2.52613e-08 1.21726e-07 5.38763e-07 2.19026e-06 8.17859e-06 2.80509e-05 8.83689e-05 0.000255704 0.000679611 0.00165908 0.00372015 0.00766194 0.0144944 0.0251854 0.0401959 0.058925 0.0793418 0.0981272 0.111471 0.116311 0.111471 0.0981272 0.0793418 0.058925 0.0401959 0.0251854 0.0144944 0.00766194 0.00372015 0.00165908 0.000679611 0.000255704 8.83689e-05 2.80509e-05 8.17859e-06 2.19026e-06 5.38763e-07 1.21726e-07 2.52613e-08 4.81519e-09 8.43054e-10 1.35576e-10 2.0026e-11 2.71701e-12 3.38589e-13 3.8756e-14 4.07465e-15 3.93484e-16 3.49019e-17 2.84352e-18 2.12788e-19 1.46259e-20 9.2339e-22 5.35466e-23 2.85209e-24 1.39534e-25 6.36298e-27 6.36298e-27 6.36298e-27 6.36298e-27 6.36298e-27 6.36298e-27 6.36298e-27 6.36298e-27 6.36298e-27 6.36298e-27 6.36298e-27 6.36298e-27 6.36298e-27 6.36298e-27 6.36298e-27 6.36298e-27 6.36298e-27 6.36298e-27 6.36298e-27 6.36298e-27 6.36298e-27 6.36298e-27 6.36298e-27 6.36298e-27 6.36298e-27 6.36298e-27 6.36298e-27 6.36298e-27 6.36298e-27 6.36298e-27 6.36298e-27 6.36298e-27 6.36298e-27 6.36298e-27 6.36298e-27 6.36298e-27 6.36298e-27 6.36298e-27 6.36298e-27 6.36298e-27 6.36298e-27 6.36298e-27 6.36298e-27 6.36298e-27 6.36298e-27 6.36298e-27 6.36298e-27 6.36298e-27 6.36298e-27 6.36298e-27 6.36298e-27 6.36298e-27 6.36298e-27 6.36298e-27 6.36298e-27 6.36298e-27 6.36298e-27 6.36298e-27 6.36298e-27 6.36298e-27 6.36298e-27 6.36298e-27 6.36298e-27 6.36298e-27 6.36298e-27 6.36298e-27 6.36298e-27 6.36298e-27 6.36298e-27 6.36298e-27 6.36298e-27 6.36298e-27 6.36298e-27 6.36298e-27 6.36298e-27 6.36298e-27 6.36298e-27 6.36298e-27 6.36298e-27 6.36298e-27 6.36298e-27 6.36298e-27 6.36298e-27 6.36298e-27 6.36298e-27 6.36298e-27 6.36298e-27 6.36298e-27 6.36298e-27 6.36298e-27 6.36298e-27 6.36298e-27 6.36298e-27 6.36298e-27 6.36298e-27 6.36298e-27 6.36298e-27 6.36298e-27 6.36298e-27 6.36298e-27 6.36298e-27 6.36298e-27 6.36298e-27 6.36298e-27 6.36298e-27 6.36298e-27 6.36298e-27 6.36298e-27 6.36298e-27 6.36298e-27 6.36298e-27 6.36298e-27 6.36298e-27 6.36298e-27 6.36298e-27 6.36298e-27 6.36298e-27 6.36298e-27 6.36298e-27 6.36298e-27 6.36298e-27 6.36298e-27 6.36298e-27 6.36298e-27 6.36298e-27 6.36298e-27 6.36298e-27 6.36298e-27 6.36298e-27 6.36298e-27 6.36298e-27 6.36298e-27 6.36298e-27 6.36298e-27 6.36298e-27 6.36298e-27 6.36298e-27 6.36298e-27 6.36298e-27 6.36298e-27 6.36298e-27 6.36298e-27 6.36298e-27 6.36298e-27 6.36298e-27 6.36298e-27 6.36298e-27 6.36298e-27 6.36298e-27 6.36298e-27 6.36298e-27 6.36298e-27 6.36298e-27 6.36298e-27 6.36298e-27 6.36298e-27 6.36298e-27 6.36298e-27 6.36298e-27 6.36298e-27 6.36298e-27 6.36298e-27 6.36298e-27 6.36298e-27 6.36298e-27 6.36298e-27 6.36298e-27 6.36298e-27 6.36298e-27 6.36298e-27 6.36298e-27 6.36298e-27 6.36298e-27 6.36298e-27 6.36298e-27 6.36298e-27 6.36298e-27 6.36298e-27 6.36298e-27 6.36298e-27 6.36298e-27 6.36298e-27 6.36298e-27 6.36298e-27 6.36298e-27 6.36298e-27 6.36298e-27 6.36298e-27 6.36298e-27 6.36298e-27 6.36298e-27 6.36298e-27 6.36298e-27 6.36298e-27 6.36298e-27 6.36298e-27 6.36298e-27 6.36298e-27 6.36298e-27 6.36298e-27 6.36298e-27 6.36298e-27 6.36298e-27 6.36298e-27 6.36298e-27 6.36298e-27 6.36298e-27 6.36298e-27 6.36298e-27 6.36298e-27 6.36298e-27 6.36298e-27 6.36298e-27 6.36298e-27 6.36298e-27 6.36298e-27 6.36298e-27 6.36298e-27 6.36298e-27;
}

