network "/home/walker/github/Cardiac/db/memory/recognition/RecogniserBN.bif" {
// written by aGrUM 0.13.2.1
}

variable I {
   type discrete[18] {0, 1020813120, 1015456917, 1010224167, 1019115391, 1101178215, 1020814482, 1020809921, 1032473955, 1026295355, 1031150558, 1019107402, 1018494738, 1082749190, 80871350, 1068976301, 1020815022, 1036933458};
}

variable F {
   type discrete[18] {0, 1020813120, 1015456917, 1010224167, 1019115391, 1101178215, 1020814482, 1020809921, 1032473955, 1026295355, 1031150558, 1019107402, 1018494738, 1082749190, 80871350, 1068976301, 1020815022, 1036933458};
}

variable G {
   type discrete[2] {Female, Male};
}

variable A {
   type discrete[76] {0, 1, 2, 3, 4, 5, 6, 7, 8, 9, 10, 11, 12, 13, 14, 15, 16, 17, 18, 19, 20, 21, 22, 23, 24, 25, 26, 27, 28, 29, 30, 31, 32, 33, 34, 35, 36, 37, 38, 39, 40, 41, 42, 43, 44, 45, 46, 47, 48, 49, 50, 51, 52, 53, 54, 55, 56, 57, 58, 59, 60, 61, 62, 63, 64, 65, 66, 67, 68, 69, 70, 71, 72, 73, 74, 75};
}

variable H {
   type discrete[191] {50, 51, 52, 53, 54, 55, 56, 57, 58, 59, 60, 61, 62, 63, 64, 65, 66, 67, 68, 69, 70, 71, 72, 73, 74, 75, 76, 77, 78, 79, 80, 81, 82, 83, 84, 85, 86, 87, 88, 89, 90, 91, 92, 93, 94, 95, 96, 97, 98, 99, 100, 101, 102, 103, 104, 105, 106, 107, 108, 109, 110, 111, 112, 113, 114, 115, 116, 117, 118, 119, 120, 121, 122, 123, 124, 125, 126, 127, 128, 129, 130, 131, 132, 133, 134, 135, 136, 137, 138, 139, 140, 141, 142, 143, 144, 145, 146, 147, 148, 149, 150, 151, 152, 153, 154, 155, 156, 157, 158, 159, 160, 161, 162, 163, 164, 165, 166, 167, 168, 169, 170, 171, 172, 173, 174, 175, 176, 177, 178, 179, 180, 181, 182, 183, 184, 185, 186, 187, 188, 189, 190, 191, 192, 193, 194, 195, 196, 197, 198, 199, 200, 201, 202, 203, 204, 205, 206, 207, 208, 209, 210, 211, 212, 213, 214, 215, 216, 217, 218, 219, 220, 221, 222, 223, 224, 225, 226, 227, 228, 229, 230, 231, 232, 233, 234, 235, 236, 237, 238, 239, 240};
}

variable T {
   type discrete[336] {0, 1, 2, 3, 4, 5, 6, 7, 8, 9, 10, 11, 12, 13, 14, 15, 16, 17, 18, 19, 20, 21, 22, 23, 24, 25, 26, 27, 28, 29, 30, 31, 32, 33, 34, 35, 36, 37, 38, 39, 40, 41, 42, 43, 44, 45, 46, 47, 48, 49, 50, 51, 52, 53, 54, 55, 56, 57, 58, 59, 60, 61, 62, 63, 64, 65, 66, 67, 68, 69, 70, 71, 72, 73, 74, 75, 76, 77, 78, 79, 80, 81, 82, 83, 84, 85, 86, 87, 88, 89, 90, 91, 92, 93, 94, 95, 96, 97, 98, 99, 100, 101, 102, 103, 104, 105, 106, 107, 108, 109, 110, 111, 112, 113, 114, 115, 116, 117, 118, 119, 120, 121, 122, 123, 124, 125, 126, 127, 128, 129, 130, 131, 132, 133, 134, 135, 136, 137, 138, 139, 140, 141, 142, 143, 144, 145, 146, 147, 148, 149, 150, 151, 152, 153, 154, 155, 156, 157, 158, 159, 160, 161, 162, 163, 164, 165, 166, 167, 168, 169, 170, 171, 172, 173, 174, 175, 176, 177, 178, 179, 180, 181, 182, 183, 184, 185, 186, 187, 188, 189, 190, 191, 192, 193, 194, 195, 196, 197, 198, 199, 200, 201, 202, 203, 204, 205, 206, 207, 208, 209, 210, 211, 212, 213, 214, 215, 216, 217, 218, 219, 220, 221, 222, 223, 224, 225, 226, 227, 228, 229, 230, 231, 232, 233, 234, 235, 236, 237, 238, 239, 240, 241, 242, 243, 244, 245, 246, 247, 248, 249, 250, 251, 252, 253, 254, 255, 256, 257, 258, 259, 260, 261, 262, 263, 264, 265, 266, 267, 268, 269, 270, 271, 272, 273, 274, 275, 276, 277, 278, 279, 280, 281, 282, 283, 284, 285, 286, 287, 288, 289, 290, 291, 292, 293, 294, 295, 296, 297, 298, 299, 300, 301, 302, 303, 304, 305, 306, 307, 308, 309, 310, 311, 312, 313, 314, 315, 316, 317, 318, 319, 320, 321, 322, 323, 324, 325, 326, 327, 328, 329, 330, 331, 332, 333, 334, 335};
}

probability (I) {
   default 0.0555556 0.0555556 0.0555556 0.0555556 0.0555556 0.0555556 0.0555556 0.0555556 0.0555556 0.0555556 0.0555556 0.0555556 0.0555556 0.0555556 0.0555556 0.0555556 0.0555556 0.0555556;
}
probability (F | I) {
   (0) 0.9 0.00588235 0.00588235 0.00588235 0.00588235 0.00588235 0.00588235 0.00588235 0.00588235 0.00588235 0.00588235 0.00588235 0.00588235 0.00588235 0.00588235 0.00588235 0.00588235 0.00588235;
   (1020813120) 0.0944818 0.850335 0.0157469 0.010673 0.00607023 0.00390924 0.00327073 0.00281282 0.00205688 0.00183214 0.00165197 0.00128941 0.00118348 0.00109375 0.00101674 0.000949928 0.000891406 0.000734754;
   (1015456917) 0.0464303 0.0464303 0.835748 0.0154766 0.011801 0.00637258 0.00534588 0.00460763 0.0040509 0.00361579 0.00326625 0.00297922 0.00273924 0.00253555 0.00236047 0.00220835 0.00207493 0.00195695;
   (1010224167) 0.0316917 0.0316917 0.0316917 0.855677 0.0118843 0.00641759 0.00538364 0.00464019 0.00305961 0.00272817 0.00246218 0.00224393 0.0020616 0.001907 0.00177417 0.00165885 0.00155777 0.00146843;
   (1019115391) 0.0240658 0.0240658 0.0240658 0.0240658 0.866374 0.00641759 0.00538364 0.00464018 0.0030596 0.00272816 0.00246216 0.00224393 0.0020616 0.001907 0.00177417 0.00165885 0.00155777 0.00146843;
   (1101178215) 0.0188795 0.0188795 0.0188795 0.0188795 0.0188795 0.849577 0.00786646 0.00679887 0.00599151 0.00535906 0.00484997 0.00443109 0.0040803 0.00378214 0.00352548 0.0033022 0.00310614 0.00293255;
   (1020814482) 0.015864 0.015864 0.015864 0.015864 0.015864 0.015864 0.856656 0.00679887 0.00599151 0.00535906 0.00484997 0.0044311 0.0040803 0.00378214 0.00352548 0.0033022 0.00310613 0.00293255;
   (1020809921) 0.014046 0.014046 0.014046 0.014046 0.014046 0.014046 0.014046 0.884902 0.00245805 0.00219038 0.00197576 0.00179972 0.00165274 0.00152816 0.00142118 0.00132834 0.00124697 0.00117509;
   (1032473955) 0.0121666 0.0121666 0.0121666 0.0121666 0.0121666 0.0121666 0.0121666 0.0121666 0.875993 0.00540735 0.00489365 0.00298069 0.00274058 0.00253679 0.00236163 0.00220943 0.00207595 0.00146843;
   (1026295355) 0.0108748 0.0108748 0.0108748 0.0108748 0.0108748 0.0108748 0.0108748 0.0108748 0.0108748 0.88086 0.00489366 0.00298068 0.00274057 0.00253678 0.00236163 0.00220943 0.00207595 0.00146843;
   (1031150558) 0.00983145 0.00983145 0.00983145 0.00983145 0.00983145 0.00983145 0.00983145 0.00983145 0.00983145 0.00983145 0.884831 0.00297923 0.00273924 0.00253555 0.00236047 0.00220835 0.00207493 0.00195695;
   (1019107402) 0.00892944 0.00892944 0.00892944 0.00892944 0.00892944 0.00892944 0.00892944 0.00892944 0.00892944 0.00892944 0.00892944 0.884015 0.00409266 0.00379358 0.00353617 0.00331221 0.00155777 0.00146843;
   (1018494738) 0.0081946 0.0081946 0.0081946 0.0081946 0.0081946 0.0081946 0.0081946 0.0081946 0.0081946 0.0081946 0.0081946 0.0081946 0.885016 0.00378213 0.00352548 0.0033022 0.00310614 0.00293255;
   (1082749190) 0.00759335 0.00759335 0.00759335 0.00759335 0.00759335 0.00759335 0.00759335 0.00759335 0.00759335 0.00759335 0.00759335 0.00759335 0.00759335 0.88842 0.00352548 0.0033022 0.00310612 0.00293255;
   (80871350) 0.00707613 0.00707613 0.00707613 0.00707613 0.00707613 0.00707613 0.00707613 0.00707613 0.00707613 0.00707613 0.00707613 0.00707613 0.00707613 0.00707613 0.891593 0.0033022 0.00310612 0.00293255;
   (1068976301) 0.00663979 0.00663979 0.00663979 0.00663979 0.00663979 0.00663979 0.00663979 0.00663979 0.00663979 0.00663979 0.00663979 0.00663979 0.00663979 0.00663979 0.00663979 0.896371 0.00207493 0.00195695;
   (1020815022) 0.00623167 0.00623167 0.00623167 0.00623167 0.00623167 0.00623167 0.00623167 0.00623167 0.00623167 0.00623167 0.00623167 0.00623167 0.00623167 0.00623167 0.00623167 0.00623167 0.897361 0.00293255;
   (1036933458) 0.00588235 0.00588235 0.00588235 0.00588235 0.00588235 0.00588235 0.00588235 0.00588235 0.00588235 0.00588235 0.00588235 0.00588235 0.00588235 0.00588235 0.00588235 0.00588235 0.00588235 0.9;
}
probability (G | I) {
   (0) 0.5 0.5;
   (1020813120) 0.449625 0.550375;
   (1015456917) 0.449625 0.550375;
   (1010224167) 0.449625 0.550375;
   (1019115391) 0.449625 0.550375;
   (1101178215) 0.449625 0.550375;
   (1020814482) 0.449625 0.550375;
   (1020809921) 0.449625 0.550375;
   (1032473955) 0.449625 0.550375;
   (1026295355) 0.449625 0.550375;
   (1031150558) 0.449625 0.550375;
   (1019107402) 0.449625 0.550375;
   (1018494738) 0.449625 0.550375;
   (1082749190) 0.449625 0.550375;
   (80871350) 0.449625 0.550375;
   (1068976301) 0.449625 0.550375;
   (1020815022) 0.449625 0.550375;
   (1036933458) 0.449625 0.550375;
}
probability (A | I) {
   (0) 0.0131579 0.0131579 0.0131579 0.0131579 0.0131579 0.0131579 0.0131579 0.0131579 0.0131579 0.0131579 0.0131579 0.0131579 0.0131579 0.0131579 0.0131579 0.0131579 0.0131579 0.0131579 0.0131579 0.0131579 0.0131579 0.0131579 0.0131579 0.0131579 0.0131579 0.0131579 0.0131579 0.0131579 0.0131579 0.0131579 0.0131579 0.0131579 0.0131579 0.0131579 0.0131579 0.0131579 0.0131579 0.0131579 0.0131579 0.0131579 0.0131579 0.0131579 0.0131579 0.0131579 0.0131579 0.0131579 0.0131579 0.0131579 0.0131579 0.0131579 0.0131579 0.0131579 0.0131579 0.0131579 0.0131579 0.0131579 0.0131579 0.0131579 0.0131579 0.0131579 0.0131579 0.0131579 0.0131579 0.0131579 0.0131579 0.0131579 0.0131579 0.0131579 0.0131579 0.0131579 0.0131579 0.0131579 0.0131579 0.0131579 0.0131579 0.0131579;
   (1020813120) 3.0268e-41 3.0268e-41 3.0268e-41 3.0268e-41 3.0268e-41 3.0268e-41 3.0268e-41 3.0268e-41 3.0268e-41 3.0268e-41 3.0268e-41 3.0268e-41 3.0268e-41 3.0268e-41 3.0268e-41 3.0268e-41 3.0268e-41 3.0268e-41 3.0268e-41 1.24416e-28 3.95676e-13 0.00079217 0.998416 0.00079217 3.95676e-13 1.24416e-28 3.0268e-41 3.0268e-41 3.0268e-41 3.0268e-41 3.0268e-41 3.0268e-41 3.0268e-41 3.0268e-41 3.0268e-41 3.0268e-41 3.0268e-41 3.0268e-41 3.0268e-41 3.0268e-41 3.0268e-41 3.0268e-41 3.0268e-41 3.0268e-41 3.0268e-41 3.0268e-41 3.0268e-41 3.0268e-41 3.0268e-41 3.0268e-41 3.0268e-41 3.0268e-41 3.0268e-41 3.0268e-41 3.0268e-41 3.0268e-41 3.0268e-41 3.0268e-41 3.0268e-41 3.0268e-41 3.0268e-41 3.0268e-41 3.0268e-41 3.0268e-41 3.0268e-41 3.0268e-41 3.0268e-41 3.0268e-41 3.0268e-41 3.0268e-41 3.0268e-41 3.0268e-41 3.0268e-41 3.0268e-41 3.0268e-41 3.0268e-41;
   (1015456917) 3.0268e-41 3.0268e-41 3.0268e-41 3.0268e-41 3.0268e-41 3.0268e-41 3.0268e-41 3.0268e-41 3.0268e-41 3.0268e-41 3.0268e-41 3.0268e-41 3.0268e-41 3.0268e-41 3.0268e-41 3.0268e-41 3.0268e-41 3.0268e-41 3.0268e-41 3.0268e-41 1.24416e-28 3.95676e-13 0.00079217 0.998416 0.00079217 3.95676e-13 1.24416e-28 3.0268e-41 3.0268e-41 3.0268e-41 3.0268e-41 3.0268e-41 3.0268e-41 3.0268e-41 3.0268e-41 3.0268e-41 3.0268e-41 3.0268e-41 3.0268e-41 3.0268e-41 3.0268e-41 3.0268e-41 3.0268e-41 3.0268e-41 3.0268e-41 3.0268e-41 3.0268e-41 3.0268e-41 3.0268e-41 3.0268e-41 3.0268e-41 3.0268e-41 3.0268e-41 3.0268e-41 3.0268e-41 3.0268e-41 3.0268e-41 3.0268e-41 3.0268e-41 3.0268e-41 3.0268e-41 3.0268e-41 3.0268e-41 3.0268e-41 3.0268e-41 3.0268e-41 3.0268e-41 3.0268e-41 3.0268e-41 3.0268e-41 3.0268e-41 3.0268e-41 3.0268e-41 3.0268e-41 3.0268e-41 3.0268e-41;
   (1010224167) 3.0268e-41 3.0268e-41 3.0268e-41 3.0268e-41 3.0268e-41 3.0268e-41 3.0268e-41 3.0268e-41 3.0268e-41 3.0268e-41 3.0268e-41 3.0268e-41 3.0268e-41 3.0268e-41 3.0268e-41 3.0268e-41 3.0268e-41 3.0268e-41 3.0268e-41 3.0268e-41 1.24416e-28 3.95676e-13 0.00079217 0.998416 0.00079217 3.95676e-13 1.24416e-28 3.0268e-41 3.0268e-41 3.0268e-41 3.0268e-41 3.0268e-41 3.0268e-41 3.0268e-41 3.0268e-41 3.0268e-41 3.0268e-41 3.0268e-41 3.0268e-41 3.0268e-41 3.0268e-41 3.0268e-41 3.0268e-41 3.0268e-41 3.0268e-41 3.0268e-41 3.0268e-41 3.0268e-41 3.0268e-41 3.0268e-41 3.0268e-41 3.0268e-41 3.0268e-41 3.0268e-41 3.0268e-41 3.0268e-41 3.0268e-41 3.0268e-41 3.0268e-41 3.0268e-41 3.0268e-41 3.0268e-41 3.0268e-41 3.0268e-41 3.0268e-41 3.0268e-41 3.0268e-41 3.0268e-41 3.0268e-41 3.0268e-41 3.0268e-41 3.0268e-41 3.0268e-41 3.0268e-41 3.0268e-41 3.0268e-41;
   (1019115391) 3.0268e-41 3.0268e-41 3.0268e-41 3.0268e-41 3.0268e-41 3.0268e-41 3.0268e-41 3.0268e-41 3.0268e-41 3.0268e-41 3.0268e-41 3.0268e-41 3.0268e-41 3.0268e-41 3.0268e-41 3.0268e-41 3.0268e-41 3.0268e-41 3.0268e-41 1.24416e-28 3.95676e-13 0.00079217 0.998416 0.00079217 3.95676e-13 1.24416e-28 3.0268e-41 3.0268e-41 3.0268e-41 3.0268e-41 3.0268e-41 3.0268e-41 3.0268e-41 3.0268e-41 3.0268e-41 3.0268e-41 3.0268e-41 3.0268e-41 3.0268e-41 3.0268e-41 3.0268e-41 3.0268e-41 3.0268e-41 3.0268e-41 3.0268e-41 3.0268e-41 3.0268e-41 3.0268e-41 3.0268e-41 3.0268e-41 3.0268e-41 3.0268e-41 3.0268e-41 3.0268e-41 3.0268e-41 3.0268e-41 3.0268e-41 3.0268e-41 3.0268e-41 3.0268e-41 3.0268e-41 3.0268e-41 3.0268e-41 3.0268e-41 3.0268e-41 3.0268e-41 3.0268e-41 3.0268e-41 3.0268e-41 3.0268e-41 3.0268e-41 3.0268e-41 3.0268e-41 3.0268e-41 3.0268e-41 3.0268e-41;
   (1101178215) 3.0268e-41 3.0268e-41 3.0268e-41 3.0268e-41 3.0268e-41 3.0268e-41 3.0268e-41 3.0268e-41 3.0268e-41 3.0268e-41 3.0268e-41 3.0268e-41 3.0268e-41 3.0268e-41 3.0268e-41 3.0268e-41 3.0268e-41 3.0268e-41 3.0268e-41 1.24416e-28 3.95676e-13 0.00079217 0.998416 0.00079217 3.95676e-13 1.24416e-28 3.0268e-41 3.0268e-41 3.0268e-41 3.0268e-41 3.0268e-41 3.0268e-41 3.0268e-41 3.0268e-41 3.0268e-41 3.0268e-41 3.0268e-41 3.0268e-41 3.0268e-41 3.0268e-41 3.0268e-41 3.0268e-41 3.0268e-41 3.0268e-41 3.0268e-41 3.0268e-41 3.0268e-41 3.0268e-41 3.0268e-41 3.0268e-41 3.0268e-41 3.0268e-41 3.0268e-41 3.0268e-41 3.0268e-41 3.0268e-41 3.0268e-41 3.0268e-41 3.0268e-41 3.0268e-41 3.0268e-41 3.0268e-41 3.0268e-41 3.0268e-41 3.0268e-41 3.0268e-41 3.0268e-41 3.0268e-41 3.0268e-41 3.0268e-41 3.0268e-41 3.0268e-41 3.0268e-41 3.0268e-41 3.0268e-41 3.0268e-41;
   (1020814482) 3.0268e-41 3.0268e-41 3.0268e-41 3.0268e-41 3.0268e-41 3.0268e-41 3.0268e-41 3.0268e-41 3.0268e-41 3.0268e-41 3.0268e-41 3.0268e-41 3.0268e-41 3.0268e-41 3.0268e-41 3.0268e-41 3.0268e-41 3.0268e-41 3.0268e-41 1.24416e-28 3.95676e-13 0.00079217 0.998416 0.00079217 3.95676e-13 1.24416e-28 3.0268e-41 3.0268e-41 3.0268e-41 3.0268e-41 3.0268e-41 3.0268e-41 3.0268e-41 3.0268e-41 3.0268e-41 3.0268e-41 3.0268e-41 3.0268e-41 3.0268e-41 3.0268e-41 3.0268e-41 3.0268e-41 3.0268e-41 3.0268e-41 3.0268e-41 3.0268e-41 3.0268e-41 3.0268e-41 3.0268e-41 3.0268e-41 3.0268e-41 3.0268e-41 3.0268e-41 3.0268e-41 3.0268e-41 3.0268e-41 3.0268e-41 3.0268e-41 3.0268e-41 3.0268e-41 3.0268e-41 3.0268e-41 3.0268e-41 3.0268e-41 3.0268e-41 3.0268e-41 3.0268e-41 3.0268e-41 3.0268e-41 3.0268e-41 3.0268e-41 3.0268e-41 3.0268e-41 3.0268e-41 3.0268e-41 3.0268e-41;
   (1020809921) 3.0268e-41 3.0268e-41 3.0268e-41 3.0268e-41 3.0268e-41 3.0268e-41 3.0268e-41 3.0268e-41 3.0268e-41 3.0268e-41 3.0268e-41 3.0268e-41 3.0268e-41 3.0268e-41 3.0268e-41 3.0268e-41 3.0268e-41 3.0268e-41 3.0268e-41 1.24416e-28 3.95676e-13 0.00079217 0.998416 0.00079217 3.95676e-13 1.24416e-28 3.0268e-41 3.0268e-41 3.0268e-41 3.0268e-41 3.0268e-41 3.0268e-41 3.0268e-41 3.0268e-41 3.0268e-41 3.0268e-41 3.0268e-41 3.0268e-41 3.0268e-41 3.0268e-41 3.0268e-41 3.0268e-41 3.0268e-41 3.0268e-41 3.0268e-41 3.0268e-41 3.0268e-41 3.0268e-41 3.0268e-41 3.0268e-41 3.0268e-41 3.0268e-41 3.0268e-41 3.0268e-41 3.0268e-41 3.0268e-41 3.0268e-41 3.0268e-41 3.0268e-41 3.0268e-41 3.0268e-41 3.0268e-41 3.0268e-41 3.0268e-41 3.0268e-41 3.0268e-41 3.0268e-41 3.0268e-41 3.0268e-41 3.0268e-41 3.0268e-41 3.0268e-41 3.0268e-41 3.0268e-41 3.0268e-41 3.0268e-41;
   (1032473955) 3.0268e-41 3.0268e-41 3.0268e-41 3.0268e-41 3.0268e-41 3.0268e-41 3.0268e-41 3.0268e-41 3.0268e-41 3.0268e-41 3.0268e-41 3.0268e-41 3.0268e-41 3.0268e-41 3.0268e-41 3.0268e-41 3.0268e-41 3.0268e-41 3.0268e-41 3.0268e-41 1.24416e-28 3.95676e-13 0.00079217 0.998416 0.00079217 3.95676e-13 1.24416e-28 3.0268e-41 3.0268e-41 3.0268e-41 3.0268e-41 3.0268e-41 3.0268e-41 3.0268e-41 3.0268e-41 3.0268e-41 3.0268e-41 3.0268e-41 3.0268e-41 3.0268e-41 3.0268e-41 3.0268e-41 3.0268e-41 3.0268e-41 3.0268e-41 3.0268e-41 3.0268e-41 3.0268e-41 3.0268e-41 3.0268e-41 3.0268e-41 3.0268e-41 3.0268e-41 3.0268e-41 3.0268e-41 3.0268e-41 3.0268e-41 3.0268e-41 3.0268e-41 3.0268e-41 3.0268e-41 3.0268e-41 3.0268e-41 3.0268e-41 3.0268e-41 3.0268e-41 3.0268e-41 3.0268e-41 3.0268e-41 3.0268e-41 3.0268e-41 3.0268e-41 3.0268e-41 3.0268e-41 3.0268e-41 3.0268e-41;
   (1026295355) 3.0268e-41 3.0268e-41 3.0268e-41 3.0268e-41 3.0268e-41 3.0268e-41 3.0268e-41 3.0268e-41 3.0268e-41 3.0268e-41 3.0268e-41 3.0268e-41 3.0268e-41 3.0268e-41 3.0268e-41 3.0268e-41 3.0268e-41 3.0268e-41 3.0268e-41 1.24416e-28 3.95676e-13 0.00079217 0.998416 0.00079217 3.95676e-13 1.24416e-28 3.0268e-41 3.0268e-41 3.0268e-41 3.0268e-41 3.0268e-41 3.0268e-41 3.0268e-41 3.0268e-41 3.0268e-41 3.0268e-41 3.0268e-41 3.0268e-41 3.0268e-41 3.0268e-41 3.0268e-41 3.0268e-41 3.0268e-41 3.0268e-41 3.0268e-41 3.0268e-41 3.0268e-41 3.0268e-41 3.0268e-41 3.0268e-41 3.0268e-41 3.0268e-41 3.0268e-41 3.0268e-41 3.0268e-41 3.0268e-41 3.0268e-41 3.0268e-41 3.0268e-41 3.0268e-41 3.0268e-41 3.0268e-41 3.0268e-41 3.0268e-41 3.0268e-41 3.0268e-41 3.0268e-41 3.0268e-41 3.0268e-41 3.0268e-41 3.0268e-41 3.0268e-41 3.0268e-41 3.0268e-41 3.0268e-41 3.0268e-41;
   (1031150558) 3.0268e-41 3.0268e-41 3.0268e-41 3.0268e-41 3.0268e-41 3.0268e-41 3.0268e-41 3.0268e-41 3.0268e-41 3.0268e-41 3.0268e-41 3.0268e-41 3.0268e-41 3.0268e-41 3.0268e-41 3.0268e-41 3.0268e-41 3.0268e-41 3.0268e-41 3.0268e-41 3.0268e-41 3.0268e-41 1.24416e-28 3.95676e-13 0.00079217 0.998416 0.00079217 3.95676e-13 1.24416e-28 3.0268e-41 3.0268e-41 3.0268e-41 3.0268e-41 3.0268e-41 3.0268e-41 3.0268e-41 3.0268e-41 3.0268e-41 3.0268e-41 3.0268e-41 3.0268e-41 3.0268e-41 3.0268e-41 3.0268e-41 3.0268e-41 3.0268e-41 3.0268e-41 3.0268e-41 3.0268e-41 3.0268e-41 3.0268e-41 3.0268e-41 3.0268e-41 3.0268e-41 3.0268e-41 3.0268e-41 3.0268e-41 3.0268e-41 3.0268e-41 3.0268e-41 3.0268e-41 3.0268e-41 3.0268e-41 3.0268e-41 3.0268e-41 3.0268e-41 3.0268e-41 3.0268e-41 3.0268e-41 3.0268e-41 3.0268e-41 3.0268e-41 3.0268e-41 3.0268e-41 3.0268e-41 3.0268e-41;
   (1019107402) 3.0268e-41 3.0268e-41 3.0268e-41 3.0268e-41 3.0268e-41 3.0268e-41 3.0268e-41 3.0268e-41 3.0268e-41 3.0268e-41 3.0268e-41 3.0268e-41 3.0268e-41 3.0268e-41 3.0268e-41 3.0268e-41 3.0268e-41 3.0268e-41 3.0268e-41 3.0268e-41 1.24416e-28 3.95676e-13 0.00079217 0.998416 0.00079217 3.95676e-13 1.24416e-28 3.0268e-41 3.0268e-41 3.0268e-41 3.0268e-41 3.0268e-41 3.0268e-41 3.0268e-41 3.0268e-41 3.0268e-41 3.0268e-41 3.0268e-41 3.0268e-41 3.0268e-41 3.0268e-41 3.0268e-41 3.0268e-41 3.0268e-41 3.0268e-41 3.0268e-41 3.0268e-41 3.0268e-41 3.0268e-41 3.0268e-41 3.0268e-41 3.0268e-41 3.0268e-41 3.0268e-41 3.0268e-41 3.0268e-41 3.0268e-41 3.0268e-41 3.0268e-41 3.0268e-41 3.0268e-41 3.0268e-41 3.0268e-41 3.0268e-41 3.0268e-41 3.0268e-41 3.0268e-41 3.0268e-41 3.0268e-41 3.0268e-41 3.0268e-41 3.0268e-41 3.0268e-41 3.0268e-41 3.0268e-41 3.0268e-41;
   (1018494738) 3.0268e-41 3.0268e-41 3.0268e-41 3.0268e-41 3.0268e-41 3.0268e-41 3.0268e-41 3.0268e-41 3.0268e-41 3.0268e-41 3.0268e-41 3.0268e-41 3.0268e-41 3.0268e-41 3.0268e-41 3.0268e-41 3.0268e-41 3.0268e-41 1.24416e-28 3.95676e-13 0.00079217 0.998416 0.00079217 3.95676e-13 1.24416e-28 3.0268e-41 3.0268e-41 3.0268e-41 3.0268e-41 3.0268e-41 3.0268e-41 3.0268e-41 3.0268e-41 3.0268e-41 3.0268e-41 3.0268e-41 3.0268e-41 3.0268e-41 3.0268e-41 3.0268e-41 3.0268e-41 3.0268e-41 3.0268e-41 3.0268e-41 3.0268e-41 3.0268e-41 3.0268e-41 3.0268e-41 3.0268e-41 3.0268e-41 3.0268e-41 3.0268e-41 3.0268e-41 3.0268e-41 3.0268e-41 3.0268e-41 3.0268e-41 3.0268e-41 3.0268e-41 3.0268e-41 3.0268e-41 3.0268e-41 3.0268e-41 3.0268e-41 3.0268e-41 3.0268e-41 3.0268e-41 3.0268e-41 3.0268e-41 3.0268e-41 3.0268e-41 3.0268e-41 3.0268e-41 3.0268e-41 3.0268e-41 3.0268e-41;
   (1082749190) 3.0268e-41 3.0268e-41 3.0268e-41 3.0268e-41 3.0268e-41 3.0268e-41 3.0268e-41 3.0268e-41 3.0268e-41 3.0268e-41 3.0268e-41 3.0268e-41 3.0268e-41 3.0268e-41 3.0268e-41 3.0268e-41 3.0268e-41 3.0268e-41 1.24416e-28 3.95676e-13 0.00079217 0.998416 0.00079217 3.95676e-13 1.24416e-28 3.0268e-41 3.0268e-41 3.0268e-41 3.0268e-41 3.0268e-41 3.0268e-41 3.0268e-41 3.0268e-41 3.0268e-41 3.0268e-41 3.0268e-41 3.0268e-41 3.0268e-41 3.0268e-41 3.0268e-41 3.0268e-41 3.0268e-41 3.0268e-41 3.0268e-41 3.0268e-41 3.0268e-41 3.0268e-41 3.0268e-41 3.0268e-41 3.0268e-41 3.0268e-41 3.0268e-41 3.0268e-41 3.0268e-41 3.0268e-41 3.0268e-41 3.0268e-41 3.0268e-41 3.0268e-41 3.0268e-41 3.0268e-41 3.0268e-41 3.0268e-41 3.0268e-41 3.0268e-41 3.0268e-41 3.0268e-41 3.0268e-41 3.0268e-41 3.0268e-41 3.0268e-41 3.0268e-41 3.0268e-41 3.0268e-41 3.0268e-41 3.0268e-41;
   (80871350) 3.0268e-41 3.0268e-41 3.0268e-41 3.0268e-41 3.0268e-41 3.0268e-41 3.0268e-41 3.0268e-41 3.0268e-41 3.0268e-41 3.0268e-41 3.0268e-41 3.0268e-41 3.0268e-41 3.0268e-41 3.0268e-41 3.0268e-41 3.0268e-41 3.0268e-41 3.0268e-41 3.0268e-41 3.0268e-41 3.0268e-41 3.0268e-41 3.0268e-41 3.0268e-41 3.0268e-41 3.0268e-41 3.0268e-41 3.0268e-41 3.0268e-41 1.24416e-28 3.95676e-13 0.00079217 0.998416 0.00079217 3.95676e-13 1.24416e-28 3.0268e-41 3.0268e-41 3.0268e-41 3.0268e-41 3.0268e-41 3.0268e-41 3.0268e-41 3.0268e-41 3.0268e-41 3.0268e-41 3.0268e-41 3.0268e-41 3.0268e-41 3.0268e-41 3.0268e-41 3.0268e-41 3.0268e-41 3.0268e-41 3.0268e-41 3.0268e-41 3.0268e-41 3.0268e-41 3.0268e-41 3.0268e-41 3.0268e-41 3.0268e-41 3.0268e-41 3.0268e-41 3.0268e-41 3.0268e-41 3.0268e-41 3.0268e-41 3.0268e-41 3.0268e-41 3.0268e-41 3.0268e-41 3.0268e-41 3.0268e-41;
   (1068976301) 3.0268e-41 3.0268e-41 3.0268e-41 3.0268e-41 3.0268e-41 3.0268e-41 3.0268e-41 3.0268e-41 3.0268e-41 3.0268e-41 3.0268e-41 3.0268e-41 3.0268e-41 3.0268e-41 3.0268e-41 3.0268e-41 3.0268e-41 3.0268e-41 1.24416e-28 3.95676e-13 0.00079217 0.998416 0.00079217 3.95676e-13 1.24416e-28 3.0268e-41 3.0268e-41 3.0268e-41 3.0268e-41 3.0268e-41 3.0268e-41 3.0268e-41 3.0268e-41 3.0268e-41 3.0268e-41 3.0268e-41 3.0268e-41 3.0268e-41 3.0268e-41 3.0268e-41 3.0268e-41 3.0268e-41 3.0268e-41 3.0268e-41 3.0268e-41 3.0268e-41 3.0268e-41 3.0268e-41 3.0268e-41 3.0268e-41 3.0268e-41 3.0268e-41 3.0268e-41 3.0268e-41 3.0268e-41 3.0268e-41 3.0268e-41 3.0268e-41 3.0268e-41 3.0268e-41 3.0268e-41 3.0268e-41 3.0268e-41 3.0268e-41 3.0268e-41 3.0268e-41 3.0268e-41 3.0268e-41 3.0268e-41 3.0268e-41 3.0268e-41 3.0268e-41 3.0268e-41 3.0268e-41 3.0268e-41 3.0268e-41;
   (1020815022) 3.0268e-41 3.0268e-41 3.0268e-41 3.0268e-41 3.0268e-41 3.0268e-41 3.0268e-41 3.0268e-41 3.0268e-41 3.0268e-41 3.0268e-41 3.0268e-41 3.0268e-41 3.0268e-41 3.0268e-41 3.0268e-41 3.0268e-41 3.0268e-41 3.0268e-41 1.24416e-28 3.95676e-13 0.00079217 0.998416 0.00079217 3.95676e-13 1.24416e-28 3.0268e-41 3.0268e-41 3.0268e-41 3.0268e-41 3.0268e-41 3.0268e-41 3.0268e-41 3.0268e-41 3.0268e-41 3.0268e-41 3.0268e-41 3.0268e-41 3.0268e-41 3.0268e-41 3.0268e-41 3.0268e-41 3.0268e-41 3.0268e-41 3.0268e-41 3.0268e-41 3.0268e-41 3.0268e-41 3.0268e-41 3.0268e-41 3.0268e-41 3.0268e-41 3.0268e-41 3.0268e-41 3.0268e-41 3.0268e-41 3.0268e-41 3.0268e-41 3.0268e-41 3.0268e-41 3.0268e-41 3.0268e-41 3.0268e-41 3.0268e-41 3.0268e-41 3.0268e-41 3.0268e-41 3.0268e-41 3.0268e-41 3.0268e-41 3.0268e-41 3.0268e-41 3.0268e-41 3.0268e-41 3.0268e-41 3.0268e-41;
   (1036933458) 3.0268e-41 3.0268e-41 3.0268e-41 3.0268e-41 3.0268e-41 3.0268e-41 3.0268e-41 3.0268e-41 3.0268e-41 3.0268e-41 3.0268e-41 3.0268e-41 3.0268e-41 3.0268e-41 3.0268e-41 3.0268e-41 3.0268e-41 3.0268e-41 3.0268e-41 3.0268e-41 3.0268e-41 3.0268e-41 3.0268e-41 3.0268e-41 3.0268e-41 3.0268e-41 1.24416e-28 3.95676e-13 0.00079217 0.998416 0.00079217 3.95676e-13 1.24416e-28 3.0268e-41 3.0268e-41 3.0268e-41 3.0268e-41 3.0268e-41 3.0268e-41 3.0268e-41 3.0268e-41 3.0268e-41 3.0268e-41 3.0268e-41 3.0268e-41 3.0268e-41 3.0268e-41 3.0268e-41 3.0268e-41 3.0268e-41 3.0268e-41 3.0268e-41 3.0268e-41 3.0268e-41 3.0268e-41 3.0268e-41 3.0268e-41 3.0268e-41 3.0268e-41 3.0268e-41 3.0268e-41 3.0268e-41 3.0268e-41 3.0268e-41 3.0268e-41 3.0268e-41 3.0268e-41 3.0268e-41 3.0268e-41 3.0268e-41 3.0268e-41 3.0268e-41 3.0268e-41 3.0268e-41 3.0268e-41 3.0268e-41;
}
probability (H | I) {
   (0) 0.0052356 0.0052356 0.0052356 0.0052356 0.0052356 0.0052356 0.0052356 0.0052356 0.0052356 0.0052356 0.0052356 0.0052356 0.0052356 0.0052356 0.0052356 0.0052356 0.0052356 0.0052356 0.0052356 0.0052356 0.0052356 0.0052356 0.0052356 0.0052356 0.0052356 0.0052356 0.0052356 0.0052356 0.0052356 0.0052356 0.0052356 0.0052356 0.0052356 0.0052356 0.0052356 0.0052356 0.0052356 0.0052356 0.0052356 0.0052356 0.0052356 0.0052356 0.0052356 0.0052356 0.0052356 0.0052356 0.0052356 0.0052356 0.0052356 0.0052356 0.0052356 0.0052356 0.0052356 0.0052356 0.0052356 0.0052356 0.0052356 0.0052356 0.0052356 0.0052356 0.0052356 0.0052356 0.0052356 0.0052356 0.0052356 0.0052356 0.0052356 0.0052356 0.0052356 0.0052356 0.0052356 0.0052356 0.0052356 0.0052356 0.0052356 0.0052356 0.0052356 0.0052356 0.0052356 0.0052356 0.0052356 0.0052356 0.0052356 0.0052356 0.0052356 0.0052356 0.0052356 0.0052356 0.0052356 0.0052356 0.0052356 0.0052356 0.0052356 0.0052356 0.0052356 0.0052356 0.0052356 0.0052356 0.0052356 0.0052356 0.0052356 0.0052356 0.0052356 0.0052356 0.0052356 0.0052356 0.0052356 0.0052356 0.0052356 0.0052356 0.0052356 0.0052356 0.0052356 0.0052356 0.0052356 0.0052356 0.0052356 0.0052356 0.0052356 0.0052356 0.0052356 0.0052356 0.0052356 0.0052356 0.0052356 0.0052356 0.0052356 0.0052356 0.0052356 0.0052356 0.0052356 0.0052356 0.0052356 0.0052356 0.0052356 0.0052356 0.0052356 0.0052356 0.0052356 0.0052356 0.0052356 0.0052356 0.0052356 0.0052356 0.0052356 0.0052356 0.0052356 0.0052356 0.0052356 0.0052356 0.0052356 0.0052356 0.0052356 0.0052356 0.0052356 0.0052356 0.0052356 0.0052356 0.0052356 0.0052356 0.0052356 0.0052356 0.0052356 0.0052356 0.0052356 0.0052356 0.0052356 0.0052356 0.0052356 0.0052356 0.0052356 0.0052356 0.0052356 0.0052356 0.0052356 0.0052356 0.0052356 0.0052356 0.0052356 0.0052356 0.0052356 0.0052356 0.0052356 0.0052356 0.0052356 0.0052356 0.0052356 0.0052356 0.0052356 0.0052356 0.0052356;
   (1020813120) 2.98216e-10 4.23706e-10 5.99943e-10 8.46579e-10 1.19052e-09 1.66847e-09 2.3303e-09 3.24352e-09 4.49918e-09 6.21959e-09 8.56845e-09 1.1764e-08 1.6096e-08 2.1948e-08 2.98252e-08 4.03909e-08 5.45123e-08 7.33193e-08 9.82775e-08 1.31281e-07 1.74767e-07 2.31863e-07 3.06559e-07 4.03933e-07 5.30415e-07 6.9412e-07 9.05243e-07 1.17654e-06 1.52392e-06 1.9671e-06 2.53049e-06 3.24411e-06 4.14473e-06 5.27728e-06 6.69631e-06 8.46784e-06 1.06714e-05 1.34024e-05 1.67747e-05 2.09238e-05 2.60098e-05 3.22214e-05 3.978e-05 4.89438e-05 6.00124e-05 7.33326e-05 8.93028e-05 0.000108379 0.00013108 0.000157994 0.000189782 0.000227186 0.000271032 0.000322234 0.000381798 0.000450825 0.000530511 0.000622147 0.000727115 0.000846886 0.000983012 0.00113712 0.00131088 0.00150602 0.0017243 0.00196746 0.00223723 0.00253529 0.00286323 0.00322253 0.00361451 0.00404031 0.00450081 0.00499665 0.00552813 0.00609523 0.00669752 0.00733415 0.00800382 0.00870475 0.00943469 0.0101909 0.01097 0.0117683 0.0125815 0.0134048 0.0142332 0.0150611 0.0158827 0.0166918 0.017482 0.0182471 0.0189805 0.0196758 0.0203268 0.0209276 0.0214724 0.021956 0.0223737 0.0227213 0.0229955 0.0231933 0.0233128 0.0233528 0.0233128 0.0231933 0.0229955 0.0227213 0.0223737 0.021956 0.0214724 0.0209276 0.0203268 0.0196758 0.0189805 0.0182471 0.017482 0.0166918 0.0158827 0.0150611 0.0142332 0.0134048 0.0125815 0.0117683 0.01097 0.0101909 0.00943469 0.00870475 0.00800382 0.00733415 0.00669752 0.00609523 0.00552813 0.00499665 0.00450081 0.00404031 0.00361451 0.00322253 0.00286323 0.00253529 0.00223723 0.00196746 0.0017243 0.00150602 0.00131088 0.00113712 0.000983012 0.000846886 0.000727115 0.000622147 0.000530511 0.000450825 0.000381798 0.000322234 0.000271032 0.000227186 0.000189782 0.000157994 0.00013108 0.000108379 8.93028e-05 7.33326e-05 6.00124e-05 4.89438e-05 3.978e-05 3.22214e-05 2.60098e-05 2.09238e-05 1.67747e-05 1.34024e-05 1.06714e-05 8.46784e-06 6.69631e-06 5.27728e-06 4.14473e-06 3.24411e-06 2.53049e-06 1.9671e-06 1.52392e-06 1.17654e-06 9.05243e-07 6.9412e-07 5.30415e-07 4.03933e-07 3.06559e-07 2.31863e-07 1.74767e-07 1.31281e-07 9.82775e-08 7.33193e-08 5.45123e-08;
   (1015456917) 4.23706e-10 5.99943e-10 8.46579e-10 1.19052e-09 1.66847e-09 2.3303e-09 3.24352e-09 4.49918e-09 6.21959e-09 8.56845e-09 1.1764e-08 1.6096e-08 2.1948e-08 2.98252e-08 4.03909e-08 5.45123e-08 7.33193e-08 9.82775e-08 1.31281e-07 1.74767e-07 2.31863e-07 3.06559e-07 4.03933e-07 5.30415e-07 6.9412e-07 9.05243e-07 1.17654e-06 1.52392e-06 1.9671e-06 2.53049e-06 3.24411e-06 4.14473e-06 5.27728e-06 6.69631e-06 8.46784e-06 1.06714e-05 1.34024e-05 1.67747e-05 2.09238e-05 2.60098e-05 3.22214e-05 3.978e-05 4.89438e-05 6.00124e-05 7.33326e-05 8.93028e-05 0.000108379 0.00013108 0.000157994 0.000189782 0.000227186 0.000271032 0.000322234 0.000381798 0.000450825 0.000530511 0.000622147 0.000727115 0.000846886 0.000983012 0.00113712 0.00131088 0.00150602 0.0017243 0.00196746 0.00223723 0.00253529 0.00286323 0.00322253 0.00361451 0.00404031 0.00450081 0.00499665 0.00552813 0.00609523 0.00669752 0.00733415 0.00800382 0.00870475 0.00943469 0.0101909 0.01097 0.0117683 0.0125815 0.0134048 0.0142332 0.0150611 0.0158827 0.0166917 0.017482 0.0182471 0.0189805 0.0196758 0.0203268 0.0209276 0.0214724 0.021956 0.0223737 0.0227213 0.0229955 0.0231933 0.0233128 0.0233528 0.0233128 0.0231933 0.0229955 0.0227213 0.0223737 0.021956 0.0214724 0.0209276 0.0203268 0.0196758 0.0189805 0.0182471 0.017482 0.0166917 0.0158827 0.0150611 0.0142332 0.0134048 0.0125815 0.0117683 0.01097 0.0101909 0.00943469 0.00870475 0.00800382 0.00733415 0.00669752 0.00609523 0.00552813 0.00499665 0.00450081 0.00404031 0.00361451 0.00322253 0.00286323 0.00253529 0.00223723 0.00196746 0.0017243 0.00150602 0.00131088 0.00113712 0.000983012 0.000846886 0.000727115 0.000622147 0.000530511 0.000450825 0.000381798 0.000322234 0.000271032 0.000227186 0.000189782 0.000157994 0.00013108 0.000108379 8.93028e-05 7.33326e-05 6.00124e-05 4.89438e-05 3.978e-05 3.22214e-05 2.60098e-05 2.09238e-05 1.67747e-05 1.34024e-05 1.06714e-05 8.46784e-06 6.69631e-06 5.27728e-06 4.14473e-06 3.24411e-06 2.53049e-06 1.9671e-06 1.52392e-06 1.17654e-06 9.05243e-07 6.9412e-07 5.30415e-07 4.03933e-07 3.06559e-07 2.31863e-07 1.74767e-07 1.31281e-07 9.82775e-08 7.33193e-08 5.45123e-08 4.03909e-08;
   (1010224167) 2.14454e-12 2.14454e-12 2.14454e-12 2.14454e-12 2.2708e-12 3.37333e-12 4.99402e-12 7.36807e-12 1.08335e-11 1.58743e-11 2.31811e-11 3.37354e-11 4.89269e-11 7.07167e-11 1.01861e-10 1.4622e-10 2.09178e-10 2.98221e-10 4.23714e-10 5.99954e-10 8.46595e-10 1.19054e-09 1.6685e-09 2.33034e-09 3.24358e-09 4.49926e-09 6.2197e-09 8.56861e-09 1.17642e-08 1.60963e-08 2.19484e-08 2.98257e-08 4.03916e-08 5.45133e-08 7.33207e-08 9.82793e-08 1.31283e-07 1.74771e-07 2.31867e-07 3.06565e-07 4.0394e-07 5.30425e-07 6.94133e-07 9.05259e-07 1.17656e-06 1.52394e-06 1.96714e-06 2.53054e-06 3.24416e-06 4.14481e-06 5.27737e-06 6.69643e-06 8.46799e-06 1.06716e-05 1.34026e-05 1.6775e-05 2.09242e-05 2.60102e-05 3.2222e-05 3.97808e-05 4.89447e-05 6.00135e-05 7.3334e-05 8.93044e-05 0.000108381 0.000131082 0.000157996 0.000189785 0.00022719 0.000271037 0.00032224 0.000381805 0.000450834 0.000530521 0.000622158 0.000727128 0.000846902 0.00098303 0.00113714 0.0013109 0.00150605 0.00172433 0.0019675 0.00223727 0.00253534 0.00286329 0.00322259 0.00361458 0.00404038 0.00450089 0.00499674 0.00552823 0.00609535 0.00669764 0.00733428 0.00800396 0.00870491 0.00943486 0.010191 0.0109702 0.0117685 0.0125817 0.0134051 0.0142335 0.0150614 0.015883 0.0166921 0.0174823 0.0182474 0.0189808 0.0196762 0.0203272 0.0209279 0.0214727 0.0219564 0.0223741 0.0227218 0.0229959 0.0231937 0.0233133 0.0233532 0.0233133 0.0231937 0.0229959 0.0227218 0.0223741 0.0219564 0.0214727 0.0209279 0.0203272 0.0196762 0.0189808 0.0182474 0.0174823 0.0166921 0.015883 0.0150614 0.0142335 0.0134051 0.0125817 0.0117685 0.0109702 0.010191 0.00943486 0.00870491 0.00800396 0.00733428 0.00669764 0.00609535 0.00552823 0.00499674 0.00450089 0.00404038 0.00361458 0.00322259 0.00286329 0.00253534 0.00223727 0.0019675 0.00172433 0.00150605 0.0013109 0.00113714 0.00098303 0.000846902 0.000727128 0.000622158 0.000530521 0.000450834 0.000381805 0.00032224 0.000271037 0.00022719 0.000189785 0.000157996 0.000131082 0.000108381 8.93044e-05 7.3334e-05 6.00135e-05 4.89447e-05 3.97808e-05 3.2222e-05 2.60102e-05 2.09242e-05 1.6775e-05 1.34026e-05 1.06716e-05 8.46799e-06 6.69643e-06 5.27737e-06;
   (1019115391) 2.14492e-12 2.14492e-12 2.14492e-12 2.14492e-12 2.14492e-12 2.14492e-12 2.14492e-12 2.14492e-12 2.14492e-12 2.14492e-12 2.14492e-12 2.14492e-12 2.14492e-12 2.14492e-12 2.27121e-12 3.37394e-12 4.99492e-12 7.3694e-12 1.08355e-11 1.58772e-11 2.31853e-11 3.37414e-11 4.89357e-11 7.07295e-11 1.0188e-10 1.46246e-10 2.09216e-10 2.98275e-10 4.2379e-10 6.00062e-10 8.46747e-10 1.19076e-09 1.6688e-09 2.33076e-09 3.24416e-09 4.50007e-09 6.22082e-09 8.57015e-09 1.17663e-08 1.60992e-08 2.19524e-08 2.98311e-08 4.03989e-08 5.45232e-08 7.33339e-08 9.8297e-08 1.31307e-07 1.74802e-07 2.31909e-07 3.0662e-07 4.04013e-07 5.30521e-07 6.94258e-07 9.05422e-07 1.17677e-06 1.52422e-06 1.96749e-06 2.531e-06 3.24475e-06 4.14556e-06 5.27833e-06 6.69764e-06 8.46952e-06 1.06735e-05 1.34051e-05 1.67781e-05 2.09279e-05 2.60149e-05 3.22278e-05 3.97879e-05 4.89535e-05 6.00244e-05 7.33472e-05 8.93205e-05 0.0001084 0.000131106 0.000158025 0.000189819 0.000227231 0.000271086 0.000322298 0.000381874 0.000450915 0.000530617 0.00062227 0.000727259 0.000847054 0.000983207 0.00113734 0.00131114 0.00150632 0.00172464 0.00196785 0.00223768 0.0025358 0.0028638 0.00322317 0.00361523 0.00404111 0.0045017 0.00499764 0.00552923 0.00609644 0.00669885 0.0073356 0.0080054 0.00870648 0.00943656 0.0101929 0.0109721 0.0117706 0.0125839 0.0134075 0.0142361 0.0150641 0.0158858 0.0166951 0.0174855 0.0182507 0.0189842 0.0196797 0.0203309 0.0209317 0.0214766 0.0219603 0.0223781 0.0227259 0.023 0.0231979 0.0233175 0.0233574 0.0233175 0.0231979 0.023 0.0227259 0.0223781 0.0219603 0.0214766 0.0209317 0.0203309 0.0196797 0.0189842 0.0182507 0.0174855 0.0166951 0.0158858 0.0150641 0.0142361 0.0134075 0.0125839 0.0117706 0.0109721 0.0101929 0.00943656 0.00870648 0.0080054 0.0073356 0.00669885 0.00609644 0.00552923 0.00499764 0.0045017 0.00404111 0.00361523 0.00322317 0.0028638 0.0025358 0.00223768 0.00196785 0.00172464 0.00150632 0.00131114 0.00113734 0.000983207 0.000847054 0.000727259 0.00062227 0.000530617 0.000450915 0.000381874 0.000322298 0.000271086 0.000227231 0.000189819 0.000158025 0.000131106 0.0001084 8.93205e-05 7.33472e-05 6.00244e-05 4.89535e-05;
   (1101178215) 4.99395e-12 7.36796e-12 1.08333e-11 1.58741e-11 2.31808e-11 3.37349e-11 4.89262e-11 7.07157e-11 1.0186e-10 1.46218e-10 2.09175e-10 2.98217e-10 4.23707e-10 5.99945e-10 8.46582e-10 1.19053e-09 1.66848e-09 2.33031e-09 3.24353e-09 4.49919e-09 6.21961e-09 8.56848e-09 1.1764e-08 1.60961e-08 2.19481e-08 2.98253e-08 4.0391e-08 5.45125e-08 7.33196e-08 9.82778e-08 1.31281e-07 1.74768e-07 2.31864e-07 3.0656e-07 4.03934e-07 5.30417e-07 6.94123e-07 9.05246e-07 1.17655e-06 1.52392e-06 1.96711e-06 2.5305e-06 3.24412e-06 4.14475e-06 5.2773e-06 6.69633e-06 8.46787e-06 1.06714e-05 1.34024e-05 1.67748e-05 2.09238e-05 2.60099e-05 3.22216e-05 3.97802e-05 4.89439e-05 6.00127e-05 7.33329e-05 8.93031e-05 0.000108379 0.00013108 0.000157994 0.000189782 0.000227187 0.000271033 0.000322235 0.0003818 0.000450827 0.000530513 0.000622149 0.000727118 0.000846889 0.000983016 0.00113712 0.00131088 0.00150603 0.00172431 0.00196747 0.00223724 0.0025353 0.00286324 0.00322254 0.00361453 0.00404032 0.00450082 0.00499666 0.00552815 0.00609526 0.00669755 0.00733417 0.00800384 0.00870478 0.00943472 0.0101909 0.01097 0.0117683 0.0125815 0.0134049 0.0142333 0.0150612 0.0158827 0.0166918 0.0174821 0.0182471 0.0189805 0.0196759 0.0203269 0.0209276 0.0214724 0.021956 0.0223738 0.0227214 0.0229956 0.0231934 0.0233129 0.0233529 0.0233129 0.0231934 0.0229956 0.0227214 0.0223738 0.021956 0.0214724 0.0209276 0.0203269 0.0196759 0.0189805 0.0182471 0.0174821 0.0166918 0.0158827 0.0150612 0.0142333 0.0134049 0.0125815 0.0117683 0.01097 0.0101909 0.00943472 0.00870478 0.00800384 0.00733417 0.00669755 0.00609526 0.00552815 0.00499666 0.00450082 0.00404032 0.00361453 0.00322254 0.00286324 0.0025353 0.00223724 0.00196747 0.00172431 0.00150603 0.00131088 0.00113712 0.000983016 0.000846889 0.000727118 0.000622149 0.000530513 0.000450827 0.0003818 0.000322235 0.000271033 0.000227187 0.000189782 0.000157994 0.00013108 0.000108379 8.93031e-05 7.33329e-05 6.00127e-05 4.89439e-05 3.97802e-05 3.22216e-05 2.60099e-05 2.09238e-05 1.67748e-05 1.34024e-05 1.06714e-05 8.46787e-06 6.69633e-06 5.2773e-06 4.14475e-06 3.24412e-06 2.5305e-06 1.96711e-06 1.52392e-06 1.17655e-06;
   (1020814482) 2.14477e-12 2.14477e-12 2.14477e-12 2.14477e-12 2.14477e-12 2.14477e-12 2.14477e-12 2.14477e-12 2.14477e-12 2.14477e-12 2.14477e-12 2.14477e-12 2.27105e-12 3.3737e-12 4.99456e-12 7.36887e-12 1.08347e-11 1.58761e-11 2.31836e-11 3.3739e-11 4.89322e-11 7.07244e-11 1.01872e-10 1.46236e-10 2.09201e-10 2.98254e-10 4.23759e-10 6.00019e-10 8.46686e-10 1.19067e-09 1.66868e-09 2.33059e-09 3.24393e-09 4.49975e-09 6.22038e-09 8.56953e-09 1.17655e-08 1.60981e-08 2.19508e-08 2.9829e-08 4.0396e-08 5.45192e-08 7.33286e-08 9.82899e-08 1.31297e-07 1.7479e-07 2.31892e-07 3.06598e-07 4.03984e-07 5.30482e-07 6.94208e-07 9.05357e-07 1.17669e-06 1.52411e-06 1.96735e-06 2.53081e-06 3.24452e-06 4.14526e-06 5.27795e-06 6.69715e-06 8.46891e-06 1.06728e-05 1.34041e-05 1.67768e-05 2.09264e-05 2.60131e-05 3.22255e-05 3.97851e-05 4.89499e-05 6.002e-05 7.33419e-05 8.93141e-05 0.000108393 0.000131096 0.000158013 0.000189806 0.000227215 0.000271066 0.000322275 0.000381846 0.000450882 0.000530578 0.000622226 0.000727207 0.000846993 0.000983136 0.00113726 0.00131104 0.00150621 0.00172452 0.00196771 0.00223752 0.00253561 0.0028636 0.00322294 0.00361497 0.00404082 0.00450138 0.00499728 0.00552883 0.006096 0.00669837 0.00733507 0.00800483 0.00870585 0.00943588 0.0101921 0.0109714 0.0117697 0.012583 0.0134065 0.014235 0.015063 0.0158847 0.0166939 0.0174842 0.0182494 0.0189829 0.0196783 0.0203294 0.0209302 0.0214751 0.0219587 0.0223765 0.0227242 0.0229984 0.0231962 0.0233158 0.0233558 0.0233158 0.0231962 0.0229984 0.0227242 0.0223765 0.0219587 0.0214751 0.0209302 0.0203294 0.0196783 0.0189829 0.0182494 0.0174842 0.0166939 0.0158847 0.015063 0.014235 0.0134065 0.012583 0.0117697 0.0109714 0.0101921 0.00943588 0.00870585 0.00800483 0.00733507 0.00669837 0.006096 0.00552883 0.00499728 0.00450138 0.00404082 0.00361497 0.00322294 0.0028636 0.00253561 0.00223752 0.00196771 0.00172452 0.00150621 0.00131104 0.00113726 0.000983136 0.000846993 0.000727207 0.000622226 0.000530578 0.000450882 0.000381846 0.000322275 0.000271066 0.000227215 0.000189806 0.000158013 0.000131096 0.000108393 8.93141e-05 7.33419e-05 6.002e-05 4.89499e-05 3.97851e-05 3.22255e-05;
   (1020809921) 2.14471e-12 2.14471e-12 2.14471e-12 2.14471e-12 2.14471e-12 2.14471e-12 2.14471e-12 2.14471e-12 2.14471e-12 2.14471e-12 2.14471e-12 2.27099e-12 3.37361e-12 4.99443e-12 7.36867e-12 1.08344e-11 1.58756e-11 2.3183e-11 3.37381e-11 4.89309e-11 7.07226e-11 1.0187e-10 1.46232e-10 2.09196e-10 2.98246e-10 4.23748e-10 6.00003e-10 8.46664e-10 1.19064e-09 1.66864e-09 2.33053e-09 3.24384e-09 4.49963e-09 6.22022e-09 8.56931e-09 1.17652e-08 1.60977e-08 2.19502e-08 2.98282e-08 4.03949e-08 5.45178e-08 7.33267e-08 9.82873e-08 1.31294e-07 1.74785e-07 2.31886e-07 3.0659e-07 4.03974e-07 5.30469e-07 6.9419e-07 9.05333e-07 1.17666e-06 1.52407e-06 1.9673e-06 2.53075e-06 3.24443e-06 4.14515e-06 5.27781e-06 6.69698e-06 8.46869e-06 1.06725e-05 1.34037e-05 1.67764e-05 2.09259e-05 2.60124e-05 3.22247e-05 3.9784e-05 4.89487e-05 6.00185e-05 7.334e-05 8.93117e-05 0.00010839 0.000131093 0.000158009 0.000189801 0.000227209 0.000271059 0.000322266 0.000381837 0.000450871 0.000530565 0.000622209 0.000727188 0.000846971 0.000983111 0.00113723 0.00131101 0.00150617 0.00172447 0.00196766 0.00223746 0.00253555 0.00286352 0.00322286 0.00361488 0.00404071 0.00450126 0.00499715 0.00552869 0.00609585 0.00669819 0.00733488 0.00800462 0.00870563 0.00943563 0.0101919 0.0109711 0.0117694 0.0125827 0.0134062 0.0142347 0.0150627 0.0158843 0.0166934 0.0174838 0.0182489 0.0189824 0.0196778 0.0203289 0.0209297 0.0214745 0.0219582 0.0223759 0.0227236 0.0229978 0.0231956 0.0233152 0.0233551 0.0233152 0.0231956 0.0229978 0.0227236 0.0223759 0.0219582 0.0214745 0.0209297 0.0203289 0.0196778 0.0189824 0.0182489 0.0174838 0.0166934 0.0158843 0.0150627 0.0142347 0.0134062 0.0125827 0.0117694 0.0109711 0.0101919 0.00943563 0.00870563 0.00800462 0.00733488 0.00669819 0.00609585 0.00552869 0.00499715 0.00450126 0.00404071 0.00361488 0.00322286 0.00286352 0.00253555 0.00223746 0.00196766 0.00172447 0.00150617 0.00131101 0.00113723 0.000983111 0.000846971 0.000727188 0.000622209 0.000530565 0.000450871 0.000381837 0.000322266 0.000271059 0.000227209 0.000189801 0.000158009 0.000131093 0.00010839 8.93117e-05 7.334e-05 6.00185e-05 4.89487e-05 3.9784e-05 3.22247e-05 2.60124e-05;
   (1032473955) 2.14492e-12 2.14492e-12 2.14492e-12 2.14492e-12 2.14492e-12 2.14492e-12 2.14492e-12 2.14492e-12 2.14492e-12 2.14492e-12 2.14492e-12 2.14492e-12 2.14492e-12 2.14492e-12 2.27121e-12 3.37394e-12 4.99492e-12 7.3694e-12 1.08355e-11 1.58772e-11 2.31853e-11 3.37414e-11 4.89357e-11 7.07295e-11 1.0188e-10 1.46246e-10 2.09216e-10 2.98275e-10 4.2379e-10 6.00062e-10 8.46747e-10 1.19076e-09 1.6688e-09 2.33076e-09 3.24416e-09 4.50007e-09 6.22082e-09 8.57015e-09 1.17663e-08 1.60992e-08 2.19524e-08 2.98311e-08 4.03989e-08 5.45232e-08 7.33339e-08 9.8297e-08 1.31307e-07 1.74802e-07 2.31909e-07 3.0662e-07 4.04013e-07 5.30521e-07 6.94258e-07 9.05422e-07 1.17677e-06 1.52422e-06 1.96749e-06 2.531e-06 3.24475e-06 4.14556e-06 5.27833e-06 6.69764e-06 8.46952e-06 1.06735e-05 1.34051e-05 1.67781e-05 2.09279e-05 2.60149e-05 3.22278e-05 3.97879e-05 4.89535e-05 6.00244e-05 7.33472e-05 8.93205e-05 0.0001084 0.000131106 0.000158025 0.000189819 0.000227231 0.000271086 0.000322298 0.000381874 0.000450915 0.000530617 0.00062227 0.000727259 0.000847054 0.000983207 0.00113734 0.00131114 0.00150632 0.00172464 0.00196785 0.00223768 0.0025358 0.0028638 0.00322317 0.00361523 0.00404111 0.0045017 0.00499764 0.00552923 0.00609644 0.00669885 0.0073356 0.0080054 0.00870648 0.00943656 0.0101929 0.0109721 0.0117706 0.0125839 0.0134075 0.0142361 0.0150641 0.0158858 0.0166951 0.0174855 0.0182507 0.0189842 0.0196797 0.0203309 0.0209317 0.0214766 0.0219603 0.0223781 0.0227259 0.023 0.0231979 0.0233175 0.0233574 0.0233175 0.0231979 0.023 0.0227259 0.0223781 0.0219603 0.0214766 0.0209317 0.0203309 0.0196797 0.0189842 0.0182507 0.0174855 0.0166951 0.0158858 0.0150641 0.0142361 0.0134075 0.0125839 0.0117706 0.0109721 0.0101929 0.00943656 0.00870648 0.0080054 0.0073356 0.00669885 0.00609644 0.00552923 0.00499764 0.0045017 0.00404111 0.00361523 0.00322317 0.0028638 0.0025358 0.00223768 0.00196785 0.00172464 0.00150632 0.00131114 0.00113734 0.000983207 0.000847054 0.000727259 0.00062227 0.000530617 0.000450915 0.000381874 0.000322298 0.000271086 0.000227231 0.000189819 0.000158025 0.000131106 0.0001084 8.93205e-05 7.33472e-05 6.00244e-05 4.89535e-05;
   (1026295355) 2.14452e-12 2.14452e-12 2.27079e-12 3.37331e-12 4.99398e-12 7.36801e-12 1.08334e-11 1.58742e-11 2.3181e-11 3.37351e-11 4.89266e-11 7.07162e-11 1.0186e-10 1.46219e-10 2.09177e-10 2.98219e-10 4.2371e-10 5.9995e-10 8.46588e-10 1.19053e-09 1.66849e-09 2.33032e-09 3.24355e-09 4.49923e-09 6.21966e-09 8.56854e-09 1.17641e-08 1.60962e-08 2.19482e-08 2.98255e-08 4.03913e-08 5.45129e-08 7.33201e-08 9.82785e-08 1.31282e-07 1.74769e-07 2.31866e-07 3.06563e-07 4.03937e-07 5.30421e-07 6.94127e-07 9.05252e-07 1.17655e-06 1.52393e-06 1.96713e-06 2.53052e-06 3.24414e-06 4.14478e-06 5.27734e-06 6.69638e-06 8.46793e-06 1.06715e-05 1.34025e-05 1.67749e-05 2.0924e-05 2.60101e-05 3.22218e-05 3.97805e-05 4.89443e-05 6.00131e-05 7.33334e-05 8.93037e-05 0.00010838 0.000131081 0.000157995 0.000189784 0.000227188 0.000271035 0.000322237 0.000381802 0.00045083 0.000530517 0.000622154 0.000727123 0.000846895 0.000983023 0.00113713 0.00131089 0.00150604 0.00172432 0.00196748 0.00223726 0.00253532 0.00286326 0.00322257 0.00361455 0.00404035 0.00450086 0.0049967 0.00552819 0.0060953 0.00669759 0.00733423 0.0080039 0.00870485 0.00943479 0.010191 0.0109701 0.0117684 0.0125816 0.013405 0.0142334 0.0150613 0.0158829 0.0166919 0.0174822 0.0182473 0.0189807 0.019676 0.020327 0.0209278 0.0214726 0.0219562 0.0223739 0.0227216 0.0229957 0.0231936 0.0233131 0.0233531 0.0233131 0.0231936 0.0229957 0.0227216 0.0223739 0.0219562 0.0214726 0.0209278 0.020327 0.019676 0.0189807 0.0182473 0.0174822 0.0166919 0.0158829 0.0150613 0.0142334 0.013405 0.0125816 0.0117684 0.0109701 0.010191 0.00943479 0.00870485 0.0080039 0.00733423 0.00669759 0.0060953 0.00552819 0.0049967 0.00450086 0.00404035 0.00361455 0.00322257 0.00286326 0.00253532 0.00223726 0.00196748 0.00172432 0.00150604 0.00131089 0.00113713 0.000983023 0.000846895 0.000727123 0.000622154 0.000530517 0.00045083 0.000381802 0.000322237 0.000271035 0.000227188 0.000189784 0.000157995 0.000131081 0.00010838 8.93037e-05 7.33334e-05 6.00131e-05 4.89443e-05 3.97805e-05 3.22218e-05 2.60101e-05 2.0924e-05 1.67749e-05 1.34025e-05 1.06715e-05 8.46793e-06 6.69638e-06 5.27734e-06 4.14478e-06 3.24414e-06;
   (1031150558) 2.14454e-12 2.14454e-12 2.14454e-12 2.14454e-12 2.2708e-12 3.37333e-12 4.99402e-12 7.36807e-12 1.08335e-11 1.58743e-11 2.31811e-11 3.37354e-11 4.89269e-11 7.07167e-11 1.01861e-10 1.4622e-10 2.09178e-10 2.98221e-10 4.23714e-10 5.99954e-10 8.46595e-10 1.19054e-09 1.6685e-09 2.33034e-09 3.24358e-09 4.49926e-09 6.2197e-09 8.56861e-09 1.17642e-08 1.60963e-08 2.19484e-08 2.98257e-08 4.03916e-08 5.45133e-08 7.33207e-08 9.82793e-08 1.31283e-07 1.74771e-07 2.31867e-07 3.06565e-07 4.0394e-07 5.30425e-07 6.94133e-07 9.05259e-07 1.17656e-06 1.52394e-06 1.96714e-06 2.53054e-06 3.24416e-06 4.14481e-06 5.27737e-06 6.69643e-06 8.46799e-06 1.06716e-05 1.34026e-05 1.6775e-05 2.09242e-05 2.60102e-05 3.2222e-05 3.97808e-05 4.89447e-05 6.00135e-05 7.3334e-05 8.93044e-05 0.000108381 0.000131082 0.000157996 0.000189785 0.00022719 0.000271037 0.00032224 0.000381805 0.000450834 0.000530521 0.000622158 0.000727128 0.000846902 0.00098303 0.00113714 0.0013109 0.00150605 0.00172433 0.0019675 0.00223727 0.00253534 0.00286329 0.00322259 0.00361458 0.00404038 0.00450089 0.00499674 0.00552823 0.00609535 0.00669764 0.00733428 0.00800396 0.00870491 0.00943486 0.010191 0.0109702 0.0117685 0.0125817 0.0134051 0.0142335 0.0150614 0.015883 0.0166921 0.0174823 0.0182474 0.0189808 0.0196762 0.0203272 0.0209279 0.0214727 0.0219564 0.0223741 0.0227218 0.0229959 0.0231937 0.0233133 0.0233532 0.0233133 0.0231937 0.0229959 0.0227218 0.0223741 0.0219564 0.0214727 0.0209279 0.0203272 0.0196762 0.0189808 0.0182474 0.0174823 0.0166921 0.015883 0.0150614 0.0142335 0.0134051 0.0125817 0.0117685 0.0109702 0.010191 0.00943486 0.00870491 0.00800396 0.00733428 0.00669764 0.00609535 0.00552823 0.00499674 0.00450089 0.00404038 0.00361458 0.00322259 0.00286329 0.00253534 0.00223727 0.0019675 0.00172433 0.00150605 0.0013109 0.00113714 0.00098303 0.000846902 0.000727128 0.000622158 0.000530521 0.000450834 0.000381805 0.00032224 0.000271037 0.00022719 0.000189785 0.000157996 0.000131082 0.000108381 8.93044e-05 7.3334e-05 6.00135e-05 4.89447e-05 3.97808e-05 3.2222e-05 2.60102e-05 2.09242e-05 1.6775e-05 1.34026e-05 1.06716e-05 8.46799e-06 6.69643e-06 5.27737e-06;
   (1019107402) 2.14456e-12 2.14456e-12 2.14456e-12 2.14456e-12 2.14456e-12 2.14456e-12 2.27083e-12 3.37337e-12 4.99408e-12 7.36816e-12 1.08336e-11 1.58745e-11 2.31814e-11 3.37358e-11 4.89275e-11 7.07176e-11 1.01862e-10 1.46222e-10 2.09181e-10 2.98225e-10 4.23719e-10 5.99961e-10 8.46605e-10 1.19056e-09 1.66852e-09 2.33037e-09 3.24362e-09 4.49931e-09 6.21978e-09 8.56871e-09 1.17643e-08 1.60965e-08 2.19487e-08 2.98261e-08 4.03921e-08 5.4514e-08 7.33215e-08 9.82804e-08 1.31285e-07 1.74773e-07 2.3187e-07 3.06569e-07 4.03945e-07 5.30431e-07 6.94141e-07 9.0527e-07 1.17658e-06 1.52396e-06 1.96716e-06 2.53057e-06 3.2442e-06 4.14486e-06 5.27744e-06 6.69651e-06 8.46809e-06 1.06717e-05 1.34028e-05 1.67752e-05 2.09244e-05 2.60106e-05 3.22224e-05 3.97812e-05 4.89452e-05 6.00143e-05 7.33348e-05 8.93055e-05 0.000108382 0.000131084 0.000157998 0.000189787 0.000227193 0.00027104 0.000322244 0.00038181 0.000450839 0.000530527 0.000622166 0.000727137 0.000846912 0.000983042 0.00113715 0.00131092 0.00150607 0.00172435 0.00196752 0.0022373 0.00253537 0.00286332 0.00322263 0.00361462 0.00404043 0.00450094 0.0049968 0.0055283 0.00609542 0.00669772 0.00733437 0.00800406 0.00870501 0.00943497 0.0101912 0.0109703 0.0117686 0.0125818 0.0134052 0.0142337 0.0150616 0.0158832 0.0166923 0.0174826 0.0182476 0.018981 0.0196764 0.0203274 0.0209282 0.021473 0.0219566 0.0223744 0.022722 0.0229962 0.023194 0.0233135 0.0233535 0.0233135 0.023194 0.0229962 0.022722 0.0223744 0.0219566 0.021473 0.0209282 0.0203274 0.0196764 0.018981 0.0182476 0.0174826 0.0166923 0.0158832 0.0150616 0.0142337 0.0134052 0.0125818 0.0117686 0.0109703 0.0101912 0.00943497 0.00870501 0.00800406 0.00733437 0.00669772 0.00609542 0.0055283 0.0049968 0.00450094 0.00404043 0.00361462 0.00322263 0.00286332 0.00253537 0.0022373 0.00196752 0.00172435 0.00150607 0.00131092 0.00113715 0.000983042 0.000846912 0.000727137 0.000622166 0.000530527 0.000450839 0.00038181 0.000322244 0.00027104 0.000227193 0.000189787 0.000157998 0.000131084 0.000108382 8.93055e-05 7.33348e-05 6.00143e-05 4.89452e-05 3.97812e-05 3.22224e-05 2.60106e-05 2.09244e-05 1.67752e-05 1.34028e-05 1.06717e-05 8.46809e-06;
   (1018494738) 2.1446e-12 2.1446e-12 2.1446e-12 2.1446e-12 2.1446e-12 2.1446e-12 2.1446e-12 2.1446e-12 2.27087e-12 3.37344e-12 4.99418e-12 7.3683e-12 1.08338e-11 1.58748e-11 2.31818e-11 3.37364e-11 4.89284e-11 7.07189e-11 1.01864e-10 1.46225e-10 2.09185e-10 2.98231e-10 4.23727e-10 5.99973e-10 8.46621e-10 1.19058e-09 1.66855e-09 2.33041e-09 3.24368e-09 4.4994e-09 6.2199e-09 8.56887e-09 1.17646e-08 1.60968e-08 2.19491e-08 2.98267e-08 4.03929e-08 5.4515e-08 7.33229e-08 9.82823e-08 1.31287e-07 1.74776e-07 2.31875e-07 3.06574e-07 4.03953e-07 5.30441e-07 6.94154e-07 9.05287e-07 1.1766e-06 1.52399e-06 1.9672e-06 2.53062e-06 3.24427e-06 4.14494e-06 5.27754e-06 6.69664e-06 8.46826e-06 1.06719e-05 1.34031e-05 1.67756e-05 2.09248e-05 2.60111e-05 3.2223e-05 3.9782e-05 4.89462e-05 6.00154e-05 7.33362e-05 8.93072e-05 0.000108384 0.000131086 0.000158001 0.000189791 0.000227197 0.000271045 0.00032225 0.000381817 0.000450848 0.000530538 0.000622178 0.000727151 0.000846928 0.000983061 0.00113717 0.00131094 0.0015061 0.00172439 0.00196756 0.00223734 0.00253542 0.00286337 0.00322269 0.00361469 0.00404051 0.00450103 0.00499689 0.00552841 0.00609553 0.00669785 0.00733451 0.00800421 0.00870518 0.00943515 0.0101914 0.0109705 0.0117688 0.0125821 0.0134055 0.0142339 0.0150619 0.0158835 0.0166926 0.0174829 0.018248 0.0189814 0.0196768 0.0203278 0.0209286 0.0214734 0.0219571 0.0223748 0.0227225 0.0229966 0.0231945 0.023314 0.023354 0.023314 0.0231945 0.0229966 0.0227225 0.0223748 0.0219571 0.0214734 0.0209286 0.0203278 0.0196768 0.0189814 0.018248 0.0174829 0.0166926 0.0158835 0.0150619 0.0142339 0.0134055 0.0125821 0.0117688 0.0109705 0.0101914 0.00943515 0.00870518 0.00800421 0.00733451 0.00669785 0.00609553 0.00552841 0.00499689 0.00450103 0.00404051 0.00361469 0.00322269 0.00286337 0.00253542 0.00223734 0.00196756 0.00172439 0.0015061 0.00131094 0.00113717 0.000983061 0.000846928 0.000727151 0.000622178 0.000530538 0.000450848 0.000381817 0.00032225 0.000271045 0.000227197 0.000189791 0.000158001 0.000131086 0.000108384 8.93072e-05 7.33362e-05 6.00154e-05 4.89462e-05 3.9782e-05 3.2223e-05 2.60111e-05 2.09248e-05 1.67756e-05 1.34031e-05;
   (1082749190) 2.14454e-12 2.14454e-12 2.14454e-12 2.14454e-12 2.2708e-12 3.37333e-12 4.99402e-12 7.36807e-12 1.08335e-11 1.58743e-11 2.31811e-11 3.37354e-11 4.89269e-11 7.07167e-11 1.01861e-10 1.4622e-10 2.09178e-10 2.98221e-10 4.23714e-10 5.99954e-10 8.46595e-10 1.19054e-09 1.6685e-09 2.33034e-09 3.24358e-09 4.49926e-09 6.2197e-09 8.56861e-09 1.17642e-08 1.60963e-08 2.19484e-08 2.98257e-08 4.03916e-08 5.45133e-08 7.33207e-08 9.82793e-08 1.31283e-07 1.74771e-07 2.31867e-07 3.06565e-07 4.0394e-07 5.30425e-07 6.94133e-07 9.05259e-07 1.17656e-06 1.52394e-06 1.96714e-06 2.53054e-06 3.24416e-06 4.14481e-06 5.27737e-06 6.69643e-06 8.46799e-06 1.06716e-05 1.34026e-05 1.6775e-05 2.09242e-05 2.60102e-05 3.2222e-05 3.97808e-05 4.89447e-05 6.00135e-05 7.3334e-05 8.93044e-05 0.000108381 0.000131082 0.000157996 0.000189785 0.00022719 0.000271037 0.00032224 0.000381805 0.000450834 0.000530521 0.000622158 0.000727128 0.000846902 0.00098303 0.00113714 0.0013109 0.00150605 0.00172433 0.0019675 0.00223727 0.00253534 0.00286329 0.00322259 0.00361458 0.00404038 0.00450089 0.00499674 0.00552823 0.00609535 0.00669764 0.00733428 0.00800396 0.00870491 0.00943486 0.010191 0.0109702 0.0117685 0.0125817 0.0134051 0.0142335 0.0150614 0.015883 0.0166921 0.0174823 0.0182474 0.0189808 0.0196762 0.0203272 0.0209279 0.0214727 0.0219564 0.0223741 0.0227218 0.0229959 0.0231937 0.0233133 0.0233532 0.0233133 0.0231937 0.0229959 0.0227218 0.0223741 0.0219564 0.0214727 0.0209279 0.0203272 0.0196762 0.0189808 0.0182474 0.0174823 0.0166921 0.015883 0.0150614 0.0142335 0.0134051 0.0125817 0.0117685 0.0109702 0.010191 0.00943486 0.00870491 0.00800396 0.00733428 0.00669764 0.00609535 0.00552823 0.00499674 0.00450089 0.00404038 0.00361458 0.00322259 0.00286329 0.00253534 0.00223727 0.0019675 0.00172433 0.00150605 0.0013109 0.00113714 0.00098303 0.000846902 0.000727128 0.000622158 0.000530521 0.000450834 0.000381805 0.00032224 0.000271037 0.00022719 0.000189785 0.000157996 0.000131082 0.000108381 8.93044e-05 7.3334e-05 6.00135e-05 4.89447e-05 3.97808e-05 3.2222e-05 2.60102e-05 2.09242e-05 1.6775e-05 1.34026e-05 1.06716e-05 8.46799e-06 6.69643e-06 5.27737e-06;
   (80871350) 2.14492e-12 2.14492e-12 2.14492e-12 2.14492e-12 2.14492e-12 2.14492e-12 2.14492e-12 2.14492e-12 2.14492e-12 2.14492e-12 2.14492e-12 2.14492e-12 2.14492e-12 2.14492e-12 2.27121e-12 3.37394e-12 4.99492e-12 7.3694e-12 1.08355e-11 1.58772e-11 2.31853e-11 3.37414e-11 4.89357e-11 7.07295e-11 1.0188e-10 1.46246e-10 2.09216e-10 2.98275e-10 4.2379e-10 6.00062e-10 8.46747e-10 1.19076e-09 1.6688e-09 2.33076e-09 3.24416e-09 4.50007e-09 6.22082e-09 8.57015e-09 1.17663e-08 1.60992e-08 2.19524e-08 2.98311e-08 4.03989e-08 5.45232e-08 7.33339e-08 9.8297e-08 1.31307e-07 1.74802e-07 2.31909e-07 3.0662e-07 4.04013e-07 5.30521e-07 6.94258e-07 9.05422e-07 1.17677e-06 1.52422e-06 1.96749e-06 2.531e-06 3.24475e-06 4.14556e-06 5.27833e-06 6.69764e-06 8.46952e-06 1.06735e-05 1.34051e-05 1.67781e-05 2.09279e-05 2.60149e-05 3.22278e-05 3.97879e-05 4.89535e-05 6.00244e-05 7.33472e-05 8.93205e-05 0.0001084 0.000131106 0.000158025 0.000189819 0.000227231 0.000271086 0.000322298 0.000381874 0.000450915 0.000530617 0.00062227 0.000727259 0.000847054 0.000983207 0.00113734 0.00131114 0.00150632 0.00172464 0.00196785 0.00223768 0.0025358 0.0028638 0.00322317 0.00361523 0.00404111 0.0045017 0.00499764 0.00552923 0.00609644 0.00669885 0.0073356 0.0080054 0.00870648 0.00943656 0.0101929 0.0109721 0.0117706 0.0125839 0.0134075 0.0142361 0.0150641 0.0158858 0.0166951 0.0174855 0.0182507 0.0189842 0.0196797 0.0203309 0.0209317 0.0214766 0.0219603 0.0223781 0.0227259 0.023 0.0231979 0.0233175 0.0233574 0.0233175 0.0231979 0.023 0.0227259 0.0223781 0.0219603 0.0214766 0.0209317 0.0203309 0.0196797 0.0189842 0.0182507 0.0174855 0.0166951 0.0158858 0.0150641 0.0142361 0.0134075 0.0125839 0.0117706 0.0109721 0.0101929 0.00943656 0.00870648 0.0080054 0.0073356 0.00669885 0.00609644 0.00552923 0.00499764 0.0045017 0.00404111 0.00361523 0.00322317 0.0028638 0.0025358 0.00223768 0.00196785 0.00172464 0.00150632 0.00131114 0.00113734 0.000983207 0.000847054 0.000727259 0.00062227 0.000530617 0.000450915 0.000381874 0.000322298 0.000271086 0.000227231 0.000189819 0.000158025 0.000131106 0.0001084 8.93205e-05 7.33472e-05 6.00244e-05 4.89535e-05;
   (1068976301) 2.14452e-12 2.14452e-12 2.27079e-12 3.37331e-12 4.99398e-12 7.36801e-12 1.08334e-11 1.58742e-11 2.3181e-11 3.37351e-11 4.89266e-11 7.07162e-11 1.0186e-10 1.46219e-10 2.09177e-10 2.98219e-10 4.2371e-10 5.9995e-10 8.46588e-10 1.19053e-09 1.66849e-09 2.33032e-09 3.24355e-09 4.49923e-09 6.21966e-09 8.56854e-09 1.17641e-08 1.60962e-08 2.19482e-08 2.98255e-08 4.03913e-08 5.45129e-08 7.33201e-08 9.82785e-08 1.31282e-07 1.74769e-07 2.31866e-07 3.06563e-07 4.03937e-07 5.30421e-07 6.94127e-07 9.05252e-07 1.17655e-06 1.52393e-06 1.96713e-06 2.53052e-06 3.24414e-06 4.14478e-06 5.27734e-06 6.69638e-06 8.46793e-06 1.06715e-05 1.34025e-05 1.67749e-05 2.0924e-05 2.60101e-05 3.22218e-05 3.97805e-05 4.89443e-05 6.00131e-05 7.33334e-05 8.93037e-05 0.00010838 0.000131081 0.000157995 0.000189784 0.000227188 0.000271035 0.000322237 0.000381802 0.00045083 0.000530517 0.000622154 0.000727123 0.000846895 0.000983023 0.00113713 0.00131089 0.00150604 0.00172432 0.00196748 0.00223726 0.00253532 0.00286326 0.00322257 0.00361455 0.00404035 0.00450086 0.0049967 0.00552819 0.0060953 0.00669759 0.00733423 0.0080039 0.00870485 0.00943479 0.010191 0.0109701 0.0117684 0.0125816 0.013405 0.0142334 0.0150613 0.0158829 0.0166919 0.0174822 0.0182473 0.0189807 0.019676 0.020327 0.0209278 0.0214726 0.0219562 0.0223739 0.0227216 0.0229957 0.0231936 0.0233131 0.0233531 0.0233131 0.0231936 0.0229957 0.0227216 0.0223739 0.0219562 0.0214726 0.0209278 0.020327 0.019676 0.0189807 0.0182473 0.0174822 0.0166919 0.0158829 0.0150613 0.0142334 0.013405 0.0125816 0.0117684 0.0109701 0.010191 0.00943479 0.00870485 0.0080039 0.00733423 0.00669759 0.0060953 0.00552819 0.0049967 0.00450086 0.00404035 0.00361455 0.00322257 0.00286326 0.00253532 0.00223726 0.00196748 0.00172432 0.00150604 0.00131089 0.00113713 0.000983023 0.000846895 0.000727123 0.000622154 0.000530517 0.00045083 0.000381802 0.000322237 0.000271035 0.000227188 0.000189784 0.000157995 0.000131081 0.00010838 8.93037e-05 7.33334e-05 6.00131e-05 4.89443e-05 3.97805e-05 3.22218e-05 2.60101e-05 2.0924e-05 1.67749e-05 1.34025e-05 1.06715e-05 8.46793e-06 6.69638e-06 5.27734e-06 4.14478e-06 3.24414e-06;
   (1020815022) 2.14454e-12 2.14454e-12 2.14454e-12 2.14454e-12 2.2708e-12 3.37333e-12 4.99402e-12 7.36807e-12 1.08335e-11 1.58743e-11 2.31811e-11 3.37354e-11 4.89269e-11 7.07167e-11 1.01861e-10 1.4622e-10 2.09178e-10 2.98221e-10 4.23714e-10 5.99954e-10 8.46595e-10 1.19054e-09 1.6685e-09 2.33034e-09 3.24358e-09 4.49926e-09 6.2197e-09 8.56861e-09 1.17642e-08 1.60963e-08 2.19484e-08 2.98257e-08 4.03916e-08 5.45133e-08 7.33207e-08 9.82793e-08 1.31283e-07 1.74771e-07 2.31867e-07 3.06565e-07 4.0394e-07 5.30425e-07 6.94133e-07 9.05259e-07 1.17656e-06 1.52394e-06 1.96714e-06 2.53054e-06 3.24416e-06 4.14481e-06 5.27737e-06 6.69643e-06 8.46799e-06 1.06716e-05 1.34026e-05 1.6775e-05 2.09242e-05 2.60102e-05 3.2222e-05 3.97808e-05 4.89447e-05 6.00135e-05 7.3334e-05 8.93044e-05 0.000108381 0.000131082 0.000157996 0.000189785 0.00022719 0.000271037 0.00032224 0.000381805 0.000450834 0.000530521 0.000622158 0.000727128 0.000846902 0.00098303 0.00113714 0.0013109 0.00150605 0.00172433 0.0019675 0.00223727 0.00253534 0.00286329 0.00322259 0.00361458 0.00404038 0.00450089 0.00499674 0.00552823 0.00609535 0.00669764 0.00733428 0.00800396 0.00870491 0.00943486 0.010191 0.0109702 0.0117685 0.0125817 0.0134051 0.0142335 0.0150614 0.015883 0.0166921 0.0174823 0.0182474 0.0189808 0.0196762 0.0203272 0.0209279 0.0214727 0.0219564 0.0223741 0.0227218 0.0229959 0.0231937 0.0233133 0.0233532 0.0233133 0.0231937 0.0229959 0.0227218 0.0223741 0.0219564 0.0214727 0.0209279 0.0203272 0.0196762 0.0189808 0.0182474 0.0174823 0.0166921 0.015883 0.0150614 0.0142335 0.0134051 0.0125817 0.0117685 0.0109702 0.010191 0.00943486 0.00870491 0.00800396 0.00733428 0.00669764 0.00609535 0.00552823 0.00499674 0.00450089 0.00404038 0.00361458 0.00322259 0.00286329 0.00253534 0.00223727 0.0019675 0.00172433 0.00150605 0.0013109 0.00113714 0.00098303 0.000846902 0.000727128 0.000622158 0.000530521 0.000450834 0.000381805 0.00032224 0.000271037 0.00022719 0.000189785 0.000157996 0.000131082 0.000108381 8.93044e-05 7.3334e-05 6.00135e-05 4.89447e-05 3.97808e-05 3.2222e-05 2.60102e-05 2.09242e-05 1.6775e-05 1.34026e-05 1.06716e-05 8.46799e-06 6.69643e-06 5.27737e-06;
   (1036933458) 3.37329e-12 4.99395e-12 7.36797e-12 1.08334e-11 1.58741e-11 2.31808e-11 3.37349e-11 4.89263e-11 7.07158e-11 1.0186e-10 1.46218e-10 2.09176e-10 2.98217e-10 4.23708e-10 5.99946e-10 8.46583e-10 1.19053e-09 1.66848e-09 2.33031e-09 3.24353e-09 4.4992e-09 6.21962e-09 8.56849e-09 1.1764e-08 1.60961e-08 2.19481e-08 2.98253e-08 4.03911e-08 5.45126e-08 7.33197e-08 9.82779e-08 1.31281e-07 1.74768e-07 2.31864e-07 3.06561e-07 4.03935e-07 5.30418e-07 6.94123e-07 9.05247e-07 1.17655e-06 1.52392e-06 1.96711e-06 2.53051e-06 3.24412e-06 4.14475e-06 5.2773e-06 6.69634e-06 8.46788e-06 1.06715e-05 1.34025e-05 1.67748e-05 2.09239e-05 2.60099e-05 3.22216e-05 3.97802e-05 4.8944e-05 6.00127e-05 7.3333e-05 8.93032e-05 0.000108379 0.00013108 0.000157994 0.000189783 0.000227187 0.000271033 0.000322235 0.0003818 0.000450828 0.000530514 0.00062215 0.000727118 0.00084689 0.000983017 0.00113712 0.00131088 0.00150603 0.00172431 0.00196747 0.00223724 0.0025353 0.00286325 0.00322255 0.00361453 0.00404033 0.00450083 0.00499667 0.00552816 0.00609526 0.00669755 0.00733418 0.00800385 0.00870479 0.00943473 0.0101909 0.01097 0.0117683 0.0125815 0.0134049 0.0142333 0.0150612 0.0158828 0.0166918 0.0174821 0.0182472 0.0189806 0.0196759 0.0203269 0.0209277 0.0214725 0.0219561 0.0223738 0.0227214 0.0229956 0.0231934 0.0233129 0.0233529 0.0233129 0.0231934 0.0229956 0.0227214 0.0223738 0.0219561 0.0214725 0.0209277 0.0203269 0.0196759 0.0189806 0.0182472 0.0174821 0.0166918 0.0158828 0.0150612 0.0142333 0.0134049 0.0125815 0.0117683 0.01097 0.0101909 0.00943473 0.00870479 0.00800385 0.00733418 0.00669755 0.00609526 0.00552816 0.00499667 0.00450083 0.00404033 0.00361453 0.00322255 0.00286325 0.0025353 0.00223724 0.00196747 0.00172431 0.00150603 0.00131088 0.00113712 0.000983017 0.00084689 0.000727118 0.00062215 0.000530514 0.000450828 0.0003818 0.000322235 0.000271033 0.000227187 0.000189783 0.000157994 0.00013108 0.000108379 8.93032e-05 7.3333e-05 6.00127e-05 4.8944e-05 3.97802e-05 3.22216e-05 2.60099e-05 2.09239e-05 1.67748e-05 1.34025e-05 1.06715e-05 8.46788e-06 6.69634e-06 5.2773e-06 4.14475e-06 3.24412e-06 2.53051e-06 1.96711e-06 1.52392e-06;
}
probability (T | I) {
   (0) 0.00297619 0.00297619 0.00297619 0.00297619 0.00297619 0.00297619 0.00297619 0.00297619 0.00297619 0.00297619 0.00297619 0.00297619 0.00297619 0.00297619 0.00297619 0.00297619 0.00297619 0.00297619 0.00297619 0.00297619 0.00297619 0.00297619 0.00297619 0.00297619 0.00297619 0.00297619 0.00297619 0.00297619 0.00297619 0.00297619 0.00297619 0.00297619 0.00297619 0.00297619 0.00297619 0.00297619 0.00297619 0.00297619 0.00297619 0.00297619 0.00297619 0.00297619 0.00297619 0.00297619 0.00297619 0.00297619 0.00297619 0.00297619 0.00297619 0.00297619 0.00297619 0.00297619 0.00297619 0.00297619 0.00297619 0.00297619 0.00297619 0.00297619 0.00297619 0.00297619 0.00297619 0.00297619 0.00297619 0.00297619 0.00297619 0.00297619 0.00297619 0.00297619 0.00297619 0.00297619 0.00297619 0.00297619 0.00297619 0.00297619 0.00297619 0.00297619 0.00297619 0.00297619 0.00297619 0.00297619 0.00297619 0.00297619 0.00297619 0.00297619 0.00297619 0.00297619 0.00297619 0.00297619 0.00297619 0.00297619 0.00297619 0.00297619 0.00297619 0.00297619 0.00297619 0.00297619 0.00297619 0.00297619 0.00297619 0.00297619 0.00297619 0.00297619 0.00297619 0.00297619 0.00297619 0.00297619 0.00297619 0.00297619 0.00297619 0.00297619 0.00297619 0.00297619 0.00297619 0.00297619 0.00297619 0.00297619 0.00297619 0.00297619 0.00297619 0.00297619 0.00297619 0.00297619 0.00297619 0.00297619 0.00297619 0.00297619 0.00297619 0.00297619 0.00297619 0.00297619 0.00297619 0.00297619 0.00297619 0.00297619 0.00297619 0.00297619 0.00297619 0.00297619 0.00297619 0.00297619 0.00297619 0.00297619 0.00297619 0.00297619 0.00297619 0.00297619 0.00297619 0.00297619 0.00297619 0.00297619 0.00297619 0.00297619 0.00297619 0.00297619 0.00297619 0.00297619 0.00297619 0.00297619 0.00297619 0.00297619 0.00297619 0.00297619 0.00297619 0.00297619 0.00297619 0.00297619 0.00297619 0.00297619 0.00297619 0.00297619 0.00297619 0.00297619 0.00297619 0.00297619 0.00297619 0.00297619 0.00297619 0.00297619 0.00297619 0.00297619 0.00297619 0.00297619 0.00297619 0.00297619 0.00297619 0.00297619 0.00297619 0.00297619 0.00297619 0.00297619 0.00297619 0.00297619 0.00297619 0.00297619 0.00297619 0.00297619 0.00297619 0.00297619 0.00297619 0.00297619 0.00297619 0.00297619 0.00297619 0.00297619 0.00297619 0.00297619 0.00297619 0.00297619 0.00297619 0.00297619 0.00297619 0.00297619 0.00297619 0.00297619 0.00297619 0.00297619 0.00297619 0.00297619 0.00297619 0.00297619 0.00297619 0.00297619 0.00297619 0.00297619 0.00297619 0.00297619 0.00297619 0.00297619 0.00297619 0.00297619 0.00297619 0.00297619 0.00297619 0.00297619 0.00297619 0.00297619 0.00297619 0.00297619 0.00297619 0.00297619 0.00297619 0.00297619 0.00297619 0.00297619 0.00297619 0.00297619 0.00297619 0.00297619 0.00297619 0.00297619 0.00297619 0.00297619 0.00297619 0.00297619 0.00297619 0.00297619 0.00297619 0.00297619 0.00297619 0.00297619 0.00297619 0.00297619 0.00297619 0.00297619 0.00297619 0.00297619 0.00297619 0.00297619 0.00297619 0.00297619 0.00297619 0.00297619 0.00297619 0.00297619 0.00297619 0.00297619 0.00297619 0.00297619 0.00297619 0.00297619 0.00297619 0.00297619 0.00297619 0.00297619 0.00297619 0.00297619 0.00297619 0.00297619 0.00297619 0.00297619 0.00297619 0.00297619 0.00297619 0.00297619 0.00297619 0.00297619 0.00297619 0.00297619 0.00297619 0.00297619 0.00297619 0.00297619 0.00297619 0.00297619 0.00297619 0.00297619 0.00297619 0.00297619 0.00297619 0.00297619 0.00297619 0.00297619 0.00297619 0.00297619 0.00297619 0.00297619 0.00297619 0.00297619 0.00297619 0.00297619 0.00297619 0.00297619 0.00297619 0.00297619 0.00297619 0.00297619 0.00297619 0.00297619 0.00297619 0.00297619 0.00297619 0.00297619 0.00297619 0.00297619 0.00297619 0.00297619;
   (1020813120) 0 0 0 0 0 0 0 0 0 0 0 0 0 0 0 0 0 0 0 0 0 0 0 0 0 0 0 0 0 0 0 0 0 0 0 0 0 0 0 0 0 0 0 0 0 0 0 0 0 0 0 0 0 0 0 0 0 0 0 0 0 0 0 0 0 0 0 0 0 0 0 0 0 0 0 0 0 0 0 0 0 0 0 0 0 0 0 0 0 0 0 0 0 0 0 0 0 0 0 0 0 0 0 0 0 0 0 0 0 0 0 0 0 0 0 0 0 0 0 0 0 0 0 0 0 0 0 0 0 0 0 0 0 0 0 0 0 0 0 0 0 0 0 0 0 0 0 0 0 0 0 0 1.4013e-45 8.22562e-43 5.22764e-40 2.65105e-37 1.07192e-34 3.45571e-32 8.88273e-30 1.82049e-27 2.97482e-25 3.87584e-23 4.02628e-21 3.33483e-19 2.2023e-17 1.15961e-15 4.86831e-14 1.62959e-12 4.3492e-11 9.25494e-10 1.57025e-08 2.12421e-07 2.29118e-06 1.97039e-05 0.000135107 0.000738645 0.00321978 0.0111905 0.0310101 0.0685156 0.1207 0.169535 0.189865 0.169535 0.1207 0.0685156 0.0310101 0.0111905 0.00321978 0.000738645 0.000135107 1.97039e-05 2.29118e-06 2.12421e-07 1.57025e-08 9.25494e-10 4.3492e-11 1.62959e-12 4.86831e-14 1.15961e-15 2.2023e-17 3.33483e-19 4.02628e-21 3.87584e-23 2.97482e-25 1.82049e-27 8.88273e-30 3.45571e-32 1.07192e-34 2.65105e-37 5.22764e-40 8.22562e-43 1.4013e-45 0 0 0 0 0 0 0 0 0 0 0 0 0 0 0 0 0 0 0 0 0 0 0 0 0 0 0 0 0 0 0 0 0 0 0 0 0 0 0 0 0 0 0 0 0 0 0 0 0 0 0 0 0 0 0 0 0 0 0 0 0 0 0 0 0 0 0 0 0 0 0 0 0 0 0 0 0 0 0 0 0 0 0 0 0 0 0 0 0 0 0 0 0 0 0 0 0 0 0 0 0 0 0 0 0 0 0 0 0 0 0 0 0 0 0 0 0 0 0 0 0 0 0;
   (1015456917) 0 0 0 0 0 0 0 0 0 0 0 0 0 0 0 0 0 0 0 0 0 0 0 0 0 0 0 0 0 0 0 0 0 0 0 0 0 0 0 0 0 0 0 0 0 0 0 0 0 0 0 0 0 0 0 0 0 0 0 0 0 0 0 0 0 0 0 0 0 0 0 0 0 0 0 0 0 0 0 0 0 0 0 0 0 0 0 0 0 0 0 0 0 0 0 0 0 0 0 0 0 0 0 0 0 0 0 0 0 0 0 0 0 0 0 0 0 0 0 0 0 0 0 0 0 0 0 0 0 0 0 0 0 0 0 0 0 0 0 0 0 0 0 0 0 0 0 0 0 0 0 0 1.4013e-45 8.22562e-43 5.22764e-40 2.65105e-37 1.07192e-34 3.45571e-32 8.88273e-30 1.82049e-27 2.97482e-25 3.87584e-23 4.02628e-21 3.33483e-19 2.2023e-17 1.15961e-15 4.86831e-14 1.62959e-12 4.3492e-11 9.25494e-10 1.57025e-08 2.12421e-07 2.29118e-06 1.97039e-05 0.000135107 0.000738645 0.00321978 0.0111905 0.0310101 0.0685156 0.1207 0.169535 0.189865 0.169535 0.1207 0.0685156 0.0310101 0.0111905 0.00321978 0.000738645 0.000135107 1.97039e-05 2.29118e-06 2.12421e-07 1.57025e-08 9.25494e-10 4.3492e-11 1.62959e-12 4.86831e-14 1.15961e-15 2.2023e-17 3.33483e-19 4.02628e-21 3.87584e-23 2.97482e-25 1.82049e-27 8.88273e-30 3.45571e-32 1.07192e-34 2.65105e-37 5.22764e-40 8.22562e-43 1.4013e-45 0 0 0 0 0 0 0 0 0 0 0 0 0 0 0 0 0 0 0 0 0 0 0 0 0 0 0 0 0 0 0 0 0 0 0 0 0 0 0 0 0 0 0 0 0 0 0 0 0 0 0 0 0 0 0 0 0 0 0 0 0 0 0 0 0 0 0 0 0 0 0 0 0 0 0 0 0 0 0 0 0 0 0 0 0 0 0 0 0 0 0 0 0 0 0 0 0 0 0 0 0 0 0 0 0 0 0 0 0 0 0 0 0 0 0 0 0 0 0 0 0 0 0;
   (1010224167) 0 0 0 0 0 0 0 0 0 0 0 0 0 0 0 0 0 0 0 0 0 0 0 0 0 0 0 0 0 0 0 0 0 0 0 0 0 0 0 0 0 0 0 0 0 0 0 0 0 0 0 0 0 0 0 0 0 0 0 0 0 0 0 0 0 0 0 0 0 0 0 0 0 0 0 0 0 0 0 0 0 0 0 0 0 0 0 0 0 0 0 0 0 0 0 0 0 0 0 0 0 0 0 0 0 0 0 0 0 0 0 0 0 0 0 0 0 0 0 0 0 0 0 0 0 0 0 0 0 0 0 0 0 0 0 0 0 0 0 0 0 0 0 0 0 0 0 0 0 0 0 0 1.4013e-45 8.22562e-43 5.22764e-40 2.65105e-37 1.07192e-34 3.45571e-32 8.88273e-30 1.82049e-27 2.97482e-25 3.87584e-23 4.02628e-21 3.33483e-19 2.2023e-17 1.15961e-15 4.86831e-14 1.62959e-12 4.3492e-11 9.25494e-10 1.57025e-08 2.12421e-07 2.29118e-06 1.97039e-05 0.000135107 0.000738645 0.00321978 0.0111905 0.0310101 0.0685156 0.1207 0.169535 0.189865 0.169535 0.1207 0.0685156 0.0310101 0.0111905 0.00321978 0.000738645 0.000135107 1.97039e-05 2.29118e-06 2.12421e-07 1.57025e-08 9.25494e-10 4.3492e-11 1.62959e-12 4.86831e-14 1.15961e-15 2.2023e-17 3.33483e-19 4.02628e-21 3.87584e-23 2.97482e-25 1.82049e-27 8.88273e-30 3.45571e-32 1.07192e-34 2.65105e-37 5.22764e-40 8.22562e-43 1.4013e-45 0 0 0 0 0 0 0 0 0 0 0 0 0 0 0 0 0 0 0 0 0 0 0 0 0 0 0 0 0 0 0 0 0 0 0 0 0 0 0 0 0 0 0 0 0 0 0 0 0 0 0 0 0 0 0 0 0 0 0 0 0 0 0 0 0 0 0 0 0 0 0 0 0 0 0 0 0 0 0 0 0 0 0 0 0 0 0 0 0 0 0 0 0 0 0 0 0 0 0 0 0 0 0 0 0 0 0 0 0 0 0 0 0 0 0 0 0 0 0 0 0 0 0;
   (1019115391) 0 0 0 0 0 0 0 0 0 0 0 0 0 0 0 0 0 0 0 0 0 0 0 0 0 0 0 0 0 0 0 0 0 0 0 0 0 0 0 0 0 0 0 0 0 0 0 0 0 0 0 0 0 0 0 0 0 0 0 0 0 0 0 0 0 0 0 0 0 0 0 0 0 0 0 0 0 0 0 0 0 0 0 0 0 0 0 0 0 0 0 0 0 0 0 0 0 0 0 0 0 0 0 0 0 0 0 0 0 0 0 0 0 0 0 0 0 0 0 0 0 0 0 0 0 0 0 0 0 0 0 0 0 0 0 0 0 0 0 0 0 0 0 0 0 0 0 0 0 0 0 0 1.4013e-45 8.22562e-43 5.22764e-40 2.65105e-37 1.07192e-34 3.45571e-32 8.88273e-30 1.82049e-27 2.97482e-25 3.87584e-23 4.02628e-21 3.33483e-19 2.2023e-17 1.15961e-15 4.86831e-14 1.62959e-12 4.3492e-11 9.25494e-10 1.57025e-08 2.12421e-07 2.29118e-06 1.97039e-05 0.000135107 0.000738645 0.00321978 0.0111905 0.0310101 0.0685156 0.1207 0.169535 0.189865 0.169535 0.1207 0.0685156 0.0310101 0.0111905 0.00321978 0.000738645 0.000135107 1.97039e-05 2.29118e-06 2.12421e-07 1.57025e-08 9.25494e-10 4.3492e-11 1.62959e-12 4.86831e-14 1.15961e-15 2.2023e-17 3.33483e-19 4.02628e-21 3.87584e-23 2.97482e-25 1.82049e-27 8.88273e-30 3.45571e-32 1.07192e-34 2.65105e-37 5.22764e-40 8.22562e-43 1.4013e-45 0 0 0 0 0 0 0 0 0 0 0 0 0 0 0 0 0 0 0 0 0 0 0 0 0 0 0 0 0 0 0 0 0 0 0 0 0 0 0 0 0 0 0 0 0 0 0 0 0 0 0 0 0 0 0 0 0 0 0 0 0 0 0 0 0 0 0 0 0 0 0 0 0 0 0 0 0 0 0 0 0 0 0 0 0 0 0 0 0 0 0 0 0 0 0 0 0 0 0 0 0 0 0 0 0 0 0 0 0 0 0 0 0 0 0 0 0 0 0 0 0 0 0;
   (1101178215) 0 0 0 0 0 0 0 0 0 0 0 0 0 0 0 0 0 0 0 0 0 0 0 0 0 0 0 0 0 0 0 0 0 0 0 0 0 0 0 0 0 0 0 0 0 0 0 0 0 0 0 0 0 0 0 0 0 0 0 0 0 0 0 0 0 0 0 0 0 0 0 0 0 0 0 0 0 0 0 0 0 0 0 0 0 0 0 0 0 0 0 0 0 0 0 0 0 0 0 0 0 0 0 0 0 0 0 0 0 0 0 0 0 0 0 0 0 0 0 0 0 0 0 0 0 0 0 0 0 0 0 0 0 0 0 0 0 0 0 0 0 0 0 0 0 0 0 0 0 0 0 0 1.4013e-45 8.22562e-43 5.22764e-40 2.65105e-37 1.07192e-34 3.45571e-32 8.88273e-30 1.82049e-27 2.97482e-25 3.87584e-23 4.02628e-21 3.33483e-19 2.2023e-17 1.15961e-15 4.86831e-14 1.62959e-12 4.3492e-11 9.25494e-10 1.57025e-08 2.12421e-07 2.29118e-06 1.97039e-05 0.000135107 0.000738645 0.00321978 0.0111905 0.0310101 0.0685156 0.1207 0.169535 0.189865 0.169535 0.1207 0.0685156 0.0310101 0.0111905 0.00321978 0.000738645 0.000135107 1.97039e-05 2.29118e-06 2.12421e-07 1.57025e-08 9.25494e-10 4.3492e-11 1.62959e-12 4.86831e-14 1.15961e-15 2.2023e-17 3.33483e-19 4.02628e-21 3.87584e-23 2.97482e-25 1.82049e-27 8.88273e-30 3.45571e-32 1.07192e-34 2.65105e-37 5.22764e-40 8.22562e-43 1.4013e-45 0 0 0 0 0 0 0 0 0 0 0 0 0 0 0 0 0 0 0 0 0 0 0 0 0 0 0 0 0 0 0 0 0 0 0 0 0 0 0 0 0 0 0 0 0 0 0 0 0 0 0 0 0 0 0 0 0 0 0 0 0 0 0 0 0 0 0 0 0 0 0 0 0 0 0 0 0 0 0 0 0 0 0 0 0 0 0 0 0 0 0 0 0 0 0 0 0 0 0 0 0 0 0 0 0 0 0 0 0 0 0 0 0 0 0 0 0 0 0 0 0 0 0;
   (1020814482) 0 0 0 0 0 0 0 0 0 0 0 0 0 0 0 0 0 0 0 0 0 0 0 0 0 0 0 0 0 0 0 0 0 0 0 0 0 0 0 0 0 0 0 0 0 0 0 0 0 0 0 0 0 0 0 0 0 0 0 0 0 0 0 0 0 0 0 0 0 0 0 0 0 0 0 0 0 0 0 0 0 0 0 0 0 0 0 0 0 0 0 0 0 0 0 0 0 0 0 0 0 0 0 0 0 0 0 0 0 0 0 0 0 0 0 0 0 0 0 0 0 0 0 0 0 0 0 0 0 0 0 0 0 0 0 0 0 0 0 0 0 0 0 0 0 0 0 0 0 0 0 0 1.4013e-45 8.22562e-43 5.22764e-40 2.65105e-37 1.07192e-34 3.45571e-32 8.88273e-30 1.82049e-27 2.97482e-25 3.87584e-23 4.02628e-21 3.33483e-19 2.2023e-17 1.15961e-15 4.86831e-14 1.62959e-12 4.3492e-11 9.25494e-10 1.57025e-08 2.12421e-07 2.29118e-06 1.97039e-05 0.000135107 0.000738645 0.00321978 0.0111905 0.0310101 0.0685156 0.1207 0.169535 0.189865 0.169535 0.1207 0.0685156 0.0310101 0.0111905 0.00321978 0.000738645 0.000135107 1.97039e-05 2.29118e-06 2.12421e-07 1.57025e-08 9.25494e-10 4.3492e-11 1.62959e-12 4.86831e-14 1.15961e-15 2.2023e-17 3.33483e-19 4.02628e-21 3.87584e-23 2.97482e-25 1.82049e-27 8.88273e-30 3.45571e-32 1.07192e-34 2.65105e-37 5.22764e-40 8.22562e-43 1.4013e-45 0 0 0 0 0 0 0 0 0 0 0 0 0 0 0 0 0 0 0 0 0 0 0 0 0 0 0 0 0 0 0 0 0 0 0 0 0 0 0 0 0 0 0 0 0 0 0 0 0 0 0 0 0 0 0 0 0 0 0 0 0 0 0 0 0 0 0 0 0 0 0 0 0 0 0 0 0 0 0 0 0 0 0 0 0 0 0 0 0 0 0 0 0 0 0 0 0 0 0 0 0 0 0 0 0 0 0 0 0 0 0 0 0 0 0 0 0 0 0 0 0 0 0;
   (1020809921) 0 0 0 0 0 0 0 0 0 0 0 0 0 0 0 0 0 0 0 0 0 0 0 0 0 0 0 0 0 0 0 0 0 0 0 0 0 0 0 0 0 0 0 0 0 0 0 0 0 0 0 0 0 0 0 0 0 0 0 0 0 0 0 0 0 0 0 0 0 0 0 0 0 0 0 0 0 0 0 0 0 0 0 0 0 0 0 0 0 0 0 0 0 0 0 0 0 0 0 0 0 0 0 0 0 0 0 0 0 0 0 0 0 0 0 0 0 0 0 0 0 0 0 0 0 0 0 0 0 0 0 0 0 0 0 0 0 0 0 0 0 0 0 0 0 0 0 0 0 0 0 0 1.4013e-45 8.22562e-43 5.22764e-40 2.65105e-37 1.07192e-34 3.45571e-32 8.88273e-30 1.82049e-27 2.97482e-25 3.87584e-23 4.02628e-21 3.33483e-19 2.2023e-17 1.15961e-15 4.86831e-14 1.62959e-12 4.3492e-11 9.25494e-10 1.57025e-08 2.12421e-07 2.29118e-06 1.97039e-05 0.000135107 0.000738645 0.00321978 0.0111905 0.0310101 0.0685156 0.1207 0.169535 0.189865 0.169535 0.1207 0.0685156 0.0310101 0.0111905 0.00321978 0.000738645 0.000135107 1.97039e-05 2.29118e-06 2.12421e-07 1.57025e-08 9.25494e-10 4.3492e-11 1.62959e-12 4.86831e-14 1.15961e-15 2.2023e-17 3.33483e-19 4.02628e-21 3.87584e-23 2.97482e-25 1.82049e-27 8.88273e-30 3.45571e-32 1.07192e-34 2.65105e-37 5.22764e-40 8.22562e-43 1.4013e-45 0 0 0 0 0 0 0 0 0 0 0 0 0 0 0 0 0 0 0 0 0 0 0 0 0 0 0 0 0 0 0 0 0 0 0 0 0 0 0 0 0 0 0 0 0 0 0 0 0 0 0 0 0 0 0 0 0 0 0 0 0 0 0 0 0 0 0 0 0 0 0 0 0 0 0 0 0 0 0 0 0 0 0 0 0 0 0 0 0 0 0 0 0 0 0 0 0 0 0 0 0 0 0 0 0 0 0 0 0 0 0 0 0 0 0 0 0 0 0 0 0 0 0;
   (1032473955) 0 0 0 0 0 0 0 0 0 0 0 0 0 0 0 0 0 0 0 0 0 0 0 0 0 0 0 0 0 0 0 0 0 0 0 0 0 0 0 0 0 0 0 0 0 0 0 0 0 0 0 0 0 0 0 0 0 0 0 0 0 0 0 0 0 0 0 0 0 0 0 0 0 0 0 0 0 0 0 0 0 0 0 0 0 0 0 0 0 0 0 0 0 0 0 0 0 0 0 0 0 0 0 0 0 0 0 0 0 0 0 0 0 0 0 0 0 0 0 0 0 0 0 0 0 0 0 0 0 0 0 0 0 0 0 0 0 0 0 0 0 0 0 0 0 0 0 0 0 0 0 0 0 0 0 0 0 0 0 0 0 0 0 0 0 0 0 0 0 0 0 0 0 0 0 0 0 0 0 0 0 0 0 0 0 1.4013e-45 8.22562e-43 5.22764e-40 2.65105e-37 1.07192e-34 3.45571e-32 8.88273e-30 1.82049e-27 2.97482e-25 3.87584e-23 4.02628e-21 3.33483e-19 2.2023e-17 1.15961e-15 4.86831e-14 1.62959e-12 4.3492e-11 9.25494e-10 1.57025e-08 2.12421e-07 2.29118e-06 1.97039e-05 0.000135107 0.000738645 0.00321978 0.0111905 0.0310101 0.0685156 0.1207 0.169535 0.189865 0.169535 0.1207 0.0685156 0.0310101 0.0111905 0.00321978 0.000738645 0.000135107 1.97039e-05 2.29118e-06 2.12421e-07 1.57025e-08 9.25494e-10 4.3492e-11 1.62959e-12 4.86831e-14 1.15961e-15 2.2023e-17 3.33483e-19 4.02628e-21 3.87584e-23 2.97482e-25 1.82049e-27 8.88273e-30 3.45571e-32 1.07192e-34 2.65105e-37 5.22764e-40 8.22562e-43 1.4013e-45 0 0 0 0 0 0 0 0 0 0 0 0 0 0 0 0 0 0 0 0 0 0 0 0 0 0 0 0 0 0 0 0 0 0 0 0 0 0 0 0 0 0 0 0 0 0 0 0 0 0 0 0 0 0 0 0 0 0 0 0 0 0 0 0 0 0 0 0 0 0 0 0 0 0 0 0 0 0 0 0 0 0 0 0 0 0 0 0 0 0;
   (1026295355) 0 0 0 0 0 0 0 0 0 0 0 0 0 0 0 0 0 0 0 0 0 0 0 0 0 0 0 0 0 0 0 0 0 0 0 0 0 0 0 0 0 0 0 0 0 0 0 0 0 0 0 0 0 0 0 0 0 0 0 0 0 0 0 0 0 0 0 0 0 0 0 0 0 0 0 0 0 0 0 0 0 0 0 0 0 0 0 0 0 0 0 0 0 0 0 0 0 0 0 0 0 0 0 0 0 0 0 0 0 0 0 0 0 0 0 0 0 0 0 0 0 0 0 0 0 0 0 0 0 0 0 0 0 0 0 0 0 0 0 0 0 0 0 0 0 0 0 0 0 0 0 0 0 0 0 0 0 0 0 0 0 0 0 0 0 0 0 0 0 0 0 0 0 0 0 0 0 0 0 0 0 0 0 0 0 1.4013e-45 8.22562e-43 5.22764e-40 2.65105e-37 1.07192e-34 3.45571e-32 8.88273e-30 1.82049e-27 2.97482e-25 3.87584e-23 4.02628e-21 3.33483e-19 2.2023e-17 1.15961e-15 4.86831e-14 1.62959e-12 4.3492e-11 9.25494e-10 1.57025e-08 2.12421e-07 2.29118e-06 1.97039e-05 0.000135107 0.000738645 0.00321978 0.0111905 0.0310101 0.0685156 0.1207 0.169535 0.189865 0.169535 0.1207 0.0685156 0.0310101 0.0111905 0.00321978 0.000738645 0.000135107 1.97039e-05 2.29118e-06 2.12421e-07 1.57025e-08 9.25494e-10 4.3492e-11 1.62959e-12 4.86831e-14 1.15961e-15 2.2023e-17 3.33483e-19 4.02628e-21 3.87584e-23 2.97482e-25 1.82049e-27 8.88273e-30 3.45571e-32 1.07192e-34 2.65105e-37 5.22764e-40 8.22562e-43 1.4013e-45 0 0 0 0 0 0 0 0 0 0 0 0 0 0 0 0 0 0 0 0 0 0 0 0 0 0 0 0 0 0 0 0 0 0 0 0 0 0 0 0 0 0 0 0 0 0 0 0 0 0 0 0 0 0 0 0 0 0 0 0 0 0 0 0 0 0 0 0 0 0 0 0 0 0 0 0 0 0 0 0 0 0 0 0 0 0 0 0 0 0;
   (1031150558) 0 0 0 0 0 0 0 0 0 0 0 0 0 0 0 0 0 0 0 0 0 0 0 0 0 0 0 0 0 0 0 0 0 0 0 0 0 0 0 0 0 0 0 0 0 0 0 0 0 0 0 0 0 0 0 0 0 0 0 0 0 0 0 0 0 0 0 0 0 0 0 0 0 0 0 0 0 0 0 0 0 0 0 0 0 0 0 0 0 0 0 0 0 0 0 0 0 0 0 0 0 0 0 0 0 0 0 0 0 0 0 0 0 0 0 0 0 0 0 0 0 0 0 0 0 0 0 0 0 0 0 0 0 0 0 0 0 0 0 0 0 0 0 0 0 0 0 0 0 0 0 0 0 0 0 0 0 0 0 0 0 0 0 0 0 0 0 0 0 0 0 0 0 0 0 0 0 0 0 0 0 0 0 0 0 1.4013e-45 8.22562e-43 5.22764e-40 2.65105e-37 1.07192e-34 3.45571e-32 8.88273e-30 1.82049e-27 2.97482e-25 3.87584e-23 4.02628e-21 3.33483e-19 2.2023e-17 1.15961e-15 4.86831e-14 1.62959e-12 4.3492e-11 9.25494e-10 1.57025e-08 2.12421e-07 2.29118e-06 1.97039e-05 0.000135107 0.000738645 0.00321978 0.0111905 0.0310101 0.0685156 0.1207 0.169535 0.189865 0.169535 0.1207 0.0685156 0.0310101 0.0111905 0.00321978 0.000738645 0.000135107 1.97039e-05 2.29118e-06 2.12421e-07 1.57025e-08 9.25494e-10 4.3492e-11 1.62959e-12 4.86831e-14 1.15961e-15 2.2023e-17 3.33483e-19 4.02628e-21 3.87584e-23 2.97482e-25 1.82049e-27 8.88273e-30 3.45571e-32 1.07192e-34 2.65105e-37 5.22764e-40 8.22562e-43 1.4013e-45 0 0 0 0 0 0 0 0 0 0 0 0 0 0 0 0 0 0 0 0 0 0 0 0 0 0 0 0 0 0 0 0 0 0 0 0 0 0 0 0 0 0 0 0 0 0 0 0 0 0 0 0 0 0 0 0 0 0 0 0 0 0 0 0 0 0 0 0 0 0 0 0 0 0 0 0 0 0 0 0 0 0 0 0 0 0 0 0 0 0;
   (1019107402) 0 0 0 0 0 0 0 0 0 0 0 0 0 0 0 0 0 0 0 0 0 0 0 0 0 0 0 0 0 0 0 0 0 0 0 0 0 0 0 0 0 0 0 0 0 0 0 0 0 0 0 0 0 0 0 0 0 0 0 0 0 0 0 0 0 0 0 0 0 0 0 0 0 0 0 0 0 0 0 0 0 0 0 0 0 0 0 0 0 0 0 0 0 0 0 0 0 0 0 0 0 0 0 0 0 0 0 0 0 0 0 0 0 0 0 0 0 0 0 0 0 0 0 0 0 0 0 0 0 0 0 0 0 0 0 0 0 0 0 0 0 0 0 0 0 0 0 0 0 0 0 0 0 0 0 0 0 0 0 0 0 0 0 0 0 0 0 0 0 0 0 0 0 0 0 0 0 0 0 0 0 0 0 0 0 0 0 0 0 0 0 0 0 0 1.4013e-45 8.22562e-43 5.22764e-40 2.65105e-37 1.07192e-34 3.45571e-32 8.88273e-30 1.82049e-27 2.97482e-25 3.87584e-23 4.02628e-21 3.33483e-19 2.2023e-17 1.15961e-15 4.86831e-14 1.62959e-12 4.3492e-11 9.25494e-10 1.57025e-08 2.12421e-07 2.29118e-06 1.97039e-05 0.000135107 0.000738645 0.00321978 0.0111905 0.0310101 0.0685156 0.1207 0.169535 0.189865 0.169535 0.1207 0.0685156 0.0310101 0.0111905 0.00321978 0.000738645 0.000135107 1.97039e-05 2.29118e-06 2.12421e-07 1.57025e-08 9.25494e-10 4.3492e-11 1.62959e-12 4.86831e-14 1.15961e-15 2.2023e-17 3.33483e-19 4.02628e-21 3.87584e-23 2.97482e-25 1.82049e-27 8.88273e-30 3.45571e-32 1.07192e-34 2.65105e-37 5.22764e-40 8.22562e-43 1.4013e-45 0 0 0 0 0 0 0 0 0 0 0 0 0 0 0 0 0 0 0 0 0 0 0 0 0 0 0 0 0 0 0 0 0 0 0 0 0 0 0 0 0 0 0 0 0 0 0 0 0 0 0 0 0 0 0 0 0 0 0 0 0 0 0 0 0 0 0 0 0 0 0 0 0 0 0 0 0 0 0 0 0;
   (1018494738) 0 0 0 0 0 0 0 0 0 0 0 0 0 0 0 0 0 0 0 0 0 0 0 0 0 0 0 0 0 0 0 0 0 0 0 0 0 0 0 0 0 0 0 0 0 0 0 0 0 0 0 0 0 0 0 0 0 0 0 0 0 0 0 0 0 0 0 0 0 0 0 0 0 0 0 0 0 0 0 0 0 0 0 0 0 0 0 0 0 0 0 0 0 0 0 0 0 0 0 0 0 0 0 0 0 0 0 0 0 0 0 0 0 0 0 0 0 0 0 0 0 0 0 0 0 0 0 0 0 0 0 0 0 0 0 0 0 0 0 0 0 0 0 0 0 0 0 0 0 0 0 0 0 0 0 0 0 0 0 0 0 0 0 0 0 0 0 0 0 0 0 0 0 0 0 0 0 0 0 0 0 0 0 0 0 0 0 0 0 0 0 0 0 0 0 1.4013e-45 8.22562e-43 5.22764e-40 2.65105e-37 1.07192e-34 3.45571e-32 8.88273e-30 1.82049e-27 2.97482e-25 3.87584e-23 4.02628e-21 3.33483e-19 2.2023e-17 1.15961e-15 4.86831e-14 1.62959e-12 4.3492e-11 9.25494e-10 1.57025e-08 2.12421e-07 2.29118e-06 1.97039e-05 0.000135107 0.000738645 0.00321978 0.0111905 0.0310101 0.0685156 0.1207 0.169535 0.189865 0.169535 0.1207 0.0685156 0.0310101 0.0111905 0.00321978 0.000738645 0.000135107 1.97039e-05 2.29118e-06 2.12421e-07 1.57025e-08 9.25494e-10 4.3492e-11 1.62959e-12 4.86831e-14 1.15961e-15 2.2023e-17 3.33483e-19 4.02628e-21 3.87584e-23 2.97482e-25 1.82049e-27 8.88273e-30 3.45571e-32 1.07192e-34 2.65105e-37 5.22764e-40 8.22562e-43 1.4013e-45 0 0 0 0 0 0 0 0 0 0 0 0 0 0 0 0 0 0 0 0 0 0 0 0 0 0 0 0 0 0 0 0 0 0 0 0 0 0 0 0 0 0 0 0 0 0 0 0 0 0 0 0 0 0 0 0 0 0 0 0 0 0 0 0 0 0 0 0 0 0 0 0 0 0 0 0 0 0 0 0;
   (1082749190) 0 0 0 0 0 0 0 0 0 0 0 0 0 0 0 0 0 0 0 0 0 0 0 0 0 0 0 0 0 0 0 0 0 0 0 0 0 0 0 0 0 0 0 0 0 0 0 0 0 0 0 0 0 0 0 0 0 0 0 0 0 0 0 0 0 0 0 0 0 0 0 0 0 0 0 0 0 0 0 0 0 0 0 0 0 0 0 0 0 0 0 0 0 0 0 0 0 0 0 0 0 0 0 0 0 0 0 0 0 0 0 0 0 0 0 0 0 0 0 0 0 0 0 0 0 0 0 0 0 0 0 0 0 0 0 0 0 0 0 0 0 0 0 0 0 0 0 0 0 0 0 0 0 0 0 0 0 0 0 0 0 0 0 0 0 0 0 0 0 0 0 0 0 0 0 0 0 0 0 0 0 0 0 0 0 0 0 0 0 0 0 0 0 0 0 1.4013e-45 8.22562e-43 5.22764e-40 2.65105e-37 1.07192e-34 3.45571e-32 8.88273e-30 1.82049e-27 2.97482e-25 3.87584e-23 4.02628e-21 3.33483e-19 2.2023e-17 1.15961e-15 4.86831e-14 1.62959e-12 4.3492e-11 9.25494e-10 1.57025e-08 2.12421e-07 2.29118e-06 1.97039e-05 0.000135107 0.000738645 0.00321978 0.0111905 0.0310101 0.0685156 0.1207 0.169535 0.189865 0.169535 0.1207 0.0685156 0.0310101 0.0111905 0.00321978 0.000738645 0.000135107 1.97039e-05 2.29118e-06 2.12421e-07 1.57025e-08 9.25494e-10 4.3492e-11 1.62959e-12 4.86831e-14 1.15961e-15 2.2023e-17 3.33483e-19 4.02628e-21 3.87584e-23 2.97482e-25 1.82049e-27 8.88273e-30 3.45571e-32 1.07192e-34 2.65105e-37 5.22764e-40 8.22562e-43 1.4013e-45 0 0 0 0 0 0 0 0 0 0 0 0 0 0 0 0 0 0 0 0 0 0 0 0 0 0 0 0 0 0 0 0 0 0 0 0 0 0 0 0 0 0 0 0 0 0 0 0 0 0 0 0 0 0 0 0 0 0 0 0 0 0 0 0 0 0 0 0 0 0 0 0 0 0 0 0 0 0 0 0;
   (80871350) 0 0 0 0 0 0 0 0 0 0 0 0 0 0 0 0 0 0 0 0 0 0 0 0 0 0 0 0 0 0 0 0 0 0 0 0 0 0 0 0 0 0 0 0 0 0 0 0 0 0 0 0 0 0 0 0 0 0 0 0 0 0 0 0 0 0 0 0 0 0 0 0 0 0 0 0 0 0 0 0 0 0 0 0 0 0 0 0 0 0 0 0 0 0 0 0 0 0 0 0 0 0 0 0 0 0 0 0 0 0 0 0 0 0 0 0 0 0 0 0 0 0 0 0 0 0 0 0 0 0 0 0 0 0 0 0 0 0 0 0 0 0 0 0 0 0 0 0 0 0 0 0 0 0 0 0 0 0 0 0 0 0 0 0 0 0 0 0 0 0 0 0 0 0 0 0 0 0 0 0 0 0 0 0 0 0 0 0 0 0 0 0 0 0 0 1.4013e-45 8.22562e-43 5.22764e-40 2.65105e-37 1.07192e-34 3.45571e-32 8.88273e-30 1.82049e-27 2.97482e-25 3.87584e-23 4.02628e-21 3.33483e-19 2.2023e-17 1.15961e-15 4.86831e-14 1.62959e-12 4.3492e-11 9.25494e-10 1.57025e-08 2.12421e-07 2.29118e-06 1.97039e-05 0.000135107 0.000738645 0.00321978 0.0111905 0.0310101 0.0685156 0.1207 0.169535 0.189865 0.169535 0.1207 0.0685156 0.0310101 0.0111905 0.00321978 0.000738645 0.000135107 1.97039e-05 2.29118e-06 2.12421e-07 1.57025e-08 9.25494e-10 4.3492e-11 1.62959e-12 4.86831e-14 1.15961e-15 2.2023e-17 3.33483e-19 4.02628e-21 3.87584e-23 2.97482e-25 1.82049e-27 8.88273e-30 3.45571e-32 1.07192e-34 2.65105e-37 5.22764e-40 8.22562e-43 1.4013e-45 0 0 0 0 0 0 0 0 0 0 0 0 0 0 0 0 0 0 0 0 0 0 0 0 0 0 0 0 0 0 0 0 0 0 0 0 0 0 0 0 0 0 0 0 0 0 0 0 0 0 0 0 0 0 0 0 0 0 0 0 0 0 0 0 0 0 0 0 0 0 0 0 0 0 0 0 0 0 0 0;
   (1068976301) 0 0 0 0 0 0 0 0 0 0 0 0 0 0 0 0 0 0 0 0 0 0 0 0 0 0 0 0 0 0 0 0 0 0 0 0 0 0 0 0 0 0 0 0 0 0 0 0 0 0 0 0 0 0 0 0 0 0 0 0 0 0 0 0 0 0 0 0 0 0 0 0 0 0 0 0 0 0 0 0 0 0 0 0 0 0 0 0 0 0 0 0 0 0 0 0 0 0 0 0 0 0 0 0 0 0 0 0 0 0 0 0 0 0 0 0 0 0 0 0 0 0 0 0 0 0 0 0 0 0 0 0 0 0 0 0 0 0 0 0 0 0 0 0 0 0 0 0 0 0 0 0 0 0 0 0 0 0 0 0 0 0 0 0 0 0 0 0 0 0 0 0 0 0 0 0 0 0 0 0 0 0 0 0 0 0 0 0 0 0 0 0 0 0 0 1.4013e-45 8.22562e-43 5.22764e-40 2.65105e-37 1.07192e-34 3.45571e-32 8.88273e-30 1.82049e-27 2.97482e-25 3.87584e-23 4.02628e-21 3.33483e-19 2.2023e-17 1.15961e-15 4.86831e-14 1.62959e-12 4.3492e-11 9.25494e-10 1.57025e-08 2.12421e-07 2.29118e-06 1.97039e-05 0.000135107 0.000738645 0.00321978 0.0111905 0.0310101 0.0685156 0.1207 0.169535 0.189865 0.169535 0.1207 0.0685156 0.0310101 0.0111905 0.00321978 0.000738645 0.000135107 1.97039e-05 2.29118e-06 2.12421e-07 1.57025e-08 9.25494e-10 4.3492e-11 1.62959e-12 4.86831e-14 1.15961e-15 2.2023e-17 3.33483e-19 4.02628e-21 3.87584e-23 2.97482e-25 1.82049e-27 8.88273e-30 3.45571e-32 1.07192e-34 2.65105e-37 5.22764e-40 8.22562e-43 1.4013e-45 0 0 0 0 0 0 0 0 0 0 0 0 0 0 0 0 0 0 0 0 0 0 0 0 0 0 0 0 0 0 0 0 0 0 0 0 0 0 0 0 0 0 0 0 0 0 0 0 0 0 0 0 0 0 0 0 0 0 0 0 0 0 0 0 0 0 0 0 0 0 0 0 0 0 0 0 0 0 0 0;
   (1020815022) 0 0 0 0 0 0 0 0 0 0 0 0 0 0 0 0 0 0 0 0 0 0 0 0 0 0 0 0 0 0 0 0 0 0 0 0 0 0 0 0 0 0 0 0 0 0 0 0 0 0 0 0 0 0 0 0 0 0 0 0 0 0 0 0 0 0 0 0 0 0 0 0 0 0 0 0 0 0 0 0 0 0 0 0 0 0 0 0 0 0 0 0 0 0 0 0 0 0 0 0 0 0 0 0 0 0 0 0 0 0 0 0 0 0 0 0 0 0 0 0 0 0 0 0 0 0 0 0 0 0 0 0 0 0 0 0 0 0 0 0 0 0 0 0 0 0 0 0 0 0 0 0 0 0 0 0 0 0 0 0 0 0 0 0 0 0 0 0 0 0 0 0 0 0 0 0 0 0 0 0 0 0 0 0 0 0 0 0 0 0 0 0 0 0 0 1.4013e-45 8.22562e-43 5.22764e-40 2.65105e-37 1.07192e-34 3.45571e-32 8.88273e-30 1.82049e-27 2.97482e-25 3.87584e-23 4.02628e-21 3.33483e-19 2.2023e-17 1.15961e-15 4.86831e-14 1.62959e-12 4.3492e-11 9.25494e-10 1.57025e-08 2.12421e-07 2.29118e-06 1.97039e-05 0.000135107 0.000738645 0.00321978 0.0111905 0.0310101 0.0685156 0.1207 0.169535 0.189865 0.169535 0.1207 0.0685156 0.0310101 0.0111905 0.00321978 0.000738645 0.000135107 1.97039e-05 2.29118e-06 2.12421e-07 1.57025e-08 9.25494e-10 4.3492e-11 1.62959e-12 4.86831e-14 1.15961e-15 2.2023e-17 3.33483e-19 4.02628e-21 3.87584e-23 2.97482e-25 1.82049e-27 8.88273e-30 3.45571e-32 1.07192e-34 2.65105e-37 5.22764e-40 8.22562e-43 1.4013e-45 0 0 0 0 0 0 0 0 0 0 0 0 0 0 0 0 0 0 0 0 0 0 0 0 0 0 0 0 0 0 0 0 0 0 0 0 0 0 0 0 0 0 0 0 0 0 0 0 0 0 0 0 0 0 0 0 0 0 0 0 0 0 0 0 0 0 0 0 0 0 0 0 0 0 0 0 0 0 0 0;
   (1036933458) 0 0 0 0 0 0 0 0 0 0 0 0 0 0 0 0 0 0 0 0 0 0 0 0 0 0 0 0 0 0 0 0 0 0 0 0 0 0 0 0 0 0 0 0 0 0 0 0 0 0 0 0 0 0 0 0 0 0 0 0 0 0 0 0 0 0 0 0 0 0 0 0 0 0 0 0 0 0 0 0 0 0 0 0 0 0 0 0 0 0 0 0 0 0 0 0 0 0 0 0 0 0 0 0 0 0 0 0 0 0 0 0 0 0 0 0 0 0 0 0 0 0 0 0 0 0 0 0 0 0 0 0 0 0 0 0 0 0 0 0 0 0 0 0 0 0 0 0 0 0 0 0 0 0 0 0 0 0 0 0 0 0 0 0 0 0 0 0 0 0 0 0 0 0 0 0 0 0 0 0 0 0 0 0 0 0 0 0 0 0 0 0 0 0 0 1.4013e-45 8.22562e-43 5.22764e-40 2.65105e-37 1.07192e-34 3.45571e-32 8.88273e-30 1.82049e-27 2.97482e-25 3.87584e-23 4.02628e-21 3.33483e-19 2.2023e-17 1.15961e-15 4.86831e-14 1.62959e-12 4.3492e-11 9.25494e-10 1.57025e-08 2.12421e-07 2.29118e-06 1.97039e-05 0.000135107 0.000738645 0.00321978 0.0111905 0.0310101 0.0685156 0.1207 0.169535 0.189865 0.169535 0.1207 0.0685156 0.0310101 0.0111905 0.00321978 0.000738645 0.000135107 1.97039e-05 2.29118e-06 2.12421e-07 1.57025e-08 9.25494e-10 4.3492e-11 1.62959e-12 4.86831e-14 1.15961e-15 2.2023e-17 3.33483e-19 4.02628e-21 3.87584e-23 2.97482e-25 1.82049e-27 8.88273e-30 3.45571e-32 1.07192e-34 2.65105e-37 5.22764e-40 8.22562e-43 1.4013e-45 0 0 0 0 0 0 0 0 0 0 0 0 0 0 0 0 0 0 0 0 0 0 0 0 0 0 0 0 0 0 0 0 0 0 0 0 0 0 0 0 0 0 0 0 0 0 0 0 0 0 0 0 0 0 0 0 0 0 0 0 0 0 0 0 0 0 0 0 0 0 0 0 0 0 0 0 0 0 0 0;
}

