network "C:\Users\sorcar\github\Cardiac\db\memory\recognition\RecogniserBN.bif" {
// written by aGrUM 0.14.1
}

variable I {
   type discrete[2] {0, 1026295355};
}

variable F {
   type discrete[2] {0, 1026295355};
}

variable G {
   type discrete[2] {Female, Male};
}

variable A {
   type discrete[76] {0, 1, 2, 3, 4, 5, 6, 7, 8, 9, 10, 11, 12, 13, 14, 15, 16, 17, 18, 19, 20, 21, 22, 23, 24, 25, 26, 27, 28, 29, 30, 31, 32, 33, 34, 35, 36, 37, 38, 39, 40, 41, 42, 43, 44, 45, 46, 47, 48, 49, 50, 51, 52, 53, 54, 55, 56, 57, 58, 59, 60, 61, 62, 63, 64, 65, 66, 67, 68, 69, 70, 71, 72, 73, 74, 75};
}

variable H {
   type discrete[191] {50, 51, 52, 53, 54, 55, 56, 57, 58, 59, 60, 61, 62, 63, 64, 65, 66, 67, 68, 69, 70, 71, 72, 73, 74, 75, 76, 77, 78, 79, 80, 81, 82, 83, 84, 85, 86, 87, 88, 89, 90, 91, 92, 93, 94, 95, 96, 97, 98, 99, 100, 101, 102, 103, 104, 105, 106, 107, 108, 109, 110, 111, 112, 113, 114, 115, 116, 117, 118, 119, 120, 121, 122, 123, 124, 125, 126, 127, 128, 129, 130, 131, 132, 133, 134, 135, 136, 137, 138, 139, 140, 141, 142, 143, 144, 145, 146, 147, 148, 149, 150, 151, 152, 153, 154, 155, 156, 157, 158, 159, 160, 161, 162, 163, 164, 165, 166, 167, 168, 169, 170, 171, 172, 173, 174, 175, 176, 177, 178, 179, 180, 181, 182, 183, 184, 185, 186, 187, 188, 189, 190, 191, 192, 193, 194, 195, 196, 197, 198, 199, 200, 201, 202, 203, 204, 205, 206, 207, 208, 209, 210, 211, 212, 213, 214, 215, 216, 217, 218, 219, 220, 221, 222, 223, 224, 225, 226, 227, 228, 229, 230, 231, 232, 233, 234, 235, 236, 237, 238, 239, 240};
}

variable T {
   type discrete[336] {0, 1, 2, 3, 4, 5, 6, 7, 8, 9, 10, 11, 12, 13, 14, 15, 16, 17, 18, 19, 20, 21, 22, 23, 24, 25, 26, 27, 28, 29, 30, 31, 32, 33, 34, 35, 36, 37, 38, 39, 40, 41, 42, 43, 44, 45, 46, 47, 48, 49, 50, 51, 52, 53, 54, 55, 56, 57, 58, 59, 60, 61, 62, 63, 64, 65, 66, 67, 68, 69, 70, 71, 72, 73, 74, 75, 76, 77, 78, 79, 80, 81, 82, 83, 84, 85, 86, 87, 88, 89, 90, 91, 92, 93, 94, 95, 96, 97, 98, 99, 100, 101, 102, 103, 104, 105, 106, 107, 108, 109, 110, 111, 112, 113, 114, 115, 116, 117, 118, 119, 120, 121, 122, 123, 124, 125, 126, 127, 128, 129, 130, 131, 132, 133, 134, 135, 136, 137, 138, 139, 140, 141, 142, 143, 144, 145, 146, 147, 148, 149, 150, 151, 152, 153, 154, 155, 156, 157, 158, 159, 160, 161, 162, 163, 164, 165, 166, 167, 168, 169, 170, 171, 172, 173, 174, 175, 176, 177, 178, 179, 180, 181, 182, 183, 184, 185, 186, 187, 188, 189, 190, 191, 192, 193, 194, 195, 196, 197, 198, 199, 200, 201, 202, 203, 204, 205, 206, 207, 208, 209, 210, 211, 212, 213, 214, 215, 216, 217, 218, 219, 220, 221, 222, 223, 224, 225, 226, 227, 228, 229, 230, 231, 232, 233, 234, 235, 236, 237, 238, 239, 240, 241, 242, 243, 244, 245, 246, 247, 248, 249, 250, 251, 252, 253, 254, 255, 256, 257, 258, 259, 260, 261, 262, 263, 264, 265, 266, 267, 268, 269, 270, 271, 272, 273, 274, 275, 276, 277, 278, 279, 280, 281, 282, 283, 284, 285, 286, 287, 288, 289, 290, 291, 292, 293, 294, 295, 296, 297, 298, 299, 300, 301, 302, 303, 304, 305, 306, 307, 308, 309, 310, 311, 312, 313, 314, 315, 316, 317, 318, 319, 320, 321, 322, 323, 324, 325, 326, 327, 328, 329, 330, 331, 332, 333, 334, 335};
}

probability (I) {
   default 0.5 0.5;
}
probability (F | I) {
   (0) 0.9 0.1;
   (1026295355) 0.054435 0.945565;
}
probability (G | I) {
   (0) 0.5 0.5;
   (1026295355) 0.298613 0.701387;
}
probability (A | I) {
   (0) 0.0131579 0.0131579 0.0131579 0.0131579 0.0131579 0.0131579 0.0131579 0.0131579 0.0131579 0.0131579 0.0131579 0.0131579 0.0131579 0.0131579 0.0131579 0.0131579 0.0131579 0.0131579 0.0131579 0.0131579 0.0131579 0.0131579 0.0131579 0.0131579 0.0131579 0.0131579 0.0131579 0.0131579 0.0131579 0.0131579 0.0131579 0.0131579 0.0131579 0.0131579 0.0131579 0.0131579 0.0131579 0.0131579 0.0131579 0.0131579 0.0131579 0.0131579 0.0131579 0.0131579 0.0131579 0.0131579 0.0131579 0.0131579 0.0131579 0.0131579 0.0131579 0.0131579 0.0131579 0.0131579 0.0131579 0.0131579 0.0131579 0.0131579 0.0131579 0.0131579 0.0131579 0.0131579 0.0131579 0.0131579 0.0131579 0.0131579 0.0131579 0.0131579 0.0131579 0.0131579 0.0131579 0.0131579 0.0131579 0.0131579 0.0131579 0.0131579;
   (1026295355) 5.96631e-41 5.96631e-41 5.96631e-41 5.96631e-41 5.96631e-41 5.96631e-41 5.96631e-41 5.96631e-41 5.96631e-41 5.96631e-41 5.96631e-41 5.96631e-41 5.96631e-41 5.96631e-41 5.96631e-41 5.96645e-41 5.96701e-41 5.96911e-41 1.97914e-28 4.83937e-13 0.000830089 0.99833 0.000840049 4.93171e-13 2.01807e-28 6.10028e-41 6.1369e-41 6.03757e-41 6.0374e-41 6.13166e-41 6.04154e-41 6.00331e-41 6.01826e-41 6.0262e-41 6.01826e-41 6.00021e-41 5.98295e-41 5.97245e-41 5.96801e-41 5.96666e-41 5.96636e-41 5.96631e-41 5.96631e-41 5.96631e-41 5.96631e-41 5.96631e-41 5.96631e-41 5.96631e-41 5.96631e-41 5.96631e-41 5.96631e-41 5.96631e-41 5.96631e-41 5.96631e-41 5.96631e-41 5.96631e-41 5.96631e-41 5.96631e-41 5.96631e-41 5.96631e-41 5.96631e-41 5.96631e-41 5.96631e-41 5.96631e-41 5.96631e-41 5.96631e-41 5.96631e-41 5.96631e-41 5.96631e-41 5.96631e-41 5.96631e-41 5.96631e-41 5.96631e-41 5.96631e-41 5.96631e-41 5.96631e-41;
}
probability (H | I) {
   (0) 0.0052356 0.0052356 0.0052356 0.0052356 0.0052356 0.0052356 0.0052356 0.0052356 0.0052356 0.0052356 0.0052356 0.0052356 0.0052356 0.0052356 0.0052356 0.0052356 0.0052356 0.0052356 0.0052356 0.0052356 0.0052356 0.0052356 0.0052356 0.0052356 0.0052356 0.0052356 0.0052356 0.0052356 0.0052356 0.0052356 0.0052356 0.0052356 0.0052356 0.0052356 0.0052356 0.0052356 0.0052356 0.0052356 0.0052356 0.0052356 0.0052356 0.0052356 0.0052356 0.0052356 0.0052356 0.0052356 0.0052356 0.0052356 0.0052356 0.0052356 0.0052356 0.0052356 0.0052356 0.0052356 0.0052356 0.0052356 0.0052356 0.0052356 0.0052356 0.0052356 0.0052356 0.0052356 0.0052356 0.0052356 0.0052356 0.0052356 0.0052356 0.0052356 0.0052356 0.0052356 0.0052356 0.0052356 0.0052356 0.0052356 0.0052356 0.0052356 0.0052356 0.0052356 0.0052356 0.0052356 0.0052356 0.0052356 0.0052356 0.0052356 0.0052356 0.0052356 0.0052356 0.0052356 0.0052356 0.0052356 0.0052356 0.0052356 0.0052356 0.0052356 0.0052356 0.0052356 0.0052356 0.0052356 0.0052356 0.0052356 0.0052356 0.0052356 0.0052356 0.0052356 0.0052356 0.0052356 0.0052356 0.0052356 0.0052356 0.0052356 0.0052356 0.0052356 0.0052356 0.0052356 0.0052356 0.0052356 0.0052356 0.0052356 0.0052356 0.0052356 0.0052356 0.0052356 0.0052356 0.0052356 0.0052356 0.0052356 0.0052356 0.0052356 0.0052356 0.0052356 0.0052356 0.0052356 0.0052356 0.0052356 0.0052356 0.0052356 0.0052356 0.0052356 0.0052356 0.0052356 0.0052356 0.0052356 0.0052356 0.0052356 0.0052356 0.0052356 0.0052356 0.0052356 0.0052356 0.0052356 0.0052356 0.0052356 0.0052356 0.0052356 0.0052356 0.0052356 0.0052356 0.0052356 0.0052356 0.0052356 0.0052356 0.0052356 0.0052356 0.0052356 0.0052356 0.0052356 0.0052356 0.0052356 0.0052356 0.0052356 0.0052356 0.0052356 0.0052356 0.0052356 0.0052356 0.0052356 0.0052356 0.0052356 0.0052356 0.0052356 0.0052356 0.0052356 0.0052356 0.0052356 0.0052356 0.0052356 0.0052356 0.0052356 0.0052356 0.0052356 0.0052356;
   (1026295355) 1.7542e-15 1.7542e-15 1.88344e-15 3.07991e-15 5.01504e-15 8.13136e-15 1.31281e-14 2.11052e-14 3.37854e-14 5.3854e-14 8.54792e-14 1.35099e-13 2.12615e-13 3.33187e-13 5.19917e-13 8.07849e-13 1.2499e-12 1.92564e-12 2.95409e-12 4.5126e-12 6.864e-12 1.03964e-11 1.56799e-11 2.3548e-11 3.52145e-11 5.24377e-11 7.77537e-11 1.14804e-10 1.68794e-10 2.47127e-10 3.60289e-10 5.23065e-10 7.56198e-10 1.08869e-09 1.56085e-09 2.22856e-09 3.16889e-09 4.48768e-09 6.32978e-09 8.89256e-09 1.24442e-08 1.73475e-08 2.40922e-08 3.3337e-08 4.59661e-08 6.31629e-08 8.65099e-08 1.18118e-07 1.60806e-07 2.18325e-07 2.95676e-07 3.99525e-07 5.38762e-07 7.25251e-07 9.74844e-07 1.30875e-06 1.75536e-06 2.35279e-06 3.15218e-06 4.22221e-06 5.65528e-06 7.57554e-06 1.01499e-05 1.36025e-05 1.8234e-05 2.44468e-05 3.27775e-05 4.39405e-05 5.88819e-05 7.88467e-05 0.000105469 0.000140871 0.000187792 0.000249737 0.000331135 0.000437533 0.000575776 0.000754193 0.000982748 0.00127315 0.00163885 0.00209496 0.00265796 0.00334521 0.00417424 0.00516181 0.00632264 0.0076681 0.00920452 0.0109318 0.0128418 0.0149174 0.0171317 0.0194478 0.0218197 0.0241934 0.0265096 0.0287062 0.0307208 0.0324957 0.0339795 0.0351313 0.0359223 0.036337 0.0363746 0.0360472 0.0353798 0.034407 0.0331711 0.0317195 0.0301015 0.0283665 0.0265609 0.024727 0.0229017 0.021116 0.0193946 0.0177561 0.0162134 0.0147743 0.0134425 0.0122181 0.0110984 0.010079 0.00915388 0.00831594 0.00755809 0.00687286 0.00625307 0.0056919 0.00518295 0.00472043 0.00429913 0.00391442 0.00356226 0.00323916 0.00294213 0.00266862 0.00241648 0.00218388 0.00196931 0.00177145 0.0015892 0.00142156 0.00126771 0.00112682 0.000998194 0.000881132 0.000774963 0.000679042 0.000592717 0.000515349 0.000446307 0.000384962 0.000330703 0.000282929 0.000241059 0.000204533 0.000172819 0.000145411 0.000121836 0.000101654 8.44578e-05 6.98733e-05 5.75632e-05 4.7221e-05 3.85728e-05 3.13749e-05 2.54119e-05 2.04948e-05 1.64591e-05 1.31618e-05 1.04805e-05 8.30984e-06 6.56091e-06 5.15798e-06 4.03782e-06 3.14751e-06 2.44308e-06 1.88825e-06 1.45322e-06 1.11366e-06 8.49824e-07 6.45738e-07 4.88572e-07 3.68092e-07 2.76143e-07 2.06282e-07 1.53441e-07 1.1365e-07 8.38208e-08;
}
probability (T | I) {
   (0) 0.00297619 0.00297619 0.00297619 0.00297619 0.00297619 0.00297619 0.00297619 0.00297619 0.00297619 0.00297619 0.00297619 0.00297619 0.00297619 0.00297619 0.00297619 0.00297619 0.00297619 0.00297619 0.00297619 0.00297619 0.00297619 0.00297619 0.00297619 0.00297619 0.00297619 0.00297619 0.00297619 0.00297619 0.00297619 0.00297619 0.00297619 0.00297619 0.00297619 0.00297619 0.00297619 0.00297619 0.00297619 0.00297619 0.00297619 0.00297619 0.00297619 0.00297619 0.00297619 0.00297619 0.00297619 0.00297619 0.00297619 0.00297619 0.00297619 0.00297619 0.00297619 0.00297619 0.00297619 0.00297619 0.00297619 0.00297619 0.00297619 0.00297619 0.00297619 0.00297619 0.00297619 0.00297619 0.00297619 0.00297619 0.00297619 0.00297619 0.00297619 0.00297619 0.00297619 0.00297619 0.00297619 0.00297619 0.00297619 0.00297619 0.00297619 0.00297619 0.00297619 0.00297619 0.00297619 0.00297619 0.00297619 0.00297619 0.00297619 0.00297619 0.00297619 0.00297619 0.00297619 0.00297619 0.00297619 0.00297619 0.00297619 0.00297619 0.00297619 0.00297619 0.00297619 0.00297619 0.00297619 0.00297619 0.00297619 0.00297619 0.00297619 0.00297619 0.00297619 0.00297619 0.00297619 0.00297619 0.00297619 0.00297619 0.00297619 0.00297619 0.00297619 0.00297619 0.00297619 0.00297619 0.00297619 0.00297619 0.00297619 0.00297619 0.00297619 0.00297619 0.00297619 0.00297619 0.00297619 0.00297619 0.00297619 0.00297619 0.00297619 0.00297619 0.00297619 0.00297619 0.00297619 0.00297619 0.00297619 0.00297619 0.00297619 0.00297619 0.00297619 0.00297619 0.00297619 0.00297619 0.00297619 0.00297619 0.00297619 0.00297619 0.00297619 0.00297619 0.00297619 0.00297619 0.00297619 0.00297619 0.00297619 0.00297619 0.00297619 0.00297619 0.00297619 0.00297619 0.00297619 0.00297619 0.00297619 0.00297619 0.00297619 0.00297619 0.00297619 0.00297619 0.00297619 0.00297619 0.00297619 0.00297619 0.00297619 0.00297619 0.00297619 0.00297619 0.00297619 0.00297619 0.00297619 0.00297619 0.00297619 0.00297619 0.00297619 0.00297619 0.00297619 0.00297619 0.00297619 0.00297619 0.00297619 0.00297619 0.00297619 0.00297619 0.00297619 0.00297619 0.00297619 0.00297619 0.00297619 0.00297619 0.00297619 0.00297619 0.00297619 0.00297619 0.00297619 0.00297619 0.00297619 0.00297619 0.00297619 0.00297619 0.00297619 0.00297619 0.00297619 0.00297619 0.00297619 0.00297619 0.00297619 0.00297619 0.00297619 0.00297619 0.00297619 0.00297619 0.00297619 0.00297619 0.00297619 0.00297619 0.00297619 0.00297619 0.00297619 0.00297619 0.00297619 0.00297619 0.00297619 0.00297619 0.00297619 0.00297619 0.00297619 0.00297619 0.00297619 0.00297619 0.00297619 0.00297619 0.00297619 0.00297619 0.00297619 0.00297619 0.00297619 0.00297619 0.00297619 0.00297619 0.00297619 0.00297619 0.00297619 0.00297619 0.00297619 0.00297619 0.00297619 0.00297619 0.00297619 0.00297619 0.00297619 0.00297619 0.00297619 0.00297619 0.00297619 0.00297619 0.00297619 0.00297619 0.00297619 0.00297619 0.00297619 0.00297619 0.00297619 0.00297619 0.00297619 0.00297619 0.00297619 0.00297619 0.00297619 0.00297619 0.00297619 0.00297619 0.00297619 0.00297619 0.00297619 0.00297619 0.00297619 0.00297619 0.00297619 0.00297619 0.00297619 0.00297619 0.00297619 0.00297619 0.00297619 0.00297619 0.00297619 0.00297619 0.00297619 0.00297619 0.00297619 0.00297619 0.00297619 0.00297619 0.00297619 0.00297619 0.00297619 0.00297619 0.00297619 0.00297619 0.00297619 0.00297619 0.00297619 0.00297619 0.00297619 0.00297619 0.00297619 0.00297619 0.00297619 0.00297619 0.00297619 0.00297619 0.00297619 0.00297619 0.00297619 0.00297619 0.00297619 0.00297619 0.00297619 0.00297619 0.00297619 0.00297619 0.00297619 0.00297619 0.00297619 0.00297619 0.00297619 0.00297619 0.00297619 0.00297619 0.00297619 0.00297619;
   (1026295355) 1.44655e-27 1.44655e-27 1.44655e-27 1.44655e-27 1.44655e-27 1.44655e-27 1.44655e-27 1.44655e-27 1.44655e-27 1.44655e-27 1.44655e-27 1.44655e-27 1.44655e-27 1.44655e-27 1.44655e-27 1.44655e-27 1.44655e-27 1.44655e-27 1.44655e-27 1.44655e-27 1.44655e-27 1.44655e-27 1.44655e-27 1.44655e-27 1.44655e-27 1.44655e-27 1.44655e-27 1.44655e-27 1.44655e-27 1.44655e-27 1.44655e-27 1.44655e-27 1.44655e-27 1.44655e-27 1.44655e-27 1.44655e-27 1.44655e-27 1.44655e-27 1.44655e-27 1.44655e-27 1.44655e-27 1.44655e-27 1.44655e-27 1.44655e-27 1.44655e-27 1.44655e-27 1.44655e-27 1.44655e-27 1.44655e-27 1.44655e-27 1.44655e-27 1.44655e-27 1.44655e-27 1.44655e-27 1.44655e-27 1.44655e-27 1.44655e-27 1.44655e-27 1.44655e-27 1.44655e-27 1.44655e-27 1.44655e-27 1.44655e-27 1.44655e-27 1.44655e-27 1.44655e-27 1.44655e-27 1.44655e-27 1.44655e-27 1.44655e-27 1.44655e-27 1.44655e-27 1.44655e-27 1.44655e-27 1.44655e-27 1.44655e-27 1.44655e-27 1.44655e-27 1.44655e-27 1.44655e-27 1.44655e-27 1.44655e-27 1.44655e-27 1.44655e-27 1.44655e-27 1.44655e-27 1.44655e-27 1.44655e-27 1.44655e-27 1.44655e-27 1.44655e-27 1.44655e-27 1.44655e-27 1.44655e-27 1.44655e-27 1.44655e-27 1.44655e-27 1.44655e-27 1.44655e-27 1.44655e-27 1.44655e-27 1.44655e-27 1.44655e-27 1.44655e-27 1.44655e-27 1.44655e-27 1.44655e-27 1.44655e-27 1.44655e-27 1.44655e-27 1.44655e-27 1.44655e-27 1.44655e-27 1.44655e-27 1.44655e-27 1.44655e-27 1.44655e-27 1.44655e-27 1.44655e-27 1.44655e-27 1.44655e-27 1.44655e-27 1.44655e-27 1.44655e-27 1.44655e-27 1.44655e-27 1.44655e-27 1.44655e-27 1.44655e-27 1.44655e-27 1.44655e-27 1.44655e-27 1.44655e-27 1.44655e-27 1.44655e-27 1.44655e-27 1.44655e-27 1.44655e-27 1.44655e-27 1.44655e-27 1.44655e-27 1.44655e-27 1.44655e-27 1.44655e-27 1.44655e-27 1.44655e-27 1.44655e-27 1.44655e-27 1.44655e-27 1.44655e-27 1.44655e-27 1.44655e-27 1.44655e-27 1.44655e-27 1.44655e-27 1.44655e-27 1.44655e-27 1.44655e-27 1.44655e-27 1.44655e-27 1.44655e-27 1.44655e-27 1.44655e-27 1.44655e-27 1.44655e-27 1.44655e-27 1.44655e-27 1.44655e-27 1.44655e-27 1.44655e-27 1.44655e-27 1.44655e-27 1.44655e-27 1.44655e-27 1.44655e-27 1.44655e-27 1.44655e-27 1.44655e-27 1.44655e-27 1.44655e-27 1.44655e-27 1.44655e-27 1.44655e-27 1.44655e-27 1.44655e-27 3.34977e-26 7.22145e-25 1.42781e-23 2.58908e-22 4.30582e-21 6.56749e-20 9.18706e-19 1.17865e-17 1.38686e-16 1.49662e-15 1.48123e-14 1.34452e-13 1.1193e-12 8.54593e-12 5.98416e-11 3.8431e-10 2.26358e-09 1.22275e-08 6.05789e-08 2.75255e-07 1.14705e-06 4.38398e-06 1.53675e-05 4.94091e-05 0.000145733 0.000394476 0.000980766 0.00224327 0.00473334 0.009251 0.0168347 0.028678 0.0458874 0.0688575 0.095972 0.121952 0.137924 0.13591 0.115662 0.0857319 0.0565779 0.0340942 0.0191216 0.0100721 0.00498575 0.00230962 0.000995622 0.000397294 0.000146184 4.94701e-05 1.53744e-05 4.38465e-06 1.14711e-06 2.75259e-07 6.05791e-08 1.22276e-08 2.26358e-09 3.8431e-10 5.98416e-11 8.54593e-12 1.1193e-12 1.34452e-13 1.48123e-14 1.49662e-15 1.38686e-16 1.17865e-17 9.18706e-19 6.56749e-20 4.30582e-21 2.58908e-22 1.42781e-23 7.22145e-25 3.34977e-26 1.44655e-27 1.44655e-27 1.44655e-27 1.44655e-27 1.44655e-27 1.44655e-27 1.44655e-27 1.44655e-27 1.44655e-27 1.44655e-27 1.44655e-27 1.44655e-27 1.44655e-27 1.44655e-27 1.44655e-27 1.44655e-27 1.44655e-27 1.44655e-27 1.44655e-27 1.44655e-27 1.44655e-27 1.44655e-27 1.44655e-27 1.44655e-27 1.44655e-27 1.44655e-27 1.44655e-27 1.44655e-27 1.44655e-27 1.44655e-27 1.44655e-27 1.44655e-27 1.44655e-27 1.44655e-27 1.44655e-27 1.44655e-27 1.44655e-27 1.44655e-27 1.44655e-27 1.44655e-27 1.44655e-27 1.44655e-27 1.44655e-27 1.44655e-27 1.44655e-27 1.44655e-27 1.44655e-27 1.44655e-27 1.44655e-27 1.44655e-27 1.44655e-27 1.44655e-27 1.44655e-27 1.44655e-27 1.44655e-27 1.44655e-27 1.44655e-27 1.44655e-27 1.44655e-27 1.44655e-27 1.44655e-27 1.44655e-27 1.44655e-27 1.44655e-27 1.44655e-27 1.44655e-27 1.44655e-27 1.44655e-27 1.44655e-27 1.44655e-27 1.44655e-27 1.44655e-27 1.44655e-27 1.44655e-27 1.44655e-27 1.44655e-27 1.44655e-27 1.44655e-27;
}

