network "C:\Users\sorcar\github\Cardiac\db\memory\recognition\RecogniserBN.bif" {
// written by aGrUM 0.14.1
}

variable I {
   type discrete[3] {0, 314591, 1019107402};
}

variable F {
   type discrete[3] {0, 314591, 1019107402};
}

variable G {
   type discrete[2] {Female, Male};
}

variable A {
   type discrete[76] {0, 1, 2, 3, 4, 5, 6, 7, 8, 9, 10, 11, 12, 13, 14, 15, 16, 17, 18, 19, 20, 21, 22, 23, 24, 25, 26, 27, 28, 29, 30, 31, 32, 33, 34, 35, 36, 37, 38, 39, 40, 41, 42, 43, 44, 45, 46, 47, 48, 49, 50, 51, 52, 53, 54, 55, 56, 57, 58, 59, 60, 61, 62, 63, 64, 65, 66, 67, 68, 69, 70, 71, 72, 73, 74, 75};
}

variable H {
   type discrete[191] {50, 51, 52, 53, 54, 55, 56, 57, 58, 59, 60, 61, 62, 63, 64, 65, 66, 67, 68, 69, 70, 71, 72, 73, 74, 75, 76, 77, 78, 79, 80, 81, 82, 83, 84, 85, 86, 87, 88, 89, 90, 91, 92, 93, 94, 95, 96, 97, 98, 99, 100, 101, 102, 103, 104, 105, 106, 107, 108, 109, 110, 111, 112, 113, 114, 115, 116, 117, 118, 119, 120, 121, 122, 123, 124, 125, 126, 127, 128, 129, 130, 131, 132, 133, 134, 135, 136, 137, 138, 139, 140, 141, 142, 143, 144, 145, 146, 147, 148, 149, 150, 151, 152, 153, 154, 155, 156, 157, 158, 159, 160, 161, 162, 163, 164, 165, 166, 167, 168, 169, 170, 171, 172, 173, 174, 175, 176, 177, 178, 179, 180, 181, 182, 183, 184, 185, 186, 187, 188, 189, 190, 191, 192, 193, 194, 195, 196, 197, 198, 199, 200, 201, 202, 203, 204, 205, 206, 207, 208, 209, 210, 211, 212, 213, 214, 215, 216, 217, 218, 219, 220, 221, 222, 223, 224, 225, 226, 227, 228, 229, 230, 231, 232, 233, 234, 235, 236, 237, 238, 239, 240};
}

variable T {
   type discrete[336] {0, 1, 2, 3, 4, 5, 6, 7, 8, 9, 10, 11, 12, 13, 14, 15, 16, 17, 18, 19, 20, 21, 22, 23, 24, 25, 26, 27, 28, 29, 30, 31, 32, 33, 34, 35, 36, 37, 38, 39, 40, 41, 42, 43, 44, 45, 46, 47, 48, 49, 50, 51, 52, 53, 54, 55, 56, 57, 58, 59, 60, 61, 62, 63, 64, 65, 66, 67, 68, 69, 70, 71, 72, 73, 74, 75, 76, 77, 78, 79, 80, 81, 82, 83, 84, 85, 86, 87, 88, 89, 90, 91, 92, 93, 94, 95, 96, 97, 98, 99, 100, 101, 102, 103, 104, 105, 106, 107, 108, 109, 110, 111, 112, 113, 114, 115, 116, 117, 118, 119, 120, 121, 122, 123, 124, 125, 126, 127, 128, 129, 130, 131, 132, 133, 134, 135, 136, 137, 138, 139, 140, 141, 142, 143, 144, 145, 146, 147, 148, 149, 150, 151, 152, 153, 154, 155, 156, 157, 158, 159, 160, 161, 162, 163, 164, 165, 166, 167, 168, 169, 170, 171, 172, 173, 174, 175, 176, 177, 178, 179, 180, 181, 182, 183, 184, 185, 186, 187, 188, 189, 190, 191, 192, 193, 194, 195, 196, 197, 198, 199, 200, 201, 202, 203, 204, 205, 206, 207, 208, 209, 210, 211, 212, 213, 214, 215, 216, 217, 218, 219, 220, 221, 222, 223, 224, 225, 226, 227, 228, 229, 230, 231, 232, 233, 234, 235, 236, 237, 238, 239, 240, 241, 242, 243, 244, 245, 246, 247, 248, 249, 250, 251, 252, 253, 254, 255, 256, 257, 258, 259, 260, 261, 262, 263, 264, 265, 266, 267, 268, 269, 270, 271, 272, 273, 274, 275, 276, 277, 278, 279, 280, 281, 282, 283, 284, 285, 286, 287, 288, 289, 290, 291, 292, 293, 294, 295, 296, 297, 298, 299, 300, 301, 302, 303, 304, 305, 306, 307, 308, 309, 310, 311, 312, 313, 314, 315, 316, 317, 318, 319, 320, 321, 322, 323, 324, 325, 326, 327, 328, 329, 330, 331, 332, 333, 334, 335};
}

probability (I) {
   default 0.333333 0.333333 0.333333;
}
probability (F | I) {
   (0) 0.820785 0.154825 0.0243902;
   (314591) 0.0695382 0.906072 0.0243903;
   (1019107402) 0.0358696 0.025 0.93913;
}
probability (G | I) {
   (0) 0.5 0.5;
   (314591) 0.0320755 0.967925;
   (1019107402) 0.0329501 0.96705;
}
probability (A | I) {
   (0) 0.0131579 0.0131579 0.0131579 0.0131579 0.0131579 0.0131579 0.0131579 0.0131579 0.0131579 0.0131579 0.0131579 0.0131579 0.0131579 0.0131579 0.0131579 0.0131579 0.0131579 0.0131579 0.0131579 0.0131579 0.0131579 0.0131579 0.0131579 0.0131579 0.0131579 0.0131579 0.0131579 0.0131579 0.0131579 0.0131579 0.0131579 0.0131579 0.0131579 0.0131579 0.0131579 0.0131579 0.0131579 0.0131579 0.0131579 0.0131579 0.0131579 0.0131579 0.0131579 0.0131579 0.0131579 0.0131579 0.0131579 0.0131579 0.0131579 0.0131579 0.0131579 0.0131579 0.0131579 0.0131579 0.0131579 0.0131579 0.0131579 0.0131579 0.0131579 0.0131579 0.0131579 0.0131579 0.0131579 0.0131579 0.0131579 0.0131579 0.0131579 0.0131579 0.0131579 0.0131579 0.0131579 0.0131579 0.0131579 0.0131579 0.0131579 0.0131579;
   (314591) 6.05627e-41 6.05627e-41 6.05627e-41 6.05627e-41 6.05627e-41 6.05627e-41 6.05627e-41 6.05627e-41 6.05627e-41 6.05627e-41 6.05627e-41 6.05627e-41 6.05627e-41 6.05627e-41 6.05627e-41 6.05627e-41 6.05627e-41 6.05627e-41 6.05627e-41 6.05627e-41 6.05627e-41 6.05627e-41 6.05627e-41 6.05627e-41 6.05627e-41 6.05627e-41 6.05627e-41 6.05627e-41 6.05627e-41 6.05627e-41 6.05627e-41 6.05627e-41 6.05627e-41 6.05627e-41 6.05627e-41 6.05627e-41 6.05627e-41 6.05627e-41 6.05627e-41 6.05627e-41 6.06076e-41 6.14427e-41 6.29421e-41 6.14427e-41 2.00735e-28 4.89229e-13 0.000835282 0.998329 0.000835282 4.89227e-13 2.00588e-28 6.05627e-41 6.05627e-41 6.05627e-41 6.05627e-41 6.05627e-41 6.05627e-41 6.05627e-41 6.05627e-41 6.05627e-41 6.05627e-41 6.05627e-41 6.05627e-41 6.05627e-41 6.05627e-41 6.05627e-41 6.05627e-41 6.05627e-41 6.05627e-41 6.05627e-41 6.05627e-41 6.05627e-41 6.05627e-41 6.05627e-41 6.05627e-41 6.05627e-41;
   (1019107402) 6.02758e-41 6.02758e-41 6.02758e-41 6.02758e-41 6.02758e-41 6.02758e-41 6.02758e-41 6.02758e-41 6.02758e-41 6.02758e-41 6.02758e-41 6.02758e-41 6.02758e-41 6.02758e-41 6.02758e-41 6.02758e-41 6.02758e-41 6.02758e-41 6.02758e-41 6.02758e-41 1.99637e-28 4.86913e-13 0.000831668 0.99832 0.000848299 5.03059e-13 2.03714e-28 6.05625e-41 6.03011e-41 6.02767e-41 6.02758e-41 6.02758e-41 6.02758e-41 6.02758e-41 6.02758e-41 6.02758e-41 6.02758e-41 6.02758e-41 6.02758e-41 6.02758e-41 6.02758e-41 6.02758e-41 6.02758e-41 6.02758e-41 6.02758e-41 6.02758e-41 6.02758e-41 6.02758e-41 6.02758e-41 6.02758e-41 6.02758e-41 6.02758e-41 6.02758e-41 6.02758e-41 6.02758e-41 6.02758e-41 6.02758e-41 6.02758e-41 6.02758e-41 6.02758e-41 6.02758e-41 6.02758e-41 6.02758e-41 6.02758e-41 6.02758e-41 6.02758e-41 6.02758e-41 6.02758e-41 6.02758e-41 6.02758e-41 6.02758e-41 6.02758e-41 6.02758e-41 6.02758e-41 6.02758e-41 6.02758e-41;
}
probability (H | I) {
   (0) 0.0052356 0.0052356 0.0052356 0.0052356 0.0052356 0.0052356 0.0052356 0.0052356 0.0052356 0.0052356 0.0052356 0.0052356 0.0052356 0.0052356 0.0052356 0.0052356 0.0052356 0.0052356 0.0052356 0.0052356 0.0052356 0.0052356 0.0052356 0.0052356 0.0052356 0.0052356 0.0052356 0.0052356 0.0052356 0.0052356 0.0052356 0.0052356 0.0052356 0.0052356 0.0052356 0.0052356 0.0052356 0.0052356 0.0052356 0.0052356 0.0052356 0.0052356 0.0052356 0.0052356 0.0052356 0.0052356 0.0052356 0.0052356 0.0052356 0.0052356 0.0052356 0.0052356 0.0052356 0.0052356 0.0052356 0.0052356 0.0052356 0.0052356 0.0052356 0.0052356 0.0052356 0.0052356 0.0052356 0.0052356 0.0052356 0.0052356 0.0052356 0.0052356 0.0052356 0.0052356 0.0052356 0.0052356 0.0052356 0.0052356 0.0052356 0.0052356 0.0052356 0.0052356 0.0052356 0.0052356 0.0052356 0.0052356 0.0052356 0.0052356 0.0052356 0.0052356 0.0052356 0.0052356 0.0052356 0.0052356 0.0052356 0.0052356 0.0052356 0.0052356 0.0052356 0.0052356 0.0052356 0.0052356 0.0052356 0.0052356 0.0052356 0.0052356 0.0052356 0.0052356 0.0052356 0.0052356 0.0052356 0.0052356 0.0052356 0.0052356 0.0052356 0.0052356 0.0052356 0.0052356 0.0052356 0.0052356 0.0052356 0.0052356 0.0052356 0.0052356 0.0052356 0.0052356 0.0052356 0.0052356 0.0052356 0.0052356 0.0052356 0.0052356 0.0052356 0.0052356 0.0052356 0.0052356 0.0052356 0.0052356 0.0052356 0.0052356 0.0052356 0.0052356 0.0052356 0.0052356 0.0052356 0.0052356 0.0052356 0.0052356 0.0052356 0.0052356 0.0052356 0.0052356 0.0052356 0.0052356 0.0052356 0.0052356 0.0052356 0.0052356 0.0052356 0.0052356 0.0052356 0.0052356 0.0052356 0.0052356 0.0052356 0.0052356 0.0052356 0.0052356 0.0052356 0.0052356 0.0052356 0.0052356 0.0052356 0.0052356 0.0052356 0.0052356 0.0052356 0.0052356 0.0052356 0.0052356 0.0052356 0.0052356 0.0052356 0.0052356 0.0052356 0.0052356 0.0052356 0.0052356 0.0052356 0.0052356 0.0052356 0.0052356 0.0052356 0.0052356 0.0052356;
   (314591) 4.38558e-15 4.38558e-15 4.38558e-15 4.38558e-15 4.38558e-15 4.38558e-15 4.38558e-15 4.38558e-15 4.38558e-15 4.38558e-15 4.38558e-15 4.38558e-15 4.70871e-15 7.69995e-15 1.25379e-14 2.03288e-14 3.28208e-14 5.2764e-14 8.44651e-14 1.34638e-13 2.13702e-13 3.37754e-13 5.31548e-13 8.32983e-13 1.29981e-12 2.01965e-12 3.12479e-12 4.81412e-12 7.38524e-12 1.12814e-11 1.71598e-11 2.59903e-11 3.91977e-11 5.88657e-11 8.80267e-11 1.31074e-10 1.94344e-10 2.8693e-10 4.21824e-10 6.17502e-10 9.00111e-10 1.30649e-09 1.88828e-09 2.71755e-09 3.89441e-09 5.55723e-09 7.89638e-09 1.11725e-08 1.57408e-08 2.20831e-08 3.08495e-08 4.29135e-08 5.9443e-08 8.19916e-08 1.12617e-07 1.5403e-07 2.09789e-07 2.84537e-07 3.84308e-07 5.16908e-07 6.92389e-07 9.23637e-07 1.2271e-06 1.62368e-06 2.13984e-06 2.80895e-06 3.67291e-06 4.78418e-06 6.20821e-06 8.02638e-06 1.03396e-05 1.32727e-05 1.69796e-05 2.16499e-05 2.75164e-05 3.48645e-05 4.40434e-05 5.54793e-05 6.96917e-05 8.73118e-05 0.000109105 0.000135995 0.000169096 0.000209743 0.000259527 0.000320338 0.000394405 0.000484336 0.000593158 0.000724358 0.000881906 0.00107027 0.00129444 0.00155986 0.00187243 0.0022384 0.00266427 0.00315662 0.00372193 0.00436633 0.00509532 0.00591348 0.00682413 0.00782897 0.00892774 0.010118 0.0113946 0.0127497 0.0141729 0.0156504 0.017166 0.0187008 0.0202336 0.0217416 0.0232008 0.0245867 0.0258752 0.0270431 0.0280691 0.0289345 0.0296237 0.030125 0.0304306 0.0305372 0.0304459 0.0301619 0.0296946 0.0290569 0.0282647 0.0273363 0.0262916 0.0251515 0.0239373 0.0226698 0.0213689 0.0200532 0.0187394 0.0174422 0.0161743 0.014946 0.0137656 0.0126391 0.011571 0.0105639 0.00961889 0.00873617 0.00791481 0.00715318 0.00644915 0.00580018 0.00520355 0.0046564 0.00415583 0.00369898 0.00328306 0.00290536 0.00256329 0.00225435 0.00197617 0.00172646 0.00150307 0.00130391 0.001127 0.000970457 0.000832473 0.000711342 0.000605448 0.000513267 0.000433371 0.000364426 0.000305195 0.000254538 0.000211409 0.000174858 0.000144021 0.000118126 9.64791e-05 7.84672e-05 6.35487e-05 5.12491e-05 4.11551e-05 3.29093e-05 2.62041e-05 2.07766e-05 1.64034e-05 1.28957e-05 1.00951e-05 7.86912e-06 6.10794e-06 4.72078e-06 3.63317e-06;
   (1019107402) 4.38553e-15 4.38553e-15 4.38553e-15 4.38553e-15 4.38553e-15 4.38553e-15 4.38553e-15 4.38553e-15 4.38553e-15 4.70865e-15 7.69985e-15 1.25377e-14 2.03285e-14 3.28204e-14 5.27633e-14 8.4464e-14 1.34636e-13 2.13699e-13 3.37749e-13 5.31541e-13 8.32972e-13 1.29979e-12 2.01962e-12 3.12475e-12 4.81406e-12 7.38514e-12 1.12812e-11 1.71595e-11 2.59899e-11 3.91972e-11 5.88649e-11 8.80254e-11 1.31072e-10 1.94341e-10 2.86925e-10 4.21816e-10 6.17488e-10 9.00089e-10 1.30645e-09 1.88821e-09 2.71744e-09 3.89421e-09 5.55687e-09 7.89572e-09 1.11713e-08 1.57387e-08 2.20792e-08 3.08424e-08 4.29008e-08 5.94202e-08 8.19511e-08 1.12545e-07 1.53905e-07 2.09571e-07 2.84159e-07 3.83661e-07 5.1581e-07 6.90539e-07 9.20545e-07 1.22198e-06 1.61526e-06 2.12613e-06 2.78681e-06 3.63746e-06 4.72791e-06 6.11967e-06 7.88825e-06 1.0126e-05 1.29453e-05 1.64821e-05 2.09005e-05 2.63974e-05 3.32084e-05 4.16139e-05 5.19467e-05 6.46004e-05 8.0039e-05 9.88078e-05 0.000121546 0.000149002 0.000182047 0.000221697 0.000269132 0.000325718 0.000393036 0.000472906 0.000567423 0.00067898 0.000810306 0.000964492 0.00114502 0.00135576 0.00160103 0.00188552 0.00221434 0.0025929 0.00302691 0.0035222 0.00408462 0.00471987 0.00543322 0.00622931 0.00711186 0.00808332 0.00914457 0.0102946 0.0115303 0.0128458 0.014233 0.0156807 0.0171749 0.0186989 0.0202337 0.0217577 0.0232477 0.0246796 0.0260285 0.0272698 0.0283801 0.0293377 0.0301235 0.0307217 0.0311203 0.0313118 0.0312929 0.0310651 0.0306347 0.030012 0.0292111 0.0282499 0.0271484 0.0259288 0.0246146 0.0232292 0.0217962 0.020338 0.0188753 0.0174272 0.0160102 0.0146384 0.0133235 0.0120743 0.0108975 0.00979715 0.00877564 0.00783336 0.0069693 0.00618122 0.00546596 0.0048197 0.00423816 0.00371679 0.00325098 0.00283611 0.0024677 0.00214147 0.00185336 0.00159959 0.00137665 0.00118133 0.00101066 0.000861959 0.000732772 0.000620884 0.000524286 0.000441166 0.000369892 0.000308993 0.000257154 0.000213196 0.000176066 0.000144832 0.000118664 9.68339e-05 7.86989e-05 6.36986e-05 5.13452e-05 4.12162e-05 3.29478e-05 2.62281e-05 2.07914e-05 1.64124e-05 1.29012e-05 1.00984e-05 7.87106e-06 6.10907e-06 4.72144e-06 3.63353e-06 2.78445e-06 2.12473e-06 1.61443e-06;
}
probability (T | I) {
   (0) 0.00297619 0.00297619 0.00297619 0.00297619 0.00297619 0.00297619 0.00297619 0.00297619 0.00297619 0.00297619 0.00297619 0.00297619 0.00297619 0.00297619 0.00297619 0.00297619 0.00297619 0.00297619 0.00297619 0.00297619 0.00297619 0.00297619 0.00297619 0.00297619 0.00297619 0.00297619 0.00297619 0.00297619 0.00297619 0.00297619 0.00297619 0.00297619 0.00297619 0.00297619 0.00297619 0.00297619 0.00297619 0.00297619 0.00297619 0.00297619 0.00297619 0.00297619 0.00297619 0.00297619 0.00297619 0.00297619 0.00297619 0.00297619 0.00297619 0.00297619 0.00297619 0.00297619 0.00297619 0.00297619 0.00297619 0.00297619 0.00297619 0.00297619 0.00297619 0.00297619 0.00297619 0.00297619 0.00297619 0.00297619 0.00297619 0.00297619 0.00297619 0.00297619 0.00297619 0.00297619 0.00297619 0.00297619 0.00297619 0.00297619 0.00297619 0.00297619 0.00297619 0.00297619 0.00297619 0.00297619 0.00297619 0.00297619 0.00297619 0.00297619 0.00297619 0.00297619 0.00297619 0.00297619 0.00297619 0.00297619 0.00297619 0.00297619 0.00297619 0.00297619 0.00297619 0.00297619 0.00297619 0.00297619 0.00297619 0.00297619 0.00297619 0.00297619 0.00297619 0.00297619 0.00297619 0.00297619 0.00297619 0.00297619 0.00297619 0.00297619 0.00297619 0.00297619 0.00297619 0.00297619 0.00297619 0.00297619 0.00297619 0.00297619 0.00297619 0.00297619 0.00297619 0.00297619 0.00297619 0.00297619 0.00297619 0.00297619 0.00297619 0.00297619 0.00297619 0.00297619 0.00297619 0.00297619 0.00297619 0.00297619 0.00297619 0.00297619 0.00297619 0.00297619 0.00297619 0.00297619 0.00297619 0.00297619 0.00297619 0.00297619 0.00297619 0.00297619 0.00297619 0.00297619 0.00297619 0.00297619 0.00297619 0.00297619 0.00297619 0.00297619 0.00297619 0.00297619 0.00297619 0.00297619 0.00297619 0.00297619 0.00297619 0.00297619 0.00297619 0.00297619 0.00297619 0.00297619 0.00297619 0.00297619 0.00297619 0.00297619 0.00297619 0.00297619 0.00297619 0.00297619 0.00297619 0.00297619 0.00297619 0.00297619 0.00297619 0.00297619 0.00297619 0.00297619 0.00297619 0.00297619 0.00297619 0.00297619 0.00297619 0.00297619 0.00297619 0.00297619 0.00297619 0.00297619 0.00297619 0.00297619 0.00297619 0.00297619 0.00297619 0.00297619 0.00297619 0.00297619 0.00297619 0.00297619 0.00297619 0.00297619 0.00297619 0.00297619 0.00297619 0.00297619 0.00297619 0.00297619 0.00297619 0.00297619 0.00297619 0.00297619 0.00297619 0.00297619 0.00297619 0.00297619 0.00297619 0.00297619 0.00297619 0.00297619 0.00297619 0.00297619 0.00297619 0.00297619 0.00297619 0.00297619 0.00297619 0.00297619 0.00297619 0.00297619 0.00297619 0.00297619 0.00297619 0.00297619 0.00297619 0.00297619 0.00297619 0.00297619 0.00297619 0.00297619 0.00297619 0.00297619 0.00297619 0.00297619 0.00297619 0.00297619 0.00297619 0.00297619 0.00297619 0.00297619 0.00297619 0.00297619 0.00297619 0.00297619 0.00297619 0.00297619 0.00297619 0.00297619 0.00297619 0.00297619 0.00297619 0.00297619 0.00297619 0.00297619 0.00297619 0.00297619 0.00297619 0.00297619 0.00297619 0.00297619 0.00297619 0.00297619 0.00297619 0.00297619 0.00297619 0.00297619 0.00297619 0.00297619 0.00297619 0.00297619 0.00297619 0.00297619 0.00297619 0.00297619 0.00297619 0.00297619 0.00297619 0.00297619 0.00297619 0.00297619 0.00297619 0.00297619 0.00297619 0.00297619 0.00297619 0.00297619 0.00297619 0.00297619 0.00297619 0.00297619 0.00297619 0.00297619 0.00297619 0.00297619 0.00297619 0.00297619 0.00297619 0.00297619 0.00297619 0.00297619 0.00297619 0.00297619 0.00297619 0.00297619 0.00297619 0.00297619 0.00297619 0.00297619 0.00297619 0.00297619 0.00297619 0.00297619 0.00297619 0.00297619 0.00297619 0.00297619 0.00297619 0.00297619 0.00297619 0.00297619 0.00297619 0.00297619 0.00297619 0.00297619;
   (314591) 2.29964e-27 2.29964e-27 2.29964e-27 2.29964e-27 2.29964e-27 2.29964e-27 2.29964e-27 2.29964e-27 2.29964e-27 2.29964e-27 2.29964e-27 2.29964e-27 2.29964e-27 2.29964e-27 2.29964e-27 2.29964e-27 2.29964e-27 2.29964e-27 2.29964e-27 2.29964e-27 2.29964e-27 2.29964e-27 2.29964e-27 2.29964e-27 2.29964e-27 2.29964e-27 2.29964e-27 2.29964e-27 2.29964e-27 2.29964e-27 2.29964e-27 2.29964e-27 2.29964e-27 2.29964e-27 2.29964e-27 2.29964e-27 2.29964e-27 2.29964e-27 2.29964e-27 2.29964e-27 2.29964e-27 2.29964e-27 2.29964e-27 2.29964e-27 2.29964e-27 2.29964e-27 2.29964e-27 2.29964e-27 2.29964e-27 2.29964e-27 2.29964e-27 2.29964e-27 2.29964e-27 2.29964e-27 2.29964e-27 2.29964e-27 2.29964e-27 2.29964e-27 2.29964e-27 2.29964e-27 2.29964e-27 2.29964e-27 2.29964e-27 2.29964e-27 2.29964e-27 2.29964e-27 2.29964e-27 2.29964e-27 2.29964e-27 2.29964e-27 2.29964e-27 2.29964e-27 2.29964e-27 2.29964e-27 2.29964e-27 2.29964e-27 2.29964e-27 2.29964e-27 2.29964e-27 2.29964e-27 2.29964e-27 2.29964e-27 2.29964e-27 2.29964e-27 2.29964e-27 2.29964e-27 2.29964e-27 2.29964e-27 2.29964e-27 2.29964e-27 2.29964e-27 2.29964e-27 2.29964e-27 2.29964e-27 2.29964e-27 2.29964e-27 2.29964e-27 2.29964e-27 2.29964e-27 2.29964e-27 2.29964e-27 2.29964e-27 2.29964e-27 2.29964e-27 2.29964e-27 2.29964e-27 2.29964e-27 2.29964e-27 2.29964e-27 2.29964e-27 2.29964e-27 2.29964e-27 2.29964e-27 2.29964e-27 2.29964e-27 2.29964e-27 2.29964e-27 2.29964e-27 2.29964e-27 2.29965e-27 2.29968e-27 2.29978e-27 2.30008e-27 2.30094e-27 2.30316e-27 2.30838e-27 2.31962e-27 2.34172e-27 2.38149e-27 2.44709e-27 2.54605e-27 2.6812e-27 2.8445e-27 3.01086e-27 3.13925e-27 3.18805e-27 3.13925e-27 3.01086e-27 2.8445e-27 2.6812e-27 2.54605e-27 2.44709e-27 2.38149e-27 2.34172e-27 2.31962e-27 2.30838e-27 2.30316e-27 2.30094e-27 2.30008e-27 2.29978e-27 2.29968e-27 2.29965e-27 2.29964e-27 2.29964e-27 2.29964e-27 2.29964e-27 2.29964e-27 2.29964e-27 2.29964e-27 2.29964e-27 2.29964e-27 2.29964e-27 2.29964e-27 2.29964e-27 2.29964e-27 2.29964e-27 2.29964e-27 2.29964e-27 2.29964e-27 2.29964e-27 2.29964e-27 5.3253e-26 1.14803e-24 2.26985e-23 4.11598e-22 6.84517e-21 1.04407e-19 1.46051e-18 1.87377e-17 2.20476e-16 2.37924e-15 2.35478e-14 2.13745e-13 1.7794e-12 1.35858e-11 9.51331e-11 6.10957e-10 3.59852e-09 1.94388e-08 9.63052e-08 4.37585e-07 1.82352e-06 6.96931e-06 2.44289e-05 7.85328e-05 0.000231543 0.000626104 0.00155272 0.00353164 0.00736701 0.0140942 0.0247299 0.0397958 0.0587336 0.0795003 0.0986927 0.112366 0.117332 0.112366 0.0986927 0.0795003 0.0587336 0.0397958 0.0247299 0.0140942 0.00736701 0.00353164 0.00155272 0.000626104 0.000231543 7.85328e-05 2.44289e-05 6.96931e-06 1.82352e-06 4.37585e-07 9.63052e-08 1.94388e-08 3.59852e-09 6.10957e-10 9.51331e-11 1.35858e-11 1.7794e-12 2.13745e-13 2.35478e-14 2.37924e-15 2.20476e-16 1.87377e-17 1.46051e-18 1.04407e-19 6.84517e-21 4.11598e-22 2.26985e-23 1.14803e-24 5.3253e-26 2.29964e-27 2.29964e-27 2.29964e-27 2.29964e-27 2.29964e-27 2.29964e-27 2.29964e-27 2.29964e-27 2.29964e-27 2.29964e-27 2.29964e-27 2.29964e-27 2.29964e-27 2.29964e-27 2.29964e-27 2.29964e-27 2.29964e-27 2.29964e-27 2.29964e-27 2.29964e-27 2.29964e-27 2.29964e-27 2.29964e-27 2.29964e-27 2.29964e-27 2.29964e-27 2.29964e-27 2.29964e-27 2.29964e-27 2.29964e-27 2.29964e-27 2.29964e-27 2.29964e-27 2.29964e-27 2.29964e-27 2.29964e-27 2.29964e-27 2.29964e-27 2.29964e-27 2.29964e-27 2.29964e-27 2.29964e-27 2.29964e-27 2.29964e-27 2.29964e-27 2.29964e-27 2.29964e-27 2.29964e-27 2.29964e-27 2.29964e-27 2.29964e-27 2.29964e-27 2.29964e-27 2.29964e-27 2.29964e-27 2.29964e-27 2.29964e-27 2.29964e-27 2.29964e-27 2.29964e-27 2.29964e-27 2.29964e-27 2.29964e-27 2.29964e-27 2.29964e-27 2.29964e-27 2.29964e-27 2.29964e-27 2.29964e-27 2.29964e-27 2.29964e-27 2.29964e-27 2.29964e-27 2.29964e-27 2.29964e-27 2.29964e-27 2.29964e-27 2.29964e-27 2.29964e-27 2.29964e-27 2.29964e-27 2.29964e-27 2.29964e-27 2.29964e-27 2.29964e-27 2.29964e-27 2.29964e-27 2.29964e-27 2.29964e-27 2.29964e-27 2.29964e-27 2.29964e-27;
   (1019107402) 2.29964e-27 2.29964e-27 2.29964e-27 2.29964e-27 2.29964e-27 2.29964e-27 2.29964e-27 2.29964e-27 2.29964e-27 2.29964e-27 2.29964e-27 2.29964e-27 2.29964e-27 2.29964e-27 2.29964e-27 2.29964e-27 2.29964e-27 2.29964e-27 2.29964e-27 2.29964e-27 2.29964e-27 2.29964e-27 2.29964e-27 2.29964e-27 2.29964e-27 2.29964e-27 2.29964e-27 2.29964e-27 2.29964e-27 2.29964e-27 2.29964e-27 2.29964e-27 2.29964e-27 2.29964e-27 2.29964e-27 2.29964e-27 2.29964e-27 2.29964e-27 2.29964e-27 2.29964e-27 2.29964e-27 2.29964e-27 2.29964e-27 2.29964e-27 2.29964e-27 2.29964e-27 2.29964e-27 2.29964e-27 2.29964e-27 2.29964e-27 2.29964e-27 2.29964e-27 2.29964e-27 2.29964e-27 2.29964e-27 2.29964e-27 2.29964e-27 2.29964e-27 2.29964e-27 2.29964e-27 2.29964e-27 2.29964e-27 2.29964e-27 2.29964e-27 2.29964e-27 2.29964e-27 2.29964e-27 2.29964e-27 2.29964e-27 2.29964e-27 2.29964e-27 2.29964e-27 2.29964e-27 2.29964e-27 2.29964e-27 2.29964e-27 2.29964e-27 2.29964e-27 2.29964e-27 2.29964e-27 2.29964e-27 2.29964e-27 2.29964e-27 2.29964e-27 2.29964e-27 2.29964e-27 2.29964e-27 2.29964e-27 2.29964e-27 2.29964e-27 2.29964e-27 2.29964e-27 2.29964e-27 2.29964e-27 2.29964e-27 2.29964e-27 2.29964e-27 2.29964e-27 2.29964e-27 2.29964e-27 2.29964e-27 2.29964e-27 2.29964e-27 2.29964e-27 2.29964e-27 2.29964e-27 2.29964e-27 2.29964e-27 2.29964e-27 2.29964e-27 2.29964e-27 2.29964e-27 2.29964e-27 2.29964e-27 2.29964e-27 2.29964e-27 2.29964e-27 2.29964e-27 2.29964e-27 2.29964e-27 2.29965e-27 2.29968e-27 2.29978e-27 2.30008e-27 2.30094e-27 2.30316e-27 2.30838e-27 2.31962e-27 2.34172e-27 2.38149e-27 2.44709e-27 2.54605e-27 2.6812e-27 2.8445e-27 3.01086e-27 3.13925e-27 3.18805e-27 3.13925e-27 3.01086e-27 2.8445e-27 2.6812e-27 2.54605e-27 2.44709e-27 2.38149e-27 2.34172e-27 2.31962e-27 2.30838e-27 2.30316e-27 2.30094e-27 2.30008e-27 2.29978e-27 2.29968e-27 2.29965e-27 2.29964e-27 2.29964e-27 2.29964e-27 2.29964e-27 2.29964e-27 2.29964e-27 2.29964e-27 2.29964e-27 2.29964e-27 2.29964e-27 2.29964e-27 2.29964e-27 2.29964e-27 2.29964e-27 2.29964e-27 2.29964e-27 2.29964e-27 2.29964e-27 2.29964e-27 2.29964e-27 5.3253e-26 1.14803e-24 2.26985e-23 4.11598e-22 6.84517e-21 1.04407e-19 1.46051e-18 1.87377e-17 2.20476e-16 2.37924e-15 2.35478e-14 2.13745e-13 1.7794e-12 1.35858e-11 9.51331e-11 6.10957e-10 3.59852e-09 1.94388e-08 9.63052e-08 4.37585e-07 1.82352e-06 6.96931e-06 2.44289e-05 7.85328e-05 0.000231543 0.000626104 0.00155272 0.00353164 0.00736701 0.0140942 0.0247299 0.0397958 0.0587336 0.0795003 0.0986927 0.112366 0.117332 0.112366 0.0986927 0.0795003 0.0587336 0.0397958 0.0247299 0.0140942 0.00736701 0.00353164 0.00155272 0.000626104 0.000231543 7.85328e-05 2.44289e-05 6.96931e-06 1.82352e-06 4.37585e-07 9.63052e-08 1.94388e-08 3.59852e-09 6.10957e-10 9.51331e-11 1.35858e-11 1.7794e-12 2.13745e-13 2.35478e-14 2.37924e-15 2.20476e-16 1.87377e-17 1.46051e-18 1.04407e-19 6.84517e-21 4.11598e-22 2.26985e-23 1.14803e-24 5.3253e-26 2.29964e-27 2.29964e-27 2.29964e-27 2.29964e-27 2.29964e-27 2.29964e-27 2.29964e-27 2.29964e-27 2.29964e-27 2.29964e-27 2.29964e-27 2.29964e-27 2.29964e-27 2.29964e-27 2.29964e-27 2.29964e-27 2.29964e-27 2.29964e-27 2.29964e-27 2.29964e-27 2.29964e-27 2.29964e-27 2.29964e-27 2.29964e-27 2.29964e-27 2.29964e-27 2.29964e-27 2.29964e-27 2.29964e-27 2.29964e-27 2.29964e-27 2.29964e-27 2.29964e-27 2.29964e-27 2.29964e-27 2.29964e-27 2.29964e-27 2.29964e-27 2.29964e-27 2.29964e-27 2.29964e-27 2.29964e-27 2.29964e-27 2.29964e-27 2.29964e-27 2.29964e-27 2.29964e-27 2.29964e-27 2.29964e-27 2.29964e-27 2.29964e-27 2.29964e-27 2.29964e-27 2.29964e-27 2.29964e-27 2.29964e-27 2.29964e-27 2.29964e-27 2.29964e-27 2.29964e-27 2.29964e-27 2.29964e-27 2.29964e-27 2.29964e-27 2.29964e-27 2.29964e-27 2.29964e-27 2.29964e-27 2.29964e-27 2.29964e-27 2.29964e-27 2.29964e-27 2.29964e-27 2.29964e-27 2.29964e-27 2.29964e-27 2.29964e-27 2.29964e-27 2.29964e-27 2.29964e-27 2.29964e-27 2.29964e-27 2.29964e-27 2.29964e-27 2.29964e-27 2.29964e-27 2.29964e-27 2.29964e-27 2.29964e-27 2.29964e-27;
}

