network "C:\Users\sorcar\github\Cardiac\db\memory\recognition\RecogniserBN.bif" {
// written by aGrUM 0.14.1
}

variable I {
   type discrete[18] {0, 314591, 1019107402, 2964414, 9515830, 1052411482, 79397631, 20947316, 80431643, 3014218, 1032480996, 9496683, 3014208, 792781074, 35489133, 123, 79278774, 1};
}

variable F {
   type discrete[18] {0, 314591, 1019107402, 2964414, 9515830, 1052411482, 79397631, 20947316, 80431643, 3014218, 1032480996, 9496683, 3014208, 792781074, 35489133, 123, 79278774, 1};
}

variable G {
   type discrete[2] {Female, Male};
}

variable A {
   type discrete[76] {0, 1, 2, 3, 4, 5, 6, 7, 8, 9, 10, 11, 12, 13, 14, 15, 16, 17, 18, 19, 20, 21, 22, 23, 24, 25, 26, 27, 28, 29, 30, 31, 32, 33, 34, 35, 36, 37, 38, 39, 40, 41, 42, 43, 44, 45, 46, 47, 48, 49, 50, 51, 52, 53, 54, 55, 56, 57, 58, 59, 60, 61, 62, 63, 64, 65, 66, 67, 68, 69, 70, 71, 72, 73, 74, 75};
}

variable H {
   type discrete[191] {50, 51, 52, 53, 54, 55, 56, 57, 58, 59, 60, 61, 62, 63, 64, 65, 66, 67, 68, 69, 70, 71, 72, 73, 74, 75, 76, 77, 78, 79, 80, 81, 82, 83, 84, 85, 86, 87, 88, 89, 90, 91, 92, 93, 94, 95, 96, 97, 98, 99, 100, 101, 102, 103, 104, 105, 106, 107, 108, 109, 110, 111, 112, 113, 114, 115, 116, 117, 118, 119, 120, 121, 122, 123, 124, 125, 126, 127, 128, 129, 130, 131, 132, 133, 134, 135, 136, 137, 138, 139, 140, 141, 142, 143, 144, 145, 146, 147, 148, 149, 150, 151, 152, 153, 154, 155, 156, 157, 158, 159, 160, 161, 162, 163, 164, 165, 166, 167, 168, 169, 170, 171, 172, 173, 174, 175, 176, 177, 178, 179, 180, 181, 182, 183, 184, 185, 186, 187, 188, 189, 190, 191, 192, 193, 194, 195, 196, 197, 198, 199, 200, 201, 202, 203, 204, 205, 206, 207, 208, 209, 210, 211, 212, 213, 214, 215, 216, 217, 218, 219, 220, 221, 222, 223, 224, 225, 226, 227, 228, 229, 230, 231, 232, 233, 234, 235, 236, 237, 238, 239, 240};
}

variable T {
   type discrete[336] {0, 1, 2, 3, 4, 5, 6, 7, 8, 9, 10, 11, 12, 13, 14, 15, 16, 17, 18, 19, 20, 21, 22, 23, 24, 25, 26, 27, 28, 29, 30, 31, 32, 33, 34, 35, 36, 37, 38, 39, 40, 41, 42, 43, 44, 45, 46, 47, 48, 49, 50, 51, 52, 53, 54, 55, 56, 57, 58, 59, 60, 61, 62, 63, 64, 65, 66, 67, 68, 69, 70, 71, 72, 73, 74, 75, 76, 77, 78, 79, 80, 81, 82, 83, 84, 85, 86, 87, 88, 89, 90, 91, 92, 93, 94, 95, 96, 97, 98, 99, 100, 101, 102, 103, 104, 105, 106, 107, 108, 109, 110, 111, 112, 113, 114, 115, 116, 117, 118, 119, 120, 121, 122, 123, 124, 125, 126, 127, 128, 129, 130, 131, 132, 133, 134, 135, 136, 137, 138, 139, 140, 141, 142, 143, 144, 145, 146, 147, 148, 149, 150, 151, 152, 153, 154, 155, 156, 157, 158, 159, 160, 161, 162, 163, 164, 165, 166, 167, 168, 169, 170, 171, 172, 173, 174, 175, 176, 177, 178, 179, 180, 181, 182, 183, 184, 185, 186, 187, 188, 189, 190, 191, 192, 193, 194, 195, 196, 197, 198, 199, 200, 201, 202, 203, 204, 205, 206, 207, 208, 209, 210, 211, 212, 213, 214, 215, 216, 217, 218, 219, 220, 221, 222, 223, 224, 225, 226, 227, 228, 229, 230, 231, 232, 233, 234, 235, 236, 237, 238, 239, 240, 241, 242, 243, 244, 245, 246, 247, 248, 249, 250, 251, 252, 253, 254, 255, 256, 257, 258, 259, 260, 261, 262, 263, 264, 265, 266, 267, 268, 269, 270, 271, 272, 273, 274, 275, 276, 277, 278, 279, 280, 281, 282, 283, 284, 285, 286, 287, 288, 289, 290, 291, 292, 293, 294, 295, 296, 297, 298, 299, 300, 301, 302, 303, 304, 305, 306, 307, 308, 309, 310, 311, 312, 313, 314, 315, 316, 317, 318, 319, 320, 321, 322, 323, 324, 325, 326, 327, 328, 329, 330, 331, 332, 333, 334, 335};
}

probability (I) {
   default 0.0555556 0.0555556 0.0555556 0.0555556 0.0555556 0.0555556 0.0555556 0.0555556 0.0555556 0.0555556 0.0555556 0.0555556 0.0555556 0.0555556 0.0555556 0.0555556 0.0555556 0.0555556;
}
probability (F | I) {
   (0) 0.901964 0.0703896 0.0102305 0.00578899 0.00161582 0.00208817 0.00148545 0.0010323 0.00096331 0.000811338 0.000585417 0.000546834 0.000488739 0.000451458 0.000423158 0.000403885 0.000385561 0.000345901;
   (314591) 0.490577 0.485845 0.00472879 0.00809041 0.00144082 0.00170002 0.00142722 0.0011365 0.00105241 0.000980858 0.000451373 0.000498193 0.000377341 0.000348727 0.000360995 0.00033325 0.000347423 0.000304221;
   (1019107402) 0.0551202 0.0224817 0.844534 0.0149879 0.00774621 0.0092569 0.00779122 0.00673382 0.00593419 0.00530781 0.00325594 0.00297473 0.00273923 0.00253555 0.00236047 0.00220835 0.00207493 0.00195695;
   (2964414) 0.0904418 0.0137688 0.0122247 0.86928 0.00246311 0.00300078 0.00165358 0.00127285 0.00123434 0.00110364 0.000552161 0.000587714 0.000461232 0.000426196 0.000416891 0.000416527 0.000350126 0.000345555;
   (9515830) 0.63021 0.0750433 0.0682768 0.10836 0.110076 0.00119193 0.00138822 0.000766603 0.00113752 0.0008863 0.000381716 0.000476654 0.000319042 0.000294851 0.000331398 0.000315001 0.000284723 0.000260143;
   (1052411482) 0.0150748 0.00596635 0.00470149 0.0062759 0.00205747 0.95369 0.00199719 0.00174622 0.00129405 0.00111405 0.000992749 0.000903786 0.000829549 0.000766648 0.000712436 0.000665414 0.000624243 0.000587889;
   (79397631) 0.0891235 0.002492 0.00186185 0.00377276 0.0021375 0.00315788 0.88852 0.00148664 0.00171576 0.00200062 0.000446924 0.000786733 0.000376 0.000347804 0.000584552 0.000448251 0.000383595 0.000357283;
   (20947316) 0.0278805 0.00691666 0.00684147 0.00733784 0.00456326 0.00748826 0.00769134 0.904837 0.00598626 0.00535439 0.00244539 0.0022342 0.00205733 0.00190699 0.00177417 0.00165885 0.00155777 0.00146843;
   (80431643) 0.00866323 0.00674019 0.00686532 0.00819565 0.00602894 0.00716828 0.00668092 0.00602894 0.90826 0.00535906 0.00484995 0.00443109 0.00408029 0.00378211 0.00352548 0.0033022 0.00310612 0.00293255;
   (3014218) 0.00402536 0.00189481 0.00111898 0.002305 0.00172382 0.00127296 0.00196558 0.000985072 0.00142104 0.976858 0.00088605 0.00101559 0.000745441 0.000690963 0.000830827 0.000602574 0.000782533 0.000875311;
   (1032480996) 0.375601 0.0483887 0.0483887 0.0483887 0.00246832 0.0483887 0.0483887 0.0483887 0.0483887 0.0483887 0.222149 0.00224393 0.0020616 0.001907 0.00177417 0.00165885 0.00155777 0.00146843;
   (9496683) 0.673526 0.0271992 0.0168589 0.0191878 0.00217459 0.0181478 0.0217099 0.0156218 0.0154525 0.0230431 0.000561999 0.163655 0.000515172 0.000477521 0.000562737 0.000456263 0.000447231 0.000402724;
   (3014208) 0.64152 0.0296721 0.0296721 0.0296721 0.00253299 0.0296721 0.0296721 0.0296721 0.0296721 0.0296721 0.00102879 0.00163961 0.111109 0.000949649 0.000974411 0.00132144 0.000811819 0.000734754;
   (792781074) 0.144917 0.0429574 0.0429574 0.0429574 0.0429574 0.0429574 0.0429574 0.0429574 0.0429574 0.0429574 0.00379667 0.00379667 0.00379667 0.44421 0.00352547 0.0033022 0.00310612 0.00293255;
   (35489133) 0.577344 0.0320264 0.0258221 0.0278626 0.0336532 0.0305098 0.0318885 0.0258221 0.0278902 0.0334879 0.00101518 0.00309829 0.00101518 0.00101518 0.144539 0.00128093 0.000890253 0.000839631;
   (123) 0.00477654 0.00366075 0.00351806 0.0035071 0.00331321 0.00359125 0.00382537 0.00331321 0.00341929 0.00331321 0.00331321 0.00331321 0.00331321 0.00331321 0.00331321 0.941157 0.00310614 0.00293255;
   (79278774) 0.632791 0.021248 0.0142741 0.0261494 0.0209376 0.0167713 0.021813 0.0137538 0.0149644 0.0230759 0.000567513 0.0163125 0.000567513 0.000567513 0.000999982 0.013967 0.16047 0.000769689;
   (1) 0.0381352 0.00214102 0.00182634 0.00591334 0.00246798 0.00201021 0.00232288 0.00164098 0.00257921 0.00275245 0.000653594 0.00184252 0.000653594 0.000653594 0.00186007 0.00179462 0.00239128 0.928361;
}
probability (G | I) {
   (0) 0.5 0.5;
   (314591) 0.0147878 0.985212;
   (1019107402) 0.0329501 0.96705;
   (2964414) 0.021879 0.978121;
   (9515830) 0.0379866 0.962013;
   (1052411482) 0.115264 0.884736;
   (79397631) 0.00774657 0.992253;
   (20947316) 0.0479021 0.952098;
   (80431643) 0.0380586 0.961941;
   (3014218) 0.00734976 0.99265;
   (1032480996) 0.0514997 0.9485;
   (9496683) 0.0245547 0.975445;
   (3014208) 0.0514997 0.9485;
   (792781074) 0.0514997 0.9485;
   (35489133) 0.0482175 0.951782;
   (123) 0.0257499 0.97425;
   (79278774) 0.0342042 0.965796;
   (1) 0.0152508 0.984749;
}
probability (A | I) {
   (0) 0.0131579 0.0131579 0.0131579 0.0131579 0.0131579 0.0131579 0.0131579 0.0131579 0.0131579 0.0131579 0.0131579 0.0131579 0.0131579 0.0131579 0.0131579 0.0131579 0.0131579 0.0131579 0.0131579 0.0131579 0.0131579 0.0131579 0.0131579 0.0131579 0.0131579 0.0131579 0.0131579 0.0131579 0.0131579 0.0131579 0.0131579 0.0131579 0.0131579 0.0131579 0.0131579 0.0131579 0.0131579 0.0131579 0.0131579 0.0131579 0.0131579 0.0131579 0.0131579 0.0131579 0.0131579 0.0131579 0.0131579 0.0131579 0.0131579 0.0131579 0.0131579 0.0131579 0.0131579 0.0131579 0.0131579 0.0131579 0.0131579 0.0131579 0.0131579 0.0131579 0.0131579 0.0131579 0.0131579 0.0131579 0.0131579 0.0131579 0.0131579 0.0131579 0.0131579 0.0131579 0.0131579 0.0131579 0.0131579 0.0131579 0.0131579 0.0131579;
   (314591) 6.05683e-41 6.05725e-41 6.05795e-41 6.05935e-41 6.06132e-41 6.06412e-41 6.06804e-41 6.07281e-41 6.07841e-41 6.0843e-41 6.09004e-41 6.09481e-41 6.09789e-41 6.09901e-41 6.09789e-41 6.09481e-41 6.09004e-41 6.0843e-41 6.07841e-41 6.07281e-41 6.06804e-41 6.06412e-41 6.06132e-41 6.05935e-41 6.05795e-41 6.05725e-41 6.05683e-41 6.05655e-41 6.05767e-41 6.07099e-41 6.12409e-41 6.22877e-41 6.3064e-41 6.19556e-41 6.07183e-41 6.0602e-41 6.07014e-41 6.07869e-41 6.07014e-41 6.05949e-41 6.06104e-41 6.14427e-41 6.29421e-41 6.14427e-41 2.00735e-28 4.89229e-13 0.000835282 0.998329 0.000835283 4.89263e-13 2.00879e-28 6.08009e-41 6.0651e-41 6.05669e-41 6.05627e-41 6.05627e-41 6.05627e-41 6.05627e-41 6.05627e-41 6.05627e-41 6.05627e-41 6.05627e-41 6.05627e-41 6.05627e-41 6.05627e-41 6.05627e-41 6.05627e-41 6.05627e-41 6.05627e-41 6.05627e-41 6.05627e-41 6.05627e-41 6.05627e-41 6.05627e-41 6.05627e-41 6.05627e-41;
   (1019107402) 6.02755e-41 6.02755e-41 6.02755e-41 6.02755e-41 6.02755e-41 6.02755e-41 6.02755e-41 6.02755e-41 6.02755e-41 6.02755e-41 6.02755e-41 6.02755e-41 6.02755e-41 6.02755e-41 6.02755e-41 6.02755e-41 6.02755e-41 6.02755e-41 6.02755e-41 6.02755e-41 1.99637e-28 4.86913e-13 0.000831668 0.99832 0.000848299 5.03059e-13 2.03714e-28 6.05627e-41 6.03007e-41 6.02769e-41 6.02755e-41 6.02755e-41 6.02755e-41 6.02755e-41 6.02755e-41 6.02755e-41 6.02755e-41 6.02755e-41 6.02755e-41 6.02755e-41 6.02755e-41 6.02755e-41 6.02755e-41 6.02755e-41 6.02755e-41 6.02755e-41 6.02755e-41 6.02755e-41 6.02755e-41 6.02755e-41 6.02755e-41 6.02755e-41 6.02755e-41 6.02755e-41 6.02755e-41 6.02755e-41 6.02755e-41 6.02755e-41 6.02755e-41 6.02755e-41 6.02755e-41 6.02755e-41 6.02755e-41 6.02755e-41 6.02755e-41 6.02755e-41 6.02755e-41 6.02755e-41 6.02755e-41 6.02755e-41 6.02755e-41 6.02755e-41 6.02755e-41 6.02755e-41 6.02755e-41 6.02755e-41;
   (2964414) 6.04086e-41 6.04086e-41 6.04086e-41 6.04086e-41 6.04086e-41 6.04086e-41 6.04086e-41 6.04086e-41 6.04086e-41 6.04086e-41 6.04086e-41 6.04086e-41 6.04086e-41 6.04086e-41 6.04086e-41 6.04086e-41 6.04086e-41 6.04086e-41 6.04086e-41 6.04086e-41 6.04086e-41 6.04086e-41 6.04086e-41 6.04086e-41 6.04086e-41 6.04086e-41 6.04086e-41 6.04086e-41 6.04086e-41 6.04086e-41 6.04086e-41 6.04086e-41 6.04086e-41 6.04086e-41 6.04086e-41 6.04086e-41 6.04086e-41 6.04086e-41 6.04086e-41 6.04086e-41 6.04086e-41 6.04086e-41 6.04086e-41 6.04086e-41 6.04086e-41 6.04086e-41 6.04086e-41 6.04086e-41 6.04086e-41 6.041e-41 6.04338e-41 6.06972e-41 6.16487e-41 2.06747e-28 4.98022e-13 0.000837476 0.998324 0.000838613 4.92887e-13 2.01657e-28 6.07085e-41 6.07365e-41 6.07869e-41 6.06552e-41 6.05039e-41 6.04408e-41 6.04198e-41 6.04114e-41 6.041e-41 6.04086e-41 6.04086e-41 6.04086e-41 6.04086e-41 6.04086e-41 6.04086e-41 6.04086e-41;
   (9515830) 6.02628e-41 6.02628e-41 6.02628e-41 6.02628e-41 6.02628e-41 6.02628e-41 6.02628e-41 6.02628e-41 6.02628e-41 6.02628e-41 6.02628e-41 6.02628e-41 6.02628e-41 6.02628e-41 6.02628e-41 6.02628e-41 6.02628e-41 6.02628e-41 6.02628e-41 6.02628e-41 6.02628e-41 6.02628e-41 6.02628e-41 6.02628e-41 6.02628e-41 6.02628e-41 6.02628e-41 6.02628e-41 6.02628e-41 6.02628e-41 6.02628e-41 6.02628e-41 6.02628e-41 6.02628e-41 6.02628e-41 6.02628e-41 6.02628e-41 6.02628e-41 6.02628e-41 6.02628e-41 6.02628e-41 6.02628e-41 6.02628e-41 6.02628e-41 6.02628e-41 6.02628e-41 6.02628e-41 6.02628e-41 6.02628e-41 6.02628e-41 6.02628e-41 6.02628e-41 6.02628e-41 6.02628e-41 6.02628e-41 6.02656e-41 6.02769e-41 6.03175e-41 6.04114e-41 6.05347e-41 6.06258e-41 6.06944e-41 6.0822e-41 6.10826e-41 2.03518e-28 4.94678e-13 0.000839048 0.998325 0.000835909 4.90504e-13 2.00503e-28 6.03259e-41 6.02684e-41 6.02628e-41 6.02628e-41 6.02628e-41;
   (1052411482) 5.9132e-41 5.9132e-41 5.9132e-41 5.9132e-41 5.9132e-41 5.9132e-41 5.9132e-41 5.9132e-41 5.9132e-41 5.9132e-41 5.9132e-41 5.9132e-41 5.9132e-41 5.9132e-41 5.9132e-41 5.9132e-41 5.9132e-41 5.9132e-41 1.95884e-28 4.8777e-13 0.000859446 0.998325 0.000815823 4.792e-13 1.97555e-28 5.93226e-41 5.91418e-41 5.9132e-41 5.9132e-41 5.9132e-41 5.9132e-41 5.9132e-41 5.9132e-41 5.9132e-41 5.9132e-41 5.9132e-41 5.9132e-41 5.9132e-41 5.9132e-41 5.9132e-41 5.9132e-41 5.9132e-41 5.9132e-41 5.9132e-41 5.9132e-41 5.9132e-41 5.9132e-41 5.9132e-41 5.9132e-41 5.9132e-41 5.91334e-41 5.91348e-41 5.91376e-41 5.91432e-41 5.91558e-41 5.91754e-41 5.92049e-41 5.92427e-41 5.92847e-41 5.93254e-41 5.93548e-41 5.9366e-41 5.93548e-41 5.93254e-41 5.92847e-41 5.92427e-41 5.92049e-41 5.91754e-41 5.91558e-41 5.91432e-41 5.91376e-41 5.91348e-41 5.91334e-41 5.9132e-41 5.9132e-41 5.9132e-41;
   (79397631) 6.05249e-41 6.05249e-41 6.05249e-41 6.05249e-41 6.05249e-41 6.05249e-41 6.05249e-41 6.05249e-41 6.05249e-41 6.05249e-41 6.05249e-41 6.05249e-41 6.05249e-41 6.05249e-41 6.05249e-41 6.05249e-41 6.05249e-41 6.05249e-41 6.05249e-41 6.05249e-41 6.05249e-41 6.05249e-41 6.05249e-41 6.05249e-41 6.05249e-41 6.05249e-41 6.05249e-41 6.05249e-41 6.05249e-41 6.05249e-41 6.05249e-41 6.05249e-41 6.05249e-41 6.05249e-41 6.05249e-41 6.05249e-41 6.05249e-41 6.05249e-41 6.05249e-41 6.05249e-41 6.05249e-41 6.05249e-41 6.05263e-41 6.05305e-41 6.05417e-41 6.05697e-41 6.0616e-41 6.06636e-41 6.06846e-41 2.00922e-28 4.89656e-13 0.000835423 0.998329 0.000836013 4.90888e-13 2.02094e-28 6.13152e-41 6.16529e-41 6.20481e-41 6.23368e-41 6.23143e-41 6.20285e-41 6.1737e-41 6.15632e-41 6.13825e-41 6.11022e-41 6.08178e-41 6.06748e-41 6.1461e-41 6.3036e-41 6.16137e-41 6.07743e-41 6.07925e-41 6.10476e-41 6.17174e-41 6.09649e-41;
   (20947316) 6.02726e-41 6.02726e-41 6.02726e-41 6.02726e-41 6.02726e-41 6.02726e-41 6.02726e-41 6.02726e-41 6.02726e-41 6.02726e-41 6.02726e-41 6.02726e-41 6.02726e-41 6.02726e-41 6.02726e-41 6.02726e-41 6.02726e-41 6.02726e-41 6.02726e-41 6.02726e-41 6.02726e-41 6.02726e-41 6.02726e-41 6.02726e-41 6.02726e-41 6.02726e-41 6.02726e-41 6.02726e-41 6.02726e-41 6.02726e-41 6.02726e-41 6.02726e-41 6.02726e-41 6.02726e-41 6.02726e-41 6.02726e-41 6.02726e-41 6.02726e-41 6.02726e-41 6.02726e-41 6.02726e-41 6.02726e-41 6.02741e-41 6.02755e-41 6.02783e-41 6.02853e-41 6.02965e-41 6.03161e-41 6.03483e-41 6.03974e-41 6.04674e-41 6.05627e-41 6.06818e-41 6.08206e-41 6.09677e-41 6.11078e-41 6.12269e-41 6.13054e-41 6.1332e-41 6.13054e-41 6.12269e-41 6.11078e-41 2.01927e-28 4.91304e-13 0.000836923 0.998329 0.000833971 4.87888e-13 1.99876e-28 6.03161e-41 6.02965e-41 6.02853e-41 6.02783e-41 6.02755e-41 6.02741e-41 6.02726e-41;
   (80431643) 6.05627e-41 6.05627e-41 6.05627e-41 6.05627e-41 6.05627e-41 6.05627e-41 6.05627e-41 6.05627e-41 6.05627e-41 6.05627e-41 6.05627e-41 6.05627e-41 6.05627e-41 6.05627e-41 6.05627e-41 6.05627e-41 6.05627e-41 6.05627e-41 6.05627e-41 6.05627e-41 6.05627e-41 6.05627e-41 6.05627e-41 6.05627e-41 6.05627e-41 6.05627e-41 6.05627e-41 6.05627e-41 6.05627e-41 6.05627e-41 6.05627e-41 6.05641e-41 6.05879e-41 6.08528e-41 6.18057e-41 6.2582e-41 6.18057e-41 6.08528e-41 6.05879e-41 6.05641e-41 6.05627e-41 6.05627e-41 6.05627e-41 2.00588e-28 4.89227e-13 0.000835282 0.998329 0.000835282 4.89227e-13 2.00588e-28 6.05627e-41 6.05627e-41 6.05627e-41 6.05627e-41 6.05627e-41 6.05627e-41 6.05627e-41 6.05627e-41 6.05627e-41 6.05627e-41 6.05627e-41 6.05627e-41 6.05627e-41 6.05627e-41 6.05627e-41 6.05627e-41 6.05627e-41 6.05627e-41 6.05627e-41 6.05627e-41 6.05627e-41 6.05627e-41 6.05627e-41 6.05627e-41 6.05627e-41 6.05627e-41;
   (3014218) 5.89835e-41 5.89835e-41 5.89835e-41 5.89835e-41 5.89835e-41 5.89835e-41 5.89835e-41 5.89835e-41 5.89835e-41 5.89835e-41 5.89835e-41 5.89835e-41 5.89835e-41 5.89835e-41 5.89835e-41 5.89835e-41 5.89835e-41 5.89835e-41 5.89835e-41 5.89835e-41 5.89835e-41 5.89835e-41 5.89835e-41 5.89835e-41 5.89835e-41 5.89835e-41 5.89835e-41 5.89835e-41 5.89835e-41 5.89835e-41 5.89835e-41 5.89835e-41 5.89835e-41 5.89835e-41 5.89835e-41 5.89835e-41 5.89835e-41 5.89835e-41 5.89835e-41 5.89835e-41 5.89835e-41 5.89835e-41 5.89835e-41 5.89835e-41 5.89835e-41 5.89835e-41 5.89835e-41 5.89835e-41 5.89835e-41 5.89835e-41 5.89835e-41 5.89835e-41 5.89835e-41 5.89849e-41 5.89919e-41 5.90101e-41 5.90535e-41 5.9132e-41 5.92455e-41 5.93688e-41 5.95019e-41 5.96421e-41 5.9743e-41 6.00723e-41 6.1276e-41 6.22247e-41 2.02931e-28 4.88955e-13 0.000839827 0.99833 0.000830459 4.82286e-13 1.96091e-28 5.90227e-41 6.02811e-41 5.89849e-41;
   (1032480996) 6.05627e-41 6.05627e-41 6.05627e-41 6.05627e-41 6.05627e-41 6.05627e-41 6.05627e-41 6.05627e-41 6.05627e-41 6.05627e-41 6.05627e-41 6.05627e-41 6.05627e-41 6.05627e-41 6.05627e-41 6.05627e-41 6.05627e-41 6.05627e-41 6.05627e-41 6.05627e-41 2.00588e-28 4.89227e-13 0.000835282 0.998329 0.000835282 4.89227e-13 2.00588e-28 6.05627e-41 6.05627e-41 6.05627e-41 6.05627e-41 6.05627e-41 6.05627e-41 6.05627e-41 6.05627e-41 6.05627e-41 6.05627e-41 6.05627e-41 6.05627e-41 6.05627e-41 6.05627e-41 6.05627e-41 6.05627e-41 6.05627e-41 6.05627e-41 6.05627e-41 6.05627e-41 6.05627e-41 6.05627e-41 6.05627e-41 6.05627e-41 6.05627e-41 6.05627e-41 6.05627e-41 6.05627e-41 6.05627e-41 6.05627e-41 6.05627e-41 6.05627e-41 6.05627e-41 6.05627e-41 6.05627e-41 6.05627e-41 6.05627e-41 6.05627e-41 6.05627e-41 6.05627e-41 6.05627e-41 6.05627e-41 6.05627e-41 6.05627e-41 6.05627e-41 6.05627e-41 6.05627e-41 6.05627e-41 6.05627e-41;
   (9496683) 5.97317e-41 5.97317e-41 5.97317e-41 5.97317e-41 5.97317e-41 5.97317e-41 5.97317e-41 5.97317e-41 5.97317e-41 5.97317e-41 5.97317e-41 5.97317e-41 5.97317e-41 5.97317e-41 5.97317e-41 5.97317e-41 5.97317e-41 5.97317e-41 5.97317e-41 5.97317e-41 5.97317e-41 5.97317e-41 5.97317e-41 5.97317e-41 5.97317e-41 5.97317e-41 5.97317e-41 5.97317e-41 5.97317e-41 5.97317e-41 5.97317e-41 5.97317e-41 5.97317e-41 5.97317e-41 5.97317e-41 5.97331e-41 5.97331e-41 5.97331e-41 5.97346e-41 5.97374e-41 5.97416e-41 5.97486e-41 5.97598e-41 5.97752e-41 5.97948e-41 5.98172e-41 5.9841e-41 5.98607e-41 5.98761e-41 5.98817e-41 5.98803e-41 5.98817e-41 5.99896e-41 6.0204e-41 6.01479e-41 2.00189e-28 4.91944e-13 0.000839332 0.998326 0.000835107 4.89457e-13 1.9985e-28 5.99896e-41 5.97976e-41 5.97444e-41 5.97346e-41 5.97331e-41 5.97317e-41 5.97317e-41 5.97317e-41 5.97317e-41 5.97317e-41 5.97317e-41 5.97317e-41 5.97317e-41 5.97317e-41;
   (3014208) 6.05627e-41 6.05627e-41 6.05627e-41 6.05627e-41 6.05627e-41 6.05627e-41 6.05627e-41 6.05627e-41 6.05627e-41 6.05627e-41 6.05627e-41 6.05627e-41 6.05627e-41 6.05627e-41 6.05627e-41 6.05627e-41 6.05627e-41 6.05627e-41 6.05627e-41 6.05627e-41 6.05627e-41 6.05627e-41 6.05627e-41 6.05627e-41 6.05627e-41 6.05627e-41 6.05627e-41 6.05627e-41 6.05627e-41 6.05627e-41 6.05627e-41 6.05627e-41 6.05627e-41 6.05627e-41 6.05627e-41 6.05627e-41 6.05627e-41 6.05627e-41 6.05627e-41 6.05627e-41 6.05627e-41 6.05627e-41 6.05627e-41 6.05627e-41 6.05627e-41 6.05627e-41 6.05627e-41 6.05627e-41 6.05627e-41 6.05627e-41 6.05627e-41 6.05627e-41 6.05627e-41 6.05627e-41 6.05627e-41 6.05627e-41 6.05627e-41 6.05627e-41 6.05627e-41 6.05627e-41 6.05627e-41 6.05627e-41 6.05627e-41 6.05627e-41 6.05627e-41 6.05627e-41 2.00588e-28 4.89227e-13 0.000835282 0.998329 0.000835282 4.89227e-13 2.00588e-28 6.05627e-41 6.05627e-41 6.05627e-41;
   (792781074) 6.05627e-41 6.05627e-41 6.05627e-41 6.05627e-41 6.05627e-41 6.05627e-41 6.05627e-41 6.05627e-41 6.05627e-41 6.05627e-41 6.05627e-41 6.05627e-41 6.05627e-41 6.05627e-41 6.05627e-41 6.05627e-41 6.05627e-41 6.05627e-41 6.05627e-41 6.05627e-41 6.05627e-41 6.05627e-41 6.05627e-41 6.05627e-41 6.05627e-41 6.05627e-41 6.05627e-41 6.05627e-41 6.05627e-41 6.05627e-41 6.05627e-41 6.05627e-41 6.05627e-41 6.05627e-41 6.05627e-41 6.05627e-41 6.05627e-41 6.05627e-41 6.05627e-41 6.05627e-41 6.05627e-41 6.05627e-41 6.05627e-41 6.05627e-41 6.05627e-41 6.05627e-41 6.05627e-41 6.05627e-41 6.05627e-41 6.05627e-41 6.05627e-41 6.05627e-41 6.05627e-41 6.05627e-41 6.05627e-41 6.05627e-41 2.00588e-28 4.89227e-13 0.000835282 0.998329 0.000835282 4.89227e-13 2.00588e-28 6.05627e-41 6.05627e-41 6.05627e-41 6.05627e-41 6.05627e-41 6.05627e-41 6.05627e-41 6.05627e-41 6.05627e-41 6.05627e-41 6.05627e-41 6.05627e-41 6.05627e-41;
   (35489133) 6.05627e-41 6.05627e-41 6.05627e-41 6.05627e-41 6.05627e-41 6.05627e-41 6.05627e-41 6.05627e-41 6.05627e-41 6.05627e-41 6.05627e-41 6.05627e-41 6.05627e-41 6.05627e-41 6.05627e-41 6.05627e-41 6.05627e-41 6.05627e-41 6.05627e-41 6.05627e-41 6.05627e-41 6.05627e-41 6.05627e-41 6.05627e-41 6.05627e-41 6.05627e-41 6.05627e-41 6.05627e-41 6.05627e-41 6.05627e-41 6.05627e-41 6.05627e-41 6.05627e-41 6.05627e-41 6.05627e-41 6.05627e-41 6.05627e-41 6.05627e-41 6.05627e-41 6.05627e-41 6.05627e-41 6.05627e-41 6.05627e-41 6.05627e-41 6.05627e-41 6.05627e-41 6.05627e-41 6.05627e-41 6.05627e-41 6.05627e-41 6.05627e-41 6.05627e-41 6.05627e-41 6.05627e-41 2.00588e-28 4.89227e-13 0.000835282 0.998329 0.000835282 4.89227e-13 2.00588e-28 6.05627e-41 6.05627e-41 6.05697e-41 6.06132e-41 6.07841e-41 6.1098e-41 6.12802e-41 6.1098e-41 6.07841e-41 6.06132e-41 6.05697e-41 6.05627e-41 6.05627e-41 6.05627e-41 6.05627e-41;
   (123) 5.93716e-41 5.93716e-41 5.93716e-41 5.93716e-41 5.93716e-41 5.93716e-41 5.93716e-41 5.93716e-41 5.93716e-41 5.93716e-41 5.93716e-41 5.93716e-41 5.93716e-41 5.93716e-41 5.93716e-41 5.93716e-41 5.93716e-41 5.93716e-41 5.93716e-41 5.93716e-41 5.93716e-41 5.93716e-41 5.93716e-41 5.93716e-41 5.93716e-41 5.93716e-41 5.9373e-41 5.93758e-41 5.93842e-41 5.94052e-41 5.94487e-41 5.953e-41 5.96659e-41 5.98593e-41 1.99028e-28 4.87299e-13 0.00083439 0.998331 0.00083439 4.87299e-13 1.99028e-28 5.98593e-41 5.96659e-41 5.953e-41 5.94487e-41 5.94052e-41 5.93842e-41 5.93758e-41 5.9373e-41 5.93716e-41 5.93716e-41 5.93716e-41 5.93716e-41 5.93716e-41 5.93716e-41 5.93716e-41 5.93716e-41 5.93716e-41 5.93716e-41 5.93716e-41 5.93716e-41 5.93716e-41 5.93716e-41 5.93716e-41 5.93716e-41 5.93716e-41 5.93716e-41 5.93716e-41 5.93716e-41 5.93716e-41 5.93716e-41 5.93716e-41 5.93716e-41 5.93716e-41 5.93716e-41 5.93716e-41;
   (79278774) 6.02194e-41 6.02194e-41 6.02194e-41 6.02194e-41 6.02194e-41 6.02194e-41 6.02194e-41 6.02194e-41 6.02194e-41 6.02194e-41 6.02194e-41 6.02194e-41 6.02194e-41 6.02194e-41 6.02194e-41 6.02194e-41 6.02194e-41 6.02194e-41 6.02194e-41 6.02195e-41 6.02195e-41 6.02196e-41 6.02199e-41 6.02204e-41 6.02214e-41 6.02232e-41 6.02262e-41 6.02309e-41 6.02381e-41 6.02484e-41 6.02624e-41 6.02802e-41 6.03015e-41 6.03253e-41 6.03498e-41 6.03728e-41 6.03915e-41 6.04039e-41 6.04082e-41 6.04039e-41 6.03915e-41 6.03728e-41 6.03498e-41 6.03253e-41 6.03015e-41 6.02802e-41 6.02708e-41 6.03129e-41 6.05142e-41 6.09023e-41 6.11357e-41 6.09337e-41 6.05942e-41 6.04601e-41 6.04988e-41 6.057e-41 2.00731e-28 4.89505e-13 0.000835394 0.998329 0.000835417 4.892e-13 2.00356e-28 6.03918e-41 6.03021e-41 6.02502e-41 6.02278e-41 6.02208e-41 6.02194e-41 6.02194e-41 6.02194e-41 6.02194e-41 6.02194e-41 6.02194e-41 6.02194e-41 6.02194e-41;
   (1) 5.89722e-41 5.89722e-41 5.89722e-41 5.89722e-41 5.89722e-41 5.89722e-41 5.89722e-41 5.89722e-41 5.89722e-41 5.89722e-41 5.89722e-41 5.89722e-41 5.89722e-41 5.89722e-41 5.89722e-41 5.89722e-41 5.89722e-41 5.89722e-41 5.89722e-41 5.89722e-41 5.89722e-41 5.89722e-41 5.89722e-41 5.89722e-41 5.89722e-41 5.89722e-41 5.89722e-41 5.89722e-41 5.89722e-41 5.89722e-41 5.89722e-41 5.89722e-41 5.89722e-41 5.89722e-41 5.89722e-41 5.89722e-41 5.89722e-41 5.89722e-41 5.89722e-41 5.89722e-41 5.89722e-41 5.89722e-41 5.89722e-41 5.89722e-41 5.89722e-41 5.89722e-41 5.89722e-41 5.89722e-41 5.89722e-41 5.89722e-41 5.89722e-41 5.89764e-41 5.90073e-41 1.95818e-28 4.79483e-13 0.00082391 0.998332 0.000844352 4.90218e-13 1.99399e-28 6.01872e-41 5.99195e-41 5.94557e-41 5.91334e-41 5.90101e-41 5.89793e-41 5.89722e-41 5.89722e-41 5.89722e-41 5.89722e-41 5.89722e-41 5.89722e-41 5.89722e-41 5.89722e-41 5.89722e-41 5.89722e-41;
}
probability (H | I) {
   (0) 0.0052356 0.0052356 0.0052356 0.0052356 0.0052356 0.0052356 0.0052356 0.0052356 0.0052356 0.0052356 0.0052356 0.0052356 0.0052356 0.0052356 0.0052356 0.0052356 0.0052356 0.0052356 0.0052356 0.0052356 0.0052356 0.0052356 0.0052356 0.0052356 0.0052356 0.0052356 0.0052356 0.0052356 0.0052356 0.0052356 0.0052356 0.0052356 0.0052356 0.0052356 0.0052356 0.0052356 0.0052356 0.0052356 0.0052356 0.0052356 0.0052356 0.0052356 0.0052356 0.0052356 0.0052356 0.0052356 0.0052356 0.0052356 0.0052356 0.0052356 0.0052356 0.0052356 0.0052356 0.0052356 0.0052356 0.0052356 0.0052356 0.0052356 0.0052356 0.0052356 0.0052356 0.0052356 0.0052356 0.0052356 0.0052356 0.0052356 0.0052356 0.0052356 0.0052356 0.0052356 0.0052356 0.0052356 0.0052356 0.0052356 0.0052356 0.0052356 0.0052356 0.0052356 0.0052356 0.0052356 0.0052356 0.0052356 0.0052356 0.0052356 0.0052356 0.0052356 0.0052356 0.0052356 0.0052356 0.0052356 0.0052356 0.0052356 0.0052356 0.0052356 0.0052356 0.0052356 0.0052356 0.0052356 0.0052356 0.0052356 0.0052356 0.0052356 0.0052356 0.0052356 0.0052356 0.0052356 0.0052356 0.0052356 0.0052356 0.0052356 0.0052356 0.0052356 0.0052356 0.0052356 0.0052356 0.0052356 0.0052356 0.0052356 0.0052356 0.0052356 0.0052356 0.0052356 0.0052356 0.0052356 0.0052356 0.0052356 0.0052356 0.0052356 0.0052356 0.0052356 0.0052356 0.0052356 0.0052356 0.0052356 0.0052356 0.0052356 0.0052356 0.0052356 0.0052356 0.0052356 0.0052356 0.0052356 0.0052356 0.0052356 0.0052356 0.0052356 0.0052356 0.0052356 0.0052356 0.0052356 0.0052356 0.0052356 0.0052356 0.0052356 0.0052356 0.0052356 0.0052356 0.0052356 0.0052356 0.0052356 0.0052356 0.0052356 0.0052356 0.0052356 0.0052356 0.0052356 0.0052356 0.0052356 0.0052356 0.0052356 0.0052356 0.0052356 0.0052356 0.0052356 0.0052356 0.0052356 0.0052356 0.0052356 0.0052356 0.0052356 0.0052356 0.0052356 0.0052356 0.0052356 0.0052356 0.0052356 0.0052356 0.0052356 0.0052356 0.0052356 0.0052356;
   (314591) 4.29356e-16 4.29356e-16 4.29356e-16 4.29356e-16 4.29356e-16 4.29356e-16 4.29356e-16 4.29356e-16 4.29356e-16 4.29356e-16 4.29356e-16 4.29356e-16 4.60993e-16 7.53841e-16 1.22749e-15 1.99024e-15 3.21323e-15 5.1657e-15 8.26937e-15 1.31814e-14 2.09219e-14 3.30668e-14 5.20399e-14 8.15513e-14 1.27253e-13 1.97726e-13 3.05922e-13 4.71315e-13 7.23028e-13 1.10449e-12 1.68e-12 2.54455e-12 3.83757e-12 5.76313e-12 8.61817e-12 1.28329e-11 1.90275e-11 2.80927e-11 4.13003e-11 6.04614e-11 8.81354e-11 1.27932e-10 1.84912e-10 2.6614e-10 3.81431e-10 5.44357e-10 7.73605e-10 1.09478e-09 1.54281e-09 2.16512e-09 3.02573e-09 4.21104e-09 5.83651e-09 8.05627e-09 1.10753e-08 1.51646e-08 2.06819e-08 2.80964e-08 3.80227e-08 5.12622e-08 6.88577e-08 9.21646e-08 1.22933e-07 1.63433e-07 2.16585e-07 2.86165e-07 3.7704e-07 4.95478e-07 6.49579e-07 8.49787e-07 1.10964e-06 1.44667e-06 1.88367e-06 2.45034e-06 3.18544e-06 4.13982e-06 5.38031e-06 6.99514e-06 9.10085e-06 1.18521e-05 1.54544e-05 2.01823e-05 2.64013e-05 3.4601e-05 4.54353e-05 5.97786e-05 7.88009e-05 0.000104062 0.000137639 0.000182284 0.000241628 0.000320437 0.000424918 0.000563073 0.000745103 0.0009839 0.00129541 0.00169911 0.00221818 0.00287967 0.00371401 0.00475434 0.00603488 0.00758883 0.00944512 0.0116252 0.0141372 0.0169735 0.0201054 0.0234801 0.02702 0.0306233 0.0341683 0.0375201 0.0405393 0.0430927 0.045065 0.0463675 0.0469462 0.0467858 0.0459102 0.0443792 0.0422812 0.0397266 0.0368357 0.0337312 0.030529 0.0273323 0.0242268 0.0212803 0.0185404 0.0160366 0.0137847 0.0117854 0.0100313 0.00850817 0.00719676 0.00607592 0.00512355 0.00431842 0.00364036 0.00307072 0.00259315 0.00219315 0.0018581 0.00157736 0.00134184 0.0011439 0.000977157 0.000836372 0.000717155 0.000615883 0.000529599 0.000455844 0.000392623 0.000338277 0.000291439 0.00025099 0.000215991 0.000185671 0.000159383 0.000136584 0.000116812 9.96766e-05 8.48386e-05 7.20145e-05 6.09486e-05 5.14223e-05 4.32438e-05 3.6241e-05 3.02654e-05 2.51822e-05 2.08745e-05 1.72376e-05 1.41788e-05 1.16169e-05 9.47953e-06 7.70416e-06 6.23583e-06 5.02653e-06 4.03495e-06 3.22555e-06 2.56773e-06 2.03547e-06 1.60681e-06 1.26306e-06 9.88644e-07 7.70599e-07 5.98093e-07 4.62238e-07 3.55737e-07;
   (1019107402) 2.92369e-15 2.92369e-15 2.92369e-15 2.92369e-15 2.92369e-15 2.92369e-15 2.92369e-15 2.92369e-15 2.92369e-15 3.1391e-15 5.13323e-15 8.35847e-15 1.35523e-14 2.18803e-14 3.51755e-14 5.63093e-14 8.97573e-14 1.42466e-13 2.25166e-13 3.54361e-13 5.55315e-13 8.66527e-13 1.34641e-12 2.08317e-12 3.20937e-12 4.92343e-12 7.5208e-12 1.14397e-11 1.73266e-11 2.61315e-11 3.92433e-11 5.86836e-11 8.73814e-11 1.29561e-10 1.91283e-10 2.81211e-10 4.11659e-10 6.00061e-10 8.70969e-10 1.25881e-09 1.81164e-09 2.59616e-09 3.70462e-09 5.26389e-09 7.44769e-09 1.04928e-08 1.472e-08 2.05626e-08 2.86024e-08 3.96169e-08 5.46403e-08 7.50412e-08 1.02623e-07 1.39749e-07 1.89501e-07 2.55882e-07 3.4406e-07 4.60679e-07 6.14239e-07 8.15566e-07 1.07836e-06 1.41994e-06 1.86201e-06 2.4317e-06 3.16279e-06 4.09713e-06 5.28635e-06 6.79395e-06 8.69771e-06 1.10925e-05 1.40938e-05 1.78419e-05 2.25066e-05 2.82928e-05 3.54479e-05 4.42697e-05 5.51166e-05 6.84189e-05 8.46938e-05 0.000104562 0.000128769 0.000158206 0.000193944 0.000237262 0.000289688 0.000353043 0.000429495 0.000521606 0.000632401 0.000765426 0.000924813 0.00111532 0.00134244 0.00161234 0.00193197 0.00230896 0.00275159 0.00326866 0.00386927 0.00456259 0.00535746 0.00626196 0.00728294 0.00842533 0.00969161 0.0110811 0.0125895 0.0142079 0.0159232 0.0177169 0.019566 0.0214424 0.0233147 0.0251476 0.0269037 0.0285453 0.0300351 0.0313379 0.0324228 0.0332636 0.0338405 0.0341411 0.0341606 0.0339022 0.0333762 0.0326002 0.0315977 0.0303968 0.0290289 0.0275279 0.0259275 0.0242614 0.0225615 0.0208564 0.0191723 0.017531 0.0159505 0.0144452 0.0130254 0.0116979 0.0104669 0.00933342 0.00829659 0.00735358 0.00650047 0.00573225 0.00504334 0.00442778 0.00387954 0.00339262 0.00296124 0.0025799 0.00224347 0.00194717 0.00168667 0.00145801 0.00125761 0.00108228 0.000929137 0.000795633 0.000679473 0.000578631 0.000491289 0.000415836 0.000350834 0.000295 0.000247194 0.000206396 0.000171702 0.000142306 0.000117491 9.66285e-05 7.91568e-05 6.45861e-05 5.2485e-05 4.24777e-05 3.42375e-05 2.7482e-05 2.1968e-05 1.74871e-05 1.38619e-05 1.09422e-05 8.60115e-06 6.73247e-06 5.24749e-06 4.07278e-06 3.14767e-06 2.42238e-06 1.85631e-06 1.41649e-06 1.07629e-06;
   (2964414) 4.87279e-16 4.87279e-16 5.2318e-16 8.55534e-16 1.39306e-15 2.25871e-15 3.64671e-15 5.8626e-15 9.38479e-15 1.49593e-14 2.37444e-14 3.75274e-14 5.906e-14 9.2552e-14 1.4442e-13 2.24401e-13 3.4719e-13 5.3489e-13 8.20564e-13 1.25345e-12 1.90661e-12 2.88776e-12 4.35523e-12 6.54048e-12 9.78057e-12 1.45633e-11 2.15932e-11 3.18806e-11 4.68684e-11 6.86094e-11 1.00009e-10 1.4516e-10 2.09802e-10 3.0194e-10 4.32689e-10 6.17435e-10 8.77326e-10 1.24128e-09 1.74882e-09 2.4534e-09 3.42723e-09 4.7673e-09 6.60331e-09 9.10762e-09 1.25086e-08 1.71068e-08 2.32968e-08 3.1593e-08 4.26634e-08 5.73722e-08 7.68288e-08 1.02455e-07 1.36065e-07 1.79961e-07 2.37045e-07 3.10976e-07 4.06333e-07 5.28837e-07 6.85587e-07 8.85429e-07 1.13922e-06 1.46044e-06 1.86559e-06 2.37503e-06 3.01366e-06 3.81198e-06 4.80752e-06 6.04606e-06 7.58424e-06 9.4908e-06 1.18511e-05 1.47698e-05 1.83766e-05 2.28317e-05 2.8333e-05 3.51269e-05 4.35197e-05 5.38901e-05 6.67153e-05 8.25829e-05 0.000102231 0.000126573 0.000156746 0.000194163 0.000240565 0.000298114 0.000369456 0.000457822 0.000567178 0.000702253 0.000868831 0.00107369 0.00132493 0.00163193 0.0020056 0.00245829 0.00300387 0.0036576 0.00443583 0.00535567 0.00643436 0.00768808 0.00913203 0.0107774 0.0126312 0.0146935 0.0169569 0.0194033 0.0220041 0.0247179 0.0274905 0.0302565 0.0329409 0.0354606 0.0377306 0.0396674 0.0411943 0.0422483 0.0427827 0.0427736 0.0422185 0.0411398 0.0395813 0.0376051 0.0352895 0.0327186 0.0299812 0.0271633 0.0243441 0.0215921 0.0189637 0.0165016 0.0142349 0.0121806 0.0103456 0.00872703 0.0073157 0.00609821 0.00505753 0.00417551 0.00343351 0.00281339 0.00229817 0.00187228 0.00152179 0.00123446 0.000999714 0.000808443 0.000652995 0.000526909 0.000424815 0.000342268 0.000275596 0.000221806 0.000178438 0.000143492 0.000115343 9.268e-05 7.44387e-05 5.97579e-05 4.79448e-05 3.84408e-05 3.07962e-05 2.46486e-05 1.97067e-05 1.57359e-05 1.25469e-05 9.98807e-06 7.93663e-06 6.29386e-06 4.98016e-06 3.93135e-06 3.09542e-06 2.43061e-06 1.90303e-06 1.48543e-06 1.15575e-06 8.96263e-07 6.92638e-07 5.33371e-07 4.09235e-07 3.12815e-07 2.38201e-07 1.80679e-07 1.36508e-07 1.02725e-07 7.69914e-08 5.74699e-08 4.27215e-08 3.16273e-08 2.33169e-08;
   (9515830) 3.37348e-16 3.62202e-16 5.92293e-16 9.64414e-16 1.56373e-15 2.52464e-15 4.05872e-15 6.49717e-15 1.03564e-14 1.64385e-14 2.59805e-14 4.08877e-14 6.40744e-14 9.99827e-14 1.55354e-13 2.40362e-13 3.70313e-13 5.68084e-13 8.67773e-13 1.31996e-12 1.99921e-12 3.01516e-12 4.52803e-12 6.77124e-12 1.00823e-11 1.49493e-11 2.2071e-11 3.24471e-11 4.74988e-11 6.92369e-11 1.00495e-10 1.45245e-10 2.09033e-10 2.99551e-10 4.27452e-10 6.07358e-10 8.59339e-10 1.21067e-09 1.69841e-09 2.37256e-09 3.30013e-09 4.57098e-09 6.3043e-09 8.65799e-09 1.18402e-08 1.61231e-08 2.18626e-08 2.95198e-08 3.96905e-08 5.31414e-08 7.08498e-08 9.40626e-08 1.24361e-07 1.63731e-07 2.14673e-07 2.80301e-07 3.64495e-07 4.72046e-07 6.08881e-07 7.82239e-07 1.00102e-06 1.27603e-06 1.62041e-06 2.05016e-06 2.58446e-06 3.24661e-06 4.06464e-06 5.07227e-06 6.31029e-06 7.82756e-06 9.68382e-06 1.19499e-05 1.47136e-05 1.808e-05 2.2178e-05 2.71663e-05 3.32384e-05 4.0636e-05 4.96546e-05 6.06667e-05 7.41346e-05 9.06399e-05 0.000110913 0.000135874 0.000166683 0.000204812 0.000252122 0.000310969 0.000384325 0.000475954 0.000590582 0.000734139 0.000914045 0.00113942 0.00142157 0.00177422 0.00221373 0.00275962 0.00343444 0.00426383 0.00527597 0.00650082 0.00796872 0.00970802 0.0117428 0.0140894 0.0167516 0.0197164 0.0229519 0.026403 0.0299878 0.0336027 0.0371215 0.0404055 0.043309 0.0456923 0.0474332 0.0484393 0.0486533 0.0480633 0.0467011 0.0446391 0.0419858 0.0388715 0.0354412 0.0318391 0.0282 0.0246427 0.0212615 0.0181273 0.0152852 0.0127586 0.0105521 0.00865557 0.00704831 0.00570347 0.0045905 0.00367847 0.00293728 0.00233923 0.00185953 0.00147659 0.00117204 0.000930507 0.000739275 0.000588051 0.000468484 0.000373897 0.000299005 0.000239613 0.000192423 0.000154847 0.000124846 0.000100833 8.15649e-05 6.60592e-05 5.35524e-05 4.34405e-05 3.52477e-05 2.85982e-05 2.31936e-05 1.87962e-05 1.5216e-05 1.23005e-05 9.9268e-06 7.99512e-06 6.42496e-06 5.15025e-06 4.11735e-06 3.28196e-06 2.60802e-06 2.06575e-06 1.63069e-06 1.28274e-06 1.00535e-06 7.85013e-07 6.10655e-07 4.7317e-07 3.65201e-07 2.80743e-07 2.14945e-07 1.63901e-07 1.24464e-07 9.41276e-08 7.08871e-08 5.3163e-08 3.9704e-08 2.95276e-08 2.18672e-08 1.61258e-08 1.18416e-08;
   (1052411482) 8.77096e-16 8.77096e-16 8.77096e-16 8.77096e-16 9.41724e-16 1.53996e-15 2.50752e-15 4.06568e-15 6.56406e-15 1.05527e-14 1.68926e-14 2.69269e-14 4.27396e-14 6.75498e-14 1.06307e-13 1.66593e-13 2.59956e-13 4.03919e-13 6.24948e-13 9.62811e-13 1.47702e-12 2.25623e-12 3.43188e-12 5.19795e-12 7.83944e-12 1.1773e-11 1.76051e-11 2.62144e-11 3.88679e-11 5.73856e-11 8.4364e-11 1.23499e-10 1.80021e-10 2.61296e-10 3.77656e-10 5.43516e-10 7.78892e-10 1.11148e-09 1.57934e-09 2.23463e-09 3.1484e-09 4.41706e-09 6.1707e-09 8.58408e-09 1.18911e-08 1.64027e-08 2.25307e-08 3.08183e-08 4.19786e-08 5.69409e-08 7.69155e-08 1.03468e-07 1.38614e-07 1.84941e-07 2.45749e-07 3.25236e-07 4.28723e-07 5.62911e-07 7.36224e-07 9.59198e-07 1.245e-06 1.60998e-06 2.07441e-06 2.66333e-06 3.40758e-06 4.34524e-06 5.52275e-06 6.99726e-06 8.83842e-06 1.11313e-05 1.39796e-05 1.75093e-05 2.18739e-05 2.72597e-05 3.38918e-05 4.20447e-05 5.20488e-05 6.4305e-05 7.92987e-05 9.76108e-05 0.000119951 0.000147166 0.000180277 0.000220514 0.000269346 0.00032854 0.000400205 0.00048685 0.000591468 0.000717596 0.000869409 0.00105184 0.00127061 0.00153237 0.00184479 0.00221662 0.00265769 0.00317896 0.00379237 0.00451075 0.00534739 0.00631569 0.00742844 0.00869714 0.0101309 0.0117351 0.0135104 0.0154516 0.0175457 0.019771 0.0220973 0.0244853 0.0268859 0.0292439 0.0314975 0.0335831 0.0354365 0.0369985 0.0382165 0.0390489 0.0394671 0.0394579 0.0390233 0.0381802 0.0369608 0.0354078 0.0335739 0.0315169 0.0292979 0.0269771 0.024612 0.0222551 0.0199516 0.0177393 0.015648 0.013699 0.0119066 0.0102781 0.00881512 0.00751438 0.00636904 0.00536955 0.00450452 0.00376165 0.00312817 0.00259149 0.00213953 0.00176098 0.00144548 0.00118368 0.000967291 0.000789081 0.000642729 0.000522863 0.000424904 0.000344993 0.0002799 0.000226941 0.000183895 0.000148927 0.000120536 9.74951e-05 7.87984e-05 6.36336e-05 5.13351e-05 4.1365e-05 3.32859e-05 2.67431e-05 2.14485e-05 1.71683e-05 1.37123e-05 1.09259e-05 8.6835e-06 6.88225e-06 5.4386e-06 4.28449e-06 3.36433e-06 2.63289e-06 2.05325e-06 1.59546e-06 1.23515e-06 9.52582e-07 7.31827e-07 5.60019e-07 4.26846e-07 3.24028e-07 2.44979e-07 1.84455e-07 1.38311e-07 1.0328e-07 7.68007e-08;
   (79397631) 3.98695e-16 3.98695e-16 3.98695e-16 3.98695e-16 3.98695e-16 3.98695e-16 3.98695e-16 3.98695e-16 3.98695e-16 3.98695e-16 3.98695e-16 3.98695e-16 3.98695e-16 3.98695e-16 4.28068e-16 7.00008e-16 1.13983e-15 1.8481e-15 2.98377e-15 4.79677e-15 7.67875e-15 1.22399e-14 1.94278e-14 3.07054e-14 4.83237e-14 7.57272e-14 1.18167e-13 1.83607e-13 2.84078e-13 4.3765e-13 6.714e-13 1.02561e-12 1.56002e-12 2.36282e-12 3.56356e-12 5.35173e-12 8.00284e-12 1.19167e-11 1.76692e-11 2.60874e-11 3.83532e-11 5.61477e-11 8.18489e-11 1.18811e-10 1.71735e-10 2.47191e-10 3.54303e-10 5.0569e-10 7.18767e-10 1.01734e-09 1.43401e-09 2.01301e-09 2.81427e-09 3.91855e-09 5.43436e-09 7.507e-09 1.033e-08 1.41611e-08 1.93416e-08 2.63229e-08 3.57017e-08 4.82638e-08 6.50435e-08 8.74017e-08 1.17134e-07 1.566e-07 2.08915e-07 2.78197e-07 3.69896e-07 4.91259e-07 6.51939e-07 8.6485e-07 1.14735e-06 1.52282e-06 2.0229e-06 2.69061e-06 3.58454e-06 4.78503e-06 6.40235e-06 8.58821e-06 1.15524e-05 1.55846e-05 2.10867e-05 2.86143e-05 3.89392e-05 5.31274e-05 7.26528e-05 9.95443e-05 0.000136584 0.000187565 0.000257624 0.00035365 0.000484789 0.000663038 0.000903916 0.00122707 0.00165695 0.00222318 0.00296073 0.00390915 0.0051116 0.00661222 0.00845255 0.0106671 0.0132763 0.0162821 0.0196601 0.0233544 0.0272761 0.0313037 0.0352863 0.0390553 0.0424361 0.0452616 0.0473902 0.0487171 0.0491857 0.048791 0.0475791 0.0456405 0.0430989 0.0400983 0.0367915 0.0333244 0.0298292 0.0264166 0.0231722 0.020158 0.0174115 0.0149503 0.0127764 0.0108792 0.00924104 0.00783806 0.00664477 0.00563543 0.00478489 0.00407013 0.00347045 0.0029675 0.00254543 0.00219074 0.00189203 0.00163969 0.00142577 0.00124369 0.00108802 0.000954293 0.000838847 0.000738698 0.000651388 0.000574927 0.00050767 0.000448303 0.000395723 0.000349017 0.000307459 0.000270426 0.000237405 0.000207955 0.000181708 0.000158343 0.000137574 0.000119154 0.000102859 8.84853e-05 7.58478e-05 6.47732e-05 5.51073e-05 4.67017e-05 3.94224e-05 3.31446e-05 2.77537e-05 2.31448e-05 1.92221e-05 1.58977e-05 1.30938e-05 1.07392e-05 8.77106e-06 7.13355e-06 5.77729e-06 4.65903e-06 3.74142e-06 2.9918e-06 2.38222e-06 1.88878e-06 1.49124e-06 1.17233e-06 9.17747e-07 7.15384e-07 5.55279e-07;
   (20947316) 4.16482e-13 6.4989e-13 1.0098e-12 1.56236e-12 2.40701e-12 3.69254e-12 5.64055e-12 8.5797e-12 1.29949e-11 1.95984e-11 2.94322e-11 4.40123e-11 6.55355e-11 9.71693e-11 1.43461e-10 2.10906e-10 3.08741e-10 4.5004e-10 6.5322e-10 9.44093e-10 1.35871e-09 1.94708e-09 2.7784e-09 3.94781e-09 5.5856e-09 7.86923e-09 1.10393e-08 1.54208e-08 2.14498e-08 2.97091e-08 4.09738e-08 5.62696e-08 7.69471e-08 1.04776e-07 1.42063e-07 1.91801e-07 2.57854e-07 3.45181e-07 4.6012e-07 6.10724e-07 8.07187e-07 1.06231e-06 1.39214e-06 1.81662e-06 2.36048e-06 3.05414e-06 3.93488e-06 5.04814e-06 6.44889e-06 8.20337e-06 1.03912e-05 1.31068e-05 1.64624e-05 2.05901e-05 2.56445e-05 3.18058e-05 3.92828e-05 4.83157e-05 5.91801e-05 7.21886e-05 8.76972e-05 0.000106106 0.000127865 0.000153474 0.000183491 0.000218535 0.000259288 0.000306503 0.000361009 0.000423717 0.000495631 0.000577857 0.00067162 0.000778269 0.000899321 0.00103644 0.00119154 0.00136671 0.00156438 0.00178722 0.00203834 0.00232118 0.00263967 0.00299822 0.00340176 0.00385578 0.00436627 0.00493979 0.0055833 0.00630408 0.00710962 0.00800714 0.00900356 0.0101049 0.0113157 0.0126387 0.0140736 0.0156172 0.0172621 0.0189961 0.0208019 0.0226568 0.0245325 0.0263956 0.0282079 0.0299278 0.0315116 0.0329155 0.0340972 0.0350183 0.0356465 0.0359573 0.0359352 0.0355759 0.0348856 0.033881 0.0325889 0.0310448 0.0292902 0.027372 0.0253382 0.023238 0.0211171 0.0190183 0.0169785 0.015029 0.013194 0.0114911 0.00993163 0.00852105 0.00725989 0.00614449 0.00516794 0.00432104 0.00359307 0.00297245 0.00244739 0.00200632 0.00163819 0.00133279 0.00108079 0.000873877 0.000704742 0.000567034 0.000455301 0.000364924 0.000292016 0.000233336 0.0001862 0.0001484 0.000118133 9.39254e-05 7.45866e-05 5.91527e-05 4.68464e-05 3.70439e-05 2.92437e-05 2.30437e-05 1.81218e-05 1.42202e-05 1.11321e-05 8.69249e-06 6.76913e-06 5.25609e-06 4.06882e-06 3.1397e-06 2.41468e-06 1.85067e-06 1.41335e-06 1.07541e-06 8.15213e-07 6.15603e-07 4.63058e-07 3.46936e-07 2.58894e-07 1.92412e-07 1.42419e-07 1.04981e-07 7.70645e-08 5.63363e-08 4.10113e-08 2.973e-08 2.14614e-08 1.54273e-08 1.10429e-08 7.87104e-09 5.58657e-09 3.94834e-09 2.77868e-09 1.94723e-09 1.35878e-09;
   (80431643) 4.38566e-15 4.38566e-15 4.38566e-15 4.38566e-15 4.38566e-15 4.38566e-15 4.38566e-15 4.38566e-15 4.38566e-15 4.38566e-15 4.38566e-15 4.38566e-15 4.38566e-15 4.38566e-15 4.70879e-15 7.70008e-15 1.25381e-14 2.03291e-14 3.28214e-14 5.27649e-14 8.44665e-14 1.3464e-13 2.13706e-13 3.37759e-13 5.31557e-13 8.32997e-13 1.29983e-12 2.01968e-12 3.12484e-12 4.8142e-12 7.38536e-12 1.12816e-11 1.716e-11 2.59907e-11 3.91984e-11 5.88666e-11 8.8028e-11 1.31076e-10 1.94347e-10 2.86933e-10 4.21829e-10 6.17507e-10 9.00115e-10 1.30649e-09 1.88827e-09 2.71752e-09 3.89432e-09 5.55702e-09 7.89593e-09 1.11716e-08 1.5739e-08 2.20796e-08 3.08429e-08 4.29013e-08 5.94205e-08 8.19507e-08 1.12543e-07 1.539e-07 2.09559e-07 2.84136e-07 3.83616e-07 5.15725e-07 6.90383e-07 9.20265e-07 1.22148e-06 1.6144e-06 2.12464e-06 2.78427e-06 3.6332e-06 4.72081e-06 6.10794e-06 7.86909e-06 1.0095e-05 1.28954e-05 1.64028e-05 2.07756e-05 2.62022e-05 3.2906e-05 4.11495e-05 5.12395e-05 6.3533e-05 7.84417e-05 9.6438e-05 0.000118061 0.000143919 0.000174699 0.000211165 0.000254165 0.000304632 0.000363585 0.000432125 0.000511439 0.000602789 0.000707511 0.000827001 0.000962714 0.00111614 0.00128882 0.00148229 0.00169811 0.00193783 0.00220298 0.0024951 0.00281568 0.00316619 0.0035481 0.00396285 0.0044119 0.00489671 0.00541875 0.00597956 0.00658065 0.00722358 0.00790987 0.008641 0.00941827 0.0102428 0.0111152 0.0120356 0.0130036 0.0140175 0.0150747 0.0161712 0.0173013 0.0184577 0.0196311 0.0208103 0.0219823 0.0231319 0.0242427 0.0252969 0.0262757 0.02716 0.0279312 0.0285711 0.0290635 0.0293941 0.0295515 0.0295278 0.0293185 0.0289233 0.0283461 0.0275949 0.0266813 0.0256208 0.0244316 0.0231344 0.0217517 0.0203066 0.0188227 0.0173229 0.0158291 0.0143613 0.0129372 0.0115721 0.0102786 0.00906628 0.007942 0.00690996 0.00597186 0.00512724 0.00437374 0.00370751 0.00312351 0.00261584 0.00217806 0.00180348 0.00148537 0.00121713 0.000992502 0.000805612 0.000651082 0.000524055 0.000420208 0.000335745 0.000267376 0.000212277 0.000168053 0.000132689 0.000104505 8.21123e-05 6.43717e-05 5.03526e-05 3.9301e-05 3.06082e-05 2.37854e-05 1.84415e-05 1.42646e-05 1.10067e-05 8.47104e-06 6.50201e-06;
   (3014218) 7.9736e-16 7.9736e-16 8.56113e-16 1.39996e-15 2.27956e-15 3.69604e-15 5.96733e-15 9.59337e-15 1.5357e-14 2.4479e-14 3.88542e-14 6.14084e-14 9.66428e-14 1.51448e-13 2.36324e-13 3.672e-13 5.68128e-13 8.75275e-13 1.34275e-12 2.05111e-12 3.11989e-12 4.72541e-12 7.12677e-12 1.07026e-11 1.60046e-11 2.3831e-11 3.53343e-11 5.21677e-11 7.66932e-11 1.1227e-10 1.63652e-10 2.37535e-10 3.4331e-10 4.94078e-10 7.08034e-10 1.01034e-09 1.43559e-09 2.03117e-09 2.86163e-09 4.01446e-09 5.60791e-09 7.80055e-09 1.08044e-08 1.49016e-08 2.04652e-08 2.79871e-08 3.8112e-08 5.16804e-08 6.97834e-08 9.38307e-08 1.25634e-07 1.67513e-07 2.22419e-07 2.94093e-07 3.8726e-07 5.07842e-07 6.63255e-07 8.62739e-07 1.11771e-06 1.44238e-06 1.85413e-06 2.37438e-06 3.02934e-06 3.85096e-06 4.87836e-06 6.15913e-06 7.75115e-06 9.72501e-06 1.21668e-05 1.51811e-05 1.88968e-05 2.34705e-05 2.90956e-05 3.60104e-05 4.45092e-05 5.49566e-05 6.7808e-05 8.36309e-05 0.000103134 0.000127209 0.000156972 0.000193834 0.00023956 0.000296378 0.000367078 0.000455159 0.000564984 0.000701977 0.000872844 0.00108579 0.00135079 0.00167982 0.00208708 0.00258913 0.0032049 0.00395553 0.00486397 0.00595418 0.00724992 0.0087733 0.0105424 0.0125688 0.0148552 0.0173918 0.0201545 0.0231018 0.026175 0.0292983 0.0323804 0.0353188 0.0380068 0.0403373 0.0422145 0.0435571 0.0443079 0.0444372 0.0439445 0.0428588 0.0412362 0.0391538 0.0367039 0.0339864 0.0311028 0.0281488 0.0252102 0.0223593 0.0196528 0.0171322 0.0148241 0.012742 0.0108885 0.0092577 0.00783748 0.00661185 0.0055621 0.00466899 0.00391322 0.00327659 0.00274218 0.00229478 0.00192092 0.00160888 0.00134855 0.00113135 0.000950032 0.000798522 0.000671757 0.000565537 0.000476378 0.000401419 0.000338294 0.000285045 0.000240072 0.000202043 0.00016986 0.00014261 0.000119536 0.000100006 8.3484e-05 6.95234e-05 5.77445e-05 4.78241e-05 3.94878e-05 3.25e-05 2.66589e-05 2.17911e-05 1.77479e-05 1.44013e-05 1.16412e-05 9.37369e-06 7.51819e-06 6.00583e-06 4.77831e-06 3.78618e-06 2.98773e-06 2.3479e-06 1.83741e-06 1.4319e-06 1.11121e-06 8.58729e-07 6.60804e-07 5.06358e-07 3.86368e-07 2.93564e-07 2.22106e-07 1.67329e-07 1.25528e-07 9.37691e-08 6.97484e-08 5.16602e-08 3.81009e-08;
   (1032480996) 3.84989e-15 6.2688e-15 1.01642e-14 1.64101e-14 2.63814e-14 4.22316e-14 6.73175e-14 1.06849e-13 1.68873e-13 2.65769e-13 4.16482e-13 6.4989e-13 1.0098e-12 1.56236e-12 2.40701e-12 3.69254e-12 5.64055e-12 8.5797e-12 1.29949e-11 1.95984e-11 2.94322e-11 4.40123e-11 6.55355e-11 9.71693e-11 1.43461e-10 2.10906e-10 3.08741e-10 4.5004e-10 6.5322e-10 9.44093e-10 1.35871e-09 1.94708e-09 2.77841e-09 3.94781e-09 5.5856e-09 7.86923e-09 1.10394e-08 1.5421e-08 2.145e-08 2.97095e-08 4.09745e-08 5.6271e-08 7.69493e-08 1.0478e-07 1.4207e-07 1.91815e-07 2.57878e-07 3.45225e-07 4.60196e-07 6.1086e-07 8.07411e-07 1.0627e-06 1.39281e-06 1.81775e-06 2.36237e-06 3.05727e-06 3.94002e-06 5.05646e-06 6.4624e-06 8.22504e-06 1.04256e-05 1.31611e-05 1.65471e-05 2.07212e-05 2.58458e-05 3.21122e-05 3.97451e-05 4.90075e-05 6.02058e-05 7.36973e-05 8.98972e-05 0.000109287 0.000132423 0.000159951 0.000192617 0.000231285 0.00027695 0.000330763 0.000394051 0.000468345 0.000555404 0.00065725 0.000776203 0.000914909 0.00107638 0.00126403 0.00148171 0.00173371 0.00202484 0.0023604 0.00274615 0.00318837 0.00369374 0.0042693 0.00492232 0.00566017 0.00649003 0.00741873 0.00845226 0.00959546 0.0108515 0.0122213 0.0137034 0.0152922 0.0169789 0.0187497 0.0205864 0.0224654 0.0243584 0.0262322 0.0280498 0.0297712 0.0313544 0.032758 0.033942 0.0348705 0.0355128 0.0358463 0.0358569 0.0355402 0.0349024 0.0339594 0.0327367 0.0312675 0.0295916 0.0277531 0.0257982 0.0237729 0.0217212 0.0196841 0.0176969 0.0157898 0.0139862 0.0123036 0.0107534 0.00934148 0.00806911 0.00693357 0.00592916 0.00504793 0.00428047 0.00361651 0.00304556 0.0025572 0.00214148 0.00178906 0.00149143 0.00124087 0.00103055 0.000854431 0.00070727 0.000584546 0.000482375 0.000397446 0.00032695 0.000268516 0.000220144 0.000180155 0.000147144 0.000119933 9.75384e-05 7.91395e-05 6.40516e-05 5.17034e-05 4.16202e-05 3.34057e-05 2.67309e-05 2.13219e-05 1.69515e-05 1.34309e-05 1.06043e-05 8.34231e-06 6.53873e-06 5.10575e-06 3.97155e-06 3.07728e-06 2.37496e-06 1.82561e-06 1.39767e-06 1.06568e-06 8.09223e-07 6.11953e-07 4.60849e-07 3.45612e-07 2.58106e-07 1.91948e-07 1.42147e-07 1.04824e-07 7.69739e-08 5.62849e-08 4.09823e-08;
   (9496683) 5.48185e-16 5.48185e-16 5.48185e-16 5.48185e-16 5.88577e-16 9.62475e-16 1.5672e-15 2.54104e-15 4.10254e-15 6.59543e-15 1.05578e-14 1.68293e-14 2.67123e-14 4.22182e-14 6.64419e-14 1.04121e-13 1.62472e-13 2.52451e-13 3.90589e-13 6.01751e-13 9.23143e-13 1.41013e-12 2.14493e-12 3.24872e-12 4.89965e-12 7.35804e-12 1.10032e-11 1.63839e-11 2.42925e-11 3.58657e-11 5.2727e-11 7.71863e-11 1.12512e-10 1.63308e-10 2.36029e-10 3.39683e-10 4.86789e-10 6.94632e-10 9.87019e-10 1.39653e-09 1.96753e-09 2.76029e-09 3.85606e-09 5.36397e-09 7.4301e-09 1.02485e-08 1.40765e-08 1.92529e-08 2.62225e-08 3.55655e-08 4.80373e-08 6.46126e-08 8.65496e-08 1.1546e-07 1.53403e-07 2.02997e-07 2.67563e-07 3.51287e-07 4.59437e-07 5.98627e-07 7.77146e-07 1.0053e-06 1.296e-06 1.66525e-06 2.13304e-06 2.72415e-06 3.4695e-06 4.40761e-06 5.5865e-06 7.06636e-06 8.92246e-06 1.12497e-05 1.41675e-05 1.78273e-05 2.24214e-05 2.81948e-05 3.54599e-05 4.46179e-05 5.61847e-05 7.08231e-05 8.93878e-05 0.000112983 0.000143034 0.000181379 0.000230382 0.000293091 0.000373399 0.000476276 0.000608023 0.00077656 0.000991775 0.00126582 0.00161356 0.00205274 0.00260419 0.00329191 0.00414259 0.00518524 0.00644944 0.00796408 0.00975448 0.0118394 0.0142277 0.016914 0.0198746 0.0230668 0.0264246 0.0298595 0.0332652 0.0365197 0.0394945 0.0420622 0.0441097 0.0455415 0.0462948 0.0463391 0.0456825 0.0443677 0.0424688 0.0400827 0.0373227 0.0343074 0.0311527 0.0279656 0.0248378 0.0218441 0.0190388 0.0164599 0.0141281 0.01205 0.0102218 0.00863119 0.00726087 0.00609012 0.00509685 0.00425913 0.00355605 0.00296811 0.00247789 0.00206991 0.00173079 0.00144901 0.00121483 0.00102005 0.000857834 0.000722521 0.000609418 0.000514675 0.00043512 0.000368168 0.000311681 0.000263925 0.00022347 0.000189139 0.000159963 0.000135146 0.000114022 9.60398e-05 8.07364e-05 6.77185e-05 5.66598e-05 4.7279e-05 3.93371e-05 3.26282e-05 2.69754e-05 2.22263e-05 1.82487e-05 1.49283e-05 1.21666e-05 9.87769e-06 7.98829e-06 6.43472e-06 5.1625e-06 4.12503e-06 3.28261e-06 2.60144e-06 2.05308e-06 1.6136e-06 1.26284e-06 9.84212e-07 7.63829e-07 5.90293e-07 4.54256e-07 3.48092e-07 2.65611e-07 2.01816e-07 1.52693e-07 1.15036e-07 8.62994e-08 6.44655e-08 4.79514e-08;
   (3014208) 1.09637e-15 1.09637e-15 1.17715e-15 1.92494e-15 3.1344e-15 5.08209e-15 8.20507e-15 1.31908e-14 2.11158e-14 3.36587e-14 5.34245e-14 8.44372e-14 1.32884e-13 2.08241e-13 3.24945e-13 5.049e-13 7.81185e-13 1.20351e-12 1.84627e-12 2.82028e-12 4.28985e-12 6.49743e-12 9.7993e-12 1.47161e-11 2.20062e-11 3.27678e-11 4.85846e-11 7.17306e-11 1.05453e-10 1.54371e-10 2.25021e-10 3.26611e-10 4.72052e-10 6.79363e-10 9.7356e-10 1.38923e-09 1.97396e-09 2.7929e-09 3.93481e-09 5.52006e-09 7.71113e-09 1.07262e-08 1.48568e-08 2.0491e-08 2.81424e-08 3.84872e-08 5.24118e-08 7.10738e-08 9.59744e-08 1.29055e-07 1.7281e-07 2.30435e-07 3.05997e-07 4.04655e-07 5.32922e-07 6.98986e-07 9.13086e-07 1.18797e-06 1.5395e-06 1.98725e-06 2.5554e-06 3.27366e-06 4.17831e-06 5.31387e-06 6.73458e-06 8.50649e-06 1.07101e-05 1.34431e-05 1.68245e-05 2.09987e-05 2.61417e-05 3.24677e-05 4.02383e-05 4.97725e-05 6.14596e-05 7.57784e-05 9.33135e-05 0.000114785 0.000141075 0.000173267 0.000212695 0.000260998 0.000320181 0.000392702 0.000481563 0.000590409 0.000723674 0.000886667 0.00108574 0.0013285 0.00162376 0.00198187 0.00241465 0.00293539 0.00355884 0.00430091 0.00517826 0.00620772 0.00740546 0.0087858 0.0103599 0.0121341 0.0141088 0.0162755 0.0186165 0.021103 0.0236946 0.0263396 0.0289755 0.0315312 0.0339306 0.0360955 0.037951 0.0394295 0.0404759 0.0410506 0.0411331 0.0407231 0.0398401 0.0385223 0.0368233 0.034808 0.0325497 0.0301229 0.0276008 0.0250519 0.0225364 0.0201045 0.0177961 0.0156399 0.0136548 0.0118508 0.0102301 0.00878921 0.00751964 0.00641022 0.00544757 0.00461751 0.00390553 0.00329764 0.00278063 0.00234226 0.00197153 0.0016586 0.00139485 0.00117277 0.000985898 0.000828681 0.000696422 0.000585135 0.000491466 0.000412596 0.00034616 0.000290176 0.000242994 0.000203226 0.000169712 0.000141481 0.000117715 9.77284e-05 8.09405e-05 6.68641e-05 5.50809e-05 4.52405e-05 3.70417e-05 3.02297e-05 2.45863e-05 1.9926e-05 1.60903e-05 1.29448e-05 1.03744e-05 8.28224e-06 6.58589e-06 5.21607e-06 4.11457e-06 3.23241e-06 2.529e-06 1.97044e-06 1.52889e-06 1.18134e-06 9.08966e-07 6.96453e-07 5.31382e-07 4.03725e-07 3.05439e-07 2.30104e-07 1.72616e-07 1.2894e-07 9.59081e-08 7.10359e-08 5.23903e-08;
   (792781074) 7.69978e-15 1.25376e-14 2.03283e-14 3.28201e-14 5.27628e-14 8.44632e-14 1.34635e-13 2.13697e-13 3.37746e-13 5.31537e-13 8.32964e-13 1.29978e-12 2.0196e-12 3.12472e-12 4.81402e-12 7.38507e-12 1.12811e-11 1.71594e-11 2.59897e-11 3.91969e-11 5.88644e-11 8.80247e-11 1.31071e-10 1.9434e-10 2.86924e-10 4.21815e-10 6.17488e-10 9.00092e-10 1.30646e-09 1.88824e-09 2.7175e-09 3.89434e-09 5.55713e-09 7.89624e-09 1.11723e-08 1.57406e-08 2.20828e-08 3.08493e-08 4.29134e-08 5.94431e-08 8.19923e-08 1.12619e-07 1.54035e-07 2.09798e-07 2.84553e-07 3.84338e-07 5.16961e-07 6.92482e-07 9.23795e-07 1.22736e-06 1.62412e-06 2.14056e-06 2.8101e-06 3.67475e-06 4.78708e-06 6.21274e-06 8.03338e-06 1.03503e-05 1.32889e-05 1.7004e-05 2.16862e-05 2.75699e-05 3.49426e-05 4.41564e-05 5.56413e-05 6.99219e-05 8.76358e-05 0.000109557 0.00013662 0.000169951 0.000210902 0.000261086 0.000322415 0.000397145 0.000487917 0.000597795 0.000730306 0.000889462 0.00107978 0.00130629 0.00157449 0.00189032 0.00226005 0.00269022 0.00318741 0.00375808 0.00440834 0.00514364 0.00596846 0.006886 0.00789782 0.00900348 0.0102003 0.011483 0.0128435 0.0142709 0.0157515 0.0172687 0.0188034 0.0203343 0.0218384 0.0232918 0.0246699 0.0259487 0.0271051 0.0281182 0.0289695 0.0296437 0.0301295 0.0304194 0.0305106 0.0304046 0.0301069 0.0296273 0.0289788 0.0281777 0.0272422 0.0261925 0.0250493 0.023834 0.0225671 0.0212684 0.0199563 0.0186473 0.0173558 0.0160942 0.0148727 0.0136992 0.0125798 0.0115185 0.0105179 0.00957906 0.00870203 0.00788584 0.00712885 0.00642891 0.00578352 0.00518996 0.00464542 0.00414704 0.00369202 0.00327759 0.00290111 0.00256001 0.00225184 0.00197426 0.00172504 0.00150201 0.00130312 0.00112643 0.000970038 0.00083217 0.000711125 0.000605293 0.000513158 0.000433294 0.000364371 0.000305157 0.000254511 0.000211391 0.000174845 0.000144012 0.000118119 9.64745e-05 7.84639e-05 6.35463e-05 5.12473e-05 4.11538e-05 3.29084e-05 2.62034e-05 2.07761e-05 1.6403e-05 1.28954e-05 1.00948e-05 7.86894e-06 6.10779e-06 4.72068e-06 3.63308e-06 2.78418e-06 2.12457e-06 1.61434e-06 1.22144e-06 9.20231e-07 6.90357e-07 5.15705e-07 3.83602e-07 2.84125e-07 2.09551e-07 1.53894e-07 1.12539e-07 8.19475e-08;
   (35489133) 2.19993e-15 3.58217e-15 5.80811e-15 9.37723e-15 1.50751e-14 2.41323e-14 3.84671e-14 6.10566e-14 9.64989e-14 1.51868e-13 2.37989e-13 3.71366e-13 5.77029e-13 8.92783e-13 1.37544e-12 2.11002e-12 3.22317e-12 4.90269e-12 7.42564e-12 1.11991e-11 1.68184e-11 2.51499e-11 3.74488e-11 5.55253e-11 8.19778e-11 1.20518e-10 1.76424e-10 2.57166e-10 3.73269e-10 5.39481e-10 7.76407e-10 1.11261e-09 1.58767e-09 2.2559e-09 3.19178e-09 4.4967e-09 6.30823e-09 8.81203e-09 1.22572e-08 1.69768e-08 2.34141e-08 3.21548e-08 4.39714e-08 5.9875e-08 8.11844e-08 1.09611e-07 1.47364e-07 1.97278e-07 2.62982e-07 3.49083e-07 4.61419e-07 6.07323e-07 7.96001e-07 1.0389e-06 1.35025e-06 1.74757e-06 2.25236e-06 2.89095e-06 3.69527e-06 4.70411e-06 5.96401e-06 7.53102e-06 9.47209e-06 1.18667e-05 1.48096e-05 1.84128e-05 2.2808e-05 2.81513e-05 3.46254e-05 4.2446e-05 5.18657e-05 6.31823e-05 7.67441e-05 9.29647e-05 0.000112329 0.00013541 0.000162888 0.000195566 0.000234403 0.000280535 0.000335317 0.000400359 0.00047758 0.000569263 0.000678127 0.00080738 0.000960832 0.00114295 0.00135897 0.00161502 0.00191814 0.00227647 0.00269917 0.0031966 0.00378014 0.0044622 0.00525595 0.00617499 0.00723286 0.00844242 0.00981475 0.0113585 0.0130784 0.0149738 0.0170373 0.0192539 0.0215985 0.024037 0.0265249 0.0290078 0.0314228 0.0337015 0.0357718 0.0375627 0.0390075 0.0400497 0.0406451 0.0407664 0.0404047 0.0395708 0.0382948 0.036623 0.0346162 0.0323443 0.0298835 0.0273094 0.0246947 0.0221054 0.0195975 0.0172162 0.0149956 0.0129579 0.0111154 0.00947142 0.00802236 0.00675875 0.00566758 0.00473342 0.00393976 0.00326991 0.00270776 0.00223825 0.00184766 0.00152376 0.00125584 0.00103462 0.000852197 0.000701883 0.000578072 0.000476094 0.000392084 0.000322848 0.000265763 0.000218672 0.000179809 0.000147725 0.000121235 9.93627e-05 8.13092e-05 6.64157e-05 5.41406e-05 4.40346e-05 3.57265e-05 2.89083e-05 2.33247e-05 1.87625e-05 1.50445e-05 1.20232e-05 9.57551e-06 7.59878e-06 6.00801e-06 4.73244e-06 3.71343e-06 2.90244e-06 2.25958e-06 1.75205e-06 1.35303e-06 1.04061e-06 7.97032e-07 6.07945e-07 4.61788e-07 3.49302e-07 2.63111e-07 1.97353e-07 1.47406e-07 1.09635e-07 8.11982e-08 5.98827e-08 4.39757e-08 3.21574e-08 2.34154e-08;
   (123) 4.38654e-15 4.38654e-15 4.38654e-15 4.38654e-15 4.38654e-15 4.38654e-15 4.38654e-15 4.38654e-15 4.38654e-15 4.38654e-15 4.38654e-15 4.38654e-15 4.38654e-15 4.38654e-15 4.38654e-15 4.38654e-15 4.38654e-15 4.38654e-15 4.38654e-15 4.38654e-15 4.38654e-15 4.70974e-15 7.70162e-15 1.25406e-14 2.03332e-14 3.2828e-14 5.27755e-14 8.44836e-14 1.34667e-13 2.13749e-13 3.37828e-13 5.31667e-13 8.3317e-13 1.30011e-12 2.02011e-12 3.12553e-12 4.81529e-12 7.3871e-12 1.12844e-11 1.71646e-11 2.59982e-11 3.92108e-11 5.88877e-11 8.80642e-11 1.31139e-10 1.94457e-10 2.8713e-10 4.22182e-10 6.18143e-10 9.01268e-10 1.30858e-09 1.89205e-09 2.72434e-09 3.90661e-09 5.57903e-09 7.93512e-09 1.1241e-08 1.5861e-08 2.22926e-08 3.1212e-08 4.35361e-08 6.05037e-08 8.37843e-08 1.15622e-07 1.59027e-07 2.18028e-07 2.98008e-07 4.0615e-07 5.52024e-07 7.48365e-07 1.0121e-06 1.36572e-06 1.83904e-06 2.47154e-06 3.31544e-06 4.43964e-06 5.93484e-06 7.9201e-06 1.05512e-05 1.40309e-05 1.86226e-05 2.46657e-05 3.25959e-05 4.29684e-05 5.64857e-05 7.40305e-05 9.67024e-05 0.000125859 0.000163161 0.00021062 0.000270646 0.000346095 0.000440309 0.000557151 0.000701024 0.000876874 0.00109017 0.00134684 0.0016532 0.00201584 0.00244143 0.00293653 0.00350734 0.0041594 0.00489732 0.00572437 0.00664223 0.00765061 0.00874695 0.00992625 0.0111808 0.0125003 0.0138717 0.0152793 0.0167052 0.0181298 0.019532 0.02089 0.0221817 0.0233859 0.0244827 0.0254539 0.0262843 0.0269615 0.0274768 0.0278253 0.0280057 0.0280206 0.0278762 0.0275816 0.0271489 0.0265919 0.0259263 0.0251684 0.0243349 0.0234421 0.0225056 0.0215399 0.0205577 0.0195706 0.0185878 0.0176172 0.0166648 0.0157352 0.0148316 0.013956 0.0131097 0.0122932 0.0115064 0.0107492 0.0100211 0.00932159 0.00865043 0.00800726 0.00739191 0.00680434 0.00624459 0.00571274 0.00520893 0.00473326 0.00428579 0.00386646 0.00347512 0.00311147 0.00277503 0.0024652 0.0021812 0.00192212 0.00168689 0.00147437 0.00128328 0.00111232 0.0009601 0.00082524 0.000706341 0.000602026 0.000510951 0.00043182 0.0003634 0.000304526 0.000254108 0.000211138 0.00017469 0.00014392 0.000118067 9.64468e-05 7.84509e-05 6.35418e-05 5.12475e-05 4.11563e-05 3.29118e-05;
   (79278774) 1.51448e-13 2.36324e-13 3.672e-13 5.68129e-13 8.75275e-13 1.34274e-12 2.05111e-12 3.11989e-12 4.72541e-12 7.1267e-12 1.07026e-11 1.60045e-11 2.3831e-11 3.53343e-11 5.21676e-11 7.66931e-11 1.12269e-10 1.63651e-10 2.37535e-10 3.43306e-10 4.94077e-10 7.08026e-10 1.01033e-09 1.43556e-09 2.03113e-09 2.86154e-09 4.01429e-09 5.60755e-09 7.80001e-09 1.08034e-08 1.48995e-08 2.04616e-08 2.79808e-08 3.81006e-08 5.16597e-08 6.97468e-08 9.37664e-08 1.25522e-07 1.67319e-07 2.22086e-07 2.93531e-07 3.86311e-07 5.06255e-07 6.60629e-07 8.58429e-07 1.11072e-06 1.43107e-06 1.83601e-06 2.3456e-06 2.98395e-06 3.78006e-06 4.76842e-06 5.99003e-06 7.49311e-06 9.33437e-06 1.15799e-05 1.43064e-05 1.76023e-05 2.15698e-05 2.6325e-05 3.20007e-05 3.87471e-05 4.67343e-05 5.6153e-05 6.7219e-05 8.0172e-05 9.52833e-05 0.000112853 0.000133219 0.000156762 0.000183905 0.000215131 0.000250977 0.000292065 0.00033909 0.000392867 0.000454308 0.000524492 0.000604655 0.000696238 0.000800942 0.000920716 0.00105786 0.00121511 0.00139559 0.00160299 0.00184166 0.00211656 0.00243351 0.00279917 0.00322118 0.0037082 0.00426988 0.00491694 0.00566106 0.00651455 0.0074902 0.00860067 0.00985811 0.0112725 0.0128523 0.0146006 0.0165164 0.0185909 0.0208082 0.0231417 0.0255558 0.0280038 0.0304288 0.0327664 0.0349454 0.0368917 0.0385334 0.0398025 0.040644 0.0410145 0.0408908 0.0402686 0.0391652 0.0376173 0.0356795 0.0334204 0.0309173 0.0282521 0.0255065 0.0227565 0.0200695 0.0175019 0.015098 0.0128886 0.0108924 0.00911738 0.00756205 0.00621781 0.00507074 0.00410342 0.00329669 0.00263066 0.00208599 0.00164445 0.00128938 0.00100597 0.000781285 0.000604276 0.000465617 0.000357561 0.000273753 0.000209029 0.000159232 0.00012105 9.18671e-05 6.96142e-05 5.26904e-05 3.9842e-05 3.01043e-05 2.27339e-05 1.71611e-05 1.29506e-05 9.77127e-06 7.37137e-06 5.55996e-06 4.19288e-06 3.16112e-06 2.38232e-06 1.79446e-06 1.35071e-06 1.01576e-06 7.63023e-07 5.72384e-07 4.28703e-07 3.20493e-07 2.39106e-07 1.77978e-07 1.32144e-07 9.78484e-08 7.22433e-08 5.31736e-08 3.90117e-08 2.85243e-08 2.07835e-08 1.50885e-08 1.09135e-08 7.86344e-09 5.64399e-09 4.03501e-09 2.87318e-09 2.03762e-09 1.43917e-09 1.01231e-09 7.09108e-10 4.94658e-10;
   (1) 1.71106e-15 2.78613e-15 4.51738e-15 7.29341e-15 1.17251e-14 1.87696e-14 2.99189e-14 4.74885e-14 7.50547e-14 1.18119e-13 1.85103e-13 2.8884e-13 4.488e-13 6.9438e-13 1.06979e-12 1.64112e-12 2.50691e-12 3.8132e-12 5.7755e-12 8.71041e-12 1.3081e-11 1.95611e-11 2.91269e-11 4.31863e-11 6.37606e-11 9.3736e-11 1.37219e-10 2.00018e-10 2.9032e-10 4.19597e-10 6.03873e-10 8.65372e-10 1.23485e-09 1.7546e-09 2.48251e-09 3.49748e-09 4.90643e-09 6.85381e-09 9.53343e-09 1.32045e-08 1.82116e-08 2.50104e-08 3.42016e-08 4.65723e-08 6.31488e-08 8.52625e-08 1.14632e-07 1.53465e-07 2.04587e-07 2.71586e-07 3.59009e-07 4.72573e-07 6.19456e-07 8.0859e-07 1.05106e-06 1.36059e-06 1.75398e-06 2.25183e-06 2.87916e-06 3.66643e-06 4.65019e-06 5.87461e-06 7.39223e-06 9.26613e-06 1.1571e-05 1.43954e-05 1.78439e-05 2.20403e-05 2.71296e-05 3.32825e-05 4.06986e-05 4.96138e-05 6.03022e-05 7.30866e-05 8.83444e-05 0.000106518 0.000128129 0.000153783 0.000184199 0.000220215 0.000262819 0.000313172 0.000372636 0.000442811 0.000525569 0.000623116 0.000738003 0.000873222 0.00103224 0.00121908 0.00143835 0.00169531 0.00199599 0.00234713 0.00275626 0.0032317 0.00378251 0.00441828 0.00514917 0.00598543 0.00693713 0.00801373 0.00922307 0.0105715 0.0120621 0.0136939 0.0154617 0.0173539 0.0193529 0.0214337 0.0235646 0.0257059 0.0278132 0.0298369 0.0317243 0.0334226 0.0348814 0.0360555 0.036907 0.0374077 0.0375413 0.0373037 0.0367036 0.0357614 0.0345079 0.032983 0.031232 0.0293049 0.0272524 0.0251246 0.0229679 0.0208255 0.0187335 0.0167233 0.0148186 0.0130371 0.0113906 0.00988577 0.0085245 0.0073049 0.0062219 0.00526842 0.00443562 0.00371376 0.0030925 0.00256158 0.00211087 0.00173065 0.0014119 0.0011463 0.000926284 0.000745054 0.000596615 0.00047569 0.000377707 0.000298711 0.000235346 0.000184762 0.000144566 0.000112762 8.76995e-05 6.80284e-05 5.26408e-05 4.06445e-05 3.13192e-05 2.40895e-05 1.84979e-05 1.41822e-05 1.08576e-05 8.30068e-06 6.33711e-06 4.83139e-06 3.67815e-06 2.79598e-06 2.12202e-06 1.60775e-06 1.21587e-06 9.17696e-07 6.91172e-07 5.19369e-07 3.89318e-07 2.91071e-07 2.17022e-07 1.6134e-07 1.1958e-07 8.8349e-08 6.50592e-08 4.77458e-08 3.49166e-08 2.54424e-08 1.84707e-08;
}
probability (T | I) {
   (0) 0.00297619 0.00297619 0.00297619 0.00297619 0.00297619 0.00297619 0.00297619 0.00297619 0.00297619 0.00297619 0.00297619 0.00297619 0.00297619 0.00297619 0.00297619 0.00297619 0.00297619 0.00297619 0.00297619 0.00297619 0.00297619 0.00297619 0.00297619 0.00297619 0.00297619 0.00297619 0.00297619 0.00297619 0.00297619 0.00297619 0.00297619 0.00297619 0.00297619 0.00297619 0.00297619 0.00297619 0.00297619 0.00297619 0.00297619 0.00297619 0.00297619 0.00297619 0.00297619 0.00297619 0.00297619 0.00297619 0.00297619 0.00297619 0.00297619 0.00297619 0.00297619 0.00297619 0.00297619 0.00297619 0.00297619 0.00297619 0.00297619 0.00297619 0.00297619 0.00297619 0.00297619 0.00297619 0.00297619 0.00297619 0.00297619 0.00297619 0.00297619 0.00297619 0.00297619 0.00297619 0.00297619 0.00297619 0.00297619 0.00297619 0.00297619 0.00297619 0.00297619 0.00297619 0.00297619 0.00297619 0.00297619 0.00297619 0.00297619 0.00297619 0.00297619 0.00297619 0.00297619 0.00297619 0.00297619 0.00297619 0.00297619 0.00297619 0.00297619 0.00297619 0.00297619 0.00297619 0.00297619 0.00297619 0.00297619 0.00297619 0.00297619 0.00297619 0.00297619 0.00297619 0.00297619 0.00297619 0.00297619 0.00297619 0.00297619 0.00297619 0.00297619 0.00297619 0.00297619 0.00297619 0.00297619 0.00297619 0.00297619 0.00297619 0.00297619 0.00297619 0.00297619 0.00297619 0.00297619 0.00297619 0.00297619 0.00297619 0.00297619 0.00297619 0.00297619 0.00297619 0.00297619 0.00297619 0.00297619 0.00297619 0.00297619 0.00297619 0.00297619 0.00297619 0.00297619 0.00297619 0.00297619 0.00297619 0.00297619 0.00297619 0.00297619 0.00297619 0.00297619 0.00297619 0.00297619 0.00297619 0.00297619 0.00297619 0.00297619 0.00297619 0.00297619 0.00297619 0.00297619 0.00297619 0.00297619 0.00297619 0.00297619 0.00297619 0.00297619 0.00297619 0.00297619 0.00297619 0.00297619 0.00297619 0.00297619 0.00297619 0.00297619 0.00297619 0.00297619 0.00297619 0.00297619 0.00297619 0.00297619 0.00297619 0.00297619 0.00297619 0.00297619 0.00297619 0.00297619 0.00297619 0.00297619 0.00297619 0.00297619 0.00297619 0.00297619 0.00297619 0.00297619 0.00297619 0.00297619 0.00297619 0.00297619 0.00297619 0.00297619 0.00297619 0.00297619 0.00297619 0.00297619 0.00297619 0.00297619 0.00297619 0.00297619 0.00297619 0.00297619 0.00297619 0.00297619 0.00297619 0.00297619 0.00297619 0.00297619 0.00297619 0.00297619 0.00297619 0.00297619 0.00297619 0.00297619 0.00297619 0.00297619 0.00297619 0.00297619 0.00297619 0.00297619 0.00297619 0.00297619 0.00297619 0.00297619 0.00297619 0.00297619 0.00297619 0.00297619 0.00297619 0.00297619 0.00297619 0.00297619 0.00297619 0.00297619 0.00297619 0.00297619 0.00297619 0.00297619 0.00297619 0.00297619 0.00297619 0.00297619 0.00297619 0.00297619 0.00297619 0.00297619 0.00297619 0.00297619 0.00297619 0.00297619 0.00297619 0.00297619 0.00297619 0.00297619 0.00297619 0.00297619 0.00297619 0.00297619 0.00297619 0.00297619 0.00297619 0.00297619 0.00297619 0.00297619 0.00297619 0.00297619 0.00297619 0.00297619 0.00297619 0.00297619 0.00297619 0.00297619 0.00297619 0.00297619 0.00297619 0.00297619 0.00297619 0.00297619 0.00297619 0.00297619 0.00297619 0.00297619 0.00297619 0.00297619 0.00297619 0.00297619 0.00297619 0.00297619 0.00297619 0.00297619 0.00297619 0.00297619 0.00297619 0.00297619 0.00297619 0.00297619 0.00297619 0.00297619 0.00297619 0.00297619 0.00297619 0.00297619 0.00297619 0.00297619 0.00297619 0.00297619 0.00297619 0.00297619 0.00297619 0.00297619 0.00297619 0.00297619 0.00297619 0.00297619 0.00297619 0.00297619 0.00297619 0.00297619 0.00297619 0.00297619 0.00297619 0.00297619 0.00297619 0.00297619 0.00297619 0.00297619 0.00297619 0.00297619 0.00297619 0.00297619 0.00297619;
   (314591) 2.29964e-27 2.29964e-27 2.29964e-27 2.29964e-27 2.29964e-27 2.29964e-27 2.29964e-27 2.29964e-27 2.29964e-27 2.29964e-27 2.29964e-27 2.29964e-27 2.29964e-27 2.29964e-27 2.29964e-27 2.29964e-27 2.29964e-27 2.29964e-27 2.29964e-27 2.29964e-27 2.29964e-27 2.29964e-27 2.29964e-27 2.29964e-27 2.29964e-27 2.29964e-27 2.29964e-27 2.29964e-27 2.29964e-27 2.29964e-27 2.29964e-27 2.29964e-27 2.29964e-27 2.29964e-27 2.29964e-27 2.29964e-27 2.29964e-27 2.29964e-27 2.29964e-27 2.29964e-27 2.29964e-27 2.29964e-27 2.29964e-27 2.29964e-27 2.29964e-27 2.29964e-27 2.29964e-27 2.29964e-27 2.29964e-27 2.29964e-27 2.29964e-27 2.29964e-27 2.29964e-27 2.29964e-27 2.29964e-27 2.29964e-27 2.29964e-27 2.29964e-27 2.29964e-27 2.29964e-27 2.29964e-27 2.29964e-27 2.29964e-27 2.29964e-27 2.29964e-27 2.29964e-27 2.29964e-27 2.29964e-27 2.29964e-27 2.29964e-27 2.29964e-27 2.29964e-27 2.29964e-27 2.29964e-27 2.29964e-27 2.29964e-27 2.29964e-27 2.29964e-27 2.29964e-27 2.29964e-27 2.29964e-27 2.29964e-27 2.29964e-27 2.29964e-27 2.29964e-27 2.29964e-27 2.29964e-27 2.29964e-27 2.29964e-27 2.29964e-27 2.29964e-27 2.29964e-27 2.29964e-27 2.29964e-27 2.29964e-27 2.29964e-27 2.29964e-27 2.29964e-27 2.29964e-27 2.29964e-27 2.29964e-27 2.29964e-27 2.29964e-27 2.29964e-27 2.29964e-27 2.29964e-27 2.29964e-27 2.29964e-27 2.29964e-27 2.29964e-27 2.29964e-27 2.29964e-27 2.29964e-27 2.29964e-27 2.29964e-27 2.29964e-27 2.29964e-27 2.29964e-27 2.29964e-27 2.29972e-27 2.29998e-27 2.30071e-27 2.30288e-27 2.30885e-27 2.32376e-27 2.35799e-27 2.43082e-27 2.5755e-27 2.84806e-27 3.34184e-27 4.20992e-27 5.67764e-27 7.9635e-27 1.09396e-26 1.36093e-26 1.43812e-26 1.27149e-26 9.80918e-27 7.11511e-27 5.20837e-27 4.0197e-27 3.31755e-27 2.91081e-27 2.67529e-27 2.53609e-27 2.45038e-27 2.3952e-27 2.35879e-27 2.33487e-27 2.31962e-27 2.31033e-27 2.30497e-27 2.30212e-27 2.30071e-27 2.30006e-27 2.29979e-27 2.29969e-27 2.29966e-27 2.29965e-27 2.29964e-27 2.29964e-27 2.29964e-27 2.29964e-27 2.29964e-27 2.29964e-27 2.29964e-27 2.29964e-27 2.29964e-27 2.29964e-27 2.29964e-27 2.29964e-27 5.3253e-26 1.14803e-24 2.26985e-23 4.11598e-22 6.84517e-21 1.04407e-19 1.46051e-18 1.87377e-17 2.20476e-16 2.37924e-15 2.35478e-14 2.13745e-13 1.7794e-12 1.35858e-11 9.51331e-11 6.10957e-10 3.59852e-09 1.94388e-08 9.63052e-08 4.37585e-07 1.82352e-06 6.96931e-06 2.44289e-05 7.85328e-05 0.000231543 0.000626104 0.00155272 0.00353164 0.00736701 0.0140942 0.0247299 0.0397958 0.0587336 0.0795003 0.0986927 0.112366 0.117332 0.112366 0.0986927 0.0795003 0.0587336 0.0397958 0.0247299 0.0140942 0.00736701 0.00353164 0.00155272 0.000626104 0.000231543 7.85328e-05 2.44289e-05 6.96931e-06 1.82352e-06 4.37585e-07 9.63052e-08 1.94388e-08 3.59852e-09 6.10957e-10 9.51331e-11 1.35858e-11 1.7794e-12 2.13745e-13 2.35478e-14 2.37924e-15 2.20476e-16 1.87377e-17 1.46051e-18 1.04407e-19 6.84517e-21 4.11598e-22 2.26985e-23 1.14803e-24 5.3253e-26 2.29964e-27 2.29964e-27 2.29964e-27 2.29964e-27 2.29964e-27 2.29964e-27 2.29964e-27 2.29964e-27 2.29964e-27 2.29964e-27 2.29964e-27 2.29964e-27 2.29964e-27 2.29964e-27 2.29964e-27 2.29964e-27 2.29964e-27 2.29964e-27 2.29964e-27 2.29964e-27 2.29964e-27 2.29964e-27 2.29964e-27 2.29964e-27 2.29964e-27 2.29964e-27 2.29964e-27 2.29964e-27 2.29964e-27 2.29964e-27 2.29964e-27 2.29964e-27 2.29964e-27 2.29964e-27 2.29964e-27 2.29964e-27 2.29964e-27 2.29964e-27 2.29964e-27 2.29964e-27 2.29964e-27 2.29964e-27 2.29964e-27 2.29964e-27 2.29964e-27 2.29964e-27 2.29964e-27 2.29964e-27 2.29964e-27 2.29964e-27 2.29964e-27 2.29964e-27 2.29964e-27 2.29964e-27 2.29964e-27 2.29964e-27 2.29964e-27 2.29964e-27 2.29964e-27 2.29964e-27 2.29964e-27 2.29964e-27 2.29964e-27 2.29964e-27 2.29964e-27 2.29964e-27 2.29964e-27 2.29964e-27 2.29964e-27 2.29964e-27 2.29964e-27 2.29964e-27 2.29964e-27 2.29964e-27 2.29964e-27 2.29964e-27 2.29964e-27 2.29964e-27 2.29964e-27 2.29964e-27 2.29964e-27 2.29964e-27 2.29964e-27 2.29964e-27 2.29964e-27 2.29964e-27 2.29964e-27 2.29964e-27 2.29964e-27 2.29964e-27 2.29964e-27 2.29964e-27;
   (1019107402) 2.29964e-27 2.29964e-27 2.29964e-27 2.29964e-27 2.29964e-27 2.29964e-27 2.29964e-27 2.29964e-27 2.29964e-27 2.29964e-27 2.29964e-27 2.29964e-27 2.29964e-27 2.29964e-27 2.29964e-27 2.29964e-27 2.29964e-27 2.29964e-27 2.29964e-27 2.29964e-27 2.29964e-27 2.29964e-27 2.29964e-27 2.29964e-27 2.29964e-27 2.29964e-27 2.29964e-27 2.29964e-27 2.29964e-27 2.29964e-27 2.29964e-27 2.29964e-27 2.29964e-27 2.29964e-27 2.29964e-27 2.29964e-27 2.29964e-27 2.29964e-27 2.29964e-27 2.29964e-27 2.29964e-27 2.29964e-27 2.29964e-27 2.29964e-27 2.29964e-27 2.29964e-27 2.29964e-27 2.29964e-27 2.29964e-27 2.29964e-27 2.29964e-27 2.29964e-27 2.29964e-27 2.29964e-27 2.29964e-27 2.29964e-27 2.29964e-27 2.29964e-27 2.29964e-27 2.29964e-27 2.29964e-27 2.29964e-27 2.29964e-27 2.29964e-27 2.29964e-27 2.29964e-27 2.29964e-27 2.29964e-27 2.29964e-27 2.29964e-27 2.29964e-27 2.29964e-27 2.29964e-27 2.29964e-27 2.29964e-27 2.29964e-27 2.29964e-27 2.29964e-27 2.29964e-27 2.29964e-27 2.29964e-27 2.29964e-27 2.29964e-27 2.29964e-27 2.29964e-27 2.29964e-27 2.29964e-27 2.29964e-27 2.29964e-27 2.29964e-27 2.29964e-27 2.29964e-27 2.29964e-27 2.29964e-27 2.29964e-27 2.29964e-27 2.29964e-27 2.29964e-27 2.29964e-27 2.29964e-27 2.29964e-27 2.29964e-27 2.29964e-27 2.29964e-27 2.29964e-27 2.29964e-27 2.29964e-27 2.29964e-27 2.29964e-27 2.29964e-27 2.29964e-27 2.29964e-27 2.29964e-27 2.29964e-27 2.29964e-27 2.29964e-27 2.29964e-27 2.29964e-27 2.29964e-27 2.29964e-27 2.29965e-27 2.29968e-27 2.29979e-27 2.30011e-27 2.30103e-27 2.30345e-27 2.30925e-27 2.32199e-27 2.34766e-27 2.39529e-27 2.47694e-27 2.60647e-27 2.79581e-27 3.04769e-27 3.34391e-27 3.63512e-27 3.84538e-27 3.90336e-27 3.78631e-27 3.53687e-27 3.23402e-27 2.94822e-27 2.71778e-27 2.55161e-27 2.44182e-27 2.37466e-27 2.33654e-27 2.3165e-27 2.30677e-27 2.30243e-27 2.30065e-27 2.29997e-27 2.29974e-27 2.29967e-27 2.29965e-27 2.29964e-27 2.29964e-27 2.29964e-27 2.29964e-27 2.29964e-27 2.29964e-27 2.29964e-27 2.29964e-27 2.29964e-27 2.29964e-27 2.29964e-27 2.29964e-27 2.29964e-27 2.29964e-27 2.29964e-27 2.29964e-27 2.29964e-27 2.29964e-27 5.3253e-26 1.14803e-24 2.26985e-23 4.11598e-22 6.84517e-21 1.04407e-19 1.46051e-18 1.87377e-17 2.20476e-16 2.37924e-15 2.35478e-14 2.13745e-13 1.7794e-12 1.35858e-11 9.51331e-11 6.10957e-10 3.59852e-09 1.94388e-08 9.63052e-08 4.37585e-07 1.82352e-06 6.96931e-06 2.44289e-05 7.85328e-05 0.000231543 0.000626104 0.00155272 0.00353164 0.00736701 0.0140942 0.0247299 0.0397958 0.0587336 0.0795003 0.0986927 0.112366 0.117332 0.112366 0.0986927 0.0795003 0.0587336 0.0397958 0.0247299 0.0140942 0.00736701 0.00353164 0.00155272 0.000626104 0.000231543 7.85328e-05 2.44289e-05 6.96931e-06 1.82352e-06 4.37585e-07 9.63052e-08 1.94388e-08 3.59852e-09 6.10957e-10 9.51331e-11 1.35858e-11 1.7794e-12 2.13745e-13 2.35478e-14 2.37924e-15 2.20476e-16 1.87377e-17 1.46051e-18 1.04407e-19 6.84517e-21 4.11598e-22 2.26985e-23 1.14803e-24 5.3253e-26 2.29964e-27 2.29964e-27 2.29964e-27 2.29964e-27 2.29964e-27 2.29964e-27 2.29964e-27 2.29964e-27 2.29964e-27 2.29964e-27 2.29964e-27 2.29964e-27 2.29964e-27 2.29964e-27 2.29964e-27 2.29964e-27 2.29964e-27 2.29964e-27 2.29964e-27 2.29964e-27 2.29964e-27 2.29964e-27 2.29964e-27 2.29964e-27 2.29964e-27 2.29964e-27 2.29964e-27 2.29964e-27 2.29964e-27 2.29964e-27 2.29964e-27 2.29964e-27 2.29964e-27 2.29964e-27 2.29964e-27 2.29964e-27 2.29964e-27 2.29964e-27 2.29964e-27 2.29964e-27 2.29964e-27 2.29964e-27 2.29964e-27 2.29964e-27 2.29964e-27 2.29964e-27 2.29964e-27 2.29964e-27 2.29964e-27 2.29964e-27 2.29964e-27 2.29964e-27 2.29964e-27 2.29964e-27 2.29964e-27 2.29964e-27 2.29964e-27 2.29964e-27 2.29964e-27 2.29964e-27 2.29964e-27 2.29964e-27 2.29964e-27 2.29964e-27 2.29964e-27 2.29964e-27 2.29964e-27 2.29964e-27 2.29964e-27 2.29964e-27 2.29964e-27 2.29964e-27 2.29964e-27 2.29964e-27 2.29964e-27 2.29964e-27 2.29964e-27 2.29964e-27 2.29964e-27 2.29964e-27 2.29964e-27 2.29964e-27 2.29964e-27 2.29964e-27 2.29964e-27 2.29964e-27 2.29964e-27 2.29964e-27 2.29964e-27 2.29964e-27;
   (2964414) 2.29964e-27 2.29964e-27 2.29964e-27 2.29964e-27 2.29964e-27 2.29964e-27 2.29964e-27 2.29964e-27 2.29964e-27 2.29964e-27 2.29964e-27 2.29964e-27 2.29964e-27 2.29964e-27 2.29964e-27 2.29964e-27 2.29964e-27 2.29964e-27 2.29964e-27 2.29964e-27 2.29964e-27 2.29964e-27 2.29964e-27 2.29964e-27 2.29964e-27 2.29964e-27 2.29964e-27 2.29964e-27 2.29964e-27 5.3253e-26 1.14803e-24 2.26985e-23 4.11598e-22 6.84517e-21 1.04407e-19 1.46051e-18 1.87377e-17 2.20476e-16 2.37924e-15 2.35478e-14 2.13745e-13 1.7794e-12 1.35858e-11 9.51331e-11 6.10957e-10 3.59852e-09 1.94388e-08 9.63052e-08 4.37585e-07 1.82352e-06 6.96931e-06 2.44289e-05 7.85328e-05 0.000231543 0.000626104 0.00155272 0.00353164 0.00736701 0.0140942 0.0247299 0.0397958 0.0587336 0.0795003 0.0986927 0.112366 0.117332 0.112366 0.0986927 0.0795003 0.0587336 0.0397958 0.0247299 0.0140942 0.00736701 0.00353164 0.00155272 0.000626104 0.000231543 7.85328e-05 2.44289e-05 6.96931e-06 1.82352e-06 4.37585e-07 9.63052e-08 1.94388e-08 3.59852e-09 6.10957e-10 9.51331e-11 1.35858e-11 1.7794e-12 2.13745e-13 2.35478e-14 2.37924e-15 2.20476e-16 1.87377e-17 1.46051e-18 1.04407e-19 6.84517e-21 4.11598e-22 2.26985e-23 1.14803e-24 5.3253e-26 2.29964e-27 2.29964e-27 2.29964e-27 2.29964e-27 2.29964e-27 2.29964e-27 2.29964e-27 2.29964e-27 2.29964e-27 2.29964e-27 2.29964e-27 2.29964e-27 2.29964e-27 2.29964e-27 2.29964e-27 2.29964e-27 2.29964e-27 2.29967e-27 2.29976e-27 2.30008e-27 2.30102e-27 2.30362e-27 2.31046e-27 2.32679e-27 2.36298e-27 2.43751e-27 2.58144e-27 2.84504e-27 3.30849e-27 4.0949e-27 5.37086e-27 7.27813e-27 9.70034e-27 1.19206e-26 1.27534e-26 1.16124e-26 9.23442e-27 6.82347e-27 5.01533e-27 3.84967e-27 3.15148e-27 2.7497e-27 2.52629e-27 2.40736e-27 2.3475e-27 2.31941e-27 2.3072e-27 2.30229e-27 2.30052e-27 2.29993e-27 2.29972e-27 2.29964e-27 2.29964e-27 2.29964e-27 2.29964e-27 2.29964e-27 2.29964e-27 2.29964e-27 2.29964e-27 2.29964e-27 2.29964e-27 2.29964e-27 2.29964e-27 2.29964e-27 2.29964e-27 2.29964e-27 2.29964e-27 2.29964e-27 2.29964e-27 2.29964e-27 2.29964e-27 2.29964e-27 2.29964e-27 2.29964e-27 2.29964e-27 2.29964e-27 2.29964e-27 2.29964e-27 2.29964e-27 2.29964e-27 2.29964e-27 2.29964e-27 2.29964e-27 2.29964e-27 2.29964e-27 2.29964e-27 2.29964e-27 2.29964e-27 2.29964e-27 2.29964e-27 2.29964e-27 2.29964e-27 2.29964e-27 2.29964e-27 2.29964e-27 2.29964e-27 2.29964e-27 2.29964e-27 2.29964e-27 2.29964e-27 2.29964e-27 2.29964e-27 2.29964e-27 2.29964e-27 2.29964e-27 2.29964e-27 2.29964e-27 2.29964e-27 2.29964e-27 2.29964e-27 2.29964e-27 2.29964e-27 2.29964e-27 2.29964e-27 2.29964e-27 2.29964e-27 2.29964e-27 2.29964e-27 2.29964e-27 2.29964e-27 2.29964e-27 2.29964e-27 2.29964e-27 2.29964e-27 2.29964e-27 2.29964e-27 2.29964e-27 2.29964e-27 2.29964e-27 2.29964e-27 2.29964e-27 2.29964e-27 2.29964e-27 2.29964e-27 2.29964e-27 2.29964e-27 2.29964e-27 2.29964e-27 2.29964e-27 2.29964e-27 2.29964e-27 2.29964e-27 2.29964e-27 2.29964e-27 2.29964e-27 2.29964e-27 2.29964e-27 2.29964e-27 2.29964e-27 2.29964e-27 2.29964e-27 2.29964e-27 2.29964e-27 2.29964e-27 2.29964e-27 2.29964e-27 2.29964e-27 2.29964e-27 2.29964e-27 2.29964e-27 2.29964e-27 2.29964e-27 2.29964e-27 2.29964e-27 2.29964e-27 2.29964e-27 2.29964e-27 2.29964e-27 2.29964e-27 2.29964e-27 2.29964e-27 2.29964e-27 2.29964e-27 2.29964e-27 2.29964e-27 2.29964e-27 2.29964e-27 2.29964e-27 2.29964e-27 2.29964e-27 2.29964e-27 2.29964e-27 2.29964e-27 2.29964e-27 2.29964e-27 2.29964e-27 2.29964e-27 2.29964e-27 2.29964e-27 2.29964e-27 2.29964e-27 2.29964e-27 2.29964e-27 2.29964e-27 2.29964e-27 2.29964e-27 2.29964e-27 2.29964e-27 2.29964e-27 2.29964e-27 2.29964e-27 2.29964e-27 2.29964e-27 2.29964e-27 2.29964e-27 2.29964e-27 2.29964e-27 2.29964e-27 2.29964e-27 2.29964e-27 2.29964e-27 2.29964e-27 2.29964e-27 2.29964e-27 2.29964e-27 2.29964e-27 2.29964e-27 2.29964e-27 2.29964e-27 2.29964e-27 2.29964e-27 2.29964e-27 2.29964e-27 2.29964e-27 2.29964e-27 2.29964e-27 2.29964e-27 2.29964e-27 2.29964e-27 2.29964e-27 2.29964e-27 2.29964e-27 2.29964e-27 2.29964e-27;
   (9515830) 2.29964e-27 2.29964e-27 2.29964e-27 2.29964e-27 2.29964e-27 2.29964e-27 2.29964e-27 2.29964e-27 2.29964e-27 2.29964e-27 2.29964e-27 2.29964e-27 2.29964e-27 2.29964e-27 2.29964e-27 2.29964e-27 2.29964e-27 2.29964e-27 2.29964e-27 2.29964e-27 2.29964e-27 2.29964e-27 2.29964e-27 2.29964e-27 2.29964e-27 2.29964e-27 2.29964e-27 5.3253e-26 1.14803e-24 2.26985e-23 4.11598e-22 6.84517e-21 1.04407e-19 1.46051e-18 1.87377e-17 2.20476e-16 2.37924e-15 2.35478e-14 2.13745e-13 1.7794e-12 1.35858e-11 9.51331e-11 6.10957e-10 3.59852e-09 1.94388e-08 9.63052e-08 4.37585e-07 1.82352e-06 6.96931e-06 2.44289e-05 7.85328e-05 0.000231543 0.000626104 0.00155272 0.00353164 0.00736701 0.0140942 0.0247299 0.0397958 0.0587336 0.0795003 0.0986927 0.112366 0.117332 0.112366 0.0986927 0.0795003 0.0587336 0.0397958 0.0247299 0.0140942 0.00736701 0.00353164 0.00155272 0.000626104 0.000231543 7.85328e-05 2.44289e-05 6.96931e-06 1.82352e-06 4.37585e-07 9.63052e-08 1.94388e-08 3.59852e-09 6.10957e-10 9.51331e-11 1.35858e-11 1.7794e-12 2.13745e-13 2.35478e-14 2.37924e-15 2.20476e-16 1.87377e-17 1.46051e-18 1.04407e-19 6.84517e-21 4.11598e-22 2.26985e-23 1.14803e-24 5.3253e-26 2.29964e-27 2.29964e-27 2.29964e-27 2.29964e-27 2.29964e-27 2.29964e-27 2.29964e-27 2.29964e-27 2.29964e-27 2.29964e-27 2.29964e-27 2.29964e-27 2.29964e-27 2.29964e-27 2.29964e-27 2.29964e-27 2.29964e-27 2.29964e-27 2.29964e-27 2.29974e-27 2.30008e-27 2.30102e-27 2.3038e-27 2.31128e-27 2.32981e-27 2.37192e-27 2.46068e-27 2.63647e-27 2.9685e-27 3.57656e-27 4.66555e-27 6.54923e-27 9.53651e-27 1.34144e-26 1.66894e-26 1.71861e-26 1.45265e-26 1.06328e-26 7.33674e-27 5.15367e-27 3.86012e-27 3.12786e-27 2.72328e-27 2.50597e-27 2.39419e-27 2.34001e-27 2.3156e-27 2.30544e-27 2.3016e-27 2.30025e-27 2.29981e-27 2.29967e-27 2.29964e-27 2.29964e-27 2.29964e-27 2.29964e-27 2.29964e-27 2.29964e-27 2.29964e-27 2.29964e-27 2.29964e-27 2.29964e-27 2.29964e-27 2.29964e-27 2.29964e-27 2.29964e-27 2.29964e-27 2.29964e-27 2.29964e-27 2.29964e-27 2.29964e-27 2.29964e-27 2.29964e-27 2.29964e-27 2.29964e-27 2.29964e-27 2.29964e-27 2.29964e-27 2.29964e-27 2.29964e-27 2.29964e-27 2.29964e-27 2.29964e-27 2.29964e-27 2.29964e-27 2.29964e-27 2.29964e-27 2.29964e-27 2.29964e-27 2.29964e-27 2.29964e-27 2.29964e-27 2.29964e-27 2.29964e-27 2.29964e-27 2.29964e-27 2.29964e-27 2.29964e-27 2.29964e-27 2.29964e-27 2.29964e-27 2.29964e-27 2.29964e-27 2.29964e-27 2.29964e-27 2.29964e-27 2.29964e-27 2.29964e-27 2.29964e-27 2.29964e-27 2.29964e-27 2.29964e-27 2.29964e-27 2.29964e-27 2.29964e-27 2.29964e-27 2.29964e-27 2.29964e-27 2.29964e-27 2.29964e-27 2.29964e-27 2.29964e-27 2.29964e-27 2.29964e-27 2.29964e-27 2.29964e-27 2.29964e-27 2.29964e-27 2.29964e-27 2.29964e-27 2.29964e-27 2.29964e-27 2.29964e-27 2.29964e-27 2.29964e-27 2.29964e-27 2.29964e-27 2.29964e-27 2.29964e-27 2.29964e-27 2.29964e-27 2.29964e-27 2.29964e-27 2.29964e-27 2.29964e-27 2.29964e-27 2.29964e-27 2.29964e-27 2.29964e-27 2.29964e-27 2.29964e-27 2.29964e-27 2.29964e-27 2.29964e-27 2.29964e-27 2.29964e-27 2.29964e-27 2.29964e-27 2.29964e-27 2.29964e-27 2.29964e-27 2.29964e-27 2.29964e-27 2.29964e-27 2.29964e-27 2.29964e-27 2.29964e-27 2.29964e-27 2.29964e-27 2.29964e-27 2.29964e-27 2.29964e-27 2.29964e-27 2.29964e-27 2.29964e-27 2.29964e-27 2.29964e-27 2.29964e-27 2.29964e-27 2.29964e-27 2.29964e-27 2.29964e-27 2.29964e-27 2.29964e-27 2.29964e-27 2.29964e-27 2.29964e-27 2.29964e-27 2.29964e-27 2.29964e-27 2.29964e-27 2.29964e-27 2.29964e-27 2.29964e-27 2.29964e-27 2.29964e-27 2.29964e-27 2.29964e-27 2.29964e-27 2.29964e-27 2.29964e-27 2.29964e-27 2.29964e-27 2.29964e-27 2.29964e-27 2.29964e-27 2.29964e-27 2.29964e-27 2.29964e-27 2.29964e-27 2.29964e-27 2.29964e-27 2.29964e-27 2.29964e-27 2.29964e-27 2.29964e-27 2.29964e-27 2.29964e-27 2.29964e-27 2.29964e-27 2.29964e-27 2.29964e-27 2.29964e-27 2.29964e-27 2.29964e-27 2.29964e-27 2.29964e-27 2.29964e-27 2.29964e-27 2.29964e-27 2.29964e-27 2.29964e-27 2.29964e-27 2.29964e-27 2.29964e-27 2.29964e-27;
   (1052411482) 2.29964e-27 2.29964e-27 2.29964e-27 2.29964e-27 2.29964e-27 2.29964e-27 2.29964e-27 2.29964e-27 2.29964e-27 2.29964e-27 2.29964e-27 2.29964e-27 2.29964e-27 2.29964e-27 2.29964e-27 2.29964e-27 2.29964e-27 2.29964e-27 2.29964e-27 2.29964e-27 2.29964e-27 2.29964e-27 2.29964e-27 2.29964e-27 2.29964e-27 2.29964e-27 2.29964e-27 2.29964e-27 5.3253e-26 1.14803e-24 2.26985e-23 4.11598e-22 6.84517e-21 1.04407e-19 1.46051e-18 1.87377e-17 2.20476e-16 2.37924e-15 2.35478e-14 2.13745e-13 1.7794e-12 1.35858e-11 9.51331e-11 6.10957e-10 3.59852e-09 1.94388e-08 9.63052e-08 4.37585e-07 1.82352e-06 6.96931e-06 2.44289e-05 7.85328e-05 0.000231543 0.000626104 0.00155272 0.00353164 0.00736701 0.0140942 0.0247299 0.0397958 0.0587336 0.0795003 0.0986927 0.112366 0.117332 0.112366 0.0986927 0.0795003 0.0587336 0.0397958 0.0247299 0.0140942 0.00736701 0.00353164 0.00155272 0.000626104 0.000231543 7.85328e-05 2.44289e-05 6.96931e-06 1.82352e-06 4.37585e-07 9.63052e-08 1.94388e-08 3.59852e-09 6.10957e-10 9.51331e-11 1.35858e-11 1.7794e-12 2.13745e-13 2.35478e-14 2.37924e-15 2.20476e-16 1.87377e-17 1.46051e-18 1.04407e-19 6.84517e-21 4.11598e-22 2.26985e-23 1.14803e-24 5.3253e-26 2.29964e-27 2.29964e-27 2.29964e-27 2.29964e-27 2.29964e-27 2.29964e-27 2.29964e-27 2.29964e-27 2.29964e-27 2.29964e-27 2.29964e-27 2.29964e-27 2.29964e-27 2.29964e-27 2.29964e-27 2.29964e-27 2.29964e-27 2.29964e-27 2.29964e-27 2.29968e-27 2.29982e-27 2.30024e-27 2.30145e-27 2.30483e-27 2.31327e-27 2.33277e-27 2.37433e-27 2.45641e-27 2.60824e-27 2.87359e-27 3.31407e-27 4.00538e-27 5.00532e-27 6.26494e-27 7.50492e-27 8.23272e-27 8.07208e-27 7.12017e-27 5.84196e-27 4.6646e-27 3.77334e-27 3.17051e-27 2.7902e-27 2.5625e-27 2.43285e-27 2.36306e-27 2.32785e-27 2.31131e-27 2.3041e-27 2.30122e-27 2.30016e-27 2.2998e-27 2.29968e-27 2.29965e-27 2.29964e-27 2.29964e-27 2.29964e-27 2.29964e-27 2.29964e-27 2.29964e-27 2.29964e-27 2.29964e-27 2.29964e-27 2.29964e-27 2.29964e-27 2.29964e-27 2.29964e-27 2.29964e-27 2.29964e-27 2.29964e-27 2.29964e-27 2.29964e-27 2.29964e-27 2.29964e-27 2.29964e-27 2.29964e-27 2.29964e-27 2.29964e-27 2.29964e-27 2.29964e-27 2.29964e-27 2.29964e-27 2.29964e-27 2.29964e-27 2.29964e-27 2.29964e-27 2.29964e-27 2.29964e-27 2.29964e-27 2.29964e-27 2.29964e-27 2.29964e-27 2.29964e-27 2.29964e-27 2.29964e-27 2.29964e-27 2.29964e-27 2.29964e-27 2.29964e-27 2.29964e-27 2.29964e-27 2.29964e-27 2.29964e-27 2.29964e-27 2.29964e-27 2.29964e-27 2.29964e-27 2.29964e-27 2.29964e-27 2.29964e-27 2.29964e-27 2.29964e-27 2.29964e-27 2.29964e-27 2.29964e-27 2.29964e-27 2.29964e-27 2.29964e-27 2.29964e-27 2.29964e-27 2.29964e-27 2.29964e-27 2.29964e-27 2.29964e-27 2.29964e-27 2.29964e-27 2.29964e-27 2.29964e-27 2.29964e-27 2.29964e-27 2.29964e-27 2.29964e-27 2.29964e-27 2.29964e-27 2.29964e-27 2.29964e-27 2.29964e-27 2.29964e-27 2.29964e-27 2.29964e-27 2.29964e-27 2.29964e-27 2.29964e-27 2.29964e-27 2.29964e-27 2.29964e-27 2.29964e-27 2.29964e-27 2.29964e-27 2.29964e-27 2.29964e-27 2.29964e-27 2.29964e-27 2.29964e-27 2.29964e-27 2.29964e-27 2.29964e-27 2.29964e-27 2.29964e-27 2.29964e-27 2.29964e-27 2.29964e-27 2.29964e-27 2.29964e-27 2.29964e-27 2.29964e-27 2.29964e-27 2.29964e-27 2.29964e-27 2.29964e-27 2.29964e-27 2.29964e-27 2.29964e-27 2.29964e-27 2.29964e-27 2.29964e-27 2.29964e-27 2.29964e-27 2.29964e-27 2.29964e-27 2.29964e-27 2.29964e-27 2.29964e-27 2.29964e-27 2.29964e-27 2.29964e-27 2.29964e-27 2.29964e-27 2.29964e-27 2.29964e-27 2.29964e-27 2.29964e-27 2.29964e-27 2.29964e-27 2.29964e-27 2.29964e-27 2.29964e-27 2.29964e-27 2.29964e-27 2.29964e-27 2.29964e-27 2.29964e-27 2.29964e-27 2.29964e-27 2.29964e-27 2.29964e-27 2.29964e-27 2.29964e-27 2.29964e-27 2.29964e-27 2.29964e-27 2.29964e-27 2.29964e-27 2.29964e-27 2.29964e-27 2.29964e-27 2.29964e-27 2.29964e-27 2.29964e-27 2.29964e-27 2.29964e-27 2.29964e-27 2.29964e-27 2.29964e-27 2.29964e-27 2.29964e-27 2.29964e-27 2.29964e-27 2.29964e-27 2.29964e-27 2.29964e-27 2.29964e-27 2.29964e-27 2.29964e-27 2.29964e-27;
   (79397631) 2.29953e-27 2.29953e-27 2.29953e-27 2.29953e-27 2.29953e-27 2.29953e-27 2.29953e-27 2.29953e-27 2.29953e-27 2.29953e-27 2.29953e-27 2.29953e-27 2.29953e-27 2.29953e-27 2.29953e-27 2.29953e-27 2.29953e-27 2.29953e-27 2.29953e-27 2.29953e-27 2.29953e-27 2.29953e-27 2.29953e-27 2.29953e-27 2.29953e-27 2.29953e-27 2.29953e-27 2.29953e-27 2.29953e-27 2.29953e-27 2.29953e-27 2.29953e-27 2.29953e-27 2.29953e-27 2.29953e-27 2.29953e-27 2.29953e-27 2.29953e-27 2.29953e-27 2.29953e-27 2.29953e-27 2.29953e-27 2.29953e-27 2.29953e-27 2.29953e-27 2.29953e-27 2.29953e-27 2.29953e-27 2.29953e-27 2.29953e-27 2.29953e-27 2.29953e-27 2.29953e-27 2.29953e-27 2.29953e-27 2.29953e-27 2.29953e-27 2.29953e-27 2.29953e-27 2.29953e-27 2.29953e-27 2.29953e-27 2.29953e-27 2.29953e-27 2.29953e-27 2.29953e-27 2.29953e-27 2.29953e-27 2.29953e-27 2.29953e-27 2.29953e-27 2.29953e-27 2.29953e-27 2.29953e-27 2.29953e-27 2.29953e-27 2.29953e-27 5.32498e-26 1.14799e-24 2.26975e-23 4.11574e-22 6.84479e-21 1.04403e-19 1.46046e-18 1.87369e-17 2.20467e-16 2.37913e-15 2.35467e-14 2.13737e-13 1.77933e-12 1.35853e-11 9.51279e-11 6.10924e-10 3.59833e-09 1.9438e-08 9.62998e-08 4.37561e-07 1.82344e-06 6.96893e-06 2.44277e-05 7.85287e-05 0.000231533 0.000626071 0.00155267 0.00353145 0.0073666 0.0140937 0.0247287 0.0397936 0.0587303 0.0794962 0.0986873 0.112362 0.117329 0.112362 0.0986873 0.0794962 0.0587304 0.0397942 0.0247299 0.014096 0.00737085 0.00353749 0.00155997 0.000633551 0.000238028 8.33464e-05 2.75e-05 8.67111e-06 2.65087e-06 7.93114e-07 2.3125e-07 6.40034e-08 1.59884e-08 3.38278e-09 5.74205e-10 7.64892e-11 8.15009e-12 7.31264e-13 5.88094e-14 4.46439e-15 3.29345e-16 2.37701e-17 1.66527e-18 1.11671e-19 7.06781e-21 4.17439e-22 2.28286e-23 1.15046e-24 5.32905e-26 2.30007e-27 2.29968e-27 2.29957e-27 2.29953e-27 2.29953e-27 2.29953e-27 2.29953e-27 2.29953e-27 2.29953e-27 2.29953e-27 2.29953e-27 2.29953e-27 2.29953e-27 2.29953e-27 2.29953e-27 2.29953e-27 2.29953e-27 2.29953e-27 2.29953e-27 2.29953e-27 2.29953e-27 2.29953e-27 2.29953e-27 2.29953e-27 2.29953e-27 2.29953e-27 2.29953e-27 2.29953e-27 2.29953e-27 2.29953e-27 2.29953e-27 2.29953e-27 2.29953e-27 2.29953e-27 2.29953e-27 2.29953e-27 2.29953e-27 2.29953e-27 2.29953e-27 2.29953e-27 2.29953e-27 2.29953e-27 2.29953e-27 2.29953e-27 2.29953e-27 2.29953e-27 2.29953e-27 2.29953e-27 2.29953e-27 2.29953e-27 2.29953e-27 2.29953e-27 2.29953e-27 2.29953e-27 2.29953e-27 2.29953e-27 2.29953e-27 2.29953e-27 2.29953e-27 2.29953e-27 2.29953e-27 2.29953e-27 2.29953e-27 2.29953e-27 2.29953e-27 2.29953e-27 2.29953e-27 2.29953e-27 2.29953e-27 2.29953e-27 2.29953e-27 2.29953e-27 2.29953e-27 2.29953e-27 2.29953e-27 2.29953e-27 2.29953e-27 2.29953e-27 2.29953e-27 2.29953e-27 2.29953e-27 2.29953e-27 2.29953e-27 2.29953e-27 2.29953e-27 2.29953e-27 2.29953e-27 2.29953e-27 2.29953e-27 2.29953e-27 2.29953e-27 2.29953e-27 2.29953e-27 2.29953e-27 2.29953e-27 2.29953e-27 2.29953e-27 2.29953e-27 2.29953e-27 2.29953e-27 2.29953e-27 2.29953e-27 2.29953e-27 2.29953e-27 2.29953e-27 2.29953e-27 2.29953e-27 2.29953e-27 2.29953e-27 2.29953e-27 2.29953e-27 2.29953e-27 2.29953e-27 2.29953e-27 2.29953e-27 2.29953e-27 2.29953e-27 2.29953e-27 2.29953e-27 2.29953e-27 2.29953e-27 2.29953e-27 2.29953e-27 2.29953e-27 2.29953e-27 2.29953e-27 2.29953e-27 2.29953e-27 2.29953e-27 2.29953e-27 2.29953e-27 2.29953e-27 2.29953e-27 2.29953e-27 2.29953e-27 2.29953e-27 2.29953e-27 2.29953e-27 2.29953e-27 2.29953e-27 2.29953e-27 2.29953e-27 2.29953e-27 2.29953e-27 2.29953e-27 2.29953e-27 2.29953e-27 2.29953e-27 2.29953e-27 2.29953e-27 2.29953e-27 2.29953e-27 2.29953e-27 2.29953e-27 2.29953e-27 2.29953e-27 2.29953e-27 2.29953e-27 2.29953e-27 2.29953e-27 2.29953e-27 2.29953e-27 2.29953e-27 2.29953e-27 2.29953e-27 2.29953e-27 2.29953e-27 2.29953e-27 2.29953e-27 2.29953e-27 2.29953e-27 2.29953e-27 2.29953e-27 2.29953e-27 2.29953e-27 2.29953e-27 2.29953e-27 2.29953e-27 2.29953e-27 2.29953e-27 2.29953e-27 2.29953e-27 2.29953e-27 2.29953e-27 2.29953e-27 2.29953e-27;
   (20947316) 2.29896e-27 2.29896e-27 2.29896e-27 2.29896e-27 2.29896e-27 2.29896e-27 2.29896e-27 2.29896e-27 2.29896e-27 2.29896e-27 2.29896e-27 2.29896e-27 2.29896e-27 2.29896e-27 2.29896e-27 2.29896e-27 2.29896e-27 2.29896e-27 2.29896e-27 2.29896e-27 2.29896e-27 2.29896e-27 2.29896e-27 2.29896e-27 2.29896e-27 2.29896e-27 2.29896e-27 2.29896e-27 2.29896e-27 2.29896e-27 2.29896e-27 2.29896e-27 2.29896e-27 2.29896e-27 2.29896e-27 2.29896e-27 2.29896e-27 2.29896e-27 2.29896e-27 2.29896e-27 2.29896e-27 2.29896e-27 2.29896e-27 2.29896e-27 2.29896e-27 2.29896e-27 2.29896e-27 2.29896e-27 2.29896e-27 2.29896e-27 2.29896e-27 2.29896e-27 2.29896e-27 2.29896e-27 2.29896e-27 2.29896e-27 2.29896e-27 2.29896e-27 2.29896e-27 2.29896e-27 2.29896e-27 2.29896e-27 2.29896e-27 2.29896e-27 2.29896e-27 2.29896e-27 2.29896e-27 2.29896e-27 2.29896e-27 2.29896e-27 2.29896e-27 2.29896e-27 2.29896e-27 2.29896e-27 2.29896e-27 2.29896e-27 2.29896e-27 2.29896e-27 2.29896e-27 2.29896e-27 2.29896e-27 5.32374e-26 1.14769e-24 2.26919e-23 4.11478e-22 6.84317e-21 1.04376e-19 1.46009e-18 1.87322e-17 2.20411e-16 2.37855e-15 2.3541e-14 2.13683e-13 1.77889e-12 1.35818e-11 9.51053e-11 6.10779e-10 3.59746e-09 1.94331e-08 9.6277e-08 4.37457e-07 1.82298e-06 6.96728e-06 2.44217e-05 7.85099e-05 0.000231476 0.000625922 0.00155227 0.0035306 0.00736486 0.0140901 0.0247226 0.0397842 0.0587164 0.0794771 0.098664 0.112333 0.117299 0.112333 0.0986651 0.0794803 0.058724 0.0397995 0.0247484 0.014127 0.00740963 0.00357668 0.00159273 0.00065639 0.000251244 8.95975e-05 2.98048e-05 9.22852e-06 2.64374e-06 6.94537e-07 1.65598e-07 3.54316e-08 6.72421e-09 1.12198e-09 1.6449e-10 2.14094e-11 2.51938e-12 2.73095e-13 2.76186e-14 2.61882e-15 2.32555e-16 1.92568e-17 1.47936e-18 1.04976e-19 6.85895e-21 4.11828e-22 2.26984e-23 1.14779e-24 5.32388e-26 2.29899e-27 2.29897e-27 2.29897e-27 2.29896e-27 2.29896e-27 2.29896e-27 2.29896e-27 2.29896e-27 2.29896e-27 2.29896e-27 2.29896e-27 2.29896e-27 2.29896e-27 2.29896e-27 2.29896e-27 2.29896e-27 2.29896e-27 2.29896e-27 2.29896e-27 2.29896e-27 2.29896e-27 2.29896e-27 2.29896e-27 2.29896e-27 2.29896e-27 2.29896e-27 2.29896e-27 2.29896e-27 2.29896e-27 2.29896e-27 2.29896e-27 2.29896e-27 2.29896e-27 2.29896e-27 2.29896e-27 2.29896e-27 2.29896e-27 2.29896e-27 2.29896e-27 2.29896e-27 2.29896e-27 2.29896e-27 2.29896e-27 2.29896e-27 2.29896e-27 2.29896e-27 2.29896e-27 2.29896e-27 2.29896e-27 2.29896e-27 2.29896e-27 2.29896e-27 2.29896e-27 2.29896e-27 2.29896e-27 2.29896e-27 2.29896e-27 2.29896e-27 2.29896e-27 2.29896e-27 2.29896e-27 2.29896e-27 2.29896e-27 2.29896e-27 2.29896e-27 2.29896e-27 2.29896e-27 2.29896e-27 2.29896e-27 2.29896e-27 2.29896e-27 2.29896e-27 2.29896e-27 2.29896e-27 2.29896e-27 2.29896e-27 2.29896e-27 2.29896e-27 2.29896e-27 2.29896e-27 2.29896e-27 2.29896e-27 2.29896e-27 2.29896e-27 2.29896e-27 2.29896e-27 2.29896e-27 2.29896e-27 2.29896e-27 2.29896e-27 2.29896e-27 2.29896e-27 2.29896e-27 2.29896e-27 2.29896e-27 2.29896e-27 2.29896e-27 2.29896e-27 2.29896e-27 2.29896e-27 2.29896e-27 2.29896e-27 2.29896e-27 2.29896e-27 2.29896e-27 2.29896e-27 2.29896e-27 2.29896e-27 2.29896e-27 2.29896e-27 2.29896e-27 2.29896e-27 2.29896e-27 2.29896e-27 2.29896e-27 2.29896e-27 2.29896e-27 2.29896e-27 2.29896e-27 2.29896e-27 2.29896e-27 2.29896e-27 2.29896e-27 2.29896e-27 2.29896e-27 2.29896e-27 2.29896e-27 2.29896e-27 2.29896e-27 2.29896e-27 2.29896e-27 2.29896e-27 2.29896e-27 2.29896e-27 2.29896e-27 2.29896e-27 2.29896e-27 2.29896e-27 2.29896e-27 2.29896e-27 2.29896e-27 2.29896e-27 2.29896e-27 2.29896e-27 2.29896e-27 2.29896e-27 2.29896e-27 2.29896e-27 2.29896e-27 2.29896e-27 2.29896e-27 2.29896e-27 2.29896e-27 2.29896e-27 2.29896e-27 2.29896e-27 2.29896e-27 2.29896e-27 2.29896e-27 2.29896e-27 2.29896e-27 2.29896e-27 2.29896e-27 2.29896e-27 2.29896e-27 2.29896e-27 2.29896e-27 2.29896e-27 2.29896e-27 2.29896e-27 2.29896e-27 2.29896e-27 2.29896e-27 2.29896e-27 2.29896e-27 2.29896e-27 2.29896e-27 2.29896e-27 2.29896e-27 2.29896e-27 2.29896e-27 2.29896e-27;
   (80431643) 2.2996e-27 2.2996e-27 2.2996e-27 2.2996e-27 2.2996e-27 2.2996e-27 2.2996e-27 2.2996e-27 2.2996e-27 2.2996e-27 2.2996e-27 2.2996e-27 2.2996e-27 2.2996e-27 2.2996e-27 2.2996e-27 2.2996e-27 2.2996e-27 2.2996e-27 2.2996e-27 2.2996e-27 2.2996e-27 2.2996e-27 2.2996e-27 2.2996e-27 2.2996e-27 2.2996e-27 2.2996e-27 2.2996e-27 2.2996e-27 2.2996e-27 2.2996e-27 2.2996e-27 2.2996e-27 2.2996e-27 2.2996e-27 2.2996e-27 2.2996e-27 2.2996e-27 2.2996e-27 2.2996e-27 2.2996e-27 2.2996e-27 2.2996e-27 2.2996e-27 2.2996e-27 2.2996e-27 2.2996e-27 2.2996e-27 2.2996e-27 2.2996e-27 2.2996e-27 2.2996e-27 2.2996e-27 2.2996e-27 2.2996e-27 2.2996e-27 2.2996e-27 2.2996e-27 2.2996e-27 2.2996e-27 2.2996e-27 2.2996e-27 2.2996e-27 2.2996e-27 2.2996e-27 2.2996e-27 2.2996e-27 2.2996e-27 2.2996e-27 2.2996e-27 2.2996e-27 2.2996e-27 2.2996e-27 2.2996e-27 2.2996e-27 2.2996e-27 2.2996e-27 2.2996e-27 2.2996e-27 2.2996e-27 2.2996e-27 2.2996e-27 5.32522e-26 1.14801e-24 2.26982e-23 4.11592e-22 6.84507e-21 1.04405e-19 1.46049e-18 1.87374e-17 2.20472e-16 2.37921e-15 2.35475e-14 2.13742e-13 1.77938e-12 1.35856e-11 9.51317e-11 6.10948e-10 3.59846e-09 1.94385e-08 9.63037e-08 4.37579e-07 1.82349e-06 6.96921e-06 2.44285e-05 7.85317e-05 0.00023154 0.000626095 0.0015527 0.00353158 0.0073669 0.014094 0.0247295 0.0397952 0.0587327 0.0794992 0.0986913 0.112364 0.117331 0.112364 0.0986913 0.0794992 0.0587328 0.0397954 0.0247299 0.0140948 0.00736831 0.00353358 0.00155508 0.000628475 0.000233552 7.99687e-05 2.5298e-05 7.41607e-06 2.01887e-06 5.10183e-07 1.19121e-07 2.54503e-08 4.91227e-09 8.46971e-10 1.29865e-10 1.77873e-11 2.20096e-12 2.49206e-13 2.60705e-14 2.53176e-15 2.2832e-16 1.90803e-17 1.47318e-18 1.04802e-19 6.85554e-21 4.11825e-22 2.27025e-23 1.14808e-24 5.32531e-26 2.29962e-27 2.29961e-27 2.29961e-27 2.2996e-27 2.2996e-27 2.2996e-27 2.2996e-27 2.2996e-27 2.2996e-27 2.2996e-27 2.2996e-27 2.2996e-27 2.2996e-27 2.2996e-27 2.2996e-27 2.2996e-27 2.2996e-27 2.2996e-27 2.2996e-27 2.2996e-27 2.2996e-27 2.2996e-27 2.2996e-27 2.2996e-27 2.2996e-27 2.2996e-27 2.2996e-27 2.2996e-27 2.2996e-27 2.2996e-27 2.2996e-27 2.2996e-27 2.2996e-27 2.2996e-27 2.2996e-27 2.2996e-27 2.2996e-27 2.2996e-27 2.2996e-27 2.2996e-27 2.2996e-27 2.2996e-27 2.2996e-27 2.2996e-27 2.2996e-27 2.2996e-27 2.2996e-27 2.2996e-27 2.2996e-27 2.2996e-27 2.2996e-27 2.2996e-27 2.2996e-27 2.2996e-27 2.2996e-27 2.2996e-27 2.2996e-27 2.2996e-27 2.2996e-27 2.2996e-27 2.2996e-27 2.2996e-27 2.2996e-27 2.2996e-27 2.2996e-27 2.2996e-27 2.2996e-27 2.2996e-27 2.2996e-27 2.2996e-27 2.2996e-27 2.2996e-27 2.2996e-27 2.2996e-27 2.2996e-27 2.2996e-27 2.2996e-27 2.2996e-27 2.2996e-27 2.2996e-27 2.2996e-27 2.2996e-27 2.2996e-27 2.2996e-27 2.2996e-27 2.2996e-27 2.2996e-27 2.2996e-27 2.2996e-27 2.2996e-27 2.2996e-27 2.2996e-27 2.2996e-27 2.2996e-27 2.2996e-27 2.2996e-27 2.2996e-27 2.2996e-27 2.2996e-27 2.2996e-27 2.2996e-27 2.2996e-27 2.2996e-27 2.2996e-27 2.2996e-27 2.2996e-27 2.2996e-27 2.2996e-27 2.2996e-27 2.2996e-27 2.2996e-27 2.2996e-27 2.2996e-27 2.2996e-27 2.2996e-27 2.2996e-27 2.2996e-27 2.2996e-27 2.2996e-27 2.2996e-27 2.2996e-27 2.2996e-27 2.2996e-27 2.2996e-27 2.2996e-27 2.2996e-27 2.2996e-27 2.2996e-27 2.2996e-27 2.2996e-27 2.2996e-27 2.2996e-27 2.2996e-27 2.2996e-27 2.2996e-27 2.2996e-27 2.2996e-27 2.2996e-27 2.2996e-27 2.2996e-27 2.2996e-27 2.2996e-27 2.2996e-27 2.2996e-27 2.2996e-27 2.2996e-27 2.2996e-27 2.2996e-27 2.2996e-27 2.2996e-27 2.2996e-27 2.2996e-27 2.2996e-27 2.2996e-27 2.2996e-27 2.2996e-27 2.2996e-27 2.2996e-27 2.2996e-27 2.2996e-27 2.2996e-27 2.2996e-27 2.2996e-27 2.2996e-27 2.2996e-27 2.2996e-27 2.2996e-27 2.2996e-27 2.2996e-27 2.2996e-27 2.2996e-27 2.2996e-27 2.2996e-27 2.2996e-27 2.2996e-27 2.2996e-27 2.2996e-27 2.2996e-27 2.2996e-27 2.2996e-27;
